tree
version=v4
num_class=1
num_tree_per_iteration=1
label_index=0
max_feature_idx=205
objective=lambdarank
feature_names=colex0 colex1 colex2 colex3 colex4 colex5 colex6 colex7 colex8 colex9 colex10 colex11 colex12 colex13 colex14 colex15 colex16 colex17 colex18 colex19 colex20 colex21 colex22 colex23 colex24 colex25 colex26 colex27 colex28 colex29 colex30 colex31 colex32 colex33 colex34 colex35 colex36 colex37 colex38 colex39 colex40 colex41 colex42 colex43 colex44 colex45 colex46 colex47 colex48 colex49 colex50 colex51 colex52 colex53 colex54 colex55 colex56 colex57 colex58 colex59 colex60 colex61 colex62 colex63 colex64 colex65 colex66 colex67 colex68 colex69 colex70 colex71 colex72 colex73 colex74 colex75 colex76 colex77 colex78 colex79 colex80 colex81 colex82 colex83 colex84 colex85 colex86 colex87 colex88 colex89 colex90 colex91 colex92 colex93 colex94 colex95 colex96 colex97 colex98 colex99 colex100 colex101 colex102 colex103 colex104 colex105 colex106 colex107 colex108 colex109 colex110 colex111 colex112 colex113 colex114 colex115 colex116 colex117 colex118 colex119 colex120 colex121 colex122 colex123 colex124 colex125 colex126 colex127 colex128 colex129 colex130 colex131 colex132 colex133 colex134 colex135 colex136 colex137 colex138 colex139 colex140 colex141 colex142 colex143 colex144 colex145 colex146 colex147 colex148 colex149 colex150 colex151 colex152 colex153 colex154 colex155 colex156 colex157 colex158 colex159 colex160 colex161 colex162 colex163 colex164 colex165 colex166 colex167 colex168 colex169 colex170 colex171 colex172 colex173 colex174 colex175 colex176 colex177 colex178 colex179 colex180 colex181 colex182 colex183 colex184 colex185 colex186 colex187 colex188 colex189 colex190 colex191 colex192 colex193 colex194 colex195 colex196 colex197 colex198 colex199 pdi idv mas uai lto off_dist
feature_infos=[-1164.879425049:1164.879425049] [-511.371495724:511.371495724] [-1395.947784424:1395.947784424] [-1042.953536987:1042.953536987] [-683.01919555699999:683.01919555699999] [-1385.744964599:1385.744964599] [-677.23071288999995:677.23071288999995] [-1008.3467712409999:1008.3467712409999] [-700.64064788799999:700.64064788799999] [-763.85877227800006:763.85877227800006] [-1780.5108451840001:1780.5108451840001] [-1401.116989136:1401.116989136] [-1636.2387390140002:1636.2387390140002] [-400.34300231899999:400.34300231899999] [-1339.821289062:1339.821289062] [-1213.043640136:1213.043640136] [-674.23696899400011:674.23696899400011] [-756.42620849600007:756.42620849600007] [-1098.1876220700001:1098.1876220700001] [-860.77830314599998:860.77830314599998] [-809.52716064399999:809.52716064399999] [-1314.6163024909999:1314.6163024909999] [-1504.512634278:1504.512634278] [-1242.098632813:1242.098632813] [-299.57310485799997:299.57310485799997] [-1428.4898071290002:1428.4898071290002] [-1210.1719274519999:1210.1719274519999] [-525.41674804700006:525.41674804700006] [-1826.324523925:1826.324523925] [-880.35256957999991:880.35256957999991] [-1359.867248535:1359.867248535] [-469.12641143799999:469.12641143799999] [-1056.142105102:1056.142105102] [-1322.969116211:1322.969116211] [-403.29670715399999:403.29670715399999] [-330.64630699200001:330.64630699200001] [-852.049446106:852.049446106] [-1149.435752869:1149.435752869] [-1068.8461914059999:1068.8461914059999] [-1530.772827149:1530.772827149] [-496.21598815900001:496.21598815900001] [-337.79510116599999:337.79510116599999] [-1153.625061035:1153.625061035] [-1099.9351196289999:1099.9351196289999] [-913.38249969499998:913.38249969499998] [-1281.1870975499999:1281.1870975499999] [-1144.03427124:1144.03427124] [-523.44184303299994:523.44184303299994] [-1243.5375366210001:1243.5375366210001] [-903.67535400300005:903.67535400300005] [-698.55191803000002:698.55191803000002] [-425.84864425699999:425.84864425699999] [-908.83493042000009:908.83493042000009] [-250.60260772700002:250.60260772700002] [-576.32862853999995:576.32862853999995] [-752.00714111399998:752.00714111399998] [-576.73191261299996:576.73191261299996] [-1147.423309326:1147.423309326] [-680.74790954599996:680.74790954599996] [-312.35007476800001:312.35007476800001] [-1192.015518188:1192.015518188] [-657.31033325199996:657.31033325199996] [-1033.9494476320001:1033.9494476320001] [-1181.2061691280001:1181.2061691280001] [-637.43270873999995:637.43270873999995] [-1081.4330139159999:1081.4330139159999] [-640.62350463799999:640.62350463799999] [-1481.5349121100001:1481.5349121100001] [-1221.6890258789999:1221.6890258789999] [-1125.2238769529999:1125.2238769529999] [-1620.633987427:1620.633987427] [-1344.949157714:1344.949157714] [-627.91389846800007:627.91389846800007] [-1170.5712184910001:1170.5712184910001] [-478.53557395900003:478.53557395900003] [-1169.9834289549999:1169.9834289549999] [-486.70542144800004:486.70542144800004] [-1496.2484130859998:1496.2484130859998] [-570.94385337799997:570.94385337799997] [-912.30564880400004:912.30564880400004] [-1275.7713928220001:1275.7713928220001] [-490.96742248600003:490.96742248600003] [-1719.8020019529999:1719.8020019529999] [-905.95669555599989:905.95669555599989] [-714.55910491999998:714.55910491999998] [-913.82574462899993:913.82574462899993] [-504.45074462900004:504.45074462900004] [-794.94528198199998:794.94528198199998] [-1052.1887207029999:1052.1887207029999] [-223.21212768599997:223.21212768599997] [-958.68199157699996:958.68199157699996] [-1048.9388275150002:1048.9388275150002] [-1174.363952636:1174.363952636] [-715.32538604799993:715.32538604799993] [-949.70492553700001:949.70492553700001] [-345.15136718799999:345.15136718799999] [-1403.892791748:1403.892791748] [-775.73045349100005:775.73045349100005] [-614.64491271899999:614.64491271899999] [-734.79975891100003:734.79975891100003] [-1164.879425049:1164.879425049] [-511.371495724:511.371495724] [-1395.947784424:1395.947784424] [-1042.953536987:1042.953536987] [-683.01919555699999:683.01919555699999] [-1385.744964599:1385.744964599] [-677.23071288999995:677.23071288999995] [-1008.3467712409999:1008.3467712409999] [-700.64064788799999:700.64064788799999] [-763.85877227800006:763.85877227800006] [-1780.5108451840001:1780.5108451840001] [-1401.116989136:1401.116989136] [-1636.2387390140002:1636.2387390140002] [-400.34300231899999:400.34300231899999] [-1339.821289062:1339.821289062] [-1213.043640136:1213.043640136] [-674.23696899400011:674.23696899400011] [-756.42620849600007:756.42620849600007] [-1098.1876220700001:1098.1876220700001] [-860.77830314599998:860.77830314599998] [-809.52716064399999:809.52716064399999] [-1314.6163024909999:1314.6163024909999] [-1504.512634278:1504.512634278] [-1242.098632813:1242.098632813] [-299.57310485799997:299.57310485799997] [-1428.4898071290002:1428.4898071290002] [-1210.1719274519999:1210.1719274519999] [-525.41674804700006:525.41674804700006] [-1826.324523925:1826.324523925] [-880.35256957999991:880.35256957999991] [-1359.867248535:1359.867248535] [-469.12641143799999:469.12641143799999] [-1056.142105102:1056.142105102] [-1322.969116211:1322.969116211] [-403.29670715399999:403.29670715399999] [-330.64630699200001:330.64630699200001] [-852.049446106:852.049446106] [-1149.435752869:1149.435752869] [-1068.8461914059999:1068.8461914059999] [-1530.772827149:1530.772827149] [-496.21598815900001:496.21598815900001] [-337.79510116599999:337.79510116599999] [-1153.625061035:1153.625061035] [-1099.9351196289999:1099.9351196289999] [-913.38249969499998:913.38249969499998] [-1281.1870975499999:1281.1870975499999] [-1144.03427124:1144.03427124] [-523.44184303299994:523.44184303299994] [-1243.5375366210001:1243.5375366210001] [-903.67535400300005:903.67535400300005] [-698.55191803000002:698.55191803000002] [-425.84864425699999:425.84864425699999] [-908.83493042000009:908.83493042000009] [-250.60260772700002:250.60260772700002] [-576.32862853999995:576.32862853999995] [-752.00714111399998:752.00714111399998] [-576.73191261299996:576.73191261299996] [-1147.423309326:1147.423309326] [-680.74790954599996:680.74790954599996] [-312.35007476800001:312.35007476800001] [-1192.015518188:1192.015518188] [-657.31033325199996:657.31033325199996] [-1033.9494476320001:1033.9494476320001] [-1181.2061691280001:1181.2061691280001] [-637.43270873999995:637.43270873999995] [-1081.4330139159999:1081.4330139159999] [-640.62350463799999:640.62350463799999] [-1481.5349121100001:1481.5349121100001] [-1221.6890258789999:1221.6890258789999] [-1125.2238769529999:1125.2238769529999] [-1620.633987427:1620.633987427] [-1344.949157714:1344.949157714] [-627.91389846800007:627.91389846800007] [-1170.5712184910001:1170.5712184910001] [-478.53557395900003:478.53557395900003] [-1169.9834289549999:1169.9834289549999] [-486.70542144800004:486.70542144800004] [-1496.2484130859998:1496.2484130859998] [-570.94385337799997:570.94385337799997] [-912.30564880400004:912.30564880400004] [-1275.7713928220001:1275.7713928220001] [-490.96742248600003:490.96742248600003] [-1719.8020019529999:1719.8020019529999] [-905.95669555599989:905.95669555599989] [-714.55910491999998:714.55910491999998] [-913.82574462899993:913.82574462899993] [-504.45074462900004:504.45074462900004] [-794.94528198199998:794.94528198199998] [-1052.1887207029999:1052.1887207029999] [-223.21212768599997:223.21212768599997] [-958.68199157699996:958.68199157699996] [-1048.9388275150002:1048.9388275150002] [-1174.363952636:1174.363952636] [-715.32538604799993:715.32538604799993] [-949.70492553700001:949.70492553700001] [-345.15136718799999:345.15136718799999] [-1403.892791748:1403.892791748] [-775.73045349100005:775.73045349100005] [-614.64491271899999:614.64491271899999] [-734.79975891100003:734.79975891100003] [0.45454545454545453:2.2000000000000002] [0.19780219780219779:5.0555555555555554] [0.42424242424242425:2.3571428571428572] [0.37634408602150538:2.657142857142857] [0.26000000000000001:3.8461538461538463] [0:0.87947164010000001]
tree_sizes=1062 1048 1058 1158 1160 1262 1175 1173 1072 1181 1175 1069 1180 1181 1072 1082 1072 1282 1182 1293 1307 1193 991 984 1319 1096 1200 1202 1096 1308 1310 994 1099 1101 1102 1329 1209 1203 1216 1318 1217 1217 1100 1323 1323 1330 1444 1327 1213 1225 1230 1233 988 1224 1219 1329 1222 1235 1336 1111 1231 1116 1123 1230 1335 1233 1340 1106 1238 1459 1346 1115 1118 1239 1467 1234 1122 1233 1343 1231 1238 1233 1239 1354 1133 1352 1130 915 1135 1250 1350 1134 1247 1244 1244 1028 1018 1243 1235 1128

Tree=0
num_leaves=9
num_cat=0
split_feature=98 22 15 84 3 7 71 54
split_gain=3.6138 2.39579 2.04108 1.82332 1.13954 0.353826 0.0632156 0.00165101
threshold=1.0000000180025095e-35 706.81435394250013 -1.0000000180025095e-35 -663.58471298249981 1.0000000180025095e-35 -504.17338562049991 233.71343994150001 -146.12396240199996
decision_type=2 2 2 2 2 2 2 2
left_child=1 2 -1 -2 -3 -5 7 -7
right_child=3 4 -4 5 -6 6 -8 -9
leaf_value=-0.033117404818870974 0.14346526683922237 -0.16171417324115389 0.1779948028044302 -0.065086241636874209 0.06326393152123054 -0.1976764047521653 -0.14512878715893945 -0.18861683480323418
leaf_weight=0.63508645817637477 0.24115321785211552 0.55813684687018383 1.6421009339392187 0.36264909058809269 0.37735279463231564 0.45169028826057889 0.4007963053882122 0.36266783252358437
leaf_count=8 3 6 9 3 6 8 8 5
internal_value=0 0.0637684 0.119118 -0.112629 -0.0709637 -0.151771 -0.177641 -0.193642
internal_weight=0 3.21268 2.27719 1.81896 0.93549 1.5778 1.21515 0.814358
internal_count=56 29 17 27 12 24 21 13
is_linear=0
shrinkage=0.1


Tree=1
num_leaves=9
num_cat=0
split_feature=19 200 65 65 91 65 98 49
split_gain=14.132 11.3381 3.25044 5.19958 0.905955 0.697079 0.281395 0.255738
threshold=1.0000000180025095e-35 0.58578431372549034 112.68061447150002 247.49035263100004 -166.56498718249998 -112.68061447149999 338.64895248350007 65.206781387000021
decision_type=2 2 2 2 2 2 2 2
left_child=1 -1 7 -4 5 6 -2 -3
right_child=4 2 3 -5 -6 -7 -8 -9
leaf_value=-0.11059558708630313 -0.094301183225677113 0.18521537543794417 -0.13500450655635768 0.14665173346739002 -0.18531417851134599 -0.0098036511634594474 -0.16343414975294746 0.14219296394384137
leaf_weight=2.7923211753368404 1.2845959141850478 3.0874264538288099 1.1009080931544306 1.6197890564799307 2.1708116903901091 0.66016045212745655 1.0869567692279813 2.5008351877331734
leaf_count=7 6 4 7 5 9 4 8 6
internal_value=0 0.0637349 0.122321 0.0326818 -0.135999 -0.100688 -0.125987 0.165962
internal_weight=0 11.1013 8.30896 2.7207 5.20252 3.03171 2.37155 5.58826
internal_count=56 29 22 12 27 18 14 10
is_linear=0
shrinkage=0.1


Tree=2
num_leaves=9
num_cat=0
split_feature=98 31 48 86 50 54 202 40
split_gain=6.9978 4.89481 2.61245 2.44348 1.81932 0.188069 0.112585 0.00795706
threshold=1.0000000180025095e-35 111.178508759 -205.46359634349997 -57.563541888999985 617.03074169150011 1.0000000180025095e-35 0.96922348484848497 -1.0000000180025095e-35
decision_type=2 2 2 2 2 2 2 2
left_child=1 2 -1 -3 5 6 -2 -8
right_child=4 3 -4 -5 -6 -7 7 -9
leaf_value=0.0025992979349100456 -0.098620845930081191 0.061222546464713049 0.14578630642301868 -0.13088127279391046 0.0053605351741073436 -0.18947514393423434 -0.14143023277235087 -0.15633528057800286
leaf_weight=1.8497163802385319 0.62587231397628995 1.0607758462429049 4.0953754037618628 1.7618159875273702 1.0063336789607999 0.86920192837715138 0.66812631487846441 0.77204130589961917
leaf_count=8 5 4 8 9 6 3 6 7
internal_value=0 0.0497523 0.101236 -0.0586855 -0.11067 -0.15045 -0.134032 -0.14942
internal_weight=0 8.76768 5.94509 2.82259 3.94158 2.93524 2.06604 1.44017
internal_count=56 29 16 13 27 21 18 13
is_linear=0
shrinkage=0.1


Tree=3
num_leaves=10
num_cat=0
split_feature=19 64 201 9 20 68 5 72 72
split_gain=4.36881 2.47205 2.1949 3.73001 1.25931 0.529792 0.188728 0.043005 0.00582777
threshold=1.0000000180025095e-35 -16.035346984500006 1.8750000000000002 566.58499527000015 109.43036651600002 -417.60137939399993 290.99067687950009 84.51683425950003 -495.02677345199999
decision_type=2 2 2 2 2 2 2 2 2
left_child=1 2 3 5 6 -1 7 8 -2
right_child=4 -3 -4 -5 -6 -7 -8 -9 -10
leaf_value=-0.057011455965053984 -0.13568459962113977 0.13626052437383426 0.080679687514257303 0.1146201924111955 -0.010448830582646071 -0.16329040060882533 -0.088334202769820014 -0.17658644109508659 -0.15037293342826408
leaf_weight=0.72981703281402643 0.56122628599405311 2.0662016645073891 2.3026143610477448 0.94894273579120625 1.2029807716608045 1.3126767128705978 0.5825645625591277 0.57557789981365193 0.52076768130064055
leaf_count=4 5 6 7 3 9 9 5 3 5
internal_value=0 0.0434942 0.0072887 -0.0492029 -0.0929764 -0.125315 -0.137295 -0.154502 -0.142754
internal_weight=0 7.36025 5.29405 2.99144 3.44312 2.04249 2.24014 1.65757 1.08199
internal_count=56 29 23 16 27 13 18 13 10
is_linear=0
shrinkage=0.1


Tree=4
num_leaves=10
num_cat=0
split_feature=98 44 33 22 15 201 89 2 49
split_gain=2.77084 2.04435 1.73247 1.49941 0.847348 0.495121 0.163466 0.0699784 0.00219406
threshold=1.0000000180025095e-35 1.0000000180025095e-35 558.13435363750011 594.69357299800015 -1162.0029964445 1.8750000000000002 96.410709858000004 1169.5605888370003 196.50728416400003
decision_type=2 2 2 2 2 2 2 2 2
left_child=1 -1 -3 -4 -2 -5 7 8 -6
right_child=4 2 3 5 6 -7 -8 -9 -10
leaf_value=0.13360705833226086 0.027885869658025975 -0.11279810119284212 0.11777264292874001 -0.070057175556186832 -0.14164113554964439 0.026488689671831635 -0.060270331805937584 -0.092750252884308812 -0.13281994967685612
leaf_weight=1.619800731539726 0.54231917113065753 1.0092037841677663 1.3661750108003619 0.9513846039772037 0.81511417776346229 1.2026587724685667 0.48021927475929249 0.45448710024356831 0.43108510226011276
leaf_count=5 4 9 4 6 9 5 5 4 5
internal_value=0 0.0371891 0.00270836 0.0358227 -0.0839755 -0.0161531 -0.111792 -0.12634 -0.13859
internal_weight=0 6.14922 4.52942 3.52022 2.72322 2.15404 2.18091 1.70069 1.2462
internal_count=56 29 24 15 27 11 23 18 14
is_linear=0
shrinkage=0.1


Tree=5
num_leaves=11
num_cat=0
split_feature=98 56 9 46 200 5 203 76 89 3
split_gain=2.05942 1.41188 1.6071 0.725861 0.618284 0.550626 0.36292 0.161533 0.0263795 0.00290704
threshold=1.0000000180025095e-35 20.656845092500024 566.58499527000015 572.01713562000009 0.58578431372549034 -117.344543457 0.65715467328370569 -77.600813388999981 70.17295646700002 34.526167393000001
decision_type=2 2 2 2 2 2 2 2 2 2
left_child=1 5 4 7 -3 -1 -6 -2 9 -9
right_child=3 2 -4 -5 6 -7 -8 8 -10 -11
leaf_value=0.044316684317979263 -0.057332063139417272 0.0095204974238722977 0.10811528497235086 0.030602201736749324 -0.15617635370718733 0.13743394328774347 -0.049517670591238433 -0.12902140845931884 -0.10435558383300647 -0.14038633217017266
leaf_weight=1.3507270961999895 0.49130152910947811 0.77615237236023027 0.77549663186073292 0.48689985275268544 0.6479302719235418 1.1984938830137251 0.6284470409154892 0.52695143595337868 0.45120885968208313 0.39287267625331879
leaf_count=6 5 6 3 4 5 4 5 7 6 5
internal_value=0 0.0341244 -0.0145254 -0.0781085 -0.0608621 0.0880949 -0.103661 -0.106531 -0.12416 -0.133876
internal_weight=0 5.37725 2.82803 2.34923 2.05253 2.54922 1.27638 1.86233 1.37103 0.919824
internal_count=56 29 19 27 16 10 10 23 18 12
is_linear=0
shrinkage=0.1


Tree=6
num_leaves=10
num_cat=0
split_feature=19 200 78 9 84 87 94 49 203
split_gain=1.84786 0.872527 1.17713 1.18089 0.767334 0.374962 0.229447 0.0363158 0.0100019
threshold=1.0000000180025095e-35 0.58578431372549034 -67.938387870499994 566.58499527000015 -663.58471298249981 -45.226222038499991 -362.30675506549989 238.35536193800002 0.91935483870967749
decision_type=2 2 2 2 2 2 2 2 2
left_child=1 -1 3 -3 -2 -4 -6 8 -8
right_child=4 2 5 -5 6 -7 7 -9 -10
leaf_value=-0.051144375747463104 0.059511756180308045 -0.078434830312063719 0.14698626310118609 0.095063349433118241 -0.039209438139665501 0.060414096521489526 -0.14414171486868646 -0.097098981191111877 -0.12398380490468675
leaf_weight=0.92213580012321461 0.34173975884914432 0.93944977223873161 1.1254760622978213 0.67357850074768066 0.41461516171693813 0.90066850930452336 0.50069693475961641 0.35952028632164001 0.48415929451584816
leaf_count=7 3 9 3 3 5 7 6 5 8
internal_value=0 0.0357414 0.0577575 -0.00598437 -0.0776051 0.108503 -0.104244 -0.124302 -0.134232
internal_weight=0 4.56131 3.63917 1.61303 2.10073 2.02614 1.75899 1.34438 0.984856
internal_count=56 29 22 12 27 10 24 19 14
is_linear=0
shrinkage=0.1


Tree=7
num_leaves=10
num_cat=0
split_feature=98 44 33 50 43 202 74 44 31
split_gain=1.43687 1.00117 1.42958 0.536056 0.313153 0.568884 0.0602884 0.0241471 0.00578032
threshold=1.0000000180025095e-35 1.0000000180025095e-35 558.13435363750011 672.33297538750014 -314.83872127549995 1.4075396825396826 1.0000000180025095e-35 -849.1031527519998 111.178508759
decision_type=2 2 2 2 2 2 2 2 2
left_child=1 -1 -3 6 5 -4 7 -2 -9
right_child=3 2 4 -5 -6 -7 -8 8 -10
leaf_value=0.11830098173874214 -0.086465133641426759 -0.10788182939868796 -0.042628932799121728 0.044575247014556417 0.095147450291677857 0.083537768848414518 -0.068022342292034785 -0.12786839233619615 -0.10979437403059866
leaf_weight=1.0211263969540594 0.25406492874026276 0.83262427896261249 0.75088941305875778 0.30772628635168064 0.81210435181856166 0.68196077644824982 0.40788498520851124 0.53272296860814095 0.26495208591222763
leaf_count=5 4 9 8 3 4 3 6 9 5
internal_value=0 0.0324992 0.0040306 -0.0753697 0.0455375 0.0174197 -0.100657 -0.113314 -0.121865
internal_weight=0 4.09871 3.07758 1.76735 2.24495 1.43285 1.45962 1.05174 0.797675
internal_count=56 29 24 27 15 11 24 18 14
is_linear=0
shrinkage=0.1


Tree=8
num_leaves=9
num_cat=0
split_feature=98 44 33 50 200 34 41 51
split_gain=1.14499 0.727227 0.771159 0.376596 0.364857 0.063279 0.0763041 0.00383832
threshold=1.0000000180025095e-35 1.0000000180025095e-35 558.13435363750011 672.33297538750014 0.65079365079365081 -322.13487625149997 135.4235734945 -37.500507355500005
decision_type=2 2 2 2 2 2 2 2
left_child=1 -1 -3 5 -4 -2 7 -7
right_child=3 2 4 -5 -6 6 -8 -9
leaf_value=0.11157888182103906 -0.049535701757660096 -0.091644204410739005 -0.0039557094715090011 0.03534728029721354 0.081947475616601359 -0.11501608288823587 -0.059990566931286821 -0.12932726555826021
leaf_weight=0.86057957261800799 0.25100020691752423 0.62158087268471751 1.0637031160295007 0.27090189605951298 0.92385475337505329 0.38452429696917512 0.26992854848504066 0.36558886989951134
leaf_count=5 4 9 9 3 6 8 5 7
internal_value=0 0.0318637 0.00557103 -0.0717005 0.0359737 -0.0945159 -0.105584 -0.121991
internal_weight=0 3.46972 2.60914 1.54194 1.98756 1.27104 1.02004 0.750113
internal_count=56 29 24 27 15 24 20 15
is_linear=0
shrinkage=0.1


Tree=9
num_leaves=10
num_cat=0
split_feature=98 44 33 43 50 201 59 81 47
split_gain=0.890328 0.618127 0.457533 0.331912 0.282824 0.173526 0.0625838 0.0263022 0.0116761
threshold=1.0000000180025095e-35 1.0000000180025095e-35 558.13435363750011 -314.83872127549995 672.33297538750014 1.8750000000000002 49.374290466500014 115.61329650900002 17.170680999500011
decision_type=2 2 2 2 2 2 2 2 2
left_child=1 -1 -3 5 6 -4 7 8 -2
right_child=4 2 3 -5 -6 -7 -8 -9 -10
leaf_value=0.10770042053444673 -0.12531260417901896 -0.076568167330888351 -0.053070586868438345 0.083035376103586203 0.027854287701827615 0.026806026875065454 -0.042217682651736532 -0.077683422115354075 -0.095948085405051453
leaf_weight=0.76051174849271808 0.36353032290935494 0.54240579903125796 0.45319346338510536 0.68501502275466863 0.25010930001735676 0.6801488846540451 0.21897502988576889 0.29479111731052399 0.21578780561685562
leaf_count=5 9 9 6 4 3 5 4 6 5
internal_value=0 0.029295 0.00403696 0.028081 -0.0680749 -0.00513451 -0.0900245 -0.102001 -0.114375
internal_weight=0 3.12127 2.36076 1.81836 1.34319 1.13334 1.09308 0.874109 0.579318
internal_count=56 29 24 15 27 11 24 20 14
is_linear=0
shrinkage=0.1


Tree=10
num_leaves=10
num_cat=0
split_feature=98 200 56 1 50 55 58 40 13
split_gain=0.691703 0.500916 1.0011 0.875572 0.214075 0.0954757 0.0934703 0.0281677 0.00458745
threshold=1.0000000180025095e-35 0.58578431372549034 20.656845092500024 -245.60543990099995 672.33297538750014 155.79637146000002 121.9567461015 64.787768364000016 35.990924835000008
decision_type=2 2 2 2 2 2 2 2 2
left_child=1 -1 -3 -4 6 -5 7 8 -2
right_child=4 2 3 5 -6 -7 -8 -9 -10
leaf_value=-0.049518643505505638 -0.1258843148434606 0.11544181789754233 0.096830330611086063 -0.059382392459658331 0.023613860856193075 -0.13693893828683076 -0.016394104072216968 -0.077229499021283399 -0.10579941485416343
leaf_weight=0.66117264330387149 0.21746127679944016 1.1257001087069514 0.39842209964990627 0.38855764642357793 0.22428514808416367 0.26835357397794724 0.16472827643156052 0.33628679811954498 0.23837316408753395
leaf_count=8 6 8 3 6 3 4 3 8 7
internal_value=0 0.0267293 0.0498437 -0.0201284 -0.0643198 -0.0910649 -0.0849314 -0.0991843 -0.115381
internal_weight=0 2.84221 2.18103 1.05533 1.18113 0.656911 0.95685 0.792121 0.455834
internal_count=56 29 21 13 27 10 24 21 13
is_linear=0
shrinkage=0.1


Tree=11
num_leaves=9
num_cat=0
split_feature=98 44 33 200 20 0 74 5
split_gain=0.44889 0.421131 0.521394 0.235322 0.178819 0.0476082 0.0149094 0.00168349
threshold=1.0000000180025095e-35 1.0000000180025095e-35 558.13435363750011 0.58578431372549034 109.43036651600002 -502.56419372549993 -160.83758544899999 -117.344543457
decision_type=2 2 2 2 2 2 2 2
left_child=1 -1 -3 -4 5 -2 7 -7
right_child=4 2 3 -5 -6 6 -8 -9
leaf_value=0.1013147113202823 -0.039295973139105975 -0.088661364439030457 -0.021636011339846186 0.06240348725301751 0.0010563794260979298 -0.12255376481039559 -0.079404953313716956 -0.10761306436442374
leaf_weight=0.54141846299171525 0.17125502228736877 0.48107531666755665 0.52569092437624909 0.90991225093603134 0.37441395409405231 0.13512808084487915 0.2058769781142471 0.17067153565585613
leaf_count=5 4 9 6 9 7 5 6 5
internal_value=0 0.0234363 0.00143741 0.0316298 -0.0544843 -0.0849342 -0.100209 -0.114215
internal_weight=0 2.4581 1.91668 1.4356 1.05735 0.682932 0.511677 0.3058
internal_count=56 29 24 15 27 20 16 10
is_linear=0
shrinkage=0.1


Tree=12
num_leaves=10
num_cat=0
split_feature=98 44 1 202 66 50 58 40 13
split_gain=0.417393 0.341759 0.233709 0.409764 0.196291 0.186311 0.0827286 0.0273487 0.00535156
threshold=1.0000000180025095e-35 1.0000000180025095e-35 -245.60543990099995 1.4075396825396826 -374.4165458679999 672.33297538750014 121.9567461015 64.787768364000016 35.990924835000008
decision_type=2 2 2 2 2 2 2 2 2
left_child=1 -1 -3 4 -4 6 7 8 -2
right_child=5 2 3 -5 -6 -7 -8 -9 -10
leaf_value=0.098060081593081661 -0.12474688329499342 0.084613934028684668 -0.025957422255341644 0.040106216949272258 -0.13238349527293375 0.032101799941846941 -0.0073735618368963645 -0.069778735012740498 -0.09993351704847761
leaf_weight=0.48240572959184724 0.17113275080919255 0.29315473884344134 0.46714061498642001 0.72879952192306519 0.27551492862403293 0.19265485182404518 0.13572713732719421 0.2712059561163187 0.17662544175982475
leaf_count=5 6 3 8 7 6 3 3 8 7
internal_value=0 0.023471 0.00307999 -0.0131638 -0.06544 -0.055671 -0.0780773 -0.0935813 -0.112144
internal_weight=0 2.24702 1.76461 1.47146 0.742656 0.947346 0.754691 0.618964 0.347758
internal_count=56 29 24 21 14 27 24 21 13
is_linear=0
shrinkage=0.1


Tree=13
num_leaves=10
num_cat=0
split_feature=98 6 201 50 61 10 58 40 62
split_gain=0.354629 0.296599 0.23834 0.155999 0.155272 0.0494094 0.0488289 0.0246572 0.00509673
threshold=1.0000000180025095e-35 -122.49339103699998 1.8750000000000002 672.33297538750014 -253.21785354599999 -309.50211524949992 121.9567461015 64.787768364000016 90.551348924500033
decision_type=2 2 2 2 2 2 2 2 2
left_child=1 2 5 6 -3 -1 7 8 -2
right_child=3 4 -4 -5 -6 -7 -8 -9 -10
leaf_value=-0.014695872833862037 -0.09259636277946956 0.022607593918345319 0.028826271132247012 0.028367274667812987 0.11156850440793516 -0.082186592367129663 -0.018863475787656073 -0.066298074623686698 -0.11953496153616697
leaf_weight=0.15835926309227988 0.11409256793558586 0.36414446868002415 0.71915247663855553 0.17814982682466507 0.42540007084608089 0.34433625265955925 0.11820697411894798 0.24461492709815502 0.18269876018166542
leaf_count=3 5 6 7 3 5 8 3 8 8
internal_value=0 0.0227689 -0.00809967 -0.054666 0.070539 -0.0609256 -0.0770918 -0.0898049 -0.109179
internal_weight=0 2.01139 1.22185 0.837763 0.789545 0.502696 0.659613 0.541406 0.296791
internal_count=56 29 18 27 11 11 24 21 13
is_linear=0
shrinkage=0.1


Tree=14
num_leaves=9
num_cat=0
split_feature=98 200 56 34 50 58 40 13
split_gain=0.279418 0.283412 0.530617 0.343727 0.127294 0.0438874 0.0220084 0.00489137
threshold=1.0000000180025095e-35 0.58578431372549034 20.656845092500024 -44.678865432999991 672.33297538750014 121.9567461015 64.787768364000016 35.990924835000008
decision_type=2 2 2 2 2 2 2 2
left_child=1 -1 -3 -4 5 6 7 -2
right_child=4 2 3 -5 -6 -7 -8 -9
leaf_value=-0.043068979333639408 -0.12099427850553122 0.10542315956417017 0.045656812258161428 -0.099127529473197196 0.025992188436014037 -0.01564039625672153 -0.063516655443172351 -0.09322479765278846
leaf_weight=0.50725893490016494 0.12169564701616753 0.6970453970134256 0.36397350952029228 0.29840626008808613 0.16519904509186745 0.10739164613187313 0.22378874197602272 0.13248240482062101
leaf_count=8 6 8 5 8 3 3 8 7
internal_value=0 0.0207187 0.0445205 -0.0195694 -0.0515286 -0.0734064 -0.0863856 -0.10652
internal_weight=0 1.86668 1.35943 0.66238 0.750557 0.585358 0.477967 0.254178
internal_count=56 29 21 13 27 24 21 13
is_linear=0
shrinkage=0.1


Tree=15
num_leaves=9
num_cat=0
split_feature=204 45 50 204 8 86 29 39
split_gain=0.214297 0.352322 0.182809 0.314651 0.209935 0.130299 0.220158 0.0820971
threshold=1.2181663837011887 -62.691360473999985 -617.03074169149988 0.50990196078431382 -36.520424842499999 -371.96696042999992 -1.0000000180025095e-35 -765.3864135744999
decision_type=2 2 2 2 2 2 2 2
left_child=1 -1 -3 -4 -5 -2 7 -7
right_child=5 2 3 4 -6 6 -8 -9
leaf_value=0.12084975697141642 -0.13522974835856363 0.054196374126650772 0.044137216875348134 -0.0065730051950887939 -0.12959680559179557 -0.016468405318884972 0.064512320292939559 -0.10566545869717792
leaf_weight=0.28651010990142856 0.13105214945971966 0.41421743482351303 0.38447460904717423 0.25539063662290573 0.30360571481287479 0.18675601109862328 0.18827031925320614 0.23059964925050735
leaf_count=3 3 6 8 8 9 6 4 9
internal_value=0 0.0200818 -0.00118311 -0.0254967 -0.0733905 -0.0448206 -0.0252569 -0.0657521
internal_weight=0 1.6442 1.35769 0.943471 0.558996 0.736678 0.605626 0.417356
internal_count=56 34 31 25 17 22 19 15
is_linear=0
shrinkage=0.1


Tree=16
num_leaves=9
num_cat=0
split_feature=200 8 41 86 88 22 82 205
split_gain=0.459612 0.510999 0.404081 0.260772 0.141557 0.142891 0.139065 0.00869948
threshold=0.58578431372549034 423.10235214250002 166.74468326600004 -57.563541888999985 1.0000000180025095e-35 594.69357299800015 800.81030273450017 0.73810726100000001
decision_type=2 2 2 2 2 2 2 2
left_child=1 -1 3 7 5 -5 -6 -2
right_child=2 -3 -4 4 6 -7 -8 -9
leaf_value=-0.15348677830990795 -0.084879948820821283 0.040873169957418187 0.10307175757298551 0.11317587591367605 -0.089205175381656829 0.0046916445806258564 0.018413371335073259 -0.12510936243556367
leaf_weight=0.34770012646913562 0.10917212069034565 0.22141093760728836 0.48561671003699292 0.22780226171016671 0.18512765970081091 0.25997792556881905 0.34169085510075092 0.10589151363819838
leaf_count=7 6 4 7 4 9 6 8 5
internal_value=0 -0.0778716 0.025837 -0.0046645 0.0165374 0.0553558 -0.0194045 -0.104688
internal_weight=0 0.569111 1.71528 1.22966 1.0146 0.48778 0.526819 0.215064
internal_count=56 11 45 38 27 10 17 11
is_linear=0
shrinkage=0.1


Tree=17
num_leaves=11
num_cat=0
split_feature=20 200 10 42 205 42 5 1 203 3
split_gain=0.502234 0.340613 0.4559 0.221481 0.25591 0.145581 0.0802374 0.069883 0.0330003 0.0271748
threshold=786.97636413500015 0.58578431372549034 -134.68524551349998 -870.78710556049987 0.64717139750000008 -1.0000000180025095e-35 -523.35697936999998 -245.60543990099995 0.65715467328370569 -111.0865573885
decision_type=2 2 2 2 2 2 2 2 2 2
left_child=1 2 -1 -3 5 -5 -6 -7 -8 -10
right_child=-2 3 -4 4 6 7 8 -9 9 -11
leaf_value=0.035409437776173204 0.16202196151345505 0.11887108525949489 -0.15623607926825397 -0.033612232676518368 0.025434584908158388 0.11311217817895032 -0.10976197435767335 0.034662698046947542 -0.027272819428418471 -0.086727435453923835
leaf_weight=0.20037674158811569 0.17528963088989247 0.16776384413242329 0.32620501145720515 0.19390650279819965 0.10683011636137951 0.20527243986725807 0.14746518526226293 0.25412789545953252 0.1816088594496249 0.13330658804625284
leaf_count=4 1 2 7 8 3 3 6 7 6 9
internal_value=0 -0.0148163 -0.0833105 0.0111265 -0.00365907 0.0390474 -0.0526751 0.069716 -0.0707218 -0.0524405
internal_weight=0 1.91686 0.526582 1.39028 1.22252 0.653307 0.569211 0.4594 0.462381 0.314915
internal_count=56 55 11 44 42 18 24 10 21 15
is_linear=0
shrinkage=0.1


Tree=18
num_leaves=10
num_cat=0
split_feature=98 200 56 1 50 54 3 89 89
split_gain=0.13492 0.175897 0.290159 0.164669 0.118052 0.024873 0.018602 0.0215893 0.00392333
threshold=1.0000000180025095e-35 0.58578431372549034 20.656845092500024 -245.60543990099995 672.33297538750014 456.03589344000005 -111.0865573885 96.410709858000004 48.804446697000003
decision_type=2 2 2 2 2 2 2 2 2
left_child=1 -1 -3 -4 6 -5 -2 8 -8
right_child=4 2 3 5 -6 -7 7 -9 -10
leaf_value=-0.043100279871778363 -0.036939648617026526 0.098571662430794446 0.068425602747969369 -0.090221172198536981 0.040500275190148538 -0.029381930097180889 -0.11514524571149945 -0.044588348962707747 -0.084794100639473846
leaf_weight=0.33326274901628472 0.12501530814915895 0.44556278549134731 0.14562086760997761 0.15189262479543697 0.13083655387163162 0.12051622197031975 0.11248172912746679 0.0940284114331007 0.068542478606104851
leaf_count=8 6 8 3 6 3 4 9 4 5
internal_value=0 0.0186116 0.0424264 -0.0174168 -0.0419575 -0.0633053 -0.0689241 -0.0834615 -0.103653
internal_weight=0 1.19686 0.863592 0.41803 0.530904 0.272409 0.400068 0.275053 0.181024
internal_count=56 29 21 13 27 10 24 18 14
is_linear=0
shrinkage=0.1


Tree=19
num_leaves=11
num_cat=0
split_feature=95 89 1 41 98 204 7 1 40 54
split_gain=0.102451 0.143092 0.135385 0.116194 0.114503 0.081634 0.0891572 0.0428204 0.0320352 0.00283407
threshold=87.037368774499996 -1.0000000180025095e-35 -245.60543990099995 -149.33279991199998 71.124782562500016 0.50990196078431382 353.34771919250005 321.43968105350001 -20.607357024999995 83.347343444999993
decision_type=2 2 2 2 2 2 2 2 2 2
left_child=1 3 -2 8 -3 -4 -7 -6 -1 -5
right_child=2 4 5 9 7 6 -8 -9 -10 -11
leaf_value=0.013636904018741625 0.11099029457445359 0.074529884286192324 0.058653861520661522 -0.11467502539875314 -0.071346772027850197 -0.072148157854511272 0.02140122155980757 0.020440398008813428 -0.06168615812563806 -0.13982124012775998
leaf_weight=0.13125646486878395 0.15142746642231941 0.18874827027320862 0.19498843140900135 0.10309403203427792 0.12145325820893049 0.18221201561391354 0.23107089847326279 0.087402734905481339 0.099090990610420704 0.079290222376585007
leaf_count=5 3 6 4 8 9 6 5 2 5 3
internal_value=0 -0.0247339 0.0263825 -0.0659784 0.0180799 0.0053196 -0.0198437 -0.0329354 -0.0187656 -0.125607
internal_weight=0 0.810336 0.759699 0.412732 0.397604 0.608271 0.413283 0.208856 0.230347 0.182384
internal_count=56 38 18 21 17 15 11 11 10 11
is_linear=0
shrinkage=0.1


Tree=20
num_leaves=11
num_cat=0
split_feature=98 44 39 200 50 200 90 201 21 31
split_gain=0.101516 0.109076 0.111988 0.0889737 0.0788338 0.0425231 0.0181029 0.0143806 0.0188725 0.00355515
threshold=1.0000000180025095e-35 1.0000000180025095e-35 255.79598045350002 0.65079365079365081 672.33297538750014 0.54292929292929304 -69.468536376999992 0.25558710951969382 100.38210296650003 111.178508759
decision_type=2 2 2 2 2 2 2 2 2 2
left_child=1 -1 -3 5 6 -4 9 -8 -9 -2
right_child=4 2 3 -5 -6 -7 7 8 -10 -11
leaf_value=0.089078913574736851 -0.11298822648910037 -0.076079724345292615 0.024574021519909634 0.063865637616075929 0.032939074300354663 -0.043923896868220666 -0.0052380178357300088 -0.096544836142368751 -0.022717097641288618 -0.078969043183603524
leaf_weight=0.17678419686853886 0.059013213962316513 0.14843795169144869 0.17035450041294098 0.27033779583871365 0.10991421528160572 0.19365518726408482 0.059313133358955383 0.078455498907715082 0.061978088691830635 0.064071714878082275
leaf_count=5 5 7 5 7 3 5 3 8 3 5
internal_value=0 0.0181333 0.0021109 0.0204076 -0.0402086 -0.0118673 -0.0651132 -0.0465245 -0.0639622 -0.0952796
internal_weight=0 0.95957 0.782785 0.634347 0.432746 0.36401 0.322832 0.199747 0.140434 0.123085
internal_count=56 29 24 17 27 10 24 14 11 10
is_linear=0
shrinkage=0.1


Tree=21
num_leaves=10
num_cat=0
split_feature=98 44 33 200 50 58 203 98 98
split_gain=0.0908949 0.0895571 0.0824227 0.0679836 0.0538932 0.0140365 0.014439 0.00649267 0.00296015
threshold=1.0000000180025095e-35 1.0000000180025095e-35 558.13435363750011 0.58578431372549034 672.33297538750014 121.9567461015 2.073369565217392 429.78742980900012 273.82704925500008
decision_type=2 2 2 2 2 2 2 2 2
left_child=1 -1 -3 -4 5 6 7 8 -2
right_child=4 2 3 -5 -6 -7 -8 -9 -10
leaf_value=0.085825215046221856 -0.089476970758016069 -0.054418274328571263 -0.019456818148564037 0.052617920958885671 0.022533689794851607 -0.023148801821298859 -0.036868555254477707 -0.059313655242430985 -0.12283704373582366
leaf_weight=0.15869140625 0.056592053268104792 0.18645372614264488 0.22366836108267307 0.31542692147195339 0.10187774524092674 0.070469850674271584 0.069866311736404896 0.04347252706065774 0.050186712760478258
leaf_count=5 6 9 6 9 3 3 6 4 5
internal_value=0 0.0177762 0.00289263 0.0227144 -0.0400506 -0.0619922 -0.0744277 -0.0918926 -0.105156
internal_weight=0 0.88424 0.725549 0.539095 0.392465 0.290587 0.220118 0.150251 0.106779
internal_count=56 29 24 15 27 24 21 15 11
is_linear=0
shrinkage=0.1


Tree=22
num_leaves=8
num_cat=0
split_feature=98 44 33 200 50 96 2
split_gain=0.0790264 0.0791591 0.0542506 0.0559266 0.0436517 0.0119646 0.0126914
threshold=1.0000000180025095e-35 1.0000000180025095e-35 558.13435363750011 0.65079365079365081 672.33297538750014 -249.20503234799997 395.89953231900006
decision_type=2 2 2 2 2 2 2
left_child=1 -1 -3 -4 5 -2 -7
right_child=4 2 3 -5 -6 6 -8
leaf_value=0.083571735391235941 -0.092930820663662886 -0.045182939432077615 -0.0069711799010547144 0.061081188030222049 0.019438741870710374 -0.078682019888172944 -0.025472775734608957
leaf_weight=0.14676186256110668 0.077544582542032003 0.17618818115442991 0.31431208178400993 0.19611026905477047 0.093909980729222298 0.073563958983868361 0.11475057248026133
leaf_count=5 9 9 9 6 3 8 7
internal_value=0 0.0169096 0.00266064 0.0191753 -0.0391695 -0.0598718 -0.0462587
internal_weight=0 0.833372 0.686611 0.510422 0.359769 0.265859 0.188315
internal_count=56 29 24 15 27 24 15
is_linear=0
shrinkage=0.1


Tree=23
num_leaves=8
num_cat=0
split_feature=98 78 95 200 50 96 2
split_gain=0.0682994 0.086175 0.0533289 0.0385056 0.0339314 0.0110903 0.0094996
threshold=1.0000000180025095e-35 -53.712890624999993 87.037368774499996 0.65079365079365081 672.33297538750014 -249.20503234799997 395.89953231900006
decision_type=2 2 2 2 2 2 2
left_child=1 2 -1 -4 5 -2 -7
right_child=4 -3 3 -5 -6 6 -8
leaf_value=-0.076502352488547545 -0.090254952104473873 0.063038146406814891 -0.022712939832991351 0.036697171688875665 0.015274708562261988 -0.072826445117922564 -0.025135279024153568
leaf_weight=0.091674060560762882 0.070667640306055546 0.26137453131377697 0.2152561116963625 0.221203388646245 0.08884047158062458 0.067659760359674692 0.10913793556392193
leaf_count=6 9 8 7 8 3 8 7
internal_value=0 0.0160755 -0.00716645 0.00739688 -0.0377386 -0.0567705 -0.0433865
internal_weight=0 0.789508 0.528134 0.43646 0.336306 0.247465 0.176798
internal_count=56 29 21 15 27 24 15
is_linear=0
shrinkage=0.1


Tree=24
num_leaves=11
num_cat=0
split_feature=53 202 28 0 202 19 10 20 10 74
split_gain=0.0602548 0.0615247 0.064381 0.0552819 0.0510571 0.0416022 0.0293716 0.0244675 0.00893819 0.00345262
threshold=173.99877548250001 0.60014204545454553 1.0000000180025095e-35 1.0000000180025095e-35 1.4075396825396826 749.40990448000014 -204.93700408949996 -62.789794921499997 58.182008743499985 -239.26778697949996
decision_type=2 2 2 2 2 2 2 2 2 2
left_child=1 -1 3 -3 7 6 -4 -5 -8 -10
right_child=-2 2 5 4 -6 -7 8 -9 9 -11
leaf_value=0.075766973244519628 -0.081126641202847558 0.081731792340040355 -0.0062197980911543396 0.00083785443594138094 0.030673776194742187 0.01812772502514964 -0.11934079298317604 -0.069155816036446258 -0.085366486209710005 -0.044170516852877144
leaf_weight=0.11478331871330738 0.084309848491102457 0.10771796712651849 0.059662550687789917 0.09502941370010376 0.27024915115907788 0.084811944514513016 0.059525459073483944 0.10526445228606462 0.050457296427339315 0.034088486805558205
leaf_count=4 8 6 2 4 7 3 5 6 7 4
internal_value=0 0.00696806 -0.00214236 0.0171091 0.00231548 -0.0407233 -0.0652222 -0.0359473 -0.0896562 -0.0687565
internal_weight=0 0.98159 0.866807 0.578261 0.470543 0.288546 0.203734 0.200294 0.144071 0.0845458
internal_count=56 48 44 23 17 21 18 10 16 11
is_linear=0
shrinkage=0.1


Tree=25
num_leaves=9
num_cat=0
split_feature=53 202 80 67 202 200 86 43
split_gain=0.0578391 0.0574181 0.0548758 0.0509453 0.0507092 0.051787 0.0181354 0.00901915
threshold=173.99877548250001 0.60014204545454553 1.0000000180025095e-35 1.0000000180025095e-35 1.4075396825396826 0.58578431372549034 103.29036712650002 210.91781520800001
decision_type=2 2 2 2 2 2 2 2
left_child=1 -1 3 -3 5 -5 7 -4
right_child=-2 2 6 4 -6 -7 -8 -9
leaf_value=0.075254419471071199 -0.080673757753063152 0.062854065341011275 -0.040778725066659999 0.017177194389444119 0.025500344770358691 -0.091476429322532568 -0.017781358024925378 -0.10064577704179048
leaf_weight=0.10917365737259388 0.08158532390370965 0.15665213204920292 0.043903826270252466 0.077366417273879051 0.24711884185671806 0.10130726266652346 0.11919080885127187 0.05895764147862792
leaf_count=4 8 7 5 3 6 8 7 8
internal_value=0 0.00720369 -0.00203109 0.014095 -0.00384383 -0.044429 -0.0443299 -0.075093
internal_weight=0 0.913671 0.804497 0.582445 0.425793 0.178674 0.222052 0.102861
internal_count=56 48 44 24 17 11 20 13
is_linear=0
shrinkage=0.1


Tree=26
num_leaves=10
num_cat=0
split_feature=53 202 80 200 21 67 62 69 13
split_gain=0.120262 0.0994058 0.0503244 0.0451552 0.082155 0.0838718 0.0183624 0.00919189 0.00858118
threshold=173.99877548250001 0.60014204545454553 1.0000000180025095e-35 0.58578431372549034 1142.9728603365002 1.0000000180025095e-35 33.405328750500011 -80.866775512999979 133.38739013650004
decision_type=2 2 2 2 2 2 2 2 2
left_child=1 -1 3 -3 5 -5 8 -8 -4
right_child=-2 2 6 4 -6 -7 7 -9 -10
leaf_value=0.094711875370760923 -0.10430942018710916 -0.027318917000503748 0.0061815932764327786 0.058343261768775682 0.11465850623788543 -0.052379046269355634 -0.11850357949764434 -0.048870156802161634 -0.045587105934733307
leaf_weight=0.1241734754294157 0.099276735214516521 0.17865097150206566 0.060567457228899002 0.14562963368371129 0.09395211935043335 0.12903009750880301 0.037429266143590212 0.038411388639360666 0.067932097241282463
leaf_count=4 8 6 3 7 2 9 5 5 7
internal_value=0 0.0118244 -0.00186961 0.0139419 0.0339393 0.00632795 -0.044216 -0.083236 -0.0211863
internal_weight=0 0.875777 0.751603 0.547263 0.368612 0.27466 0.20434 0.0758407 0.1285
internal_count=56 48 44 24 18 16 20 10 10
is_linear=0
shrinkage=0.1


Tree=27
num_leaves=10
num_cat=0
split_feature=53 202 80 203 3 203 1 54 10
split_gain=0.0481471 0.0457463 0.0471758 0.0392722 0.0716514 0.0732494 0.0175231 0.0197106 0.00318628
threshold=173.99877548250001 0.60014204545454553 1.0000000180025095e-35 0.42093611638203671 97.148431778000017 0.65715467328370569 169.10729885050003 -146.12396240199996 279.38198089600002
decision_type=2 2 2 2 2 2 2 2 2
left_child=1 -1 3 -3 5 -5 7 8 -4
right_child=-2 2 6 4 -6 -7 -8 -9 -10
leaf_value=0.070892626490161356 -0.077875308789527337 -0.036291359929064036 -0.12038773390811659 -0.10190847778440403 0.070404340818224762 0.031017605608282341 0.011114772376334688 -0.024261314096347322 -0.07855217181727385
leaf_weight=0.098548991605639458 0.072741308249533176 0.11764109320938587 0.032386822625994682 0.064147522673010826 0.2038322351872921 0.11719047836959362 0.044819248840212822 0.075599223375320435 0.041574883740395308
leaf_count=4 8 4 4 6 6 8 3 6 7
internal_value=0 0.00711884 -0.00189567 0.0142779 0.0297231 -0.0160044 -0.0437326 -0.0601689 -0.0968714
internal_weight=0 0.79574 0.697192 0.502811 0.38517 0.181338 0.19438 0.149561 0.0739617
internal_count=56 48 44 24 20 14 20 17 11
is_linear=0
shrinkage=0.1


Tree=28
num_leaves=9
num_cat=0
split_feature=5 62 204 204 204 4 49 94
split_gain=0.0338106 0.0619138 0.0455938 0.0478709 0.0329217 0.0416366 0.0113049 0.00421931
threshold=868.82246398900008 48.635431289500012 0.50990196078431382 0.83435483870967753 1.2181663837011887 -370.16558456449997 238.35536193800002 1.0000000180025095e-35
decision_type=2 2 2 2 2 2 2 2
left_child=1 2 -1 -4 -5 -6 7 -3
right_child=-2 6 3 4 5 -7 -8 -9
leaf_value=0.061479629006564222 0.050779299335001027 -0.10682181085591327 -0.062166628242306968 0.050678375449597614 -0.08678144571012586 0.019466436158280379 -0.034858803985961376 -0.059314703170162381
leaf_weight=0.12118222285062075 0.11258391523733735 0.053368983324617147 0.11783012608066201 0.13076947815716267 0.055783222429454327 0.10886475257575512 0.067121849395334721 0.028774582780897617
leaf_count=6 6 9 7 6 5 7 5 5
internal_value=0 -0.00836182 0.00754183 -0.00827508 0.0132201 -0.0165307 -0.0653032 -0.0901802
internal_weight=0 0.683695 0.53443 0.413248 0.295417 0.164648 0.149265 0.0821436
internal_count=56 50 31 25 18 12 19 14
is_linear=0
shrinkage=0.1


Tree=29
num_leaves=11
num_cat=0
split_feature=200 8 21 13 38 64 3 20 201 2
split_gain=0.0377809 0.0963409 0.0751907 0.0385286 0.0362532 0.0392841 0.0118315 0.00848824 0.0130636 0.0106835
threshold=0.58578431372549034 423.10235214250002 1142.9728603365002 -165.33669280999996 -1.0000000180025095e-35 40.333526611000003 -111.0865573885 109.43036651600002 0.25558710951969382 -128.42297744749996
decision_type=2 2 2 2 2 2 2 2 2 2
left_child=1 -1 3 -2 6 -6 -5 8 -7 -10
right_child=2 -3 -4 4 5 7 -8 -9 9 -11
leaf_value=-0.11741223050780894 0.043331326972596888 0.030734654893164983 0.11196978887832694 -0.039883251596134421 0.070071088177538862 0.01475694410079542 -0.10820492229750114 0.011110522418238771 -0.023705956413096869 -0.089850684991480689
leaf_weight=0.084675367223098874 0.14331634761765599 0.091147229075431824 0.066958528012037277 0.063146248925477266 0.064241910818964243 0.039992810226976871 0.042343506822362542 0.061627281829714775 0.055203725583851337 0.043787627015262842
leaf_count=7 8 4 2 6 5 3 6 3 4 8
internal_value=0 -0.0406122 0.0122982 -0.0006946 -0.0177319 0.00201386 -0.0673075 -0.0197801 -0.0334774 -0.0529643
internal_weight=0 0.175823 0.580618 0.513659 0.370343 0.264853 0.10549 0.200611 0.138984 0.0989914
internal_count=56 11 45 43 35 23 12 18 15 12
is_linear=0
shrinkage=0.1


Tree=30
num_leaves=11
num_cat=0
split_feature=89 82 18 62 202 67 95 17 4 29
split_gain=0.185203 0.108047 0.038578 0.023727 0.0210233 0.0192865 0.0328184 0.0209311 0.0140332 0.00750282
threshold=159.47263526950002 -880.01348876949976 -721.39336395299983 33.405328750500011 0.60014204545454553 1.0000000180025095e-35 87.037368774499996 -423.24276351949999 -259.40636062599992 -255.45594787599995
decision_type=2 2 2 2 2 2 2 2 2 2
left_child=1 -1 -3 5 -5 -4 7 -7 -8 -6
right_child=-2 2 3 4 9 6 8 -9 -10 -11
leaf_value=-0.10238242251246626 0.12692440841458286 0.10665778231146628 0.049158250715977889 0.0015447971726127744 -0.1180117507181767 -0.013006860151509793 0.052529110223189929 -0.10927021905275391 -0.0016534441793225427 -0.052548018379714671
leaf_weight=0.12568524829111993 0.10024983808398247 0.032113480381667614 0.082056406885385513 0.058525031432509422 0.029356188140809536 0.050979553256183863 0.070086205378174782 0.040557333501055837 0.15033378545194864 0.043376183370128274
leaf_count=5 3 2 5 4 6 3 3 8 9 8
internal_value=0 -0.0186279 0.000258006 -0.00624696 -0.0430703 0.00601999 -0.005327 -0.0556584 0.0155748 -0.0789704
internal_weight=0 0.683069 0.557384 0.525271 0.131257 0.394013 0.311957 0.0915369 0.22042 0.0727324
internal_count=56 53 48 46 18 28 23 11 12 14
is_linear=0
shrinkage=0.1


Tree=31
num_leaves=8
num_cat=0
split_feature=98 200 56 1 200 204 4
split_gain=0.0242128 0.0342541 0.0824776 0.0378325 0.0121484 0.00816524 0.00379671
threshold=1.0000000180025095e-35 0.58578431372549034 20.656845092500024 -182.16445326749997 1.0151515151515154 0.95098039215686281 108.26628875750002
decision_type=2 2 2 2 2 2 2
left_child=1 -1 -3 -4 -2 -6 -7
right_child=4 2 3 -5 5 6 -8
leaf_value=-0.027751208312119066 -0.079821272336764212 0.082688715809499602 0.037300043676812673 -0.065074934713382535 -0.046155388978261019 -0.016136783843139164 0.021995627426926539
leaf_weight=0.14015356590971351 0.037494469899684191 0.15612144069746137 0.062788899056613445 0.084915728308260441 0.060855806805193424 0.062953349435701966 0.044615702703595161
leaf_count=8 9 8 4 9 8 6 4
internal_value=0 0.0131452 0.0320105 -0.0215556 -0.0283421 -0.0168819 -0.000320856
internal_weight=0 0.44398 0.303826 0.147705 0.205919 0.168425 0.107569
internal_count=56 29 21 13 27 18 10
is_linear=0
shrinkage=0.1


Tree=32
num_leaves=9
num_cat=0
split_feature=204 15 204 97 25 200 203 204
split_gain=0.0245594 0.0320223 0.0357599 0.0490016 0.0215868 0.0205123 0.0127459 0.00555695
threshold=0.50990196078431382 1096.3368549345003 1.2181663837011887 177.06061577800003 -64.410171508500071 0.83766233766233777 0.91935483870967749 1.961161387631976
decision_type=2 2 2 2 2 2 2 2
left_child=-1 2 3 4 -2 -4 -7 -8
right_child=1 -3 5 -5 -6 6 7 -9
leaf_value=0.037888703293429568 0.010751130514929052 -0.072153397443321374 -0.09490686507821007 0.076916117123961056 -0.080650331785563356 0.016758961250768485 -0.016581092483544942 -0.074227327736797313
leaf_weight=0.13355148327536881 0.088430557167157531 0.071849904954433441 0.041798491729423404 0.10418802965432405 0.03650649287737906 0.065602816408500075 0.033593379426747561 0.033296903828158975
leaf_count=9 8 5 6 6 7 5 6 4
internal_value=0 -0.0106469 0.000307678 0.0262748 -0.0159563 -0.0338288 -0.0145602 -0.0452765
internal_weight=0 0.475267 0.403417 0.229125 0.124937 0.174292 0.132493 0.0668903
internal_count=56 47 42 21 15 21 15 10
is_linear=0
shrinkage=0.1


Tree=33
num_leaves=9
num_cat=0
split_feature=19 200 3 5 200 1 81 46
split_gain=0.0231414 0.0189235 0.0376452 0.0257408 0.018307 0.0153173 0.0172714 0.00535021
threshold=1.0000000180025095e-35 0.65079365079365081 -1.0000000180025095e-35 868.82246398900008 0.54292929292929304 321.43968105350001 160.22377538700002 1.0000000180025095e-35
decision_type=2 2 2 2 2 2 2 2
left_child=1 4 3 -3 -1 6 7 -2
right_child=5 2 -4 -5 -6 -7 -8 -9
leaf_value=0.024841601858790571 -0.055418832455116723 -0.046302219419525947 0.096531070293032151 0.042758241268445067 -0.044491648028683217 0.010441467148272737 -0.012403059008112078 -0.11253984805649289
leaf_weight=0.074098927900195122 0.034299602964892983 0.056348055368289351 0.067871890496462584 0.076528114732354879 0.078352742828428745 0.075789909809827805 0.074534105136990547 0.03141705400776118
leaf_count=5 7 8 5 6 5 3 8 9
internal_value=0 0.015769 0.0359401 0.00499087 -0.0107923 -0.0257804 -0.0453542 -0.0827266
internal_weight=0 0.3532 0.200748 0.132876 0.152452 0.216041 0.140251 0.0657167
internal_count=56 29 19 14 10 27 24 16
is_linear=0
shrinkage=0.1


Tree=34
num_leaves=9
num_cat=0
split_feature=98 44 33 200 50 202 48 86
split_gain=0.0226146 0.0252151 0.0229859 0.0222286 0.0105027 0.0117155 0.008162 0.00514789
threshold=1.0000000180025095e-35 1.0000000180025095e-35 558.13435363750011 0.65079365079365081 672.33297538750014 0.60014204545454553 -312.68240928599988 -235.71142148949997
decision_type=2 2 2 2 2 2 2 2
left_child=1 -1 -3 -4 5 -2 -7 -8
right_child=4 2 3 -5 -6 6 7 -9
leaf_value=0.076162671760786782 0.010447201493705056 -0.044134128648370019 -0.0047389376449127798 0.060349858994069451 0.011896187865040368 -0.11133358876909845 -0.08368801538729749 -0.027126879179544813
leaf_weight=0.055823418777436018 0.03049404826015234 0.07706855982542038 0.14321212703362107 0.082806121092289686 0.045714238658547401 0.023902968619950116 0.023129418957978487 0.052881702780723572
leaf_count=5 3 9 9 6 3 7 6 8
internal_value=0 0.0144019 0.00302656 0.0191076 -0.0293487 -0.0438071 -0.0603656 -0.0443379
internal_weight=0 0.35891 0.303087 0.226018 0.176122 0.130408 0.0999141 0.0760111
internal_count=56 29 24 15 27 24 21 14
is_linear=0
shrinkage=0.1


Tree=35
num_leaves=11
num_cat=0
split_feature=98 203 27 204 10 50 202 24 54 66
split_gain=0.0194455 0.0243629 0.0216806 0.0244333 0.0385532 0.00881416 0.00831192 0.00814434 0.00666209 0.000557676
threshold=1.0000000180025095e-35 1.1184873949579834 -1.0000000180025095e-35 0.50990196078431382 -246.69625473049996 672.33297538750014 0.60014204545454553 257.43782806400003 -204.81697082499997 283.07619476350004
decision_type=2 2 2 2 2 2 2 2 2 2
left_child=1 2 3 -1 -5 6 -2 8 9 -8
right_child=5 -3 -4 4 -6 -7 7 -9 -10 -11
leaf_value=0.051183969497976323 0.0051361110358151985 0.067278514894204902 0.042209414819936397 0.0025554479907196879 -0.10203844992847742 0.010428517090793921 -0.12878672874029989 -0.019187730259060114 -0.045577191506820693 -0.10084171394353565
leaf_weight=0.039814239833503962 0.028895036317408085 0.067865677177906036 0.085446756100282073 0.093320475891232491 0.056624227203428745 0.043927937746047974 0.013186135562136769 0.03640976594761014 0.028739291708916426 0.015577611280605197
leaf_count=3 3 5 6 8 7 3 3 4 7 7
internal_value=0 0.0136154 0.000382026 -0.0184525 -0.0369428 -0.0280146 -0.0417656 -0.0561963 -0.0796293 -0.113653
internal_weight=0 0.343071 0.275206 0.189759 0.149945 0.166736 0.122808 0.0939128 0.057503 0.0287637
internal_count=56 29 24 18 15 27 24 21 17 10
is_linear=0
shrinkage=0.1


Tree=36
num_leaves=10
num_cat=0
split_feature=54 98 33 200 0 62 2 19 4
split_gain=0.0181973 0.0151388 0.0230106 0.0199384 0.0134782 0.0118897 0.00490251 0.00422107 0.000860154
threshold=-83.347343444999964 -115.68078231799998 558.13435363750011 0.65079365079365081 1.0000000180025095e-35 90.551348924500033 1169.5605888370003 749.40990448000014 -116.28427886949999
decision_type=2 2 2 2 2 2 2 2 2
left_child=5 2 -2 -4 -3 7 -7 8 -1
right_child=1 4 3 -5 -6 6 -8 -9 -10
leaf_value=-0.039397952191112529 -0.060611729922866758 0.087617710585072395 -0.014492286405228875 0.055456319512633259 0.016383700334600779 -0.10772539993289798 -0.036235658950352995 0.012447125303177514 -0.016729367878964709
leaf_weight=0.032872206065803766 0.051868152571842074 0.041881417855620384 0.094449479598551989 0.071674269624054432 0.072614900534972548 0.021977238589897752 0.017022262327373028 0.042463984340429306 0.034106244798749685
leaf_count=6 8 5 7 6 6 9 2 3 4
internal_value=0 0.0129973 -0.00246714 0.0156871 0.0424403 -0.029112 -0.076522 -0.0122176 -0.0278548
internal_weight=0 0.332488 0.217992 0.166124 0.114496 0.148442 0.0389995 0.109442 0.0669785
internal_count=56 32 21 13 11 24 11 13 10
is_linear=0
shrinkage=0.1


Tree=37
num_leaves=10
num_cat=0
split_feature=54 98 33 200 205 62 89 19 27
split_gain=0.0198279 0.015632 0.0178217 0.0178663 0.0150005 0.0149662 0.00693693 0.00372933 0.00122709
threshold=-83.347343444999964 -115.68078231799998 558.13435363750011 0.65079365079365081 0.69938644515000015 90.551348924500033 -81.867273330999993 749.40990448000014 361.43483543400004
decision_type=2 2 2 2 2 2 2 2 2
left_child=5 2 -2 -4 -3 7 -7 8 -1
right_child=1 4 3 -5 -6 6 -8 -9 -10
leaf_value=-0.015044051658989267 -0.054851455447045207 0.086441722627923712 -0.014681542918716275 0.053149110169171565 0.012506791471471235 -0.045582329117844711 -0.12999341618248145 0.012698176518646737 -0.043245630561193148
leaf_weight=0.040092508308589458 0.049306710017845035 0.047765093157067895 0.091986391693353653 0.067198776174336672 0.064492799341678619 0.021803191630169749 0.017590269795618951 0.040653322823345661 0.025080279912799597
leaf_count=4 8 7 7 6 4 5 6 3 6
internal_value=0 0.01388 -0.002319 0.0139526 0.0439657 -0.030657 -0.0832742 -0.0110705 -0.0258968
internal_weight=0 0.32075 0.208492 0.159185 0.112258 0.14522 0.0393935 0.105826 0.0651728
internal_count=56 32 21 13 11 24 11 13 10
is_linear=0
shrinkage=0.1


Tree=38
num_leaves=10
num_cat=0
split_feature=19 64 24 202 204 15 202 46 24
split_gain=0.0145532 0.0135372 0.0118921 0.0165641 0.0110725 0.0125354 0.0117159 0.00514726 0.00470708
threshold=1.0000000180025095e-35 -16.035346984500006 171.50364685000002 0.60014204545454553 0.50990196078431382 1096.3368549345003 1.4075396825396826 1.0000000180025095e-35 202.06292724599999
decision_type=2 2 2 2 2 2 2 2 2
left_child=1 4 3 -2 -1 6 -6 -5 -4
right_child=2 -3 8 7 5 -7 -8 -9 -10
leaf_value=0.036216082079158475 0.0072035417507446244 0.057944183389241434 0.015266225638058304 -0.055379525022148324 -0.027769755242706445 -0.054144558133884281 0.039758492922321809 -0.12699885781340323 -0.029479626647210096
leaf_weight=0.06863409373909235 0.025348692666739225 0.056053743697702885 0.062261703424155712 0.017812492558732629 0.049145987955853343 0.048458438832312822 0.053837582468986511 0.022982562310062349 0.037772200768813491
leaf_count=6 3 6 4 5 9 5 3 7 8
internal_value=0 0.0140717 -0.0233823 -0.0562805 0.0028973 -0.0122029 0.00753255 -0.0957274 -0.00162954
internal_weight=0 0.27613 0.166178 0.0661437 0.220076 0.151442 0.102984 0.0407951 0.100034
internal_count=56 29 27 15 23 17 12 12 12
is_linear=0
shrinkage=0.1


Tree=39
num_leaves=11
num_cat=0
split_feature=53 202 65 50 83 200 75 76 64 93
split_gain=0.0152588 0.0144091 0.0157801 0.0167728 0.0149612 0.0106075 0.0324658 0.0350462 0.00967496 0.000928954
threshold=173.99877548250001 0.60014204545454553 -54.573474883999992 617.03074169150011 -369.93432617249999 0.58578431372549034 -860.19903469099984 1.0000000180025095e-35 -155.36561584499998 203.57981872550005
decision_type=2 2 2 2 2 2 2 2 2 2
left_child=1 -1 3 4 -3 -4 -7 -8 -9 -6
right_child=-2 2 5 -5 9 6 7 8 -10 -11
leaf_value=0.0592178956029248 -0.067345397600837867 -0.014857459504648552 -0.014998759222949807 0.0080946518159372392 -0.09931471514813435 0.10963019815644498 0.10511912844113752 -0.059469587833627158 0.0071233915162085453 -0.1336793275362522
leaf_weight=0.044079305604100227 0.031166461994871497 0.027079242747277021 0.085192671976983547 0.053527995012700558 0.015970095759257674 0.037613961845636368 0.025672547984868288 0.04582360596396029 0.041643559001386166 0.015502115013077855
leaf_count=4 8 3 7 6 6 2 4 9 3 4
internal_value=0 0.00535295 -0.00146933 -0.0323647 -0.0693528 0.0132066 0.0291458 0.00238827 -0.0277643 -0.116242
internal_weight=0 0.392105 0.348026 0.112079 0.0585515 0.235946 0.150754 0.11314 0.0874672 0.0314722
internal_count=56 48 44 19 13 25 18 16 12 10
is_linear=0
shrinkage=0.1


Tree=40
num_leaves=10
num_cat=0
split_feature=80 5 62 0 204 203 2 3 61
split_gain=0.0197402 0.0206936 0.0210299 0.0144093 0.0125752 0.0206275 0.00749989 0.00704367 0.000809094
threshold=732.65884399400011 868.82246398900008 90.551348924500033 1.0000000180025095e-35 0.50990196078431382 0.53981900452488696 -1169.5605888369998 -900.95204496349982 1.0000000180025095e-35
decision_type=2 2 2 2 2 2 2 2 2
left_child=1 2 3 -1 -5 6 -6 -4 -9
right_child=-2 -3 7 4 5 -7 -8 8 -10
leaf_value=0.057696771989570995 -0.063939713813265117 0.079108879508631116 -0.023907762379227201 0.040604094777376039 0.036221245784390142 -0.077674002103016157 -0.014110842408978728 -0.11576708033835104 -0.078990754410730085
leaf_weight=0.052417105995118618 0.04310311540029943 0.036443373654037714 0.026166144292801619 0.055254505947232246 0.048274586908519268 0.039356343215331435 0.076550638303160667 0.01300619135145098 0.011077184579335153
leaf_count=8 7 4 3 5 3 8 8 5 5
internal_value=0 0.0076866 -0.000394265 0.0105912 -0.000660939 -0.0145485 0.00535446 -0.0598266 -0.0988518
internal_weight=0 0.358546 0.322103 0.271853 0.219436 0.164182 0.124825 0.0502495 0.0240834
internal_count=56 49 45 32 24 19 11 13 10
is_linear=0
shrinkage=0.1


Tree=41
num_leaves=10
num_cat=0
split_feature=204 39 204 41 36 50 204 54 62
split_gain=0.0274776 0.0207398 0.00706201 0.0153472 0.0133927 0.00841669 0.00999873 0.0141099 0.00710819
threshold=2.1790617848970255 -866.24737548849987 1.4018218623481784 200.21866035450003 310.70222663850001 -617.03074169149988 0.34337349397590367 1.0000000180025095e-35 33.405328750500011
decision_type=2 2 2 2 2 2 2 2 2
left_child=1 -1 3 5 -4 -3 -7 8 -8
right_child=-2 2 4 -5 -6 6 7 -9 -10
leaf_value=0.080852702445059557 -0.090494592746137498 0.028707124618934987 0.014296176282246144 0.067868266469430158 -0.072352546987919986 0.040120930386324555 0.03125282702052571 -0.073232583048758362 -0.029541002288006858
leaf_weight=0.035114943515509367 0.030847007990814745 0.061030858661979437 0.03669519373215735 0.036359900608658791 0.034711584448814392 0.026564865373075008 0.035071559716016054 0.043482469278387725 0.042586344643495977
leaf_count=4 6 6 6 4 5 3 4 9 9
internal_value=0 0.00793898 -0.000150555 0.00791208 -0.0278247 -0.00253173 -0.0154394 -0.0276233 -0.00208553
internal_weight=0 0.351618 0.316503 0.245096 0.0714068 0.208736 0.147705 0.12114 0.0776579
internal_count=56 50 46 35 11 31 25 22 13
is_linear=0
shrinkage=0.1


Tree=42
num_leaves=9
num_cat=0
split_feature=5 3 204 51 202 204 86 86
split_gain=0.0123365 0.0108856 0.0113195 0.0125593 0.0097439 0.00875068 0.0133363 0.0061603
threshold=868.82246398900008 -34.526167392999987 0.50990196078431382 66.917915344000008 0.60014204545454553 1.2181663837011887 -235.71142148949997 63.581684589500007
decision_type=2 2 2 2 2 2 2 2
left_child=1 4 -3 5 -1 -4 -7 -6
right_child=-2 2 3 -5 7 6 -8 -9
leaf_value=-0.0024305870584354124 0.048280757976840588 0.047474001375364928 0.030526535309380699 -0.052044989927373643 -0.039176082750702418 -0.083487446362792109 0.013773967500452478 -0.11922131114393604
leaf_weight=0.034995824797078967 0.045992313185706735 0.046538333757780492 0.075319646392017603 0.047473398735746741 0.02137592772487551 0.021663543186150491 0.040367704234085977 0.017474257154390216
leaf_count=5 6 5 7 9 7 4 8 5
internal_value=0 -0.00727549 0.003394 -0.00770524 -0.0407035 0.00762017 -0.0201932 -0.0751793
internal_weight=0 0.305209 0.231363 0.184824 0.073846 0.137351 0.0620312 0.0388502
internal_count=56 50 33 28 17 19 12 12
is_linear=0
shrinkage=0.1


Tree=43
num_leaves=11
num_cat=0
split_feature=98 1 10 200 50 202 202 5 24 54
split_gain=0.0125449 0.010794 0.0100849 0.0150385 0.00667434 0.00875379 0.00516472 0.00487203 0.00273633 0.0024928
threshold=1.0000000180025095e-35 -245.60543990099995 -62.805860518999999 0.58578431372549034 672.33297538750014 0.60014204545454553 0.69977678571428581 523.3569793700002 257.43782806400003 -204.81697082499997
decision_type=2 2 2 2 2 2 2 2 2 2
left_child=1 -1 3 -3 5 -2 -7 -5 9 -8
right_child=4 2 -4 7 -6 6 8 -9 -10 -11
leaf_value=0.067569456053304652 0.015993559543601835 0.024867854892883283 0.030897418360951036 -0.075893710871298661 0.01327724346519699 -0.11203361086246355 -0.098222796316881605 -0.015236035739151355 -0.017710396384161768 -0.037807363477035727
leaf_weight=0.03217083727940917 0.020264952909201384 0.048112989868968725 0.082507597282528877 0.03309921408072114 0.030558030121028423 0.014447099762037396 0.012433251133188605 0.022071279119700193 0.021927966270595789 0.015153032960370183
leaf_count=4 3 6 9 7 3 4 9 3 3 5
internal_value=0 0.0140906 0.00483036 -0.0159932 -0.0267563 -0.0412808 -0.0594271 -0.0516273 -0.0440778 -0.0650368
internal_weight=0 0.217962 0.185791 0.103283 0.114784 0.0842263 0.0639614 0.0551705 0.0495143 0.0275863
internal_count=56 29 25 16 27 24 21 10 17 14
is_linear=0
shrinkage=0.1


Tree=44
num_leaves=11
num_cat=0
split_feature=98 203 200 3 80 50 202 202 24 54
split_gain=0.0103415 0.0106333 0.00727595 0.0302379 0.0183824 0.00626339 0.00610134 0.00397594 0.0023275 0.00228231
threshold=1.0000000180025095e-35 1.1184873949579834 0.58578431372549034 97.148431778000017 -152.60577487949999 672.33297538750014 0.60014204545454553 0.69977678571428581 257.43782806400003 -204.81697082499997
decision_type=2 2 2 2 2 2 2 2 2 2
left_child=1 2 -1 4 -4 6 -2 -8 9 -9
right_child=5 -3 3 -5 -6 -7 7 8 -10 -11
leaf_value=-0.02724555831617427 0.0089559493261370162 0.060210637585586292 -0.076567418482709926 0.075380579748358989 0.031419637982061301 0.013768957125441373 -0.10630709587992902 -0.096445865644359641 -0.017639943774967737 -0.036376155398464949
leaf_weight=0.056135115912184119 0.019161103293299675 0.038834582548588514 0.035566924489103258 0.049566934816539288 0.028311909642070532 0.029917072039097548 0.012405345216393471 0.011253991397097707 0.020720839034765959 0.014441617415286601
leaf_count=7 3 5 9 4 4 3 4 9 3 5
internal_value=0 0.01301 0.00220092 0.0167716 -0.0287062 -0.0251297 -0.0400526 -0.056017 -0.0425764 -0.0626851
internal_weight=0 0.208415 0.169581 0.113446 0.0638788 0.1079 0.0779829 0.0588218 0.0464164 0.0256956
internal_count=56 29 24 17 13 27 24 21 17 14
is_linear=0
shrinkage=0.1


Tree=45
num_leaves=11
num_cat=0
split_feature=98 204 22 202 50 200 201 202 24 98
split_gain=0.00906083 0.00878277 0.0189783 0.0087555 0.00588411 0.00577773 0.00572712 0.00286221 0.00221125 0.00193585
threshold=1.0000000180025095e-35 1.6363061353573689 594.69357299800015 1.4075396825396826 672.33297538750014 0.58578431372549034 0.25558710951969382 0.69977678571428581 257.43782806400003 273.82704925500008
decision_type=2 2 2 2 2 2 2 2 2 2
left_child=1 2 -1 5 6 -4 -2 -8 9 -9
right_child=4 -3 3 -5 -6 -7 7 8 -10 -11
leaf_value=0.078139932160439352 0.012869136535228873 -0.031137574334490489 0.012161644550191995 0.031352442076813487 0.014211004969031058 -0.050019502700712364 -0.095960672648058506 -0.03917536657180478 -0.016912150428098002 -0.097071637651695478
leaf_weight=0.044565736083313823 0.016171234659850597 0.037255154689773917 0.025448698550462723 0.052038605324923992 0.02834752481430769 0.036197838373482227 0.012925344868563116 0.014328256307635456 0.019094446673989296 0.0096748691285029054
leaf_count=9 3 6 3 4 3 7 4 6 3 8
internal_value=0 0.0125457 0.0228296 0.00114736 -0.0243955 -0.0243501 -0.0395546 -0.054687 -0.0423086 -0.0625114
internal_weight=0 0.195506 0.158251 0.113685 0.100542 0.0616465 0.0721942 0.0560229 0.0430976 0.0240031
internal_count=56 29 23 14 27 10 24 21 17 14
is_linear=0
shrinkage=0.1


Tree=46
num_leaves=12
num_cat=0
split_feature=95 70 204 17 8 98 50 202 24 54 8
split_gain=0.00818531 0.0104186 0.0091095 0.00893313 0.0072721 0.00737606 0.0044764 0.00359317 0.00340188 0.00126944 0.000450197
threshold=87.037368774499996 415.17685890200005 0.50990196078431382 1.0000000180025095e-35 1.0000000180025095e-35 1.0000000180025095e-35 672.33297538750014 0.60014204545454553 257.43782806400003 -204.81697082499997 -336.67225170149987
decision_type=2 2 2 2 2 2 2 2 2 2 2
left_child=4 -2 -3 -4 5 -1 7 -7 9 10 -9
right_child=1 2 3 -5 -6 6 -8 8 -10 -11 -12
leaf_value=0.035635654519078498 0.077828531600555306 0.045903551029712067 0.013941626494358698 -0.056260701225737481 -0.060766426099857079 0.0033547084729176019 0.013245495813289467 -0.081931137825248107 -0.023587111077281647 -0.047473830671725593 -0.11891222417822558
leaf_weight=0.032156663481146097 0.023801170755177736 0.036472402047365904 0.043882316909730434 0.030882018385455012 0.02943844476249069 0.01661730045452714 0.026896665804088116 0.0071122739464044562 0.021380741847679019 0.0074624270200729361 0.0061283316463232049
leaf_count=6 4 4 5 5 9 3 3 7 4 3 3
internal_value=0 0.01778 0.00493146 -0.015056 -0.0163117 -0.00519811 -0.0205382 -0.0360178 -0.0515645 -0.0804578 -0.0990476
internal_weight=0 0.135038 0.111237 0.0747643 0.147193 0.117754 0.0855977 0.0587011 0.0420838 0.020703 0.0132406
internal_count=56 18 14 10 38 29 23 20 17 13 10
is_linear=0
shrinkage=0.1


Tree=47
num_leaves=11
num_cat=0
split_feature=19 204 65 202 19 50 13 202 10 53
split_gain=0.00782653 0.00664644 0.020222 0.00670572 0.00893538 0.00405795 0.00428011 0.00607798 0.00241366 0.00111744
threshold=1.0000000180025095e-35 1.4018218623481784 112.68061447150002 1.4075396825396826 -739.25165557899993 672.33297538750014 -165.33669280999996 0.60014204545454553 58.182008743499985 -1.58370971650001
decision_type=2 2 2 2 2 2 2 2 2 2
left_child=1 2 -1 4 -4 6 -2 -8 -9 -10
right_child=5 -3 3 -5 -6 -7 7 8 9 -11
leaf_value=0.094532943728389274 -0.0019880944232333743 -0.026237854211432179 0.01365523026113815 0.039477759284499474 -0.060518818400343045 0.012691179496230968 0.00042650387335429069 -0.11014670535573122 -0.033507424185380164 -0.078780187708919272
leaf_weight=0.030879987636581063 0.028912327077705413 0.033304277923889458 0.040740570519119501 0.032264012843370438 0.027006941847503185 0.026365265715867281 0.016039620153605938 0.012078596977517009 0.011770413955673575 0.010156118078157306
leaf_count=6 4 6 7 3 7 3 3 5 6 6
internal_value=0 0.013648 0.0237967 0.00195582 -0.0159136 -0.021277 -0.0326197 -0.0503164 -0.074251 -0.0544772
internal_weight=0 0.164196 0.130892 0.100012 0.0677475 0.105322 0.0789571 0.0500447 0.0340051 0.0219265
internal_count=56 29 23 17 14 27 24 20 17 12
is_linear=0
shrinkage=0.1


Tree=48
num_leaves=10
num_cat=0
split_feature=87 202 80 200 42 8 0 48 6
split_gain=0.00747952 0.00765719 0.00694476 0.00539914 0.0209257 0.0188566 0.0124133 0.010068 0.00234739
threshold=420.60369110100004 0.60014204545454553 427.17076778400008 0.58578431372549034 -870.78710556049987 423.10235214250002 1.0000000180025095e-35 493.54378128050007 -122.49339103699998
decision_type=2 2 2 2 2 2 2 2 2
left_child=1 -1 3 5 -5 -3 -6 -8 -4
right_child=-2 2 8 4 6 -7 7 -9 -10
leaf_value=0.058912365639069944 -0.057989095437862216 -0.084479419918914861 -0.021073363049010394 0.10741048213553524 0.046008590760511572 0.02999763410155103 -0.078895222446940888 0.00047493179882983501 -0.087116494984987913
leaf_weight=0.023725566454231739 0.020463421940803528 0.025624311063438654 0.010533853899687529 0.021167936734855175 0.037117643281817436 0.032816161867231131 0.023515341454185545 0.049887504894286394 0.011003705149050802
leaf_count=4 6 7 2 2 8 4 9 6 8
internal_value=0 0.00504119 -0.0009972 0.00509925 0.0163252 -0.020197 -0.00112038 -0.0249521 -0.0548153
internal_weight=0 0.235392 0.211666 0.190129 0.131688 0.0584405 0.11052 0.0734028 0.0215376
internal_count=56 50 46 36 25 11 23 15 10
is_linear=0
shrinkage=0.1


Tree=49
num_leaves=10
num_cat=0
split_feature=98 44 33 200 50 201 1 62 62
split_gain=0.00676523 0.0107514 0.00678028 0.00909019 0.00404092 0.00258841 0.00230529 0.00123264 0.000982412
threshold=1.0000000180025095e-35 1.0000000180025095e-35 558.13435363750011 0.65079365079365081 672.33297538750014 0.25558710951969382 297.71285915400006 90.551348924500033 48.635431289500012
decision_type=2 2 2 2 2 2 2 2 2
left_child=1 -1 -3 -4 5 -2 7 8 -7
right_child=4 2 3 -5 -6 6 -8 -9 -10
leaf_value=0.077659462211224439 0.0023745273693844063 -0.035395624390107079 -0.0069175910132943099 0.056992957384763537 0.011667857972927728 -0.074022827306740688 -0.014803242818142085 -0.09230367125622102 -0.030234636545417096
leaf_weight=0.021580448374152184 0.012494316091760993 0.036168154794722795 0.064166631549596786 0.03407238470390439 0.023144830018281937 0.0093598354142159224 0.013612131238915026 0.010366168688051403 0.011320703662931919
leaf_count=5 3 9 9 6 3 6 3 8 4
internal_value=0 0.0121403 0.00162055 0.0152486 -0.0235839 -0.0378595 -0.0491159 -0.0641599 -0.0500528
internal_weight=0 0.155988 0.134407 0.098239 0.080298 0.0571532 0.0446588 0.0310467 0.0206805
internal_count=56 29 24 15 27 24 21 18 10
is_linear=0
shrinkage=0.1


Tree=50
num_leaves=10
num_cat=0
split_feature=98 44 33 200 50 202 4 202 86
split_gain=0.0060355 0.00973682 0.00498536 0.0076688 0.00356405 0.0020422 0.00237232 0.00113001 0.00127293
threshold=1.0000000180025095e-35 1.0000000180025095e-35 558.13435363750011 0.65079365079365081 672.33297538750014 0.60014204545454553 224.55056762700005 0.69977678571428581 -235.71142148949997
decision_type=2 2 2 2 2 2 2 2 2
left_child=1 -1 -3 -4 5 -2 7 -7 -9
right_child=4 2 3 -5 -6 6 -8 8 -10
leaf_value=0.075891703026509272 -0.0018572432557635221 -0.030656689809237903 -0.0067328676910898728 0.053563554389709972 0.010956302149708766 -0.094281137831277118 -0.0053182402605844031 -0.080863664017447032 -0.032826025048868203
leaf_weight=0.020408093463629484 0.013015239499509335 0.035013776505365968 0.062820569146424532 0.03175601433031261 0.022317376919090748 0.0076292214798741034 0.010211545741185546 0.0086110179545357806 0.015348395565524699
leaf_count=5 3 9 9 6 3 4 2 6 9
internal_value=0 0.0116895 0.00157879 0.0135129 -0.0227322 -0.0364481 -0.0472186 -0.0607635 -0.0500908
internal_weight=0 0.149998 0.12959 0.0945766 0.0771328 0.0548154 0.0418002 0.0315886 0.0239594
internal_count=56 29 24 15 27 24 21 19 15
is_linear=0
shrinkage=0.1


Tree=51
num_leaves=10
num_cat=0
split_feature=98 44 14 201 40 50 96 40 204
split_gain=0.00551098 0.0088119 0.00424546 0.00567296 0.00507448 0.00314991 0.00212734 0.00126781 0.000941187
threshold=1.0000000180025095e-35 1.0000000180025095e-35 459.62120056150007 1.8750000000000002 1.0000000180025095e-35 672.33297538750014 -249.20503234799997 -46.048892974999994 1.6363061353573689
decision_type=2 2 2 2 2 2 2 2 2
left_child=1 -1 3 4 -3 6 -2 -8 -9
right_child=5 2 -4 -5 -6 -7 7 8 -10
leaf_value=0.07416229924474059 -0.074229405969504253 -0.079424198179437022 0.035075343241746139 0.012749113667575574 -0.0080298270223588854 0.01014895891793955 -0.0070283916211366501 -0.065550251040002505 -0.023456196580735722
leaf_weight=0.019363181199878454 0.011045996681787074 0.016461438382975757 0.029212977970018983 0.054624016396701336 0.025189623003825545 0.021561280824244022 0.020395626779645681 0.009410470025613904 0.012195324408821762
leaf_count=5 9 7 5 7 5 3 5 6 4
internal_value=0 0.0113729 0.00168429 -0.00844764 -0.0362465 -0.0220802 -0.0351799 -0.0249102 -0.0417904
internal_weight=0 0.144851 0.125488 0.0962751 0.0416511 0.0746087 0.0530474 0.0420014 0.0216058
internal_count=56 29 24 19 12 27 24 15 10
is_linear=0
shrinkage=0.1


Tree=52
num_leaves=8
num_cat=0
split_feature=98 200 90 205 46 202 41
split_gain=0.00493218 0.00500205 0.00439319 0.00721348 0.010506 0.00595166 0.0040932
threshold=273.82704925500008 1.675 302.95551300050005 0.64717139750000008 -11.211872577500001 1.4075396825396826 113.65580272700002
decision_type=2 2 2 2 2 2 2
left_child=2 -2 3 4 -1 6 -5
right_child=1 -3 -4 5 -6 -7 -8
leaf_value=-0.002715728476757088 -0.079105899121941617 -0.00023376324949380382 -0.039821718488002471 -0.060078287363269901 0.089378241728947691 0.022260667279396806 -0.0051840878952876188
leaf_weight=0.024697102373465896 0.014683640154544264 0.01777388306800276 0.018482091370970011 0.020383843570016325 0.024852480390109122 0.053152302745729685 0.040715717244893312
leaf_count=6 9 6 5 7 9 6 8
internal_value=0 -0.0359152 0.00639508 0.0116098 0.0434757 -0.00220998 -0.0234977
internal_weight=0 0.0324575 0.182284 0.163801 0.0495496 0.114252 0.0610996
internal_count=56 15 41 36 15 21 15
is_linear=0
shrinkage=0.1


Tree=53
num_leaves=10
num_cat=0
split_feature=94 98 83 203 56 50 1 41 81
split_gain=0.00560208 0.00540635 0.00837595 0.00443277 0.018609 0.00337697 0.00254323 0.00134259 0.00124819
threshold=-587.39817047149984 1.0000000180025095e-35 -1.0000000180025095e-35 0.48260594560404813 20.656845092500024 672.33297538750014 297.71285915400006 -149.33279991199998 53.886268615500008
decision_type=2 2 2 2 2 2 2 2 2
left_child=-1 2 3 -2 -5 6 7 -3 -9
right_child=1 5 -4 4 -6 -7 -8 8 -10
leaf_value=-0.065883483213526134 -0.030572906847198229 -0.023125320916012045 0.057074183967382001 0.091870321357090112 -0.022857901828369165 0.013959297513927486 0.0015597280713060665 -0.098288976492209051 -0.046579995099814614
leaf_weight=0.012144263368099928 0.031321534770540893 0.01067567098652944 0.035643784096464515 0.021206393139436841 0.042415117030031979 0.020048199687153101 0.01281869295053184 0.007779256848152726 0.011672817287035286
leaf_count=4 6 5 8 4 9 3 3 8 6
internal_value=0 0.00413318 0.0157402 0.000222525 0.0153834 -0.0199281 -0.0357473 -0.0516206 -0.0672594
internal_weight=0 0.193581 0.130587 0.094943 0.0636215 0.0629946 0.0429464 0.0301277 0.0194521
internal_count=56 52 27 19 13 25 22 19 14
is_linear=0
shrinkage=0.1


Tree=54
num_leaves=10
num_cat=0
split_feature=4 205 204 14 204 47 200 82 5
split_gain=0.0186045 0.00960657 0.00442872 0.00635915 0.00475797 0.00928707 0.0084136 0.0043535 0.00247509
threshold=497.86199188300009 0.56040457765000007 1.4018218623481784 -577.36280822749984 0.50990196078431382 -17.170680999500004 0.54292929292929304 800.81030273450017 1.0000000180025095e-35
decision_type=2 2 2 2 2 2 2 2 2
left_child=1 -1 3 -3 -5 -6 -7 -4 -8
right_child=-2 2 7 4 5 6 8 -9 -10
leaf_value=0.064824390201287038 -0.10042214166225237 0.063210871285170389 -0.073553777051070551 0.034621176840455042 0.032362680312387981 0.019213248337521333 -0.1117965062839481 -0.0069815764148506015 -0.04996092778346866
leaf_weight=0.026506319525651634 0.016929104924201965 0.019264635862782598 0.013429977057967335 0.027896322775632143 0.025447028980124742 0.013430625665932894 0.011914417205844074 0.036576910875737667 0.014173811650834978
leaf_count=9 4 4 6 5 7 2 5 9 5
internal_value=0 0.00901217 -0.000112247 0.010925 7.8143e-05 -0.0147546 -0.0450945 -0.0248604 -0.0782011
internal_weight=0 0.18864 0.162134 0.112127 0.0928622 0.0649659 0.0395189 0.0500069 0.0260882
internal_count=56 52 43 28 24 19 12 15 10
is_linear=0
shrinkage=0.1


Tree=55
num_leaves=11
num_cat=0
split_feature=98 203 27 202 204 50 202 8 89 53
split_gain=0.00455764 0.00559688 0.00330534 0.00434772 0.00471622 0.00319595 0.0027848 0.00265903 0.00203344 0.00127378
threshold=1.0000000180025095e-35 1.1184873949579834 -1.0000000180025095e-35 1.4075396825396826 1.2181663837011887 672.33297538750014 0.60014204545454553 580.41304683750013 48.804446697000003 -1.58370971650001
decision_type=2 2 2 2 2 2 2 2 2 2
left_child=1 2 3 4 7 6 -2 -1 9 -8
right_child=5 -3 -4 -5 -6 -7 8 -9 -10 -11
leaf_value=-0.08127264914228538 0.0092264388848474783 0.0590360434523787 0.02873408064262812 0.025572409796055698 0.012761163454577326 0.014951696214933148 -0.0546873061671048 -0.020674828258693236 -0.029497269998557243 -0.11664231412255872
leaf_weight=0.015332227922044694 0.010809505823999643 0.020496064680628479 0.031208244152367115 0.02259804611094296 0.017758289235644042 0.017423332901671529 0.0087039546342566609 0.013721706112846732 0.021700822631828487 0.0053633692150469878
leaf_count=6 3 5 6 4 4 3 7 4 9 5
internal_value=0 0.0114063 0.00170404 -0.0104492 -0.0278382 -0.0215851 -0.0352524 -0.0526533 -0.0486944 -0.0783085
internal_weight=0 0.121115 0.100619 0.0694103 0.0468122 0.064001 0.0465777 0.0290539 0.0357681 0.0140673
internal_count=56 29 24 18 14 27 24 10 21 12
is_linear=0
shrinkage=0.1


Tree=56
num_leaves=10
num_cat=0
split_feature=98 200 42 25 22 91 4 33 49
split_gain=0.00404679 0.00313656 0.0133457 0.0123975 0.00681878 0.00523958 0.00339974 0.00333379 0.000544037
threshold=307.32245635950011 0.58578431372549034 -870.78710556049987 1109.5892333985003 706.81435394250013 -1.0000000180025095e-35 -1.0000000180025095e-35 -459.08100128149999 238.35536193800002
decision_type=2 2 2 2 2 2 2 2 2
left_child=1 3 -3 -1 5 7 -7 -4 -2
right_child=8 2 4 -5 -6 6 -8 -9 -10
leaf_value=-0.081899433736925709 -0.065632347713842007 0.10586931870030597 0.010553439195174298 0.029412405698595913 -0.055565688126653023 0.01228753742414454 0.074153167382161642 -0.042998201524772815 -0.030419621960469274
leaf_weight=0.017661927733570337 0.0073604108765721312 0.013772583100944757 0.034139440162107348 0.023082481697201729 0.017624955624341965 0.018390463665127754 0.017181541305035353 0.017627373803406954 0.010863447096198797
leaf_count=6 8 2 6 4 6 5 6 9 4
internal_value=0 0.0051012 0.0133163 -0.0188392 0.00117221 0.0126219 0.0421691 -0.00768169 -0.0446416
internal_weight=0 0.159481 0.118736 0.0407444 0.104964 0.0873388 0.035572 0.0517668 0.0182239
internal_count=56 44 34 10 32 26 11 15 12
is_linear=0
shrinkage=0.1


Tree=57
num_leaves=10
num_cat=0
split_feature=5 41 41 204 204 3 200 12 204
split_gain=0.00366151 0.00507764 0.00571417 0.00423426 0.0046428 0.00430598 0.00360228 0.00170913 0.000628013
threshold=868.82246398900008 -1.0000000180025095e-35 -149.33279991199998 0.50990196078431382 0.78044375644994857 1.0000000180025095e-35 0.58578431372549034 -1067.6858444214997 0.95098039215686281
decision_type=2 2 2 2 2 2 2 2 2
left_child=1 2 8 -3 -5 -6 -7 -4 -1
right_child=-2 3 7 4 5 6 -8 -9 -10
leaf_value=-0.026480533588340294 0.039496959144947649 0.043244963015873279 -0.039396245162421815 -0.039700522591169962 0.074756155630183049 -0.033392737597888751 0.024483759853299446 -0.10731344818267748 0.0046568313041972205
leaf_weight=0.010254877968691289 0.020574871799908578 0.024123251321725547 0.0059034329606220117 0.025512260675895959 0.0091182729229331017 0.01909105246886611 0.024625969352200627 0.0099507328122854233 0.017584966379217803
leaf_count=4 6 5 3 6 2 7 8 9 6
internal_value=0 -0.00555979 -0.0341027 0.00661105 -0.00466855 0.0122471 -0.00079068 -0.0820239 -0.0068127
internal_weight=0 0.146165 0.043694 0.102471 0.0783476 0.0528353 0.043717 0.0158542 0.0278398
internal_count=56 50 22 28 23 17 15 12 10
is_linear=0
shrinkage=0.1


Tree=58
num_leaves=11
num_cat=0
split_feature=98 203 27 33 50 202 69 7 24 48
split_gain=0.00421616 0.00352946 0.00298991 0.00336009 0.00297326 0.0020443 0.00172554 0.000742523 0.000643106 0.000883924
threshold=1.0000000180025095e-35 1.1184873949579834 -1.0000000180025095e-35 558.13435363750011 672.33297538750014 0.60014204545454553 -80.866775512999979 114.683092117 257.43782806400003 276.77381896950004
decision_type=2 2 2 2 2 2 2 2 2 2
left_child=1 2 3 -1 5 -2 -7 -5 9 -8
right_child=4 -3 -4 7 -6 6 8 -9 -10 -11
leaf_value=-0.045351142604009916 0.0038316404129348914 0.05232653994061677 0.03138419418183877 0.020067095265324256 0.015934695787696015 -0.095183353882791366 -0.031610195762428947 -0.0069045015436994088 -0.021745791771359574 -0.087827975734159125
leaf_weight=0.017780228168703616 0.0099078933708369732 0.017958288779482245 0.026548534166067839 0.020645033568143845 0.015183208277449012 0.0062729450291953972 0.007105165277607739 0.020187960006296635 0.013545990455895662 0.004612462071236223
leaf_count=8 3 5 6 5 3 7 5 5 4 5
internal_value=0 0.0120388 0.00354324 -0.00906716 -0.0219229 -0.0357921 -0.0482407 0.00673225 -0.0365849 -0.0537395
internal_weight=0 0.10312 0.0851618 0.0586132 0.0566277 0.0414445 0.0315366 0.040833 0.0252636 0.0117176
internal_count=56 29 24 18 27 24 21 10 14 10
is_linear=0
shrinkage=0.1


Tree=59
num_leaves=9
num_cat=0
split_feature=5 62 204 204 204 40 88 59
split_gain=0.00370692 0.00402388 0.00244728 0.00451919 0.00491134 0.0037671 0.00174656 0.00101081
threshold=868.82246398900008 48.635431289500012 0.50990196078431382 0.83435483870967753 1.2181663837011887 92.564177513500013 -136.01662445049999 -70.260879516499998
decision_type=2 2 2 2 2 2 2 2
left_child=1 2 -1 -4 -5 -6 -3 -8
right_child=-2 6 3 4 5 -7 7 -9
leaf_value=0.03140129730708506 0.040983267048601661 -0.092740214536928003 -0.040467077710737188 0.046712805275241159 0.018091798584535298 -0.047416226805361152 -0.059232986033949477 -0.014221720727764595
leaf_weight=0.023756438866257668 0.01931487675756216 0.0050038463668897739 0.025068462884519249 0.022630880761425942 0.018497277284041047 0.016707535949535668 0.0071293395303655407 0.016620002337731421
leaf_count=6 6 5 7 6 5 7 7 7
internal_value=0 -0.00584569 0.0031045 -0.00500403 0.0103672 -0.0129971 -0.0390466 -0.0277337
internal_weight=0 0.135414 0.106661 0.0829042 0.0578357 0.0352048 0.0287532 0.0237493
internal_count=56 50 31 25 18 12 19 14
is_linear=0
shrinkage=0.1


Tree=60
num_leaves=10
num_cat=0
split_feature=98 200 56 34 50 202 69 24 72
split_gain=0.00416525 0.00399994 0.0107706 0.00574942 0.00237079 0.00183949 0.00136526 0.000471464 0.000813077
threshold=1.0000000180025095e-35 0.58578431372549034 20.656845092500024 -44.678865432999991 672.33297538750014 0.60014204545454553 -80.866775512999979 257.43782806400003 -107.55404663099999
decision_type=2 2 2 2 2 2 2 2 2
left_child=1 -1 -3 -4 5 -2 -7 8 -8
right_child=4 2 3 -5 -6 6 7 -9 -10
leaf_value=-0.016337003686549299 0.0031391953657823853 0.071642632411697049 0.027226388195922172 -0.053693046527935266 0.012346264447377388 -0.092559966778588021 -0.079540697384641618 -0.024406226816260996 -0.024528618960417095
leaf_weight=0.032485767500475049 0.0092761327978223562 0.029180662066210061 0.0188454061280936 0.016440410749055445 0.014093806035816669 0.0055621198844164601 0.0055393962538801125 0.012699175626039505 0.0052169850096106538
leaf_count=8 3 8 5 8 3 7 6 4 4
internal_value=0 0.0122763 0.0266951 -0.0104757 -0.0227194 -0.0356251 -0.048017 -0.0374543 -0.0528591
internal_weight=0 0.0969522 0.0644665 0.0352858 0.0523876 0.0382938 0.0290177 0.0234556 0.0107564
internal_count=56 29 21 13 27 24 21 14 10
is_linear=0
shrinkage=0.1


Tree=61
num_leaves=9
num_cat=0
split_feature=98 200 56 34 50 201 62 62
split_gain=0.00338386 0.00329046 0.00921783 0.0043675 0.00229921 0.00154641 0.00111754 0.000684612
threshold=1.0000000180025095e-35 0.58578431372549034 20.656845092500024 -44.678865432999991 672.33297538750014 0.25558710951969382 90.551348924500033 33.405328750500011
decision_type=2 2 2 2 2 2 2 2
left_child=1 -1 -3 -4 5 -2 7 -7
right_child=4 2 3 -5 -6 6 -8 -9
leaf_value=-0.014978213907115921 0.0045712566698417291 0.067677298715584769 0.02339690241650022 -0.048754964136781397 0.014406964288816996 -0.056938436170551998 -0.080863189311373262 -0.020238635310341094
leaf_weight=0.031505824183113873 0.0080624098191037774 0.027566817705519497 0.017970140092074871 0.015736067318357527 0.013382155215367675 0.0081487225834280252 0.0066683540935628107 0.013510428485460579
leaf_count=8 3 8 5 8 3 7 9 5
internal_value=0 0.0112847 0.0247888 -0.0102879 -0.0210355 -0.0340693 -0.0450669 -0.034046
internal_weight=0 0.0927788 0.061273 0.0337062 0.0497721 0.0363899 0.0283275 0.0216592
internal_count=56 29 21 13 27 24 21 12
is_linear=0
shrinkage=0.1


Tree=62
num_leaves=9
num_cat=0
split_feature=95 200 8 98 50 202 24 98
split_gain=0.00317459 0.00345454 0.00263599 0.00250476 0.00192146 0.00131279 0.00170801 0.00062405
threshold=87.037368774499996 0.65079365079365081 1.0000000180025095e-35 1.0000000180025095e-35 672.33297538750014 0.60014204545454553 257.43782806400003 273.82704925500008
decision_type=2 2 2 2 2 2 2 2
left_child=2 -2 3 -1 5 -5 7 -7
right_child=1 -3 -4 4 -6 6 -8 -9
leaf_value=0.029608335333622077 -0.0028634124386226734 0.044550853421360621 -0.051874202039648931 0.0023307196496917437 0.015477154122988931 -0.047798836261582503 -0.017409168848547953 -0.097340067292590704
leaf_weight=0.015627456130459905 0.038012736709788442 0.025793082779273391 0.014821625081822276 0.0085024649742990732 0.012675391510128975 0.0048473021888639778 0.011364131118170917 0.0053478604677366093
leaf_count=6 9 9 9 3 3 5 4 8
internal_value=0 0.0163035 -0.0142138 -0.00465004 -0.0171771 -0.0309456 -0.044069 -0.0737856
internal_weight=0 0.0638058 0.0731862 0.0583646 0.0427372 0.0300618 0.0215593 0.0101952
internal_count=56 18 38 29 23 20 17 13
is_linear=0
shrinkage=0.1


Tree=63
num_leaves=10
num_cat=0
split_feature=19 46 43 202 5 202 15 10 84
split_gain=0.00296127 0.00240797 0.00486797 0.00207994 0.0019528 0.00206124 0.00112472 0.00080491 0.000468917
threshold=1.0000000180025095e-35 -11.211872577500001 -146.45530605299999 1.4075396825396826 -523.35697936999998 0.60014204545454553 1096.3368549345003 58.182008743499985 -620.54047012349986
decision_type=2 2 2 2 2 2 2 2 2
left_child=1 3 -3 6 8 -6 -1 -7 -2
right_child=4 2 -4 -5 5 7 -8 -9 -10
leaf_value=-0.032477384716293398 0.01352786603312439 -0.013270851321136612 0.086866737402117089 0.025105379235200731 0.00052177411509852784 -0.084395186097905972 0.0031469553928322536 -0.038486114279548352 -0.011737833359857702
leaf_weight=0.01619918635697104 0.012500716373324394 0.0086991472926456481 0.010984624153934419 0.02391955628991127 0.0082646261435002089 0.0076488647027872503 0.019567568204365671 0.0076271816215012223 0.017813025508075953
leaf_count=7 3 5 6 5 3 6 6 8 7
internal_value=0 0.0122809 0.0426114 0.00227825 -0.0180994 -0.0397081 -0.0129877 -0.0614732 -0.00131882
internal_weight=0 0.0793701 0.0196838 0.0596863 0.0538544 0.0235407 0.0357668 0.015276 0.0303137
internal_count=56 29 11 18 27 17 13 14 10
is_linear=0
shrinkage=0.1


Tree=64
num_leaves=11
num_cat=0
split_feature=204 97 54 62 204 33 98 54 84 89
split_gain=0.00254591 0.00350303 0.00884862 0.00305172 0.00286605 0.00487116 0.00187626 0.000977211 0.000801522 0.000553588
threshold=0.34337349397590367 177.06061577800003 83.347343444999993 48.635431289500012 1.2181663837011887 1008.3515014645002 115.68078231800001 -146.12396240199996 -620.54047012349986 48.804446697000003
decision_type=2 2 2 2 2 2 2 2 2 2
left_child=-1 2 3 6 5 -3 -2 9 -8 -5
right_child=1 4 -4 7 -6 -7 8 -9 -10 -11
leaf_value=0.052783387432336182 0.043915641027405986 0.077089967154832018 -0.11024733691274696 -0.090998290243411495 -0.0166255413144644 0.0017093822048935962 0.015525280827742773 -0.017891400085971881 -0.019027216425681233 -0.037886190259265054
leaf_weight=0.008533729356713593 0.012016939930617809 0.01419756596442312 0.0091970828943885863 0.0040678393997950479 0.01881281437817961 0.021637583267875016 0.012164178537204862 0.0096621743869036436 0.014982959954068065 0.0037916815490461886
leaf_count=3 4 5 6 8 6 6 3 5 7 3
internal_value=0 -0.00373713 -0.0192636 -0.00450181 0.0149814 0.0315745 0.0110177 -0.0391908 -0.00354482 -0.0653753
internal_weight=0 0.120531 0.0658829 0.0566858 0.054648 0.0358351 0.0391641 0.0175217 0.0271471 0.00785952
internal_count=56 53 36 30 17 11 14 16 10 11
is_linear=0
shrinkage=0.1


Tree=65
num_leaves=10
num_cat=0
split_feature=95 203 202 27 62 98 30 19 62
split_gain=0.00229839 0.00325714 0.00248903 0.00188072 0.00246755 0.0015499 0.00127282 0.000862478 0.000261569
threshold=87.037368774499996 0.99418604651162801 1.4075396825396826 -1.0000000180025095e-35 48.635431289500012 71.124782562500016 -112.71527051899999 749.40990448000014 90.551348924500033
decision_type=2 2 2 2 2 2 2 2 2
left_child=3 2 -2 6 5 -5 -1 -7 -6
right_child=1 -3 -4 4 8 7 -8 -9 -10
leaf_value=-0.021808577983239943 -0.023036888646838134 0.056481311158863678 0.024719637410585894 0.040152309636009818 -0.031506289916820848 -0.020301305399490849 -0.078626850225907513 0.016235568599139546 -0.064429190363899588
leaf_weight=0.011946941493079066 0.021622084779664874 0.014011569553986192 0.022035951260477304 0.011290199821814895 0.0049675481859594584 0.014631976519012824 0.0058847562759183339 0.011569192400202155 0.0046929673553677276
leaf_count=5 8 5 5 4 3 8 6 3 9
internal_value=0 0.0145312 0.00106773 -0.0128957 -0.00243386 0.00917843 -0.0405596 -0.00416836 -0.0474999
internal_weight=0 0.0576696 0.043658 0.0649836 0.0471519 0.0374914 0.0178317 0.0262012 0.00966052
internal_count=56 18 13 38 27 15 11 11 12
is_linear=0
shrinkage=0.1


Tree=66
num_leaves=11
num_cat=0
split_feature=204 97 54 62 46 202 4 203 201 41
split_gain=0.0024955 0.00287778 0.00730427 0.00256575 0.00242075 0.00176808 0.00125096 0.000811919 0.00150265 0.000466925
threshold=0.34337349397590367 177.06061577800003 83.347343444999993 48.635431289500012 -180.09710645599998 1.4075396825396826 -1.0000000180025095e-35 2.2375000000000003 0.64048114048114058 31.321109771500009
decision_type=2 2 2 2 2 2 2 2 2 2
left_child=-1 2 3 6 5 -3 -2 8 -5 -10
right_child=1 4 -4 7 -6 -7 -8 -9 9 -11
leaf_value=0.053967572870383965 -0.012173786909278644 -0.014156367473887453 -0.10805520318355853 0.025540320587167382 0.052366299401068732 0.031028705732001317 0.0254902794921128 -0.075301900832093427 -0.072581888733989575 -0.023898282702355216
leaf_weight=0.007992958533577621 0.015187512617558241 0.025255476590245962 0.0079345583508256823 0.0039682581555098304 0.012262379284948111 0.013178754365071654 0.021028043120168149 0.0043204861867707214 0.0042208976665278897 0.0036943968152627349
leaf_count=3 7 9 6 2 5 3 7 4 7 3
internal_value=0 -0.00388435 -0.0186382 -0.00510343 0.01368 0.00133719 0.00969531 -0.0381782 -0.0246812 -0.0498592
internal_weight=0 0.111051 0.0603542 0.0524196 0.0506966 0.0384342 0.0362156 0.016204 0.0118836 0.00791529
internal_count=56 53 36 30 17 12 14 16 12 10
is_linear=0
shrinkage=0.1


Tree=67
num_leaves=9
num_cat=0
split_feature=5 62 204 204 204 40 39 200
split_gain=0.00206644 0.00305575 0.00238775 0.00346114 0.00262158 0.00292281 0.000948936 0.000545718
threshold=868.82246398900008 48.635431289500012 0.50990196078431382 0.83435483870967753 1.2181663837011887 92.564177513500013 122.97213745149999 1.675
decision_type=2 2 2 2 2 2 2 2
left_child=1 2 -1 -4 -5 -6 7 -3
right_child=-2 6 3 4 5 -7 -8 -9
leaf_value=0.036524843681935558 0.035915161460627842 -0.0061806426045136354 -0.042225588565632376 0.041070629873668864 0.022192606989834943 -0.043648814354317028 -0.072237245852553866 -0.044681061420962565
leaf_weight=0.017499751411378384 0.014047343516722322 0.0073876533715520054 0.018001904914854094 0.016666074807289988 0.014068406191654503 0.012947008828632534 0.0061125660722609601 0.0073389268654864281
leaf_count=6 6 6 7 6 5 7 8 5
internal_value=0 -0.005044 0.00392273 -0.00532658 0.00988014 -0.00936158 -0.0391152 -0.0253672
internal_weight=0 0.100022 0.0791831 0.0616834 0.0436815 0.0270154 0.0208391 0.0147266
internal_count=56 50 31 25 18 12 19 11
is_linear=0
shrinkage=0.1


Tree=68
num_leaves=10
num_cat=0
split_feature=98 44 33 200 50 202 202 24 54
split_gain=0.00233103 0.00398075 0.002333 0.00311523 0.00164156 0.00124218 0.00122099 0.000700234 0.000715247
threshold=1.0000000180025095e-35 1.0000000180025095e-35 558.13435363750011 0.65079365079365081 672.33297538750014 0.60014204545454553 0.69977678571428581 257.43782806400003 -204.81697082499997
decision_type=2 2 2 2 2 2 2 2 2
left_child=1 -1 -3 -4 5 -2 -7 8 -8
right_child=4 2 3 -5 -6 6 7 -9 -10
leaf_value=0.073751857628142944 0.0043285060260200266 -0.029466858666866897 -0.0040922989452267322 0.052125456612037151 0.013848632843983048 -0.094678538373086124 -0.085385986173859299 -0.011378300820811713 -0.02885423896323815
leaf_weight=0.0087875754106789827 0.0069828669074922791 0.017217727145180106 0.031055538216605783 0.014440261758863926 0.010608823737129569 0.0039209784590639165 0.0037456874415511248 0.0080858991714194417 0.0055604249646421539
leaf_count=5 3 9 9 6 3 4 9 3 5
internal_value=0 0.0107182 0.00188579 0.0137511 -0.0196985 -0.0322762 -0.0442691 -0.0329045 -0.0516081
internal_weight=0 0.0715011 0.0627135 0.0454958 0.0389047 0.0282959 0.021313 0.017392 0.00930611
internal_count=56 29 24 15 27 24 21 17 14
is_linear=0
shrinkage=0.1


Tree=69
num_leaves=12
num_cat=0
split_feature=98 203 200 75 27 80 50 201 202 24 54
split_gain=0.00217548 0.00272966 0.0019829 0.00724959 0.00296875 0.0026685 0.0015429 0.00117424 0.000794804 0.000579001 0.000627554
threshold=1.0000000180025095e-35 1.1184873949579834 0.58578431372549034 -860.19903469099984 -1.0000000180025095e-35 -152.60577487949999 672.33297538750014 0.25558710951969382 0.69977678571428581 257.43782806400003 -204.81697082499997
decision_type=2 2 2 2 2 2 2 2 2 2 2
left_child=1 2 -1 -4 5 -5 7 -2 -9 10 -10
right_child=6 -3 3 4 -6 -7 -8 8 9 -11 -12
leaf_value=-0.023799406384381602 0.0074426524837291662 0.054459562128565578 0.10413484159886131 -0.056360146035468711 0.041101426040928778 0.016462810353137302 0.013346367308158056 -0.081066473722413157 -0.083431685567792124 -0.013481692681024475 -0.029033271807060491
leaf_weight=0.02010790363419801 0.0058911140076816073 0.011728994140867144 0.0073541770689189425 0.012612720427569 0.009092616499401629 0.0083718593232333677 0.010368492221459746 0.0043627937848214051 0.0035270004300400597 0.0079057563561946154 0.0053186972509138303
leaf_count=7 3 5 2 9 3 3 3 4 9 3 5
internal_value=0 0.0104913 0.00152868 0.0151348 -0.00662665 -0.0273072 -0.0194445 -0.0320343 -0.0430488 -0.0331473 -0.0507233
internal_weight=0 0.0692683 0.0575393 0.0374314 0.0300772 0.0209846 0.0373739 0.0270054 0.0211142 0.0167515 0.0088457
internal_count=56 29 24 17 15 12 27 24 21 17 14
is_linear=0
shrinkage=0.1


Tree=70
num_leaves=11
num_cat=0
split_feature=98 203 50 200 10 1 202 202 24 54
split_gain=0.00191686 0.00227483 0.00157256 0.00155172 0.00656735 0.00177519 0.000893039 0.000930612 0.000625561 0.000513904
threshold=1.0000000180025095e-35 1.1184873949579834 672.33297538750014 0.58578431372549034 -62.805860518999999 -182.16445326749997 0.60014204545454553 0.69977678571428581 257.43782806400003 -204.81697082499997
decision_type=2 2 2 2 2 2 2 2 2 2
left_child=1 3 6 -1 5 -5 -2 -8 9 -9
right_child=2 -3 -4 4 -6 -7 7 8 -10 -11
leaf_value=-0.021056386016307944 0.0009845725641957296 0.051261368030194411 0.015430483577274529 0.011218264644139596 0.062258050977531579 -0.049850124219973237 -0.08997286662977215 -0.081492864375860563 -0.01130841769921194 -0.031121722270542447
leaf_weight=0.019352082337718457 0.006313460646197199 0.011152199527714401 0.0097709207329899073 0.0081454962491989136 0.015746853780001402 0.011452858394477516 0.0033827686565928152 0.0033312120503978778 0.0075483977561816564 0.0051671543333213802
leaf_count=7 3 5 3 3 6 8 4 9 3 5
internal_value=0 0.010099 -0.0187254 0.0017064 0.0141694 -0.0244688 -0.0316895 -0.0423067 -0.0322583 -0.0508663
internal_weight=0 0.0658495 0.0355139 0.0546973 0.0353452 0.0195984 0.025743 0.0194295 0.0160468 0.00849837
internal_count=56 29 27 24 17 11 24 21 17 14
is_linear=0
shrinkage=0.1


Tree=71
num_leaves=9
num_cat=0
split_feature=95 203 8 202 62 98 19 204
split_gain=0.00187978 0.00192548 0.00180764 0.00169748 0.0016005 0.0011438 0.000764027 0.000405494
threshold=87.037368774499996 0.99418604651162801 1.0000000180025095e-35 1.4075396825396826 48.635431289500012 71.124782562500016 749.40990448000014 1.150501672240803
decision_type=2 2 2 2 2 2 2 2
left_child=2 3 4 -2 5 -1 -7 -6
right_child=1 -3 -4 -5 7 6 -8 -9
leaf_value=0.036496377642775878 -0.01936644841865795 0.050874949500249483 -0.049728819160384928 0.025160157421747167 -0.057227998928029669 -0.022280565663797422 0.016202112461558487 -0.018237381380995812
leaf_weight=0.0097021573456004262 0.016977251623757184 0.011186012648977339 0.010650773125234991 0.017272463766857982 0.005096120381494984 0.0115300816250965 0.0093370148679241538 0.0055962994520086795
leaf_count=5 8 5 9 5 6 8 3 7
internal_value=0 0.0148534 -0.0130003 0.00308875 -0.00351964 0.00812831 -0.00506143 -0.0368207
internal_weight=0 0.0454357 0.0519124 0.0342497 0.0412617 0.0305693 0.0208671 0.0106924
internal_count=56 18 38 13 29 16 11 13
is_linear=0
shrinkage=0.1


Tree=72
num_leaves=9
num_cat=0
split_feature=53 204 45 36 72 204 96 5
split_gain=0.00165613 0.00159538 0.00429497 0.00146503 0.00142922 0.0024042 0.00230689 0.00184321
threshold=173.99877548250001 1.4018218623481784 -62.691360473999985 157.54309463500002 495.0267734520001 0.50990196078431382 -249.20503234799997 -1.0000000180025095e-35
decision_type=2 2 2 2 2 2 2 2
left_child=1 2 -1 -3 5 -4 -7 -8
right_child=-2 3 4 -5 -6 6 7 -9
leaf_value=0.089169655512089954 -0.045619439141751317 0.0057331835007335113 0.021055910275697181 -0.039920752621802905 0.030221095660109207 0.013436220413163622 -0.094667453759365361 -0.019498057059369283
leaf_weight=0.0066003740648739031 0.0073428972245892501 0.014927314448868856 0.017294289136771113 0.013284242973895743 0.014611157355830073 0.0078796415182296169 0.0061894990212749672 0.0068970471620559727
leaf_count=4 8 8 8 8 6 3 6 5
internal_value=0 0.00382031 0.0131106 -0.0157643 0.00361558 -0.0065447 -0.0293115 -0.0550507
internal_weight=0 0.0876836 0.059472 0.0282116 0.0528716 0.0382605 0.0209662 0.0130865
internal_count=56 48 32 16 28 22 14 11
is_linear=0
shrinkage=0.1


Tree=73
num_leaves=10
num_cat=0
split_feature=5 41 41 204 204 204 60 2 12
split_gain=0.00192264 0.00230609 0.00267635 0.00153651 0.00194153 0.0011826 0.000871812 0.000545198 0.000127115
threshold=868.82246398900008 -1.0000000180025095e-35 -149.33279991199998 0.50990196078431382 0.61115048429010166 1.2181663837011887 205.89742279050003 395.89953231900006 -1067.6858444214997
decision_type=2 2 2 2 2 2 2 2 2
left_child=1 2 8 -3 -5 -6 -7 -4 -1
right_child=-2 3 7 4 5 6 -8 -9 -10
leaf_value=0.0023571037609634712 0.038139653358226375 0.035828745112066837 -0.10081681556075073 -0.040576827239720753 0.028961597988340162 0.013688061615148309 -0.0303787186907509 -0.048555836793760444 -0.016045545819799552
leaf_weight=0.0073178242892026901 0.011546917667146772 0.012803143763449043 0.0046297511435113847 0.010703548323363066 0.015177930967183784 0.0087396585149690509 0.0092319241666700691 0.0035092209873255342 0.0077062546188244596
leaf_count=4 6 5 7 4 8 5 6 5 6
internal_value=0 -0.00551741 -0.0321008 0.00535081 -0.00354739 0.00840893 -0.00894885 -0.0782838 -0.00708211
internal_weight=0 0.0798193 0.0231631 0.0566562 0.0438531 0.0331495 0.0179716 0.00813897 0.0150241
internal_count=56 50 22 28 23 19 11 12 10
is_linear=0
shrinkage=0.1


Tree=74
num_leaves=12
num_cat=0
split_feature=98 200 200 98 204 50 1 202 202 24 54
split_gain=0.00187488 0.00155103 0.00412922 0.00209683 0.00174793 0.00142725 0.00127151 0.000827267 0.000612606 0.000431493 0.000535417
threshold=1.0000000180025095e-35 0.65079365079365081 0.87867647058823539 -115.68078231799998 0.83435483870967753 672.33297538750014 -72.498985290999983 0.60014204545454553 0.69977678571428581 257.43782806400003 -204.81697082499997
decision_type=2 2 2 2 2 2 2 2 2 2 2
left_child=1 4 -3 6 -1 7 -4 -2 -9 10 -10
right_child=5 2 3 -5 -6 -7 -8 8 9 -11 -12
leaf_value=-0.040138012326756116 0.00078014082937447407 0.10305261646339486 0.010126602373652375 0.048013810522811159 0.012701778148591676 0.015515387657342916 -0.047078826275040439 -0.08526235310090069 -0.083631718203989014 -0.016654480944670268 -0.029577217811959551
