tree
version=v4
num_class=1
num_tree_per_iteration=1
label_index=0
max_feature_idx=204
objective=lambdarank
feature_names=colex0 colex1 colex2 colex3 colex4 colex5 colex6 colex7 colex8 colex9 colex10 colex11 colex12 colex13 colex14 colex15 colex16 colex17 colex18 colex19 colex20 colex21 colex22 colex23 colex24 colex25 colex26 colex27 colex28 colex29 colex30 colex31 colex32 colex33 colex34 colex35 colex36 colex37 colex38 colex39 colex40 colex41 colex42 colex43 colex44 colex45 colex46 colex47 colex48 colex49 colex50 colex51 colex52 colex53 colex54 colex55 colex56 colex57 colex58 colex59 colex60 colex61 colex62 colex63 colex64 colex65 colex66 colex67 colex68 colex69 colex70 colex71 colex72 colex73 colex74 colex75 colex76 colex77 colex78 colex79 colex80 colex81 colex82 colex83 colex84 colex85 colex86 colex87 colex88 colex89 colex90 colex91 colex92 colex93 colex94 colex95 colex96 colex97 colex98 colex99 colex100 colex101 colex102 colex103 colex104 colex105 colex106 colex107 colex108 colex109 colex110 colex111 colex112 colex113 colex114 colex115 colex116 colex117 colex118 colex119 colex120 colex121 colex122 colex123 colex124 colex125 colex126 colex127 colex128 colex129 colex130 colex131 colex132 colex133 colex134 colex135 colex136 colex137 colex138 colex139 colex140 colex141 colex142 colex143 colex144 colex145 colex146 colex147 colex148 colex149 colex150 colex151 colex152 colex153 colex154 colex155 colex156 colex157 colex158 colex159 colex160 colex161 colex162 colex163 colex164 colex165 colex166 colex167 colex168 colex169 colex170 colex171 colex172 colex173 colex174 colex175 colex176 colex177 colex178 colex179 colex180 colex181 colex182 colex183 colex184 colex185 colex186 colex187 colex188 colex189 colex190 colex191 colex192 colex193 colex194 colex195 colex196 colex197 colex198 colex199 distance_pron distance_verb emotion_dist ltq_score off_dist
feature_infos=[-1164.879425049:1164.879425049] [-511.371495724:511.371495724] [-1395.947784424:1395.947784424] [-1042.953536987:1042.953536987] [-805.63415527400002:805.63415527400002] [-1385.744964599:1385.744964599] [-677.23071288999995:677.23071288999995] [-1008.3467712409999:1008.3467712409999] [-700.64064788799999:700.64064788799999] [-763.85877227800006:763.85877227800006] [-1720.2705764770001:1720.2705764770001] [-1401.116989136:1401.116989136] [-1636.2387390140002:1636.2387390140002] [-400.34300231899999:400.34300231899999] [-1339.821289062:1339.821289062] [-1213.043640136:1213.043640136] [-748.013671875:748.013671875] [-756.42620849600007:756.42620849600007] [-1098.1876220700001:1098.1876220700001] [-889.01651442100001:889.01651442100001] [-809.52716064399999:809.52716064399999] [-1597.962890625:1597.962890625] [-1504.512634278:1504.512634278] [-1258.764038086:1258.764038086] [-299.57310485799997:299.57310485799997] [-1428.4898071290002:1428.4898071290002] [-1210.1719274519999:1210.1719274519999] [-525.41674804700006:525.41674804700006] [-1826.324523925:1826.324523925] [-948.97567748999995:948.97567748999995] [-1379.2127990720001:1379.2127990720001] [-469.12641143799999:469.12641143799999] [-1056.142105102:1056.142105102] [-1322.969116211:1322.969116211] [-476.98135375999999:476.98135375999999] [-330.64630699200001:330.64630699200001] [-852.049446106:852.049446106] [-1149.435752869:1149.435752869] [-1068.8461914059999:1068.8461914059999] [-1530.772827149:1530.772827149] [-496.21598815900001:496.21598815900001] [-337.79510116599999:337.79510116599999] [-1380.2987976070001:1380.2987976070001] [-1099.9351196289999:1099.9351196289999] [-1371.246032715:1371.246032715] [-1281.1870975499999:1281.1870975499999] [-1144.03427124:1144.03427124] [-545.958791733:545.958791733] [-1243.5375366210001:1243.5375366210001] [-903.67535400300005:903.67535400300005] [-698.55191803000002:698.55191803000002] [-425.84864425699999:425.84864425699999] [-908.83493042000009:908.83493042000009] [-539.91217803999996:539.91217803999996] [-576.32862853999995:576.32862853999995] [-752.00714111399998:752.00714111399998] [-597.91861391099997:597.91861391099997] [-1147.423309326:1147.423309326] [-732.64344787599998:732.64344787599998] [-359.758995056:359.758995056] [-1192.015518188:1192.015518188] [-657.31033325199996:657.31033325199996] [-1033.9494476320001:1033.9494476320001] [-1181.2061691280001:1181.2061691280001] [-637.43270873999995:637.43270873999995] [-1466.061218262:1466.061218262] [-640.62350463799999:640.62350463799999] [-1481.5349121100001:1481.5349121100001] [-1221.6890258789999:1221.6890258789999] [-1125.2238769529999:1125.2238769529999] [-1620.633987427:1620.633987427] [-1344.949157714:1344.949157714] [-627.91389846800007:627.91389846800007] [-1170.5712184910001:1170.5712184910001] [-435.896907806:435.896907806] [-1209.1578674319999:1209.1578674319999] [-486.70542144800004:486.70542144800004] [-1496.2484130859998:1496.2484130859998] [-715.58527183499996:715.58527183499996] [-912.30564880400004:912.30564880400004] [-1275.7713928220001:1275.7713928220001] [-490.96742248600003:490.96742248600003] [-1719.8020019529999:1719.8020019529999] [-905.95669555599989:905.95669555599989] [-714.55910491999998:714.55910491999998] [-913.82574462899993:913.82574462899993] [-478.761810303:478.761810303] [-879.26843261699992:879.26843261699992] [-1052.1887207029999:1052.1887207029999] [-213.21656036399997:213.21656036399997] [-1294.429367065:1294.429367065] [-1132.187587738:1132.187587738] [-1174.363952636:1174.363952636] [-715.32538604799993:715.32538604799993] [-949.70492553700001:949.70492553700001] [-533.9532547:533.9532547] [-1392.8285675050001:1392.8285675050001] [-858.25566101100003:858.25566101100003] [-516.791938781:516.791938781] [-734.79975891100003:734.79975891100003] [-1164.879425049:1164.879425049] [-511.371495724:511.371495724] [-1395.947784424:1395.947784424] [-1042.953536987:1042.953536987] [-805.63415527400002:805.63415527400002] [-1385.744964599:1385.744964599] [-677.23071288999995:677.23071288999995] [-1008.3467712409999:1008.3467712409999] [-700.64064788799999:700.64064788799999] [-763.85877227800006:763.85877227800006] [-1720.2705764770001:1720.2705764770001] [-1401.116989136:1401.116989136] [-1636.2387390140002:1636.2387390140002] [-400.34300231899999:400.34300231899999] [-1339.821289062:1339.821289062] [-1213.043640136:1213.043640136] [-748.013671875:748.013671875] [-756.42620849600007:756.42620849600007] [-1098.1876220700001:1098.1876220700001] [-889.01651442100001:889.01651442100001] [-809.52716064399999:809.52716064399999] [-1597.962890625:1597.962890625] [-1504.512634278:1504.512634278] [-1258.764038086:1258.764038086] [-299.57310485799997:299.57310485799997] [-1428.4898071290002:1428.4898071290002] [-1210.1719274519999:1210.1719274519999] [-525.41674804700006:525.41674804700006] [-1826.324523925:1826.324523925] [-948.97567748999995:948.97567748999995] [-1379.2127990720001:1379.2127990720001] [-469.12641143799999:469.12641143799999] [-1056.142105102:1056.142105102] [-1322.969116211:1322.969116211] [-476.98135375999999:476.98135375999999] [-330.64630699200001:330.64630699200001] [-852.049446106:852.049446106] [-1149.435752869:1149.435752869] [-1068.8461914059999:1068.8461914059999] [-1530.772827149:1530.772827149] [-496.21598815900001:496.21598815900001] [-337.79510116599999:337.79510116599999] [-1380.2987976070001:1380.2987976070001] [-1099.9351196289999:1099.9351196289999] [-1371.246032715:1371.246032715] [-1281.1870975499999:1281.1870975499999] [-1144.03427124:1144.03427124] [-545.958791733:545.958791733] [-1243.5375366210001:1243.5375366210001] [-903.67535400300005:903.67535400300005] [-698.55191803000002:698.55191803000002] [-425.84864425699999:425.84864425699999] [-908.83493042000009:908.83493042000009] [-539.91217803999996:539.91217803999996] [-576.32862853999995:576.32862853999995] [-752.00714111399998:752.00714111399998] [-597.91861391099997:597.91861391099997] [-1147.423309326:1147.423309326] [-732.64344787599998:732.64344787599998] [-359.758995056:359.758995056] [-1192.015518188:1192.015518188] [-657.31033325199996:657.31033325199996] [-1033.9494476320001:1033.9494476320001] [-1181.2061691280001:1181.2061691280001] [-637.43270873999995:637.43270873999995] [-1466.061218262:1466.061218262] [-640.62350463799999:640.62350463799999] [-1481.5349121100001:1481.5349121100001] [-1221.6890258789999:1221.6890258789999] [-1125.2238769529999:1125.2238769529999] [-1620.633987427:1620.633987427] [-1344.949157714:1344.949157714] [-627.91389846800007:627.91389846800007] [-1170.5712184910001:1170.5712184910001] [-435.896907806:435.896907806] [-1209.1578674319999:1209.1578674319999] [-486.70542144800004:486.70542144800004] [-1496.2484130859998:1496.2484130859998] [-715.58527183499996:715.58527183499996] [-912.30564880400004:912.30564880400004] [-1275.7713928220001:1275.7713928220001] [-490.96742248600003:490.96742248600003] [-1719.8020019529999:1719.8020019529999] [-905.95669555599989:905.95669555599989] [-714.55910491999998:714.55910491999998] [-913.82574462899993:913.82574462899993] [-478.761810303:478.761810303] [-879.26843261699992:879.26843261699992] [-1052.1887207029999:1052.1887207029999] [-213.21656036399997:213.21656036399997] [-1294.429367065:1294.429367065] [-1132.187587738:1132.187587738] [-1174.363952636:1174.363952636] [-715.32538604799993:715.32538604799993] [-949.70492553700001:949.70492553700001] [-533.9532547:533.9532547] [-1392.8285675050001:1392.8285675050001] [-858.25566101100003:858.25566101100003] [-516.791938781:516.791938781] [-734.79975891100003:734.79975891100003] [0.096342185465165389:10.379669042919643] [0.2608902719728895:3.8330290832151661] [0:0.91542032551343222] [-1.8206916591464202:2.7045338562232453] [0:0.87947164010000001]
tree_sizes=1051 1050 1171 1058 1171 1175 1067 1178 971 1172 976 1197 1395 1187 1200 880 1093 992 1191 1200 774 1200 1197 986 1205 991 988 1200 987 667 1094 1097 668 984 890 893 668 671 882 992 986 889 672 1208 886 1100 778 994 675 783 1098 888 995 987 892 991 999 778 683 684 682 680 892 786 899 676 677 897 676 680 993 678 677 787 787 681 678 679 678 676 678 674 789 677 678 677 678 783 786 685 668 775 670 786 673 674 672 674 663 674

Tree=0
num_leaves=9
num_cat=0
split_feature=97 92 49 36 5 68 1 6
split_gain=4.12634 2.38224 1.97685 0.84801 0.18835 0.109459 0.0802563 0.00583655
threshold=-222.77573227849999 153.35621833750002 -200.61810111949998 -1.0000000180025095e-35 864.69183349600007 -230.70463955399995 169.10729885050003 508.86951637250007
decision_type=2 2 2 2 2 2 2 2
left_child=6 3 -3 -2 -5 -4 7 -1
right_child=1 2 5 4 -6 -7 -8 -9
leaf_value=-0.19963205696033459 0.041631268438284796 0.09443742598600928 -0.11693874620682687 0.12385073853316686 0.19999999999999973 -0.19075000666242373 -0.13026078210083 -0.18192068353745255
leaf_weight=0.33868131041526772 0.94007424265146289 0.5366203747689724 0.4064799640327692 0.58656967058777831 0.7278725653886795 0.39727563410997369 0.32241464965045452 0.41288277506828308
leaf_count=5 9 7 6 7 4 5 8 5
internal_value=0 0.0513844 -0.0541912 0.114152 0.166018 -0.153422 -0.171997 -0.189902
internal_weight=0 3.59489 1.34038 2.25452 1.31444 0.803756 1.07398 0.751564
internal_count=56 38 18 20 11 11 18 10
is_linear=0
shrinkage=0.1


Tree=1
num_leaves=9
num_cat=0
split_feature=5 204 90 5 43 13 12 202
split_gain=8.92261 7.42519 7.26263 1.51824 0.945125 0.215924 0.170899 0.00822857
threshold=864.69183349600007 0.5382534683500001 -114.87222290099999 -100.65136718749999 -599.9334945679999 -91.970239639499979 -707.98325729399983 0.8674755962422368
decision_type=2 2 2 2 2 2 2 2
left_child=1 -1 3 -3 -4 -5 -6 -8
right_child=-2 2 4 5 6 -7 7 -9
leaf_value=0.14773510944032067 0.16047963017539679 0.030431753107867596 -0.076498279651996265 -0.02705708459658826 -0.14136070433310194 -0.094160844871636271 -0.18287242563512554 -0.19374923236344355
leaf_weight=1.9900795407593275 2.8918836340308181 5.4181189835071564 1.2513263225555418 0.74874132871627841 1.0186516121029852 1.3336149230599401 1.2148061171174038 1.6271890997886655
leaf_count=5 6 9 7 2 8 8 7 4
internal_value=0 -0.0317814 -0.0601067 0.00253981 -0.152024 -0.0700327 -0.176504 -0.1891
internal_weight=0 14.6025 12.6124 7.50048 5.11197 2.08236 3.86065 2.842
internal_count=56 50 45 19 26 10 19 11
is_linear=0
shrinkage=0.1


Tree=2
num_leaves=10
num_cat=0
split_feature=5 202 49 91 6 9 84 20 21
split_gain=3.77629 3.6606 2.96715 1.33621 0.425249 0.281344 0.169747 0.0136619 0.00230501
threshold=864.69183349600007 1.0000000180025095e-35 -200.61810111949998 -974.65699768100001 -336.59432983399989 121.09960365300002 -549.59990787499976 1.0000000180025095e-35 -737.24150848349984
decision_type=2 2 2 2 2 2 2 2 2
left_child=1 -1 4 -4 -3 7 -6 8 -5
right_child=-2 2 3 5 6 -7 -8 -9 -10
leaf_value=0.16171302169080218 0.11908428008266692 0.015599571561588726 0.01554532332810888 -0.14456604812502113 -0.0067928748567693854 -0.091800849806890211 -0.062703830595952331 -0.16538285388012025 -0.15438154985619243
leaf_weight=0.98631459474563499 2.2369962632656106 4.8041432797908783 0.68166355788707589 0.47943416237831005 0.98751115798950229 0.89143396168947209 1.2063705921173076 1.2347541972994802 0.47756177559495339
leaf_count=2 6 9 4 4 2 6 8 9 6
internal_value=0 -0.0226732 -0.0395704 -0.111155 -0.0010588 -0.139167 -0.0375372 -0.158432 -0.149464
internal_weight=0 11.7492 10.7629 3.76485 6.99803 3.08318 2.19388 2.19175 0.956996
internal_count=56 50 48 29 19 25 10 19 10
is_linear=0
shrinkage=0.1


Tree=3
num_leaves=9
num_cat=0
split_feature=203 204 21 201 20 2 63 38
split_gain=5.07372 1.86599 1.73533 1.59466 0.477906 0.469111 0.100217 0.0192616
threshold=-0.40161727784575724 0.57627838765000006 -860.72138214149993 1.0502233479152436 19.506340026999997 -697.9738922119999 -57.736488341999994 160.23829937000002
decision_type=2 2 2 2 2 2 2 2
left_child=2 -2 -1 5 -5 -3 -4 -8
right_child=1 3 6 4 -6 -7 7 -9
leaf_value=0.032557122724198494 0.10827486960189676 -0.020235694711243493 -0.18035801273243438 0.05565153384762548 -0.0023318289858810671 -0.12870984144455455 -0.12458962962489072 -0.14958727960563106
leaf_weight=0.61130128800869021 2.5070168524980527 0.72844478487968445 1.0280736312270171 3.5798304006457329 2.3576169461011887 0.8806716129183767 0.56835657358169578 0.67352167889475822
leaf_count=4 9 2 5 8 6 9 6 7
internal_value=0 0.0335284 -0.116991 0.00869718 0.0326277 -0.0796037 -0.157265 -0.138147
internal_weight=0 10.0536 2.88125 7.54656 5.93745 1.60912 2.26995 1.24188
internal_count=56 34 22 25 14 11 18 13
is_linear=0
shrinkage=0.1


Tree=4
num_leaves=10
num_cat=0
split_feature=54 204 31 203 55 12 20 81 25
split_gain=2.00696 1.67297 0.826281 0.542555 0.484291 0.338898 0.143958 0.0254334 0.00315455
threshold=-71.360046386999969 0.64717139750000008 -1.0000000180025095e-35 -1.4661010952972846 245.90207672100001 999.94033050550013 131.98116302500003 122.82946014400002 -962.6437683109998
decision_type=2 2 2 2 2 2 2 2 2
left_child=3 2 -2 -1 5 -3 7 8 -5
right_child=1 4 -4 6 -6 -7 -8 -9 -10
leaf_value=0.031426471769287805 0.029534172025371869 -0.094548890240174779 0.14215988826206893 -0.1526042512936151 0.0084013046426536404 -0.0054928456896657174 -0.064083517254002673 -0.11767908281535662 -0.1381299889515048
leaf_weight=0.29983568191528309 1.2722020447254183 0.91269442066550233 1.334936186671255 0.35007476434111573 5.2055138051509857 0.80349057912826538 0.41840159147977818 0.6208786815404892 0.26421471312642186
leaf_count=2 9 8 4 5 9 2 5 7 5
internal_value=0 0.0189292 0.0872021 -0.0923378 -0.00678657 -0.0528543 -0.11478 -0.131952 -0.146379
internal_weight=0 9.52884 2.60714 1.95341 6.9217 1.71618 1.65357 1.23517 0.614289
internal_count=56 32 13 24 19 10 22 17 10
is_linear=0
shrinkage=0.1


Tree=5
num_leaves=10
num_cat=0
split_feature=5 92 14 21 8 9 20 203 28
split_gain=1.54853 1.40336 0.501761 0.299972 0.448406 0.238396 0.0785841 0.0199252 0.0132117
threshold=864.69183349600007 -19.142925738999974 -1.0000000180025095e-35 860.72138214150016 580.41304683750013 -174.72539138749997 -1.0000000180025095e-35 -0.61633945965103398 342.58659362750006
decision_type=2 2 2 2 2 2 2 2 2
left_child=1 5 3 4 7 -1 -7 -3 -8
right_child=-2 2 -4 -5 -6 6 8 -9 -10
leaf_value=-0.038753537555901656 0.10636305575632801 -0.10671991133368015 0.042485325722051243 0.0043161759242482493 -0.01466068845569716 -0.090040249756387358 -0.15668202117657695 -0.14630697168819434 -0.12898095467823822
leaf_weight=0.5150139033794402 1.2167499139904983 0.29406772181391461 2.4014720171689996 3.7362082302570343 1.373922660946846 0.50169181451201428 0.32567185163497825 0.22398935630917505 0.36529350653290749
leaf_count=6 6 6 7 6 4 6 4 5 6
internal_value=0 -0.0132908 0.00421646 -0.0121124 -0.0445548 -0.095612 -0.120165 -0.123836 -0.142037
internal_weight=0 9.73733 8.02966 5.62819 1.89198 1.70767 1.19266 0.518057 0.690965
internal_count=56 50 28 21 15 22 16 11 10
is_linear=0
shrinkage=0.1


Tree=6
num_leaves=9
num_cat=0
split_feature=30 29 91 202 21 34 89 201
split_gain=1.22875 1.51146 0.348247 0.327799 0.298936 0.461453 0.0787851 0.028835
threshold=-344.91268920899989 137.03484725950003 -974.65699768100001 0.71054282499061394 860.72138214150016 201.64835357700002 -93.561590194999994 1.233471983580382
decision_type=2 2 2 2 2 2 2 2
left_child=2 3 -1 -2 5 7 -4 -3
right_child=1 4 6 -5 -6 -7 -8 -9
leaf_value=-0.0048766695800046729 0.13684675506509839 -0.095780101765884931 -0.086422177298343353 0.052375590081534112 0.0047160313317896885 -0.0085860227368545639 -0.13998851410615246 -0.14308923053238073
leaf_weight=0.41189539432525624 0.92689676582813063 0.23321051523089398 0.55985832959413517 0.91084335744380951 5.2454532086849213 1.1572139374911783 0.53884230740368444 0.28785592690110207
leaf_count=4 4 5 7 8 8 5 9 6
internal_value=0 0.0143611 -0.0832947 0.0949801 -0.00703727 -0.0437721 -0.112693 -0.121915
internal_weight=0 8.76147 1.5106 1.83774 6.92373 1.67828 1.0987 0.521066
internal_count=56 36 20 12 24 16 16 11
is_linear=0
shrinkage=0.1


Tree=7
num_leaves=10
num_cat=0
split_feature=5 92 14 21 8 10 4 88 65
split_gain=0.959604 0.913726 0.261726 0.183207 0.167329 0.0843165 0.0775518 0.0246112 0.0112909
threshold=864.69183349600007 -19.142925738999974 -1.0000000180025095e-35 860.72138214150016 686.9925756455001 -96.953819274999987 189.92313003550004 156.27041435250004 -594.52812337949979
decision_type=2 2 2 2 2 2 2 2 2
left_child=1 6 3 4 5 -3 8 -7 -1
right_child=-2 2 -4 -5 -6 7 -8 -9 -10
leaf_value=-0.09587025406987551 0.094914080687450955 -0.040278722297331447 0.030524668869826296 0.0027521902853268249 -0.012542579195220059 -0.13515600217545634 -0.063768292287449527 -0.079675062038846986 -0.12450437622703754
leaf_weight=0.19793152809143066 0.96226683259010393 0.32525223866104924 2.2945719659328461 3.7825649976730347 1.1016498804092407 0.19217430055141482 0.51211193948984146 0.13692227378487587 0.45260077901184448
leaf_count=4 6 3 7 6 2 6 9 4 9
internal_value=0 -0.0101528 0.00212563 -0.00963982 -0.0363332 -0.0763867 -0.0928771 -0.112073 -0.115792
internal_weight=0 8.99578 7.83314 5.53856 1.756 0.654349 1.16264 0.329097 0.650532
internal_count=56 50 28 21 15 13 22 10 13
is_linear=0
shrinkage=0.1


Tree=8
num_leaves=8
num_cat=0
split_feature=203 204 4 15 21 97 201
split_gain=0.703311 0.859464 0.267852 0.143867 0.235028 0.0337697 0.0294098
threshold=-0.40161727784575724 0.57627838765000006 189.92313003550004 352.63262939400016 639.96638107300009 619.34319138550006 0.88438179476689815
decision_type=2 2 2 2 2 2 2
left_child=2 -2 6 4 -3 -5 -1
right_child=1 3 -4 5 -6 -7 -8
leaf_value=-0.14049378674087795 0.090578198652690761 -0.089618605070425905 -0.017827798337263567 0.0092880892599287532 -0.0017886597945143672 -0.0068495640596766679 -0.096988390949787201
leaf_weight=0.31007401458919115 1.1386405322700719 0.46856658160686471 0.4567596148699522 3.8466398380696774 0.87105118110775948 1.956148963421583 0.31146392039954662
leaf_count=7 9 9 7 6 3 7 8
internal_value=0 0.00989185 -0.0759669 -0.00297115 -0.0325095 0.00384801 -0.118692
internal_weight=0 8.28105 1.0783 7.14241 1.33962 5.80279 0.621538
internal_count=56 34 22 25 12 13 15
is_linear=0
shrinkage=0.1


Tree=9
num_leaves=10
num_cat=0
split_feature=30 29 202 19 34 60 6 26 204
split_gain=0.772567 0.71051 0.182817 0.162388 0.122806 0.188041 0.0995874 0.0706887 0.0549665
threshold=-344.91268920899989 137.03484725950003 0.71054282499061394 820.6173794865 281.61599445350004 823.7866439820001 -122.49339103699998 553.40590286300005 0.61116628275000007
decision_type=2 2 2 2 2 2 2 2 2
left_child=3 2 -2 7 5 6 -3 -1 -8
right_child=1 4 -4 -5 -6 -7 8 -9 -10
leaf_value=-0.12677612042190772 0.12656481657576907 -0.023834930964034412 0.046515673871523722 -0.0089698067918346676 0.0091418616664600133 -0.0013108190605416624 -0.13796613421634116 -0.071058701624344342 -0.057270852566222212
leaf_weight=0.34481980465352602 0.54571948945522109 0.31430250406265137 0.59786467626690865 0.32715690135955799 4.5802702903747559 1.6805055141448975 0.18857837840914859 0.67040753737092018 0.15281427465379238
leaf_count=9 4 3 8 5 6 4 6 6 5
internal_value=0 0.0116981 0.0847152 -0.070239 -0.00037465 -0.0190324 -0.0644516 -0.089983 -0.101845
internal_weight=0 8.06006 1.14358 1.34238 6.91647 2.3362 0.655695 1.01523 0.341393
internal_count=56 36 12 20 24 18 14 15 11
is_linear=0
shrinkage=0.1


Tree=10
num_leaves=8
num_cat=0
split_feature=54 204 22 91 21 54 49
split_gain=0.411844 0.495325 0.273759 0.173897 0.0577874 0.0360716 0.0112347
threshold=-71.360046386999969 0.64717139750000008 1.0000000180025095e-35 -974.65699768100001 860.72138214150016 -246.44065093949999 308.98004913350002
decision_type=2 2 2 2 2 2 2
left_child=3 2 -2 -1 -3 6 -5
right_child=1 4 -4 5 -6 -7 -8
leaf_value=0.00022059072920975671 0.12190788946987972 -0.018937561086822249 0.020527051263687771 -0.1330986507503458 0.0024409485902625273 -0.06641816442041322 -0.097131408005064729
leaf_weight=0.27667353674769402 0.52600327134132185 1.6549787670373914 0.53957954607903957 0.18702784366905689 5.3572420477867126 0.24625145178288299 0.16212833672761917
leaf_count=4 4 11 9 7 8 9 4
internal_value=0 0.00704838 0.0705716 -0.0652869 -0.00260467 -0.0957268 -0.116398
internal_weight=0 8.0778 1.06558 0.872081 7.01222 0.595408 0.349156
internal_count=56 32 13 24 19 20 11
is_linear=0
shrinkage=0.1


Tree=11
num_leaves=10
num_cat=0
split_feature=203 30 95 203 50 48 1 18 201
split_gain=0.316459 0.324257 0.667552 0.171605 0.0762043 0.0312835 0.0141754 0.0101893 0.00260314
threshold=-0.40161727784575724 338.04792928700004 -1.0000000180025095e-35 -1.4661010952972846 653.69227981550023 747.13236618050007 -182.16445326749997 1.0000000180025095e-35 0.98980852111128514
decision_type=2 2 2 2 2 2 2 2 2
left_child=3 2 -2 -1 7 6 -3 -5 -9
right_child=1 5 -4 4 -6 -7 -8 8 -10
leaf_value=0.024021176491171577 -0.057646484009647996 -0.00086149493255254688 0.11189496511562823 -0.084365588652350665 -0.023587688236502334 0.0027372480457570196 -0.016877031741622164 -0.13006917901272699 -0.11187893765052424
leaf_weight=0.16906076855957508 0.34303473308682442 0.84661233425140281 0.71902654320001402 0.10031374357640821 0.12697619944810867 4.5209107398986816 1.5916708782315265 0.1571923429146409 0.15749659202992916
leaf_count=3 9 2 7 4 3 6 10 6 6
internal_value=0 0.00566788 0.0571348 -0.0639395 -0.0913772 -0.00218663 -0.0113162 -0.112118 -0.120965
internal_weight=0 8.02126 1.06206 0.71104 0.541979 6.95919 2.43828 0.415003 0.314689
internal_count=56 34 16 22 19 18 12 16 12
is_linear=0
shrinkage=0.1


Tree=12
num_leaves=12
num_cat=0
split_feature=30 29 5 91 34 26 31 12 202 53 201
split_gain=0.296056 0.380076 0.173995 0.119995 0.0442523 0.0380825 0.0235482 0.103161 0.0772006 0.0149588 0.00155178
threshold=-344.91268920899989 137.03484725950003 864.69183349600007 -974.65699768100001 281.61599445350004 553.40590286300005 295.13864898700007 999.94033050550013 0.74055752629857319 173.99877548250001 1.0502233479152436
decision_type=2 2 2 2 2 2 2 2 2 2 2
left_child=3 2 -2 -1 6 10 7 8 -3 -10 -5
right_child=1 4 -4 5 -6 -7 -8 -9 9 -11 -12
leaf_value=0.0032776208735543519 0.027660047986925725 -0.022384403933441904 0.12036994367619265 -0.124035554061316 0.0039565857752011128 -0.062000766901190156 -0.00064860669569190667 -0.00061175909527521677 -0.078528144996048224 -0.13100938347219926 -0.10737897482480092
leaf_weight=0.22347578778862953 0.43705912120640267 0.26836957037448905 0.37709665298461914 0.1068599261343478 4.500914067029953 0.33283102512359619 0.88575695268809784 0.84838533401489258 0.11944418027997017 0.099598562344908714 0.11735811363905668
leaf_count=4 8 2 4 5 6 6 4 2 5 5 5
internal_value=0 0.00607162 0.070601 -0.0586266 -0.0017435 -0.0834612 -0.013292 -0.0216757 -0.0583395 -0.102391 -0.115317
internal_weight=0 7.53662 0.814156 0.780525 6.72247 0.557049 2.22155 1.3358 0.487412 0.219043 0.224218
internal_count=56 36 12 20 24 16 18 14 12 10 10
is_linear=0
shrinkage=0.1


Tree=13
num_leaves=10
num_cat=0
split_feature=84 55 60 4 26 20 0 5 201
split_gain=0.224541 0.188173 0.320699 0.168225 0.0845736 0.0323285 0.024567 0.0146374 0.00306826
threshold=-1.0000000180025095e-35 155.79637146000002 1.0000000180025095e-35 566.57715606750014 405.31394529350001 131.98116302500003 -586.16247177149978 -399.95922851499989 0.98980852111128514
decision_type=2 2 2 2 2 2 2 2 2
left_child=3 2 4 5 -2 6 -1 -3 -8
right_child=1 7 -4 -5 -6 -7 8 -9 -10
leaf_value=-0.063785381986072323 0.11653379697274287 0.0028715340716588458 -0.038086026337393608 0.023594681757487017 0.050186292182131581 -0.045291371669036053 -0.13094412813959236 -0.0066696090857000529 -0.10729626279342906
leaf_weight=0.14633683487772942 0.32979890331625916 3.6893540024757385 0.34155169315636158 0.21970365196466446 0.46024113707244396 0.18694372475147247 0.086161638610064872 2.8500278377905488 0.15105902496725321
leaf_count=4 4 4 6 3 7 7 5 8 8
internal_value=0 0.0052285 0.0428796 -0.0507561 0.0778828 -0.079389 -0.096008 -0.00128674 -0.115885
internal_weight=0 7.67097 1.13159 0.790205 0.79004 0.570501 0.383557 6.53938 0.237221
internal_count=56 29 17 27 11 24 17 12 13
is_linear=0
shrinkage=0.1


Tree=14
num_leaves=10
num_cat=0
split_feature=64 41 21 203 56 41 5 14 56
split_gain=0.210826 0.0852989 0.192702 0.0725397 0.0609761 0.0401644 0.00944677 0.00530934 0.00134713
threshold=1.0000000180025095e-35 31.321109771500009 1.0000000180025095e-35 -1.4661010952972846 -417.49924468999995 -149.33279991199998 -230.4437255855 -518.49200439449987 -24.882011413500006
decision_type=2 2 2 2 2 2 2 2 2
left_child=1 2 -1 -2 -5 -6 -3 -8 -7
right_child=3 6 -4 4 5 8 7 -9 -10
leaf_value=0.078950548783350047 0.019811230436019654 0.0031082554839951923 0.00025836853149854302 0.0049051077297694277 -0.058194228517829731 -0.10769305572400119 0.0006875317469071568 -0.0096892403532912001 -0.12600497665876409
leaf_weight=0.48011746257543542 0.13067412935197353 3.8098329845815893 0.88442948833107948 0.11468925327062607 0.40231329575181007 0.07667474914342165 0.84839284420013417 1.1773340478539474 0.084389561787247547
leaf_count=8 3 7 4 6 8 5 2 8 5
internal_value=0 0.00543767 0.0279463 -0.0484108 -0.0615582 -0.0750885 0.000174406 -0.00534335 -0.117288
internal_weight=0 7.20011 1.36455 0.808741 0.678067 0.563378 5.83556 2.02573 0.161064
internal_count=56 29 12 27 24 18 17 10 10
is_linear=0
shrinkage=0.1


Tree=15
num_leaves=7
num_cat=0
split_feature=98 34 76 202 86 54
split_gain=0.135391 0.144311 0.0686622 0.0621284 0.0579209 0.035442
threshold=1.0000000180025095e-35 1.0000000180025095e-35 -77.600813388999981 0.81548682133395045 -183.24045896549998 -171.04847240399997
decision_type=2 2 2 2 2 2
left_child=1 -1 3 -2 -3 -4
right_child=2 4 5 -5 -6 -7
leaf_value=0.03241099094347516 0.01912159282556513 0.0026381885575164177 -0.12174338826983976 -0.059183462787720478 -0.019855519162426439 -0.041433912139397816
leaf_weight=1.4228239711374042 0.20374597236514091 4.6228954792022696 0.13295545615255833 0.20155993569642305 1.5215309914201505 0.093665054067969211
leaf_count=10 5 7 9 8 12 5
internal_value=0 0.00371343 -0.0444679 -0.0198198 -0.00293188 -0.0885505
internal_weight=0 7.56725 0.631926 0.405306 6.14443 0.226621
internal_count=56 29 27 13 19 14
is_linear=0
shrinkage=0.1


Tree=16
num_leaves=9
num_cat=0
split_feature=64 41 75 76 202 0 42 5
split_gain=0.164959 0.0753796 0.0919971 0.0608107 0.0895948 0.00705622 0.00641294 0.00504814
threshold=1.0000000180025095e-35 31.321109771500009 -1.0000000180025095e-35 -77.600813388999981 0.83591844975534257 344.85871887200011 -855.73984909049989 462.81002807600009
decision_type=2 2 2 2 2 2 2 2
left_child=1 2 -1 4 -2 -5 -3 -8
right_child=3 6 -4 5 -6 -7 7 -9
leaf_value=0.007707906445600269 0.022503011805870814 0.0023325163151808443 0.064331288657888161 -0.11513525468086371 -0.058009135617958688 -0.071855764387741189 -0.0088434752474113362 0.0012550745270181968
leaf_weight=0.85921557806432247 0.21360573545098305 3.793105934746563 0.43079936876893021 0.10003018844872702 0.39161845622584224 0.060428053606301546 1.1851887553930289 0.8500399887561797
leaf_count=3 5 6 9 8 9 5 9 2
internal_value=0 0.00474405 0.0266172 -0.0441042 -0.0295935 -0.0988363 -9.72563e-05 -0.00462568
internal_weight=0 7.11835 1.29001 0.765682 0.605224 0.160458 5.82833 2.03523
internal_count=56 29 12 27 14 13 17 11
is_linear=0
shrinkage=0.1


Tree=17
num_leaves=8
num_cat=0
split_feature=204 36 97 31 35 0 200
split_gain=0.0858885 0.208961 0.0397179 0.144349 0.0167621 0.00823693 0.00705508
threshold=0.57627838765000006 -1.0000000180025095e-35 1.0000000180025095e-35 -1.0000000180025095e-35 127.97482299800001 851.14567184450004 0.8728017398246084
decision_type=2 2 2 2 2 2 2
left_child=1 -1 3 6 -4 -6 -2
right_child=2 -3 4 -5 5 -7 -8
leaf_value=-0.03872293078727531 -0.075519478800599144 0.096051292819803888 0.0084046779262405055 -0.0020877749363111195 -0.0070111934332272065 0.0016387918306473973 -0.11094541527087876
leaf_weight=0.19407570548355579 0.14407462440431085 0.28248872514814127 1.9003541385754941 0.96004374744370591 2.2777096079662442 2.1306620836257935 0.092185388319194317
leaf_count=6 7 8 10 8 9 2 6
internal_value=0 0.0411659 -0.00261401 -0.0193198 0.000553854 -0.00283047 -0.0893422
internal_weight=0 0.476564 7.50503 1.1963 6.30873 4.40837 0.23626
internal_count=56 14 42 21 21 11 13
is_linear=0
shrinkage=0.1


Tree=18
num_leaves=10
num_cat=0
split_feature=204 5 202 21 8 91 42 59 42
split_gain=0.0929782 0.263038 0.183507 0.0629295 0.0435563 0.0670519 0.0385044 0.0184641 0.00193127
threshold=0.66879540310000019 864.69183349600007 0.74055752629857319 860.72138214150016 580.41304683750013 -974.65699768100001 -551.83433532699985 -1.0000000180025095e-35 1.0000000180025095e-35
decision_type=2 2 2 2 2 2 2 2 2
left_child=1 2 -1 4 5 -2 -4 -7 -8
right_child=3 -3 6 -5 -6 7 8 -9 -10
leaf_value=0.041158761038399785 0.0048950647429626005 0.090964918683541965 -0.03588509019879757 0.0016471618760088803 -0.012022777362705676 -0.10602775838787507 -0.13276932162902705 -0.048373707097436436 -0.10830430163880574
leaf_weight=0.23137397691607464 0.13678062893450216 0.3946157693862915 0.0887350058183074 5.3810793161392212 1.3838121742010117 0.14109066408127502 0.069281255826354027 0.09161864966154154 0.060393957421183586
leaf_count=4 4 5 6 8 4 9 5 5 6
internal_value=0 0.0313781 -0.0209001 -0.0037138 -0.0201672 -0.0506696 -0.0866425 -0.0833291 -0.121375
internal_weight=0 0.8444 0.449784 7.13438 1.7533 0.36949 0.21841 0.232709 0.129675
internal_count=56 26 21 30 22 18 17 14 11
is_linear=0
shrinkage=0.1


Tree=19
num_leaves=10
num_cat=0
split_feature=95 204 87 202 1 84 201 68 21
split_gain=0.11081 0.198727 0.0764878 0.0313614 0.0295887 0.0195822 0.00428762 0.00183384 0.00111219
threshold=102.93806457549999 1.0000000180025095e-35 647.97477722150006 0.83591844975534257 -160.20868587499999 -576.55553531699991 1.9583669693148014 1.0000000180025095e-35 1298.345657349
decision_type=2 2 2 2 2 2 2 2 2
left_child=1 -1 3 6 -2 -5 7 -3 -6
right_child=4 2 -4 5 8 -7 -8 -9 -10
leaf_value=0.11254823577086498 0.014848089362083358 -0.10166997864992691 -0.0022460186130831747 -0.012830779911443359 -0.0015093408579216724 -0.071510803236864762 -0.084736095978518652 -0.12489955980264014 0.0015137914771633718
leaf_weight=0.080088406801223644 1.8489695470780132 0.058947505429387093 0.20008009858429432 0.082929696887731552 2.4562305575236678 0.18097275029867887 0.070098794996738434 0.08025014866143465 2.4118754863739014
leaf_count=2 8 5 5 4 9 7 6 6 4
internal_value=0 -0.0363666 -0.0540805 -0.0759973 0.00407878 -0.053071 -0.104905 -0.115062 -1.15471e-05
internal_weight=0 0.753367 0.673279 0.473199 6.71708 0.263902 0.209296 0.139198 4.86811
internal_count=56 35 33 28 21 11 17 11 13
is_linear=0
shrinkage=0.1


Tree=20
num_leaves=6
num_cat=0
split_feature=30 26 5 41 8
split_gain=0.305256 0.162296 0.038497 0.00650256 0.000254361
threshold=-344.91268920899989 -1.0000000180025095e-35 -290.99067687949997 135.23390483850002 114.77934265100002
decision_type=2 2 2 2 2
left_child=2 3 -1 -2 -5
right_child=1 -3 -4 4 -6
leaf_value=-0.015425611301282907 -0.0073138205925121812 0.039038343551303471 -0.071990140876019626 0.00027163040318116995 0.0017482982186650153
leaf_weight=0.15049723396077752 1.1556219859048722 1.2551028691232202 0.60005722008645523 2.1820504441857338 2.5063895806670189
leaf_count=8 11 14 12 6 5
internal_value=0 0.00641199 -0.0606481 -0.000595029 0.00106104
internal_weight=0 7.09916 0.750554 5.84406 4.68844
internal_count=56 36 20 22 11
is_linear=0
shrinkage=0.1


Tree=21
num_leaves=10
num_cat=0
split_feature=95 97 6 84 43 41 204 54 60
split_gain=0.033626 0.0943166 0.0600486 0.0260756 0.0174145 0.0125522 0.0103572 0.00796363 0.00780204
threshold=102.93806457549999 -1.0000000180025095e-35 -1.0000000180025095e-35 -663.58471298249981 -308.67087554949995 -39.319169998 0.64717139750000008 -171.04847240399997 823.7866439820001
decision_type=2 2 2 2 2 2 2 2 2
left_child=1 3 5 -1 8 -3 -5 -8 -2
right_child=4 2 -4 6 -6 -7 7 -9 -10
leaf_value=-0.011500466424404592 -0.0076204453100773163 0.012260780148355048 0.065145679110974991 -0.12666537294723598 0.0091127313226958759 -0.037091284315786274 -0.096947061421934044 -0.050185746686236876 0.0011985426232516486
leaf_weight=0.060265238396823295 1.44875170616433 0.078470482025295496 0.12916553765535355 0.048783859238028526 2.2927529122680426 0.15014347014948726 0.072416805196553358 0.073267376050353161 3.2615884244441986
leaf_count=3 9 4 4 5 6 7 7 5 6
internal_value=0 -0.0224684 0.0106425 -0.0689736 0.00196517 -0.0201515 -0.0867844 -0.0734299 -0.0015139
internal_weight=0 0.612513 0.357779 0.254733 7.00309 0.228614 0.194468 0.145684 4.71034
internal_count=56 35 15 20 21 11 17 12 15
is_linear=0
shrinkage=0.1


Tree=22
num_leaves=10
num_cat=0
split_feature=3 5 9 202 91 36 84 5 39
split_gain=0.0267876 0.173277 0.0417288 0.0177715 0.107982 0.0190049 0.0148548 0.00483558 0.00345183
threshold=-142.00149202349999 864.69183349600007 -38.087086677499997 0.74962395407602511 271.93292617750006 1.0000000180025095e-35 -663.58471298249981 172.07740783650004 -160.14547538749994
decision_type=2 2 2 2 2 2 2 2 2
left_child=1 2 -1 7 5 6 -5 -2 -8
right_child=3 -3 -4 4 -6 -7 8 -9 -10
leaf_value=0.0087963757817814073 0.0027972814453964025 0.0964072122737199 -0.067852575332580059 -0.012053276392656116 0.0033848047133713402 -0.11940222645273568 -0.090053192391808812 -0.0030904308711361987 -0.057344330100960419
leaf_weight=0.15461953356862068 3.7758021461777389 0.19196954742074013 0.13137738406658162 0.055256725288927222 0.87408199906349182 0.062106291297823191 0.065789733082055712 2.2122304067015648 0.06331377057358667
leaf_count=3 8 4 9 3 3 7 7 6 6
internal_value=0 0.0229159 -0.0264136 -0.00154083 -0.0130992 -0.0715591 -0.0554419 0.000622114 -0.0740124
internal_weight=0 0.477966 0.285997 7.10858 1.12055 0.246467 0.18436 5.98803 0.129104
internal_count=56 16 12 40 26 23 16 14 13
is_linear=0
shrinkage=0.1


Tree=23
num_leaves=8
num_cat=0
split_feature=29 26 11 2 15 14 11
split_gain=0.195039 0.0969178 0.0185725 0.0586597 0.00859489 0.00625896 0.0177635
threshold=-447.81002807599992 -1.0000000180025095e-35 -95.040772541999985 263.29069900500002 352.63262939400016 -421.88284301800002 1093.3915023805002
decision_type=2 2 2 2 2 2 2
left_child=5 4 -3 -4 -2 -1 -7
right_child=1 2 3 -5 -6 6 -8
leaf_value=-0.068144065901543288 -0.0095884871382831312 0.022890122140812753 0.090079731464977678 0.001715740256387172 0.00067060215316275468 -0.083929767973641878 -0.013831427532910019
leaf_weight=0.34556136652827263 0.98055035155266512 0.89152719266712666 0.17191644199192502 0.13343628123402596 4.8847933709621429 0.062783011700957903 0.085219726897776127
leaf_count=2 18 3 7 6 9 7 4
internal_value=0 0.0042474 0.0301804 0.0514655 -0.00104448 -0.0607743 -0.0435673
internal_weight=0 7.06222 1.19688 0.305353 5.86534 0.493564 0.148003
internal_count=56 43 16 13 27 13 11
is_linear=0
shrinkage=0.1


Tree=24
num_leaves=10
num_cat=0
split_feature=36 97 34 38 202 204 38 29 15
split_gain=0.0465542 0.041389 0.0267916 0.0828364 0.0181839 0.00811269 0.00653531 0.00430549 0.00107628
threshold=-1.0000000180025095e-35 48.412904501000007 1.0000000180025095e-35 -276.39656829799998 0.83591844975534257 0.64717139750000008 534.42309570300006 501.16564941400009 1110.8750314710003
decision_type=2 2 2 2 2 2 2 2 2
left_child=1 4 3 -2 5 -1 -5 8 -4
right_child=2 -3 7 6 -6 -7 -8 -9 -10
leaf_value=-0.12501183683384215 0.00023860469371025385 -0.00080859944982323 -0.006324334827876356 0.074000744717217459 -0.031366755470123339 -0.070069119897043966 0.042649257409477663 0.0013258919186464183 -0.0019471723689494229
leaf_weight=0.043004543520510086 0.84216758608818054 0.20665349764749408 1.1680347369983792 0.18131044413894393 0.09413385484367609 0.071652322541922331 0.1049903710372746 3.7068749666213989 1.0822152495384216
leaf_count=5 2 7 7 8 7 8 4 4 4
internal_value=0 -0.032535 0.00190759 0.0160357 -0.0639366 -0.0906766 0.0625037 -0.000768724 -0.00421922
internal_weight=0 0.415444 7.08559 1.12847 0.208791 0.114657 0.286301 5.95712 2.25025
internal_count=56 27 29 14 20 13 12 15 11
is_linear=0
shrinkage=0.1


Tree=25
num_leaves=8
num_cat=0
split_feature=200 21 97 92 53 202 204
split_gain=0.0462489 0.0107003 0.0646594 0.053131 0.0889659 0.0181895 0.0037878
threshold=0.24337357616533886 860.72138214150016 -222.77573227849999 153.35621833750002 -1.0000000180025095e-35 0.83591844975534257 0.61116628275000007
decision_type=2 2 2 2 2 2 2
left_child=-1 2 5 4 -4 6 -2
right_child=1 -3 3 -5 -6 -7 -8
leaf_value=0.046861100922738499 -0.11721174364824688 0.00096574923953402284 -0.0083134954893812757 -0.010473675400702924 0.098650951258306918 -0.023621793818284137 -0.078026470135427808
leaf_weight=0.20486834365874518 0.041498229838907608 5.3964603543281555 0.19492178969085161 1.4307482284493742 0.12936341855675026 0.05748953390866518 0.06082623265683651
leaf_count=6 6 8 7 11 6 4 8
internal_value=0 -0.00131308 -0.00773534 -0.00219019 0.0343566 -0.0686307 -0.0939183
internal_weight=0 7.31131 1.91485 1.75503 0.324285 0.159814 0.102324
internal_count=56 50 42 24 13 18 14
is_linear=0
shrinkage=0.1


Tree=26
num_leaves=8
num_cat=0
split_feature=30 26 91 23 41 23 8
split_gain=0.137617 0.0513195 0.0378637 0.00603617 0.0030791 0.0025152 0.000121078
threshold=-344.91268920899989 -1.0000000180025095e-35 -974.65699768100001 -343.48101997399993 135.23390483850002 -908.31225585949994 114.77934265100002
decision_type=2 2 2 2 2 2 2
left_child=2 4 -1 5 -2 -4 -6
right_child=1 -3 3 -5 6 -7 -8
leaf_value=0.006303510557284106 -0.0049642356290588718 0.023614007879980622 -0.07343680532234996 -0.061551958463749404 0.0003085537245620733 -0.10664509360439241 0.0013280988048469367
leaf_weight=0.081407858058810234 1.1280346051789818 1.0639688060618935 0.042028464842587709 0.25410064868628968 2.1711972099728882 0.049871425144374371 2.5129696950316429
leaf_count=4 11 14 5 4 6 7 5
internal_value=0 0.00342227 -0.0550579 -0.0694952 -0.00027398 -0.091458 0.000855521
internal_weight=0 6.87617 0.427408 0.346001 5.8122 0.0918999 4.68417
internal_count=56 36 20 16 22 12 11
is_linear=0
shrinkage=0.1


Tree=27
num_leaves=10
num_cat=0
split_feature=3 5 19 21 91 204 20 36 20
split_gain=0.031734 0.10541 0.022469 0.0146737 0.0304663 0.10064 0.0172524 0.00549028 0.00458502
threshold=-142.00149202349999 864.69183349600007 145.34413588100003 860.72138214150016 271.93292617750006 1.0000000180025095e-35 131.98116302500003 1.0000000180025095e-35 1.0000000180025095e-35
decision_type=2 2 2 2 2 2 2 2 2
left_child=1 2 -1 4 5 -2 7 8 -7
right_child=3 -3 -4 -5 -6 6 -8 -9 -10
leaf_value=-0.053986839564415259 0.1087585039145447 0.089610832709413821 0.0093240911380373659 0.00094997013186796432 -0.0041935434992451392 -0.053516519728010969 -0.033202477371881992 -0.11957559976933381 -0.1024098598124112
leaf_weight=0.091270908247679361 0.037036433815955783 0.1619452890008688 0.14529104437679052 5.396134227514267 1.3845367934554815 0.040459303185343742 0.076879861298948526 0.048798555275425315 0.036466733086854219
leaf_count=8 2 4 4 8 5 4 7 7 7
internal_value=0 0.0274508 -0.0151027 -0.00155825 -0.00989153 -0.0428119 -0.0705192 -0.0933382 -0.0766944
internal_weight=0 0.398507 0.236562 7.02031 1.62418 0.239641 0.202604 0.125725 0.076926
internal_count=56 16 12 40 32 27 25 18 11
is_linear=0
shrinkage=0.1


Tree=28
num_leaves=8
num_cat=0
split_feature=15 41 28 33 45 60 18
split_gain=0.0933735 0.0321983 0.0289257 0.0277139 0.00625221 0.00147285 0.00152227
threshold=-68.430249213999986 31.321109771500009 672.99999999950012 -601.1209945679999 -9.2384414674999942 1034.5730190275003 -536.52508926349981
decision_type=2 2 2 2 2 2 2
left_child=2 -2 -1 4 -4 6 -3
right_child=1 5 3 -5 -6 -7 -8
leaf_value=-0.069599306306267802 0.019164852882143563 0.00071789878250216334 -0.07930992780751675 0.037730416749770637 -0.02740698624691881 0.0010532684031704983 -0.0047299495077250406
leaf_weight=0.23503073793835927 1.0158218862488864 0.93356522172689427 0.038135181181132793 0.062171140220016241 0.059294623322784901 3.7100746035575867 1.1383039802312853
leaf_count=9 13 3 6 4 5 4 12
internal_value=0 0.00274529 -0.0472892 -0.014435 -0.0477224 -0.000139436 -0.0022752
internal_weight=0 6.79777 0.394632 0.159601 0.0974298 5.78194 2.07187
internal_count=56 32 24 15 11 19 15
is_linear=0
shrinkage=0.1


Tree=29
num_leaves=5
num_cat=0
split_feature=55 201 1 21
split_gain=0.0305994 0.00751447 0.0032734 0.00110733
threshold=-321.1288504604999 0.98980852111128514 1.0000000180025095e-35 1298.345657349
decision_type=2 2 2 2
left_child=-1 -2 -3 -4
right_child=1 2 3 -5
leaf_value=0.041329769090735796 -0.0078961728808866326 0.0058772797820913067 -0.0019914265952428439 0.0010055298812523213
leaf_weight=0.17488058051094402 1.297096313908696 0.95305504044517864 2.5185639625415206 2.4150693118572235
leaf_count=9 20 9 14 4
internal_value=0 -0.00100613 0.000512047 -0.000524382
internal_weight=0 7.18378 5.88669 4.93363
internal_count=56 47 27 18
is_linear=0
shrinkage=0.1


Tree=30
num_leaves=9
num_cat=0
split_feature=201 97 97 31 21 12 203 98
split_gain=0.138086 0.0365959 0.0100525 0.0611827 0.0102005 0.00687745 0.00592261 0.00214639
threshold=0.38470209368694397 746.98834824550011 -1.0000000180025095e-35 236.68105316200001 -860.72138214149993 750.98929595900006 -0.61633945965103398 161.512470245
decision_type=2 2 2 2 2 2 2 2
left_child=-1 2 3 4 -2 -4 -6 -8
right_child=1 -3 5 -5 6 -7 7 -9
leaf_value=0.066993665277355341 -0.035053455774039753 -0.018931237115827979 0.0071062312428486832 0.0019735607246487803 -0.045020350691911092 -0.00055708797030087963 -0.11870615172594651 -0.083634175386758713
leaf_weight=0.29565791436471034 0.068961386568843763 1.1690351595170794 1.8349661137908695 0.87294434942305088 0.02631789213046376 3.236981809604913 0.03395525226369589 0.035897562047466636
leaf_count=3 6 5 12 5 3 9 5 8
internal_value=0 -0.00272112 0.000380372 -0.00858542 -0.0644038 0.0022154 -0.0854501 -0.100683
internal_weight=0 7.27906 6.11002 1.03808 0.165132 5.07195 0.0961707 0.0698528
internal_count=56 53 48 27 22 21 16 13
is_linear=0
shrinkage=0.1


Tree=31
num_leaves=9
num_cat=0
split_feature=91 204 4 84 1 89 24 43
split_gain=0.039062 0.069858 0.0333831 0.0267964 0.00733092 0.00534881 0.00611864 0.000280658
threshold=228.57369041450002 0.57627838765000006 1.0000000180025095e-35 -576.55553531699991 -72.498985290999983 -119.46045255699998 4.3551025390000015 -917.0551300049998
decision_type=2 2 2 2 2 2 2 2
left_child=1 2 -1 -3 -2 -5 -7 -6
right_child=4 3 -4 5 7 6 -8 -9
leaf_value=0.074501232311001378 0.0077477068665216288 -0.0083628946334448565 -0.0097035085634411284 -0.05802192213244306 0.00089691159670776026 -0.11608283627143978 -0.067955814302892534 -0.00063290102170524085
leaf_weight=0.072808286640792974 1.7194947404786942 0.093317321501672157 0.13324646512046456 0.1337952222675084 2.4156481921672817 0.045063358265906794 0.06384065467864275 2.3814913160167639
leaf_count=6 7 8 5 4 4 6 9 7
internal_value=0 -0.0257928 0.0200498 -0.0539047 0.00214551 -0.0714155 -0.0878703 0.000137452
internal_weight=0 0.542071 0.206055 0.336017 6.51663 0.242699 0.108904 4.79714
internal_count=56 38 11 27 18 19 15 11
is_linear=0
shrinkage=0.1


Tree=32
num_leaves=5
num_cat=0
split_feature=30 26 21 48
split_gain=0.15513 0.0625219 0.0234637 0.00222256
threshold=-344.91268920899989 -1.0000000180025095e-35 -860.72138214149993 747.13236618050007
decision_type=2 2 2 2
left_child=2 3 -1 -2
right_child=1 -3 -4 -5
leaf_value=-0.014561684478415654 -0.0040996374579525532 0.02640651633430556 -0.069816009773464902 0.0006950175331851844
leaf_weight=0.099068315699696541 1.2266136724501846 1.0310793835669754 0.34273384022526432 4.5644571897573769
leaf_count=8 14 14 12 8
internal_value=0 0.0037189 -0.057426 -0.000320544
internal_weight=0 6.82215 0.441802 5.79107
internal_count=56 36 20 22
is_linear=0
shrinkage=0.1


Tree=33
num_leaves=8
num_cat=0
split_feature=5 21 15 202 76 41 61
split_gain=0.00942722 0.00840503 0.0116132 0.0534408 0.024931 0.0096924 0.00455116
threshold=462.81002807600009 860.72138214150016 956.15316009550008 0.68521288027490546 -203.22723436299998 135.23390483850002 -30.622394561999972
decision_type=2 2 2 2 2 2 2
left_child=1 2 3 -1 -5 6 -6
right_child=-2 -3 -4 4 5 -7 -8
leaf_value=0.10743623341325514 0.0087191557748763256 0.00074909391723477971 -0.0042735219397299724 0.0017206374732311029 -0.071739951459874982 -0.03106379833082051 -0.1176658310457722
leaf_weight=0.025512878783047088 1.0597797925584016 4.550112783908844 1.4574103355407713 0.069793497910722535 0.051875148434191387 0.039045494282618165 0.03694556956179551
leaf_count=2 14 6 5 6 9 6 8
internal_value=0 -0.00148304 -0.00752645 -0.0287695 -0.0463502 -0.0725888 -0.0908431
internal_weight=0 6.2307 1.68058 0.223173 0.19766 0.127866 0.0888207
internal_count=56 42 36 31 29 23 17
is_linear=0
shrinkage=0.1


Tree=34
num_leaves=7
num_cat=0
split_feature=1 21 25 91 204 81
split_gain=0.0105101 0.00834869 0.0133782 0.0187909 0.00648543 0.00469017
threshold=-182.16445326749997 860.72138214150016 -1.0000000180025095e-35 -974.65699768100001 0.61116628275000007 -150.56306457549996
decision_type=2 2 2 2 2 2
left_child=-1 2 3 -2 -5 -6
right_child=1 -3 -4 4 5 -7
leaf_value=0.009346676995187991 0.010155291339521701 0.00068874036310353256 -0.0047166935269624018 -0.10299018767101958 -0.011254869828137358 -0.065203336380131829
leaf_weight=1.0324510941281912 0.056894763372837942 4.549410343170166 1.5432686256244779 0.027788539882749541 0.025088506750761908 0.045055077411234934
leaf_count=13 4 6 14 7 3 9
internal_value=0 -0.00154462 -0.00752808 -0.0355511 -0.0621048 -0.0459074
internal_weight=0 6.24751 1.6981 0.154827 0.0979321 0.0701436
internal_count=56 43 37 23 19 12
is_linear=0
shrinkage=0.1


Tree=35
num_leaves=7
num_cat=0
split_feature=1 21 92 20 93 9
split_gain=0.0118717 0.00872041 0.0100819 0.0202053 0.0187269 0.00660495
threshold=-182.16445326749997 860.72138214150016 -1.0000000180025095e-35 1.0000000180025095e-35 287.60212707500006 -174.72539138749997
decision_type=2 2 2 2 2 2
left_child=-1 2 3 -2 5 -5
right_child=1 -3 -4 4 -6 -7
leaf_value=0.0098535480689870766 0.0048536092125125094 0.00063258424579738575 -0.0051075966869257418 -0.052838802725485981 -0.0057796630447630648 -0.12296890830847942
leaf_weight=1.0471858438104389 0.086310804821550513 4.5474501550197601 1.5193049060180783 0.021141208009793799 0.036286549642682076 0.036816302686930258
leaf_count=13 6 6 15 4 4 8
internal_value=0 -0.00165167 -0.00776249 -0.0301024 -0.062116 -0.0973875
internal_weight=0 6.24731 1.69986 0.180555 0.0942441 0.0579575
internal_count=56 43 37 22 16 12
is_linear=0
shrinkage=0.1


Tree=36
num_leaves=5
num_cat=0
split_feature=55 201 1 21
split_gain=0.037389 0.00721812 0.00185774 0.000516045
threshold=-321.1288504604999 0.98980852111128514 1.0000000180025095e-35 1298.345657349
decision_type=2 2 2 2
left_child=-1 -2 -3 -4
right_child=1 2 3 -5
leaf_value=0.04447429796204655 -0.0079816810952009053 0.0044321218246647634 -0.0014468532820441392 0.00060165535073225724
leaf_weight=0.18426025239750732 1.2708479354623703 0.92991654109209765 2.5058939086738974 2.4147368967533112
leaf_count=9 20 9 14 4
internal_value=0 -0.00115073 0.000333077 -0.000441574
internal_weight=0 7.1214 5.85055 4.92063
internal_count=56 47 27 18
is_linear=0
shrinkage=0.1


Tree=37
num_leaves=5
num_cat=0
split_feature=76 89 202 202
split_gain=0.152717 0.0509576 0.00355562 0.000399405
threshold=-412.41404771799995 -48.804446696999989 0.74962395407602511 0.65571653758228099
decision_type=2 2 2 2
left_child=-1 -2 3 -3
right_child=1 2 -4 -5
leaf_value=-0.066717033306931323 0.023526430488732469 0.0016589648380806827 -0.0059676622612124452 -0.00015894598477195413
leaf_weight=0.32759581506252278 1.0430770197417585 2.1574467234313488 0.97626493871211995 2.7478548879735172
leaf_count=3 16 4 24 9
internal_value=0 0.0031563 -0.000456282 0.000640606
internal_weight=0 6.92464 5.88157 4.9053
internal_count=56 53 37 13
is_linear=0
shrinkage=0.1


Tree=38
num_leaves=7
num_cat=0
split_feature=5 21 32 204 20 5
split_gain=0.00859697 0.00683509 0.00695295 0.0206486 0.0076047 0.00105456
threshold=462.81002807600009 860.72138214150016 1.0000000180025095e-35 0.7601111906500001 131.98116302500003 -230.4437255855
decision_type=2 2 2 2 2 2
left_child=1 2 -1 4 5 -4
right_child=-2 -3 3 -5 -6 -7
leaf_value=-0.0037163035276660886 0.0083566812221016525 0.0005820981917565441 -0.08214047125329127 -0.0067598216326370851 -0.031245595050252109 -0.11506151716778623
leaf_weight=1.326486666454002 1.0524363205768166 4.5494223535060883 0.021161635406314772 0.25450320262461901 0.031437450787052512 0.018012542743236271
leaf_count=16 14 6 6 4 5 5
internal_value=0 -0.00141829 -0.00692848 -0.0200343 -0.0678792 -0.0972778
internal_weight=0 6.20102 1.6516 0.325115 0.0706116 0.0391742
internal_count=56 42 36 20 16 11
is_linear=0
shrinkage=0.1


Tree=39
num_leaves=8
num_cat=0
split_feature=1 21 33 19 36 1 58
split_gain=0.00955957 0.00681494 0.0136668 0.0158908 0.00648709 0.00250681 0.00457134
threshold=-182.16445326749997 860.72138214150016 -1.0000000180025095e-35 820.6173794865 1.0000000180025095e-35 321.43968105350001 211.57648706500001
decision_type=2 2 2 2 2 2 2
left_child=-1 2 3 4 5 6 -2
right_child=1 -3 -4 -5 -6 -7 -8
leaf_value=0.0089256834963530925 -0.093016463845180641 0.0005330302744768 -0.0041546995779904519 0.0060628488205135746 -0.11104634348280401 -0.019178192993958617 -0.030609695150531441
leaf_weight=1.0296601308509705 0.022439278429373544 4.5491080582141876 1.5332746694330128 0.05480626504868269 0.020925887627527118 0.021532755345106125 0.024611490778625011
leaf_count=13 8 6 13 4 6 3 3
internal_value=0 -0.00147598 -0.00692379 -0.0363439 -0.0623094 -0.047439 -0.0603725
internal_weight=0 6.2267 1.67759 0.144316 0.0895094 0.0685835 0.0470508
internal_count=56 43 37 24 20 14 11
is_linear=0
shrinkage=0.1


Tree=40
num_leaves=8
num_cat=0
split_feature=5 21 204 8 204 203 1
split_gain=0.0112062 0.00770092 0.00860343 0.00576492 0.022561 0.00529979 0.00327648
threshold=462.81002807600009 860.72138214150016 0.5382534683500001 686.9925756455001 0.69938644515000015 -0.61633945965103398 196.243916988
decision_type=2 2 2 2 2 2 2
left_child=1 2 -1 4 5 -4 -7
right_child=-2 -3 3 -5 -6 6 -8
leaf_value=0.017678002930828596 0.0094271087994255674 0.00048364237030737271 -0.039276762848984528 -0.0059882333841085114 -0.0073855040104591103 -0.11658119872135408 -0.06232845547489068
leaf_weight=0.12533022509887803 1.0745136579498646 4.5491884648799896 0.039326793747022082 1.1326113343238831 0.30142159946262836 0.022427684627473687 0.022101701237261295
leaf_count=4 14 6 8 2 11 5 6
internal_value=0 -0.0016358 -0.00750341 -0.00958261 -0.0201491 -0.0660278 -0.0896534
internal_weight=0 6.19241 1.64322 1.51789 0.385278 0.0838562 0.0445294
internal_count=56 42 36 32 30 19 11
is_linear=0
shrinkage=0.1


Tree=41
num_leaves=7
num_cat=0
split_feature=1 21 33 21 20 1
split_gain=0.014819 0.00932986 0.00837758 0.01369 0.00729519 0.000906146
threshold=-182.16445326749997 860.72138214150016 -1.0000000180025095e-35 -860.72138214149993 131.98116302500003 160.20868587500004
decision_type=2 2 2 2 2 2
left_child=-1 2 3 -2 5 -5
right_child=1 -3 -4 4 -6 -7
leaf_value=0.010899071249615302 -0.0029823631224953581 0.00047421105064014463 -0.0061546928625637494 -0.10975590917741029 -0.028198093740252728 -0.076547206189999967
leaf_weight=1.0649526836350558 0.074258322827517431 4.5502095818519592 1.5259060671087357 0.021425459766760468 0.027660761959850788 0.013327860739082098
leaf_count=13 6 6 13 8 5 5
internal_value=0 -0.00186824 -0.00827913 -0.0319979 -0.0665196 -0.0970204
internal_weight=0 6.21279 1.66258 0.136672 0.0624141 0.0347533
internal_count=56 43 37 24 18 13
is_linear=0
shrinkage=0.1


Tree=42
num_leaves=5
num_cat=0
split_feature=55 97 97 7
split_gain=0.0660853 0.0135303 0.00402894 0.00195743
threshold=-321.1288504604999 702.87900376300013 -1.0000000180025095e-35 1.0000000180025095e-35
decision_type=2 2 2 2
left_child=-1 2 -2 -4
right_child=1 -3 3 -5
leaf_value=0.051962007022218572 -0.0055508685531651947 -0.010618208570978697 0.0042188535527772127 3.0412477003813316e-05
leaf_weight=0.23684935830533493 0.94561810803133983 1.3808026341721413 1.7807156394701449 2.9881486347876489
leaf_count=9 22 7 11 7
internal_value=0 -0.00173456 0.000412015 0.0015944
internal_weight=0 7.09529 5.71448 4.76886
internal_count=56 47 40 18
is_linear=0
shrinkage=0.1


Tree=43
num_leaves=10
num_cat=0
split_feature=91 38 76 202 1 65 203 19 21
split_gain=0.0467837 0.0594022 0.0193799 0.0268841 0.00994082 0.00958651 0.00315648 0.00151182 0.000125266
threshold=228.57369041450002 534.42309570300006 -207.07421493549998 0.74055752629857319 -72.498985290999983 -279.93470382699996 -0.61633945965103398 80.613852501000039 1298.345657349
decision_type=2 2 2 2 2 2 2 2 2
left_child=1 2 -1 -4 -2 -5 -7 -8 -6
right_child=4 -3 3 5 8 6 7 -9 -10
leaf_value=0.054452813608436151 0.0088405912516726741 -0.070719572790768612 0.01244378664823937 -0.0088752169253956421 -0.00053446312944181154 -0.051333349958164513 -0.11533850261840009 -0.074552477539145734 0.00048861630427881285
leaf_weight=0.051272123120725044 1.7222263514995573 0.20503103057853878 0.16715454403311014 0.034788489341735729 2.3734254217706621 0.034769726451486238 0.016911067301407678 0.019646453787572682 2.4140539467334747
leaf_count=3 7 7 6 4 7 7 4 7 4
internal_value=0 -0.0285825 -0.00196228 -0.0125471 0.00232523 -0.051913 -0.0729039 -0.0934196 -1.85823e-05
internal_weight=0 0.529573 0.324542 0.27327 6.50971 0.106116 0.0713272 0.0365575 4.78748
internal_count=56 38 31 28 18 22 18 11 11
is_linear=0
shrinkage=0.1


Tree=44
num_leaves=7
num_cat=0
split_feature=3 5 201 15 57 72
split_gain=0.0137171 0.102316 0.00879621 0.0042833 0.0117659 0.00051475
threshold=-111.93867826449998 864.69183349600007 0.98980852111128514 956.15316009550008 753.13953399650006 -1.0000000180025095e-35
decision_type=2 2 2 2 2 2
left_child=1 3 -2 4 -1 -4
right_child=2 -3 5 -5 -6 -7
leaf_value=-0.068943628077366537 -0.0090323040353489873 0.082621397511430592 -0.00046555983508166521 -0.0048874474371732816 -0.0021345709333536094 0.0014883439483360226
leaf_weight=0.042619302636012324 1.2046631743432952 0.16099926549941301 3.0100349122658367 0.32101614773273468 0.069099804386496544 2.4423241792246704
leaf_count=8 16 4 14 3 5 6
internal_value=0 0.0145641 -0.00129896 -0.0107566 -0.0276213 0.00040967
internal_weight=0 0.593735 6.65702 0.432735 0.111719 5.45236
internal_count=56 20 36 16 13 20
is_linear=0
shrinkage=0.1


Tree=45
num_leaves=9
num_cat=0
split_feature=73 204 41 84 1 36 85 21
split_gain=0.0333934 0.0572755 0.0361883 0.0200516 0.00655647 0.00255695 0.00191763 0.000138198
threshold=107.78598260900002 0.57627838765000006 61.541802406500011 -576.55553531699991 -72.498985290999983 1.0000000180025095e-35 202.36574935950006 1298.345657349
decision_type=2 2 2 2 2 2 2 2
left_child=1 2 -1 -3 -2 6 -5 -6
right_child=4 3 -4 5 7 -7 -8 -9
leaf_value=0.087434572453854414 0.0071218137958292283 -0.0059061938816145944 -0.012696040477503397 -0.034865947621898784 -0.00062021855665674128 -0.074065214893936748 -0.071034669343722087 0.00045426355066063661
leaf_weight=0.055008702911436447 1.7185915624722836 0.069491802714764961 0.10497030103579164 0.035207910696044675 2.3736595404334366 0.16092790430411696 0.025115823606029153 2.4147919416427612
leaf_count=6 7 8 5 6 7 7 6 4
internal_value=0 -0.0263228 0.0217338 -0.0527656 0.00182329 -0.0674834 -0.0499248 -7.83626e-05
internal_weight=0 0.450722 0.159979 0.290743 6.50704 0.221252 0.0603237 4.78845
internal_count=56 38 11 27 18 19 12 11
is_linear=0
shrinkage=0.1


Tree=46
num_leaves=6
num_cat=0
split_feature=3 5 201 78 94
split_gain=0.0227077 0.0985599 0.0132926 0.00193941 0.000427046
threshold=-111.93867826449998 864.69183349600007 0.98980852111128514 -410.19206237799995 1.0000000180025095e-35
decision_type=2 2 2 2 2
left_child=1 3 -2 -1 -4
right_child=2 -3 4 -5 -6
leaf_value=0.0010547559764023261 -0.011190348094386075 0.080251481488245568 0.0017784729719879128 -0.013019839002562173 -0.00015890895702389397
leaf_weight=0.15405243029817939 1.2048596238018943 0.18127537798136473 1.6185598426964132 0.26860999758355308 3.8299429276958108
leaf_count=7 16 4 10 9 10
internal_value=0 0.0185662 -0.00168529 -0.00788992 0.00041662
internal_weight=0 0.603938 6.65336 0.422662 5.4485
internal_count=56 20 36 16 20
is_linear=0
shrinkage=0.1


Tree=47
num_leaves=8
num_cat=0
split_feature=202 47 19 60 38 47 203
split_gain=0.0161501 0.0741428 0.0253797 0.00654725 0.00826427 0.00207346 0.00307029
threshold=0.74962395407602511 128.81518602350002 743.67237854000007 823.7866439820001 -398.28126335149994 1.0000000180025095e-35 -0.61633945965103398
decision_type=2 2 2 2 2 2 2
left_child=3 2 5 4 -1 6 -2
right_child=1 -3 -4 -5 -6 -7 -8
leaf_value=-0.0049628834395610251 -0.030801562365982624 0.0030549993905588497 0.00084526778803870831 0.00039470660383820712 0.013549680383466003 -0.080442005982216375 -0.077333171020451189
leaf_weight=0.32887895102612652 0.024113592458888666 0.87952580465935171 0.058069708524271846 4.547817200422287 0.90389921644236892 0.14596488582901657 0.034423112752847373
leaf_count=4 5 8 6 6 11 7 9
internal_value=0 -0.0108664 -0.0574983 0.00214691 0.00861092 -0.0740654 -0.058165
internal_weight=0 1.1421 0.262571 5.7806 1.23278 0.204502 0.0585367
internal_count=56 35 27 21 15 21 14
is_linear=0
shrinkage=0.1


Tree=48
num_leaves=5
num_cat=0
split_feature=1 201 97 90
split_gain=0.0164597 0.010605 0.000980736 0.000688281
threshold=-182.16445326749997 0.81914536243344072 -1.0000000180025095e-35 -614.9071044919998
decision_type=2 2 2 2
left_child=-1 -2 -3 -4
right_child=1 2 3 -5
leaf_value=0.011584181246891652 -0.010492639072046461 -0.0029667785322581926 -0.00035656792113293215 0.0022858310941585862
leaf_weight=1.0485999530646948 1.1800731332041321 0.88793958676978846 2.4698140495456755 1.6405207030475146
leaf_count=13 12 16 7 8
internal_value=0 -0.00196608 4.70116e-05 0.000698069
internal_weight=0 6.17835 4.99827 4.11033
internal_count=56 43 31 15
is_linear=0
shrinkage=0.1


Tree=49
num_leaves=6
num_cat=0
split_feature=55 201 1 15 202
split_gain=0.128067 0.0325002 0.00125632 0.000230838 0.000716875
threshold=-321.1288504604999 0.98980852111128514 1.0000000180025095e-35 1195.7413558955002 0.65571653758228099
decision_type=2 2 2 2 2
left_child=-1 -2 -3 4 -4
right_child=1 2 3 -5 -6
leaf_value=0.061906563020028942 -0.017451020195393418 0.0037644925820712522 0.00033403442907729277 0.00070598985237977686 -0.0027248090898644101
leaf_weight=0.31968628289178003 1.2472292724996803 0.90445718262344588 2.1358389854431157 1.5750711560249326 1.1947689102962611
leaf_count=9 20 9 2 2 14
internal_value=0 -0.00280426 0.000339877 -0.000291517 -0.000763246
internal_weight=0 7.05737 5.81014 4.90568 3.33061
internal_count=56 47 27 18 16
is_linear=0
shrinkage=0.1


Tree=50
num_leaves=9
num_cat=0
split_feature=202 47 19 60 38 36 76 21
split_gain=0.0144556 0.0603628 0.0233902 0.00576411 0.00733422 0.0019443 0.00198783 0.00128969
threshold=0.74962395407602511 157.24434137300003 743.67237854000007 823.7866439820001 -398.28126335149994 75.500827789500008 39.587935447500001 -737.24150848349984
decision_type=2 2 2 2 2 2 2 2
left_child=3 2 5 4 -1 6 7 -2
right_child=1 -3 -4 -5 -6 -7 -8 -9
leaf_value=-0.004600592593548964 -0.057043982192048349 0.0021556578359056113 0.0028934319338789934 0.00036893933319503687 0.012771793814570468 -0.076881366452326572 -0.033366719152558774 -0.095165012494408605
leaf_weight=0.33296668948605634 0.027494541602208988 0.86472062161192298 0.057144856080412865 4.5482591092586517 0.89956196851562709 0.13039833109360188 0.024690821766853333 0.013104720041155815
leaf_count=4 6 5 6 6 11 7 6 5
internal_value=0 -0.0104113 -0.0533918 0.00201274 0.00807866 -0.0698282 -0.0557414 -0.0693488
internal_weight=0 1.11755 0.252833 5.78079 1.23253 0.195688 0.0652901 0.0405993
internal_count=56 35 30 21 15 24 17 11
is_linear=0
shrinkage=0.1


Tree=51
num_leaves=7
num_cat=0
split_feature=0 62 78 21 48 81
split_gain=0.0490052 0.0817066 0.029031 0.0150219 0.00844563 0.00336436
threshold=1.0000000180025095e-35 1.0000000180025095e-35 -410.19206237799995 860.72138214150016 -231.32078552199997 316.56540918400009
decision_type=2 2 2 2 2 2
left_child=1 -1 -3 -2 5 -4
right_child=3 2 4 -5 -6 -7
leaf_value=0.077456790987943447 -0.011318856766652962 0.015823985307797904 -0.11062720807845235 0.00025613012544299478 -0.0098862201656336676 -0.059287059663949572
leaf_weight=0.21078083477914322 1.4157558711012823 0.17806437402032305 0.021230048383585998 5.3889432847499847 0.025623972527683003 0.032008241629227996
leaf_count=4 19 9 7 8 3 6
internal_value=0 0.0313112 -0.00654635 -0.00215211 -0.0570567 -0.0797602
internal_weight=0 0.467707 0.256927 6.8047 0.0788623 0.0532383
internal_count=56 29 25 27 16 13
is_linear=0
shrinkage=0.1


Tree=52
num_leaves=8
num_cat=0
split_feature=3 42 75 6 3 60 95
split_gain=0.0136724 0.0623883 0.00978874 0.0200608 0.00798793 0.000356571 0.000696833
threshold=-46.658676624499996 776.88940429700017 -1.0000000180025095e-35 -122.49339103699998 1.0000000180025095e-35 1034.5730190275003 289.93675994900002
decision_type=2 2 2 2 2 2 2
left_child=1 2 -1 -4 -2 6 -6
right_child=4 -3 3 -5 5 -7 -8
leaf_value=-0.0087805190121385043 0.010323147462619198 -0.071071574082850447 -0.0057874085536171738 0.061117714337102752 -0.0031989465101794653 0.0004823005135765544 0.0008049428972604181
leaf_weight=0.23666518111713231 0.85528267361223687 0.14651463995687664 0.10814373660832644 0.076530557125806697 0.8941969482693819 3.7112780809402466 0.84584643878042698
leaf_count=6 6 7 4 6 20 4 3
internal_value=0 -0.0148622 0.00468377 0.0219386 0.00133821 -7.14834e-05 -0.00125263
internal_weight=0 0.567854 0.421339 0.184674 6.3066 5.45132 1.74004
internal_count=56 23 16 10 33 27 23
is_linear=0
shrinkage=0.1


Tree=53
num_leaves=8
num_cat=0
split_feature=3 5 201 15 12 35 0
split_gain=0.0910134 0.0721913 0.0294674 0.000664788 0.004414 0.000349934 0.000155158
threshold=-142.00149202349999 864.69183349600007 0.98980852111128514 956.15316009550008 -895.30758285549985 99.241984367500024 851.14567184450004
decision_type=2 2 2 2 2 2 2
left_child=1 3 -2 4 -1 -4 -7
right_child=2 -3 5 -5 -6 6 -8
leaf_value=-0.056722872399857398 -0.016937472785668092 0.07665660212256481 0.0014691091551990736 -0.0019084165530995571 0.0009077417593121366 -0.00092583737655870663 0.0003148560897110986
leaf_weight=0.01825134246610105 1.2147976654814554 0.26710797986015677 1.6186427834909407 0.10056715458631516 0.048890262143686303 1.9090160310734061 2.1355409622192383
leaf_count=4 18 4 11 1 7 9 2
internal_value=0 0.0443699 -0.00280499 -0.00705278 -0.0147582 0.000226535 -0.000270747
internal_weight=0 0.434817 6.878 0.167709 0.0671416 5.6632 4.04456
internal_count=56 16 40 12 11 22 11
is_linear=0
shrinkage=0.1


Tree=54
num_leaves=7
num_cat=0
split_feature=3 42 3 75 81 66
split_gain=0.0132317 0.0559426 0.00676349 0.00675128 0.0099552 0.000355605
threshold=-46.658676624499996 776.88940429700017 1.0000000180025095e-35 -1.0000000180025095e-35 160.22377538700002 1.0000000180025095e-35
decision_type=2 2 2 2 2 2
left_child=1 3 -2 -1 -5 -4
right_child=2 -3 5 4 -6 -7
leaf_value=-0.007869876510015885 0.0095909005556900403 -0.070874427301446802 0.00066423372472584018 -0.0018654001989297148 0.045879390477396718 -0.00098428654973031337
leaf_weight=0.23520243936218321 0.8507716180756687 0.13470127317123115 3.2672017058357596 0.10572512913495291 0.074406140251085162 2.1826846926705912
leaf_count=6 6 7 8 2 8 19
internal_value=0 -0.0148743 0.00129851 0.00328766 0.0178564 3.99978e-06
internal_weight=0 0.550035 6.30066 0.415334 0.180131 5.44989
internal_count=56 23 33 16 10 27
is_linear=0
shrinkage=0.1


Tree=55
num_leaves=8
num_cat=0
split_feature=30 29 77 36 44 34 12
split_gain=0.291338 0.115456 0.00451945 0.0572121 0.00169885 0.000446958 0.000282399
threshold=-344.91268920899989 220.93416976950002 -366.33993530299989 157.54309463500002 -1023.8713340759998 281.61599445350004 999.94033050550013
decision_type=2 2 2 2 2 2 2
left_child=2 -2 3 4 -1 6 -3
right_child=1 5 -4 -5 -6 -7 -8
leaf_value=-0.0093587035552319363 0.034767983144783764 -0.0024790135179593728 -0.065787746361184576 -0.18102094910941391 -0.042835120578221392 0.00044997528219950685 -1.9943098381027319e-05
leaf_weight=0.026590318651869893 1.1356410089647395 1.0974614052101967 0.4450046068523078 0.040778142050839961 0.035262549878098071 3.7107916474342346 0.81293603777885426
leaf_count=3 15 15 6 3 8 4 2
internal_value=0 0.00568564 -0.0701504 -0.0890669 -0.0284437 -0.00018983 -0.0014326
internal_weight=0 6.75683 0.547636 0.102631 0.0618529 5.62119 1.9104
internal_count=56 36 20 14 11 21 17
is_linear=0
shrinkage=0.1


Tree=56
num_leaves=8
num_cat=0
split_feature=5 21 5 87 84 29 13
split_gain=0.00446069 0.00327677 0.0050186 0.00898347 0.0061172 0.00312765 0.00143061
threshold=462.81002807600009 860.72138214150016 -1.0000000180025095e-35 647.97477722150006 -663.58471298249981 501.16564941400009 60.395597458000005
decision_type=2 2 2 2 2 2 2
left_child=1 2 3 4 -1 6 -6
right_child=-2 -3 -4 -5 5 -7 -8
leaf_value=-0.0077459058834881273 0.0062984404557461862 0.00036043433143818264 -0.0029241998680905705 -0.0038742360756868449 -0.11908405188886945 -0.036347074087516654 -0.072833859228181114
leaf_weight=0.021732364781200442 0.970541008748114 4.5504241585731506 1.3934502408374103 0.11297633871436119 0.012016259366646298 0.014934206963516772 0.015082598547451198
leaf_count=3 14 6 13 3 6 4 7
internal_value=0 -0.000998742 -0.00493764 -0.0208118 -0.050821 -0.0730921 -0.0933423
internal_weight=0 6.12062 1.57019 0.176742 0.0637654 0.0420331 0.0270989
internal_count=56 42 36 23 20 17 13
is_linear=0
shrinkage=0.1


Tree=57
num_leaves=6
num_cat=0
split_feature=5 21 35 87 1
split_gain=0.00469083 0.0032947 0.00407053 0.00966559 0.00649711
threshold=462.81002807600009 860.72138214150016 -1.0000000180025095e-35 647.97477722150006 169.10729885050003
decision_type=2 2 2 2 2
left_child=1 2 3 4 -1
right_child=-2 -3 -4 -5 -6
leaf_value=-0.10594705411162736 0.0064447781490890518 0.00033561348754808053 -0.003244419762381752 -0.003964751609343173 -0.029958701671984767
leaf_weight=0.017490294529124983 0.97421813732944418 4.5503369271755219 1.4042152577312661 0.11395056266337633 0.031546503189019859
leaf_count=9 14 6 17 3 7
internal_value=0 -0.00102633 -0.00498071 -0.0199397 -0.057062
internal_weight=0 6.11754 1.5672 0.162987 0.0490368
internal_count=56 42 36 19 16
is_linear=0
shrinkage=0.1


Tree=58
num_leaves=5
num_cat=0
split_feature=5 201 97 51
split_gain=0.00498936 0.00340203 0.000372864 0.000471707
threshold=462.81002807600009 0.98980852111128514 -1.0000000180025095e-35 -1.0000000180025095e-35
decision_type=2 2 2 2
left_child=1 -1 -3 -4
right_child=-2 2 3 -5
leaf_value=-0.0058450429216711439 0.0066320881864290332 -0.0017831669838370709 -0.00036511140375101574 0.0018416508787204629
leaf_weight=1.1955488338717257 0.9780097675975411 0.86491037509404112 2.4602450450183815 1.5976594919338829
leaf_count=17 14 12 8 5
internal_value=0 -0.00106013 0.000101931 0.000503725
internal_weight=0 6.11836 4.92281 4.0579
internal_count=56 42 25 13
is_linear=0
shrinkage=0.1


Tree=59
num_leaves=5
num_cat=0
split_feature=5 201 97 51
split_gain=0.00588878 0.00423172 0.000374724 0.000507665
threshold=462.81002807600009 0.98980852111128514 -1.0000000180025095e-35 -1.0000000180025095e-35
decision_type=2 2 2 2
left_child=1 -1 -3 -4
right_child=-2 2 3 -5
leaf_value=-0.0064894041152597634 0.0071705751134839473 -0.001749246186396198 -0.00035792052026887406 0.0019310145283270787
leaf_weight=1.1966193403350187 0.98634492838755239 0.86485251260455687 2.4608862567692986 1.5982938506640501
leaf_count=17 14 12 8 5
internal_value=0 -0.00115554 0.000140675 0.000543343
internal_weight=0 6.12065 4.92403 4.05918
internal_count=56 42 25 13
is_linear=0
shrinkage=0.1


Tree=60
num_leaves=5
num_cat=0
split_feature=1 201 97 51
split_gain=0.0074978 0.00503783 0.000348218 0.000452875
threshold=-182.16445326749997 0.98980852111128514 -1.0000000180025095e-35 -1.0000000180025095e-35
decision_type=2 2 2 2
left_child=-1 -2 -3 -4
right_child=1 2 3 -5
leaf_value=0.0080859332911859504 -0.0071013121282351033 -0.0017080923446162054 -0.00035051556891253777 0.0018085636526040693
leaf_weight=0.98774105613119889 1.2039055555942466 0.8648308414267375 2.4615608945023264 1.604895291849971
leaf_count=13 18 12 8 5
internal_value=0 -0.0013018 0.000114073 0.000501601
internal_weight=0 6.13519 4.93129 4.06646
internal_count=56 43 25 13
is_linear=0
shrinkage=0.1


Tree=61
num_leaves=5
num_cat=0
split_feature=5 201 97 51
split_gain=0.0107888 0.00799958 0.00036451 0.00054946
threshold=462.81002807600009 0.98980852111128514 -1.0000000180025095e-35 -1.0000000180025095e-35
decision_type=2 2 2 2
left_child=1 -1 -3 -4
right_child=-2 2 3 -5
leaf_value=-0.0089124221223238105 0.0094978074954448904 -0.0016695007623657714 -0.0003456352449915667 0.0020353878681334233
leaf_weight=1.1994132835534399 1.0245844903402028 0.86482853360939671 2.4622412372846147 1.5983237414620832
leaf_count=17 14 12 8 5
internal_value=0 -0.00158884 0.000194571 0.000591586
internal_weight=0 6.12481 4.92539 4.06056
internal_count=56 42 25 13
is_linear=0
shrinkage=0.1


Tree=62
num_leaves=7
num_cat=0
split_feature=1 201 202 15 51 5
split_gain=0.0216076 0.0144932 0.000322803 0.000576212 0.00137233 0.00150145
threshold=-182.16445326749997 0.98980852111128514 0.65571653758228099 1195.7413558955002 99.40764617950002 -1.0000000180025095e-35
decision_type=2 2 2 2 2 2
left_child=-1 -2 -3 4 5 -4
right_child=1 2 3 -5 -6 -7
leaf_value=0.013103674889375076 -0.012097372266466164 0.0010388171493720163 -0.016477005446307588 0.00066541377318796819 -9.5777353790413647e-05 -0.0026912315719688747
leaf_weight=1.0714612472802398 1.2091947573935611 2.1517417142167687 0.12209917954169169 1.5765254497528076 0.85775095643475652 0.22383593767881438
leaf_count=13 18 4 12 2 5 2
internal_value=0 -0.00228624 0.000119209 -0.000592521 -0.0022401 -0.00755698
internal_weight=0 6.14115 4.93195 2.78021 1.20369 0.345935
internal_count=56 43 25 21 19 14
is_linear=0
shrinkage=0.1


Tree=63
num_leaves=6
num_cat=0
split_feature=76 72 31 34 13
split_gain=0.186081 0.0671457 0.00119686 0.000560033 9.11968e-05
threshold=-412.41404771799995 465.64916992150006 -1.0000000180025095e-35 1.0000000180025095e-35 -215.75542449949998
decision_type=2 2 2 2 2
left_child=-1 2 -2 -4 -5
right_child=1 -3 3 4 -6
leaf_value=-0.067868292675039396 -0.0032798808560395853 0.028712098200864469 0.0027648580320886618 0.0005823938646291188 -0.00039832420103409495
leaf_weight=0.38246063329279412 1.0108760511502621 0.93461222457699467 0.89287869178224344 1.5755892395973203 2.3811349809402604
leaf_count=3 20 7 12 2 12
internal_value=0 0.00381996 -0.000149769 0.000502687 -7.7969e-06
internal_weight=0 6.79509 5.86048 4.8496 3.95672
internal_count=56 53 46 26 14
is_linear=0
shrinkage=0.1


Tree=64
num_leaves=7
num_cat=0
split_feature=1 201 202 15 51 5
split_gain=0.00389753 0.00275503 0.000303294 0.000462607 0.00111874 0.00107534
threshold=-182.16445326749997 0.98980852111128514 0.65571653758228099 1195.7413558955002 99.40764617950002 -1.0000000180025095e-35
decision_type=2 2 2 2 2 2
left_child=-1 -2 -3 4 5 -4
right_child=1 2 3 -5 -6 -7
leaf_value=0.0059520867347094414 -0.0052180811905743483 0.0010134840028356632 -0.014023361135306209 0.00056252888967872313 -8.6467482600787889e-05 -0.0025734857475259113
leaf_weight=0.95239204866811622 1.2013906610081901 2.1513528991490602 0.12955393991433051 1.5753678679466248 0.85767449741251767 0.22358003258705172
leaf_count=13 18 4 12 2 5 2
internal_value=0 -0.000923408 0.000121565 -0.000567133 -0.00203692 -0.00677409
internal_weight=0 6.13892 4.93753 2.78618 1.21081 0.353134
internal_count=56 43 25 21 19 14
is_linear=0
shrinkage=0.1


Tree=65
num_leaves=5
num_cat=0
split_feature=1 201 202 42
split_gain=0.00442049 0.00313071 0.000292178 0.000384627
threshold=-182.16445326749997 0.98980852111128514 0.65571653758228099 -1128.6468658444999
decision_type=2 2 2 2
left_child=-1 -2 -3 -4
right_child=1 2 3 -5
leaf_value=0.0063152783910167768 -0.0055634378396632982 0.0010033742731524917 0.0004039984714573059 -0.0019958207806985259
leaf_weight=0.95875750645063806 1.2016616324544882 2.151221978943795 1.6845433562994001 1.1065643628826367
leaf_count=13 18 4 3 18
internal_value=0 -0.00098549 0.000127577 -0.000547435
internal_weight=0 6.14399 4.94233 2.79111
internal_count=56 43 25 21
is_linear=0
shrinkage=0.1


Tree=66
num_leaves=5
num_cat=0
split_feature=1 201 202 42
split_gain=0.00519972 0.00367579 0.000282815 0.000370029
threshold=-182.16445326749997 0.98980852111128514 0.65571653758228099 -1128.6468658444999
decision_type=2 2 2 2
left_child=-1 -2 -3 -4
right_child=1 2 3 -5
leaf_value=0.0068142947466491108 -0.0060323646287768363 0.0009950034165330658 0.00040241735489862933 -0.0019514379746242297
leaf_weight=0.96745813032612193 1.2021010278840547 2.1511026220396161 1.6845366135239599 1.1065419187070804
leaf_count=13 18 4 3 18
internal_value=0 -0.00107297 0.00013332 -0.000530784
internal_weight=0 6.14428 4.94218 2.79108
internal_count=56 43 25 21
is_linear=0
shrinkage=0.1


Tree=67
num_leaves=7
num_cat=0
split_feature=1 201 202 15 51 5
split_gain=0.00650715 0.00458115 0.000272705 0.00035479 0.000993051 0.000796478
threshold=-182.16445326749997 0.98980852111128514 0.65571653758228099 1195.7413558955002 99.40764617950002 -1.0000000180025095e-35
decision_type=2 2 2 2 2 2
left_child=-1 -2 -3 4 5 -4
right_child=1 2 3 -5 -6 -7
leaf_value=0.0075661263544615958 -0.0067417584029585715 0.00098612867063079522 -0.012263979808656086 0.00047892612246180444 5.3302525039192514e-05 -0.002544777650905326
leaf_weight=0.98030068702064443 1.2027754175942389 2.1509751784615219 0.13539712561760064 1.5744525194168091 0.8577277697622776 0.22349420189857516
leaf_count=13 18 4 12 2 5 2
internal_value=0 -0.00120706 0.000139953 -0.000512164 -0.00179475 -0.00621149
internal_weight=0 6.14482 4.94205 2.79107 1.21662 0.358891
internal_count=56 43 25 21 19 14
is_linear=0
shrinkage=0.1


Tree=68
num_leaves=5
num_cat=0
split_feature=1 201 90 12
split_gain=0.00912341 0.00639057 0.000443637 0.000329295
threshold=-182.16445326749997 0.81914536243344072 1.0000000180025095e-35 376.18461608950008
decision_type=2 2 2 2
left_child=-1 -2 3 -3
right_child=1 2 -4 -5
leaf_value=0.0088491777922158638 -0.0080902730541237543 0.0016048257095958804 -0.00192388548842878 -0.00020846562663485408
leaf_weight=1.0018762785475699 1.1704926295788025 1.7328086649067698 0.87444591149687756 2.373003144399263
leaf_count=13 12 8 14 9
internal_value=0 -0.00144141 0.000121245 0.000556812
internal_weight=0 6.15075 4.98026 4.10581
internal_count=56 43 31 17
is_linear=0
shrinkage=0.1


Tree=69
num_leaves=5
num_cat=0
split_feature=5 26 90 51
split_gain=0.0165851 0.0113947 0.000399142 0.000348071
threshold=462.81002807600009 1.0000000180025095e-35 1.0000000180025095e-35 -1.0000000180025095e-35
decision_type=2 2 2 2
left_child=1 2 3 -1
right_child=-2 -3 -4 -5
leaf_value=-0.00021237783103127345 0.011506281425891265 -0.010778747731730123 -0.0018433385703109488 0.001679717982559361
leaf_weight=2.488478493760339 1.0671198163181541 1.1916949609294532 0.86010587459895749 1.5957081438973553
leaf_count=10 14 15 12 5
internal_value=0 -0.00200108 0.000114551 0.000526872
internal_weight=0 6.13599 4.94429 4.08419
internal_count=56 42 27 15
is_linear=0
shrinkage=0.1


Tree=70
num_leaves=8
num_cat=0
split_feature=74 27 56 2 9 5 0
split_gain=0.263595 0.113113 0.000899485 0.00135484 0.00150569 0.00108552 7.14801e-05
threshold=-238.69638061499998 -393.06208038299991 20.656845092500024 -969.31505107899977 -1.0000000180025095e-35 -1.0000000180025095e-35 851.14567184450004
decision_type=2 2 2 2 2 2 2
left_child=-1 -2 5 -4 -5 6 -3
right_child=1 2 3 4 -6 -7 -8
leaf_value=-0.067815917829361125 0.036633651716346617 -0.0006013383419851663 -0.00011296897833956249 0.0012372367581365579 -0.011687416924490872 0.003809972752899841 0.00027992478851523967
leaf_weight=0.53186567593365897 0.98435910115949798 1.6139938597916623 0.83669912815093994 0.13804298825562 0.25972263794392325 0.8762609350960705 2.1417402173392475
leaf_count=6 6 16 2 3 12 8 3
internal_value=0 0.00526491 1.41212e-06 -0.00239717 -0.00720197 0.000640653 -9.87903e-05
internal_weight=0 6.85082 5.86646 1.23446 0.397766 4.632 3.75573
internal_count=56 50 44 17 15 27 19
is_linear=0
shrinkage=0.1


Tree=71
num_leaves=5
num_cat=0
split_feature=1 201 202 41
split_gain=0.00292608 0.00223532 0.000245691 0.000343382
threshold=-182.16445326749997 0.98980852111128514 0.65571653758228099 135.23390483850002
decision_type=2 2 2 2
left_child=-1 -2 -3 -4
right_child=1 2 3 -5
leaf_value=0.0051851791194481075 -0.0046681186153270746 0.00094686007590026643 -0.0018605027613516137 0.00041179978495068672
leaf_weight=0.94347824808210123 1.1998327610199337 2.1505928398109972 1.0906534536043182 1.7041693074861541
leaf_count=13 18 4 14 7
internal_value=0 -0.000796068 0.00014335 -0.000474945
internal_weight=0 6.14525 4.94542 2.79482
internal_count=56 43 25 21
is_linear=0
shrinkage=0.1


Tree=72
num_leaves=5
num_cat=0
split_feature=1 201 202 41
split_gain=0.00319649 0.00243861 0.000239093 0.000343548
threshold=-182.16445326749997 0.98980852111128514 0.65571653758228099 135.23390483850002
decision_type=2 2 2 2
left_child=-1 -2 -3 -4
right_child=1 2 3 -5
leaf_value=0.0054057755794208601 -0.0048774345452921274 0.00094033761231046521 -0.0018482734934809914 0.00042462375939820806
leaf_weight=0.9477009568363427 1.2000733124441465 2.1504955338314176 1.090541988494806 1.7042718227021396
leaf_count=13 18 4 14 7
internal_value=0 -0.000833639 0.000147664 -0.000462265
internal_weight=0 6.14538 4.94531 2.79481
internal_count=56 43 25 21
is_linear=0
shrinkage=0.1


Tree=73
num_leaves=6
num_cat=0
split_feature=42 204 35 21 53
split_gain=0.00359395 0.0487706 0.0140814 0.00240936 0.000375731
threshold=-1.0000000180025095e-35 0.69938644515000015 -1.0000000180025095e-35 860.72138214150016 -173.99877548249995
decision_type=2 2 2 2 2
left_child=3 2 -2 4 -1
right_child=1 -3 -4 -5 -6
leaf_value=-0.0015906133122506273 0.011290685507569027 -0.0030277943705521162 0.0821866583234937 0.00023003025330348752 -0.0052488561396016103
leaf_weight=0.37076847697608162 0.039621243020519392 0.88976704550441355 0.095647151116281748 4.5463034510612488 1.1564922026591373
leaf_count=9 9 13 7 6 12
internal_value=0 0.00547712 0.0614206 -0.00092437 -0.00436076
internal_weight=0 1.02504 0.135268 6.07356 1.52726
internal_count=56 29 16 27 21
is_linear=0
shrinkage=0.1


Tree=74
num_leaves=6
num_cat=0
split_feature=74 72 31 34 28
split_gain=0.223912 0.0867091 0.000764159 0.000486115 3.23818e-05
threshold=-238.69638061499998 465.64916992150006 -1.0000000180025095e-35 1.0000000180025095e-35 -1359.7349548334998
decision_type=2 2 2 2 2
left_child=-1 2 -2 -4 -5
right_child=1 -3 3 4 -6
leaf_value=-0.067923152779095261 -0.0025076221919563598 0.032464997771676989 0.002621795761788677 0.00038055528417831356 -0.00020437014787465341
leaf_weight=0.45494232268538315 1.0208090529777107 0.9557185077574103 0.88497977098450054 1.5734593272209161 2.3751161010004589
leaf_count=6 20 7 11 2 10
internal_value=0 0.00453757 -2.15535e-05 0.000503485 2.87155e-05
internal_weight=0 6.81008 5.85436 4.83356 3.94858
internal_count=56 50 43 23 12
is_linear=0
shrinkage=0.1


Tree=75
num_leaves=5
num_cat=0
split_feature=1 201 90 12
split_gain=0.00338112 0.00230884 0.000403002 0.000240804
threshold=-182.16445326749997 0.81914536243344072 1.0000000180025095e-35 376.18461608950008
decision_type=2 2 2 2
left_child=-1 -2 3 -3
right_child=1 2 -4 -5
leaf_value=0.0055768118404174684 -0.0048621840807928233 0.0013948598288813789 -0.0018684883378813648 -0.00015665012211811926
leaf_weight=0.94248357298783947 1.1655125040560959 1.7302091578021643 0.87288508762139816 2.3714681044220924
leaf_count=13 12 8 14 9
internal_value=0 -0.000856016 8.26068e-05 0.000497823
internal_weight=0 6.14007 4.97456 4.10168
internal_count=56 43 31 17
is_linear=0
shrinkage=0.1


Tree=76
num_leaves=5
num_cat=0
split_feature=1 201 90 12
split_gain=0.00378123 0.00257986 0.00039671 0.000240648
threshold=-182.16445326749997 0.81914536243344072 1.0000000180025095e-35 376.18461608950008
decision_type=2 2 2 2
left_child=-1 -2 3 -3
right_child=1 2 -4 -5
leaf_value=0.0058797329743907325 -0.0051415615350591196 0.001393673365576043 -0.0018509900767875885 -0.00015734986146702929
leaf_weight=0.94753053504973639 1.1657618859899228 1.730151853058487 0.87276996811851848 2.3714646127191372
leaf_count=13 12 8 14 9
internal_value=0 -0.000907341 8.49609e-05 0.000496906
internal_weight=0 6.14015 4.97439 4.10162
internal_count=56 43 31 17
is_linear=0
shrinkage=0.1


Tree=77
num_leaves=5
num_cat=0
split_feature=1 201 90 12
split_gain=0.00435112 0.00296387 0.000390495 0.000240646
threshold=-182.16445326749997 0.81914536243344072 1.0000000180025095e-35 376.18461608950008
decision_type=2 2 2 2
left_child=-1 -2 3 -3
right_child=1 2 -4 -5
leaf_value=0.0062824981160518132 -0.0055138639000072258 0.0013929966926132565 -0.0018333514936034032 -0.0001580344292605568
leaf_weight=0.95413291477598239 1.1660924737807361 1.7300963061861692 0.87265319831203658 2.3714607137371786
leaf_count=13 12 8 14 9
internal_value=0 -0.000976224 8.75246e-05 0.000496213
internal_weight=0 6.1403 4.97421 4.10156
internal_count=56 43 31 17
is_linear=0
shrinkage=0.1


Tree=78
num_leaves=5
num_cat=0
split_feature=1 201 90 12
split_gain=0.00522189 0.00354857 0.000384374 0.00024085
threshold=-182.16445326749997 0.81914536243344072 1.0000000180025095e-35 376.18461608950008
decision_type=2 2 2 2
left_child=-1 -2 3 -3
right_child=1 2 -4 -5
leaf_value=0.0068454209734670453 -0.0060377168458407814 0.0013929994774565134 -0.0018155499617992276 -0.00015870375770142767
leaf_weight=0.96326133189722885 1.1665583559079094 1.7300430303439496 0.87253336200956244 2.3714561043307185
leaf_count=13 12 8 14 9
internal_value=0 -0.00107382 9.03617e-05 0.000495816
internal_weight=0 6.14059 4.97403 4.1015
internal_count=56 43 31 17
is_linear=0
shrinkage=0.1


Tree=79
num_leaves=5
num_cat=0
split_feature=1 201 90 12
split_gain=0.00670639 0.00454471 0.000378336 0.000241345
threshold=-182.16445326749997 0.81914536243344072 1.0000000180025095e-35 376.18461608950008
decision_type=2 2 2 2
left_child=-1 -2 3 -3
right_child=1 2 -4 -5
leaf_value=0.0076955513818928074 -0.0068397708214853123 0.001393942260900807 -0.00179745786926978 -0.00015936827205309824
leaf_weight=0.97699531633406866 1.1672819937230086 1.7299925442785022 0.87240943848155428 2.3714504495728761
leaf_count=13 12 8 14 9
internal_value=0 -0.00122428 9.35807e-05 0.00049582
internal_weight=0 6.14113 4.97385 4.10144
internal_count=56 43 31 17
is_linear=0
shrinkage=0.1


Tree=80
num_leaves=5
num_cat=0
split_feature=1 201 90 12
split_gain=0.00975712 0.00660296 0.000372364 0.000242262
threshold=-182.16445326749997 0.81914536243344072 1.0000000180025095e-35 376.18461608950008
decision_type=2 2 2 2
left_child=-1 -2 3 -3
right_child=1 2 -4 -5
leaf_value=0.0091557520466787248 -0.0082558693912704248 0.0013962896168105722 -0.0017788068087753158 -0.00015998336064763485
leaf_weight=1.0008633579127488 1.1686335094855165 1.7299463599920271 0.87227804167196143 2.3714432992273942
leaf_count=13 12 8 14 9
internal_value=0 -0.00149188 9.74131e-05 0.000496445
internal_weight=0 6.1423 4.97367 4.10139
internal_count=56 43 31 17
is_linear=0
shrinkage=0.1


Tree=81
num_leaves=5
num_cat=0
split_feature=1 201 90 12
split_gain=0.0191055 0.0130595 0.000366405 0.000243938
threshold=-182.16445326749997 0.81914536243344072 1.0000000180025095e-35 376.18461608950008
decision_type=2 2 2 2
left_child=-1 -2 3 -3
right_child=1 2 -4 -5
leaf_value=0.012418545641061421 -0.011629904013258766 0.001401048242097736 -0.0017590435955590897 -0.00016060798228230996
leaf_weight=1.0570447919890282 1.1724594560218973 1.7299071638844905 0.87213369109667827 2.3714338170248084
leaf_count=13 12 8 14 9
internal_value=0 -0.00213587 0.000102281 0.000498084
internal_weight=0 6.14593 4.97347 4.10134
internal_count=56 43 31 17
is_linear=0
shrinkage=0.1


Tree=82
num_leaves=6
num_cat=0
split_feature=76 27 31 34 28
split_gain=0.203242 0.0760205 0.000650594 0.00044491 4.03582e-05
threshold=-412.41404771799995 -393.06208038299991 -1.0000000180025095e-35 1.0000000180025095e-35 -1359.7349548334998
decision_type=2 2 2 2 2
left_child=-1 -2 -3 -4 -5
right_child=1 2 3 4 -6
leaf_value=-0.067679443783046508 0.030583046698365875 -0.0023584426110615721 0.0024418757193132917 0.00035366428784022231 -0.00029920521381034723
leaf_weight=0.41801425954326976 0.93858603993430723 1.025492245564237 0.88451007590629149 1.5732698440551751 2.3780059731216179
leaf_count=3 6 21 12 2 12
internal_value=0 0.00416053 -7.05995e-05 0.000414568 -3.92538e-05
internal_weight=0 6.79986 5.86128 4.83579 3.95128
internal_count=56 53 47 26 14
is_linear=0
shrinkage=0.1


Tree=83
num_leaves=5
num_cat=0
split_feature=1 201 202 42
split_gain=0.00312753 0.00225675 0.000193383 0.000272149
threshold=-182.16445326749997 0.98980852111128514 0.65571653758228099 -1128.6468658444999
decision_type=2 2 2 2
left_child=-1 -2 -3 -4
right_child=1 2 3 -5
leaf_value=0.0053622028429260735 -0.0047213076417380274 0.00083285749545287881 0.00036719993942891977 -0.001652122616519956
leaf_weight=0.94290274730883528 1.1960445240256374 2.148610781878233 1.6929380446672437 1.1017692222958433
leaf_count=13 18 4 3 18
internal_value=0 -0.000823541 0.00011953 -0.000428886
internal_weight=0 6.13936 4.94332 2.79471
internal_count=56 43 25 21
is_linear=0
shrinkage=0.1


Tree=84
num_leaves=5
num_cat=0
split_feature=1 201 90 12
split_gain=0.00350751 0.00253497 0.000376968 0.000245638
threshold=-182.16445326749997 0.81914536243344072 1.0000000180025095e-35 376.18461608950008
decision_type=2 2 2 2
left_child=-1 -2 3 -3
right_child=1 2 -4 -5
leaf_value=0.0056605694018739697 -0.0050717065030284197 0.001416543459567162 -0.0017788347364819078 -0.0001503392810380365
leaf_weight=0.94821425713598717 1.165628903894685 1.7308238032273946 0.87191742123104621 2.3711903085932136
leaf_count=13 12 8 14 9
internal_value=0 -0.000874235 0.000109432 0.000510799
internal_weight=0 6.13956 4.97393 4.10201
internal_count=56 43 31 17
is_linear=0
shrinkage=0.1


Tree=85
num_leaves=5
num_cat=0
split_feature=1 201 90 12
split_gain=0.00408086 0.00293663 0.000371932 0.000246729
threshold=-182.16445326749997 0.81914536243344072 1.0000000180025095e-35 376.18461608950008
decision_type=2 2 2 2
left_child=-1 -2 3 -3
right_child=1 2 -4 -5
leaf_value=0.0060803786331284871 -0.0054627949605754239 0.0014193829963472725 -0.0017627853771262352 -0.0001509834543764651
leaf_weight=0.95519594964571286 1.1660319250659084 1.7308021318167446 0.87181003799196322 2.371186907752417
leaf_count=13 12 8 14 9
internal_value=0 -0.000945946 0.000112961 0.00051162
internal_weight=0 6.13983 4.9738 4.10199
internal_count=56 43 31 17
is_linear=0
shrinkage=0.1


Tree=86
num_leaves=5
num_cat=0
split_feature=1 201 90 12
split_gain=0.00497029 0.00355586 0.000367044 0.000248226
threshold=-182.16445326749997 0.81914536243344072 1.0000000180025095e-35 376.18461608950008
decision_type=2 2 2 2
left_child=-1 -2 3 -3
right_child=1 2 -4 -5
leaf_value=0.0066719544953261663 -0.0060173357572831151 0.0014235319177237265 -0.0017465147527675482 -0.00015159551648889766
leaf_weight=0.96491277217864979 1.1665920639061367 1.73078818898648 0.87169981654733408 2.3711826154030859
leaf_count=13 12 8 14 9
internal_value=0 -0.00104846 0.000117003 0.000513015
internal_weight=0 6.14026 4.97367 4.10197
internal_count=56 43 31 17
is_linear=0
shrinkage=0.1


Tree=87
num_leaves=6
num_cat=0
split_feature=42 204 5 35 21
split_gain=0.00660736 0.0576423 0.0153149 0.0153773 0.00428106
threshold=-1.0000000180025095e-35 0.69938644515000015 864.69183349600007 -1.0000000180025095e-35 798.98144531250011
decision_type=2 2 2 2 2
left_child=4 2 3 -2 -1
right_child=1 -3 -4 -5 -6
leaf_value=-0.0063368526474225171 -0.043136974857113812 -0.0025606336124242408 0.082294296067591047 0.075447289661428524 0.00012515732084235879
leaf_weight=1.306006519240327 0.023189267027191596 0.88816560903796926 0.11413237871602178 0.020693451398983598 4.7685212790966034
leaf_count=19 7 13 5 4 8
internal_value=0 0.00734015 0.0629901 0.0127829 -0.00126416
internal_weight=0 1.04618 0.158015 0.0438827 6.07453
internal_count=56 29 16 11 27
is_linear=0
shrinkage=0.1


Tree=88
num_leaves=6
num_cat=0
split_feature=3 22 3 75 66
split_gain=0.0270404 0.0652185 0.0162042 0.00251225 0.000168181
threshold=-46.658676624499996 -544.48268425449987 1.0000000180025095e-35 -1.0000000180025095e-35 1.0000000180025095e-35
decision_type=2 2 2 2 2
left_child=1 -1 -2 -3 -4
right_child=2 3 4 -5 -6
leaf_value=-0.070043307382637796 0.01470093108548756 -0.0055802311341082364 0.00037801169392251329 0.0099178029025135984 -0.00075786461872173869
leaf_weight=0.18303766613826156 0.85948297381401051 0.2314379574963823 3.2569503621198237 0.1908428210299461 2.1733384605031461
leaf_count=4 6 7 8 12 19
internal_value=0 -0.0201866 0.00194272 0.00142385 -7.65946e-05
internal_weight=0 0.605318 6.28977 0.422281 5.43029
internal_count=56 23 33 19 27
is_linear=0
shrinkage=0.1


Tree=89
num_leaves=5
num_cat=0
split_feature=5 26 90 51
split_gain=0.0078516 0.00478447 0.000245885 0.000158426
threshold=462.81002807600009 1.0000000180025095e-35 1.0000000180025095e-35 -1.0000000180025095e-35
decision_type=2 2 2 2
left_child=1 2 3 -1
right_child=-2 -3 -4 -5
leaf_value=-0.00014505196480083099 0.008247279404339742 -0.0070545334825640755 -0.0015092163097727878 0.0011328214582058355
leaf_weight=2.4887833288521497 0.99314201693050552 1.1816241395426912 0.85813707148190577 1.5899851918220527
leaf_count=10 14 15 12 5
internal_value=0 -0.00133868 2.93812e-05 0.000353089
internal_weight=0 6.11853 4.93691 4.07877
internal_count=56 42 27 15
is_linear=0
shrinkage=0.1


Tree=90
num_leaves=5
num_cat=0
split_feature=1 201 97 94
split_gain=0.0125729 0.0083765 0.000318182 0.000183229
threshold=-182.16445326749997 0.81914536243344072 -1.0000000180025095e-35 27.26285553
decision_type=2 2 2 2
left_child=-1 -2 -3 -4
right_child=1 2 3 -5
leaf_value=0.010331189322453159 -0.0093251734183717443 -0.001645079069655189 0.0012398703715309825 -0.00011436467129279237
leaf_weight=1.0112756558228282 1.1674320249585433 0.8728737024939609 1.7301349965855486 2.3645274420268834
leaf_count=13 12 16 8 7
internal_value=0 -0.00170298 8.83292e-05 0.000457846
internal_weight=0 6.13497 4.96754 4.09466
internal_count=56 43 31 15
is_linear=0
shrinkage=0.1


Tree=91
num_leaves=6
num_cat=0
split_feature=3 5 201 202 18
split_gain=0.0851966 0.0640688 0.0255359 0.00013512 0.000207998
threshold=-142.00149202349999 864.69183349600007 0.98980852111128514 0.65571653758228099 -536.52508926349981
decision_type=2 2 2 2 2
left_child=1 -1 -2 -4 -5
right_child=2 -3 3 4 -6
leaf_value=-0.0036051398440487717 -0.015949893665171577 0.075898397077575355 0.0007530237634569279 0.00026238054828444355 -0.0014053397251374002
leaf_weight=0.17040761292446394 1.1974079360952599 0.25016376678831875 2.14700429700315 2.4110094308853149 1.084117428516038
leaf_count=12 18 4 4 4 14
internal_value=0 0.0436851 -0.00268625 0.000128638 -0.000254912
internal_weight=0 0.420571 6.83954 5.64213 3.49513
internal_count=56 16 40 22 18
is_linear=0
shrinkage=0.1


Tree=92
num_leaves=5
num_cat=0
split_feature=202 1 201 53
split_gain=0.00990525 0.0500817 0.00300763 0.00591945
threshold=0.74962395407602511 -314.10526943249994 1.1424849098208341 173.99877548250001
decision_type=2 2 2 2
left_child=2 -2 3 -1
right_child=1 -3 -4 -5
leaf_value=0.011136266944007555 -0.071520329063621393 -0.0013071650598727373 0.00015585657172658638 -0.00070763828717078283
leaf_weight=0.83879070729017235 0.11397399427369215 0.93478307145414874 4.0631113789277151 0.84919242287287489
leaf_count=6 4 31 9 6
internal_value=0 -0.0089376 0.00162984 0.00517782
internal_weight=0 1.04876 5.75109 1.68798
internal_count=56 35 21 12
is_linear=0
shrinkage=0.1


Tree=93
num_leaves=6
num_cat=0
split_feature=74 27 31 40 204
split_gain=0.26451 0.115606 0.000553482 0.000239189 0.000115744
threshold=-238.69638061499998 -393.06208038299991 -1.0000000180025095e-35 -1.0000000180025095e-35 0.78650470425000008
decision_type=2 2 2 2 2
left_child=-1 -2 -3 4 -4
right_child=1 2 3 -5 -6
leaf_value=-0.067639518111901151 0.037085533478122011 -0.0021372681933363134 -0.0010095648521635705 0.0012087635048251503 0.00033536972070491471
leaf_weight=0.53603531309636299 0.98066209512762714 1.018481933919247 1.0724486935068849 2.1644100811099638 1.5864037931896746
leaf_count=6 6 21 11 8 4
internal_value=0 0.00531443 -1.90326e-05 0.000428255 -0.00020711
internal_weight=0 6.82241 5.84174 4.82326 2.65885
internal_count=56 50 44 23 15
is_linear=0
shrinkage=0.1


Tree=94
num_leaves=5
num_cat=0
split_feature=1 201 97 94
split_gain=0.00290332 0.00192145 0.000338243 0.000166925
threshold=-182.16445326749997 0.81914536243344072 -1.0000000180025095e-35 27.26285553
decision_type=2 2 2 2
left_child=-1 -2 -3 -4
right_child=1 2 3 -5
leaf_value=0.005218042519602277 -0.0044501022665468203 -0.0017202904496714676 0.0011943133700596559 -9.8008157158723509e-05
leaf_weight=0.92631240258924652 1.1615857016295192 0.87238968850579102 1.7315784120000897 2.3640906645450741
leaf_count=13 12 16 8 7
internal_value=0 -0.00078856 6.75482e-05 0.000448363
internal_weight=0 6.12964 4.96806 4.09567
internal_count=56 43 31 15
is_linear=0
shrinkage=0.1


Tree=95
num_leaves=5
num_cat=0
split_feature=1 201 97 94
split_gain=0.00320823 0.00212113 0.000331509 0.000165637
threshold=-182.16445326749997 0.81914536243344072 -1.0000000180025095e-35 27.26285553
decision_type=2 2 2 2
left_child=-1 -2 -3 -4
right_child=1 2 3 -5
leaf_value=0.0054717802886555247 -0.0046772727589012453 -0.0017009422445080251 0.0011891761691307302 -9.8169485092507085e-05
leaf_weight=0.9303341160994022 1.1617398987873455 0.87232757086167101 1.7314810422249136 2.3640750724589452
leaf_count=13 12 16 8 7
internal_value=0 -0.000830491 6.90791e-05 0.000446083
internal_weight=0 6.12962 4.96788 4.09556
internal_count=56 43 31 15
is_linear=0
shrinkage=0.1


Tree=96
num_leaves=5
num_cat=0
split_feature=1 201 97 94
split_gain=0.00362082 0.00239025 0.000324708 0.00016435
threshold=-182.16445326749997 0.81914536243344072 -1.0000000180025095e-35 27.26285553
decision_type=2 2 2 2
left_child=-1 -2 -3 -4
right_child=1 2 3 -5
leaf_value=0.0057951560423958777 -0.004967453681898811 -0.001681165571375611 0.0011840201129213058 -9.8338499977073095e-05
leaf_weight=0.93539745337329794 1.1619402327341957 0.87226691201794881 1.7313810503110287 2.3640594725729898
leaf_count=13 12 16 8 7
internal_value=0 -0.000884357 7.06738e-05 0.000443789
internal_weight=0 6.12965 4.96771 4.09544
internal_count=56 43 31 15
is_linear=0
shrinkage=0.1


Tree=97
num_leaves=5
num_cat=0
split_feature=1 201 97 94
split_gain=0.00420826 0.0027724 0.000317838 0.000163057
threshold=-182.16445326749997 0.81914536243344072 -1.0000000180025095e-35 27.26285553
decision_type=2 2 2 2
left_child=-1 -2 -3 -4
right_child=1 2 3 -5
leaf_value=0.0062226435761791841 -0.0053530865599421724 -0.0016609053041959729 0.0011788558813985491 -9.8471211269880022e-05
leaf_weight=0.94203296909108747 1.1622128834715111 0.87220834952313442 1.7312779696658251 2.3640440638409927
leaf_count=13 12 16 8 7
internal_value=0 -0.000956312 7.23662e-05 0.000441513
internal_weight=0 6.12974 4.96753 4.09532
internal_count=56 43 31 15
is_linear=0
shrinkage=0.1


Tree=98
num_leaves=5
num_cat=0
split_feature=1 201 97 94
split_gain=0.00510803 0.0033574 0.000310795 0.00016175
threshold=-182.16445326749997 0.81914536243344072 -1.0000000180025095e-35 27.26285553
decision_type=2 2 2 2
left_child=-1 -2 -3 -4
right_child=1 2 3 -5
leaf_value=0.006818025526417003 -0.0058954719712650851 -0.001639815337618377 0.0011736554309941727 -9.85697240772422e-05
leaf_weight=0.95123568130657066 1.162608651560731 0.87215135566657398 1.7311698356643317 2.3640282402047887
leaf_count=13 12 16 8 7
internal_value=0 -0.001058 7.42062e-05 0.00043924
internal_weight=0 6.12996 4.96735 4.0952
internal_count=56 43 31 15
is_linear=0
shrinkage=0.1


Tree=99
num_leaves=5
num_cat=0
split_feature=1 201 97 94
split_gain=0.00664811 0.00436098 0.000303524 0.000160404
threshold=-182.16445326749997 0.81914536243344072 -1.0000000180025095e-35 27.26285553
decision_type=2 2 2 2
left_child=-1 -2 -3 -4
right_child=1 2 3 -5
leaf_value=0.0077143741212006541 -0.0067259685148401381 -0.0016177337053141214 0.0011683018022127041 -9.8643073749151409e-05
leaf_weight=0.96515915333293367 1.1632515150122342 0.87209696049103502 1.7310546673834322 2.3640120711643249
leaf_count=13 12 16 8 7
internal_value=0 -0.00121454 7.61763e-05 0.000436916
internal_weight=0 6.13042 4.96716 4.09507
internal_count=56 43 31 15
is_linear=0
shrinkage=0.1


end of trees

feature_importances:
distance_verb=47
colex1=46
colex5=36
colex21=32
emotion_dist=29
colex97=22
off_dist=22
colex12=17
colex90=15
colex3=12
colex15=11
colex41=11
colex91=11
ltq_score=11
colex20=10
colex42=10
colex26=9
colex34=9
colex36=9
colex51=9
colex30=8
colex31=8
colex76=8
colex84=8
colex94=8
colex29=7
colex60=7
colex0=6
colex8=6
colex19=6
colex38=6
colex55=6
colex6=5
colex9=5
colex35=5
colex54=5
colex92=5
colex4=4
colex14=4
colex28=4
colex53=4
colex75=4
colex81=4
colex95=4
colex2=3
colex13=3
colex18=3
colex27=3
colex33=3
colex43=3
colex47=3
colex48=3
colex49=3
colex56=3
colex72=3
colex74=3
colex87=3
colex89=3
colex11=2
colex22=2
colex23=2
colex25=2
colex64=2
colex65=2
colex66=2
colex68=2
colex78=2
colex98=2
distance_pron=2
colex7=1
colex10=1
colex24=1
colex32=1
colex39=1
colex40=1
colex44=1
colex45=1
colex50=1
colex57=1
colex58=1
colex59=1
colex61=1
colex62=1
colex63=1
colex73=1
colex77=1
colex85=1
colex86=1
colex88=1
colex93=1

parameters:
[boosting: gbdt]
[objective: lambdarank]
[metric: ndcg]
[tree_learner: serial]
[device_type: cpu]
[data: ]
[valid: ]
[num_iterations: 100]
[learning_rate: 0.1]
[num_leaves: 16]
[num_threads: 6]
[deterministic: 0]
[force_col_wise: 0]
[force_row_wise: 0]
[histogram_pool_size: -1]
[max_depth: -1]
[min_data_in_leaf: 5]
[min_sum_hessian_in_leaf: 0.001]
[bagging_fraction: 1]
[pos_bagging_fraction: 1]
[neg_bagging_fraction: 1]
[bagging_freq: 0]
[bagging_seed: 3]
[feature_fraction: 1]
[feature_fraction_bynode: 1]
[feature_fraction_seed: 2]
[extra_trees: 0]
[extra_seed: 6]
[early_stopping_round: 0]
[first_metric_only: 0]
[max_delta_step: 0]
[lambda_l1: 0]
