tree
version=v4
num_class=1
num_tree_per_iteration=1
label_index=0
max_feature_idx=199
objective=lambdarank
feature_names=colex0 colex1 colex2 colex3 colex4 colex5 colex6 colex7 colex8 colex9 colex10 colex11 colex12 colex13 colex14 colex15 colex16 colex17 colex18 colex19 colex20 colex21 colex22 colex23 colex24 colex25 colex26 colex27 colex28 colex29 colex30 colex31 colex32 colex33 colex34 colex35 colex36 colex37 colex38 colex39 colex40 colex41 colex42 colex43 colex44 colex45 colex46 colex47 colex48 colex49 colex50 colex51 colex52 colex53 colex54 colex55 colex56 colex57 colex58 colex59 colex60 colex61 colex62 colex63 colex64 colex65 colex66 colex67 colex68 colex69 colex70 colex71 colex72 colex73 colex74 colex75 colex76 colex77 colex78 colex79 colex80 colex81 colex82 colex83 colex84 colex85 colex86 colex87 colex88 colex89 colex90 colex91 colex92 colex93 colex94 colex95 colex96 colex97 colex98 colex99 colex100 colex101 colex102 colex103 colex104 colex105 colex106 colex107 colex108 colex109 colex110 colex111 colex112 colex113 colex114 colex115 colex116 colex117 colex118 colex119 colex120 colex121 colex122 colex123 colex124 colex125 colex126 colex127 colex128 colex129 colex130 colex131 colex132 colex133 colex134 colex135 colex136 colex137 colex138 colex139 colex140 colex141 colex142 colex143 colex144 colex145 colex146 colex147 colex148 colex149 colex150 colex151 colex152 colex153 colex154 colex155 colex156 colex157 colex158 colex159 colex160 colex161 colex162 colex163 colex164 colex165 colex166 colex167 colex168 colex169 colex170 colex171 colex172 colex173 colex174 colex175 colex176 colex177 colex178 colex179 colex180 colex181 colex182 colex183 colex184 colex185 colex186 colex187 colex188 colex189 colex190 colex191 colex192 colex193 colex194 colex195 colex196 colex197 colex198 colex199
feature_infos=[-1164.879425049:1164.879425049] [-511.371495724:511.371495724] [-1395.947784424:1395.947784424] [-1042.953536987:1042.953536987] [-805.63415527400002:805.63415527400002] [-1385.744964599:1385.744964599] [-677.23071288999995:677.23071288999995] [-1008.3467712409999:1008.3467712409999] [-673.34450340299998:673.34450340299998] [-751.29732513400006:751.29732513400006] [-1780.5108451840001:1780.5108451840001] [-1401.116989136:1401.116989136] [-1636.2387390140002:1636.2387390140002] [-400.34300231899999:400.34300231899999] [-1339.821289062:1339.821289062] [-1213.043640136:1213.043640136] [-748.013671875:748.013671875] [-756.42620849600007:756.42620849600007] [-1098.1876220700001:1098.1876220700001] [-889.01651442100001:889.01651442100001] [-809.52716064399999:809.52716064399999] [-1597.962890625:1597.962890625] [-1504.512634278:1504.512634278] [-1258.764038086:1258.764038086] [-220.60281372099996:220.60281372099996] [-1428.4898071290002:1428.4898071290002] [-1171.7449226379999:1171.7449226379999] [-520.87269592300004:520.87269592300004] [-1826.324523925:1826.324523925] [-948.97567748999995:948.97567748999995] [-1379.2127990720001:1379.2127990720001] [-469.12641143799999:469.12641143799999] [-1056.142105102:1056.142105102] [-1322.969116211:1322.969116211] [-476.98135375999999:476.98135375999999] [-330.64630699200001:330.64630699200001] [-847.71176528900003:847.71176528900003] [-1149.435752869:1149.435752869] [-1068.8461914059999:1068.8461914059999] [-1530.772827149:1530.772827149] [-496.21598815900001:496.21598815900001] [-337.79510116599999:337.79510116599999] [-1380.2987976070001:1380.2987976070001] [-1099.9351196289999:1099.9351196289999] [-1371.246032715:1371.246032715] [-1281.1870975499999:1281.1870975499999] [-1144.03427124:1144.03427124] [-545.958791733:545.958791733] [-1243.5375366210001:1243.5375366210001] [-903.67535400300005:903.67535400300005] [-698.55191803000002:698.55191803000002] [-425.84864425699999:425.84864425699999] [-908.83493042000009:908.83493042000009] [-539.91217803999996:539.91217803999996] [-576.32862853999995:576.32862853999995] [-752.00714111399998:752.00714111399998] [-601.76853370699996:601.76853370699996] [-1147.423309326:1147.423309326] [-732.64344787599998:732.64344787599998] [-359.758995056:359.758995056] [-1192.015518188:1192.015518188] [-657.31033325199996:657.31033325199996] [-1033.9494476320001:1033.9494476320001] [-1181.2061691280001:1181.2061691280001] [-637.43270873999995:637.43270873999995] [-1466.061218262:1466.061218262] [-640.62350463799999:640.62350463799999] [-1481.5349121100001:1481.5349121100001] [-1221.6890258789999:1221.6890258789999] [-1125.2238769529999:1125.2238769529999] [-1620.633987427:1620.633987427] [-1344.949157714:1344.949157714] [-611.11906814500003:611.11906814500003] [-1170.5712184910001:1170.5712184910001] [-478.53557395900003:478.53557395900003] [-1209.1578674319999:1209.1578674319999] [-486.70542144800004:486.70542144800004] [-1496.2484130859998:1496.2484130859998] [-715.036903381:715.036903381] [-912.30564880400004:912.30564880400004] [-1275.7713928220001:1275.7713928220001] [-490.96742248600003:490.96742248600003] [-1719.8020019529999:1719.8020019529999] [-905.95669555599989:905.95669555599989] [-714.55910491999998:714.55910491999998] [-913.82574462899993:913.82574462899993] [-504.45074462900004:504.45074462900004] [-879.26843261699992:879.26843261699992] [-1052.1887207029999:1052.1887207029999] [-155.21072387699999:155.21072387699999] [-1294.429367065:1294.429367065] [-1132.187587738:1132.187587738] [-1174.363952636:1174.363952636] [-715.32538604799993:715.32538604799993] [-949.70492553700001:949.70492553700001] [-533.9532547:533.9532547] [-1403.892791748:1403.892791748] [-815.07205200200008:815.07205200200008] [-614.64491271899999:614.64491271899999] [-734.79975891100003:734.79975891100003] [-1164.879425049:1164.879425049] [-511.371495724:511.371495724] [-1395.947784424:1395.947784424] [-1042.953536987:1042.953536987] [-805.63415527400002:805.63415527400002] [-1385.744964599:1385.744964599] [-677.23071288999995:677.23071288999995] [-1008.3467712409999:1008.3467712409999] [-673.34450340299998:673.34450340299998] [-751.29732513400006:751.29732513400006] [-1780.5108451840001:1780.5108451840001] [-1401.116989136:1401.116989136] [-1636.2387390140002:1636.2387390140002] [-400.34300231899999:400.34300231899999] [-1339.821289062:1339.821289062] [-1213.043640136:1213.043640136] [-748.013671875:748.013671875] [-756.42620849600007:756.42620849600007] [-1098.1876220700001:1098.1876220700001] [-889.01651442100001:889.01651442100001] [-809.52716064399999:809.52716064399999] [-1597.962890625:1597.962890625] [-1504.512634278:1504.512634278] [-1258.764038086:1258.764038086] [-220.60281372099996:220.60281372099996] [-1428.4898071290002:1428.4898071290002] [-1171.7449226379999:1171.7449226379999] [-520.87269592300004:520.87269592300004] [-1826.324523925:1826.324523925] [-948.97567748999995:948.97567748999995] [-1379.2127990720001:1379.2127990720001] [-469.12641143799999:469.12641143799999] [-1056.142105102:1056.142105102] [-1322.969116211:1322.969116211] [-476.98135375999999:476.98135375999999] [-330.64630699200001:330.64630699200001] [-847.71176528900003:847.71176528900003] [-1149.435752869:1149.435752869] [-1068.8461914059999:1068.8461914059999] [-1530.772827149:1530.772827149] [-496.21598815900001:496.21598815900001] [-337.79510116599999:337.79510116599999] [-1380.2987976070001:1380.2987976070001] [-1099.9351196289999:1099.9351196289999] [-1371.246032715:1371.246032715] [-1281.1870975499999:1281.1870975499999] [-1144.03427124:1144.03427124] [-545.958791733:545.958791733] [-1243.5375366210001:1243.5375366210001] [-903.67535400300005:903.67535400300005] [-698.55191803000002:698.55191803000002] [-425.84864425699999:425.84864425699999] [-908.83493042000009:908.83493042000009] [-539.91217803999996:539.91217803999996] [-576.32862853999995:576.32862853999995] [-752.00714111399998:752.00714111399998] [-601.76853370699996:601.76853370699996] [-1147.423309326:1147.423309326] [-732.64344787599998:732.64344787599998] [-359.758995056:359.758995056] [-1192.015518188:1192.015518188] [-657.31033325199996:657.31033325199996] [-1033.9494476320001:1033.9494476320001] [-1181.2061691280001:1181.2061691280001] [-637.43270873999995:637.43270873999995] [-1466.061218262:1466.061218262] [-640.62350463799999:640.62350463799999] [-1481.5349121100001:1481.5349121100001] [-1221.6890258789999:1221.6890258789999] [-1125.2238769529999:1125.2238769529999] [-1620.633987427:1620.633987427] [-1344.949157714:1344.949157714] [-611.11906814500003:611.11906814500003] [-1170.5712184910001:1170.5712184910001] [-478.53557395900003:478.53557395900003] [-1209.1578674319999:1209.1578674319999] [-486.70542144800004:486.70542144800004] [-1496.2484130859998:1496.2484130859998] [-715.036903381:715.036903381] [-912.30564880400004:912.30564880400004] [-1275.7713928220001:1275.7713928220001] [-490.96742248600003:490.96742248600003] [-1719.8020019529999:1719.8020019529999] [-905.95669555599989:905.95669555599989] [-714.55910491999998:714.55910491999998] [-913.82574462899993:913.82574462899993] [-504.45074462900004:504.45074462900004] [-879.26843261699992:879.26843261699992] [-1052.1887207029999:1052.1887207029999] [-155.21072387699999:155.21072387699999] [-1294.429367065:1294.429367065] [-1132.187587738:1132.187587738] [-1174.363952636:1174.363952636] [-715.32538604799993:715.32538604799993] [-949.70492553700001:949.70492553700001] [-533.9532547:533.9532547] [-1403.892791748:1403.892791748] [-815.07205200200008:815.07205200200008] [-614.64491271899999:614.64491271899999] [-734.79975891100003:734.79975891100003]
tree_sizes=1058 1250 1051 1154 957 1054 1166 1177 1293 1086 1188 1081 1300 980 1085 1195 869 981 1088 1180 1198 1091 1298 983 878 985 986 884 1315 1105 991 885 882 992 1102 1001 995 567 569 567 569 994 570 567 569 570 569 570 570 570 571 566 568 568 997 568 569 567 569 567 1103 681 569 568 570 567 570 571 568 569 569 569 569 572 569 571 571 567 570 569 568 570 1109 567 571 569 568 567 570 679 888 569 568 571 570 569 566 679 566 571

Tree=0
num_leaves=9
num_cat=0
split_feature=97 58 5 80 49 17 54 49
split_gain=3.46624 2.28658 2.07542 0.896559 0.984775 0.327018 0.0302735 0.0156753
threshold=-165.28423714599998 -64.559555053999986 -241.69735717750001 -176.45636081699999 -171.78288268999998 -44.073665618499987 -124.42485046449997 308.98004913350002
decision_type=2 2 2 2 2 2 2 2
left_child=5 2 -2 4 -3 -1 -7 -4
right_child=1 3 7 -5 -6 6 -8 -9
leaf_value=-0.0451602386667685 0.066024477550831198 0.11339808416511508 -0.18070182891502728 0.18450436556629185 -0.10046755254460318 -0.19831414826477164 -0.16161242386861904 -0.15113676225211936
leaf_weight=0.22382824867963791 0.80290686711668968 0.75619429908692837 0.39873518422246002 1.0025098472833631 0.30100946687161945 0.45641714334487915 0.44276838749647118 0.32591072283685207
leaf_count=4 6 9 4 7 6 8 6 6
internal_value=0 0.0479973 -0.0447106 0.116753 0.0525058 -0.153319 -0.180242 -0.167405
internal_weight=0 3.58727 1.52755 2.05971 1.0572 1.12301 0.899186 0.724646
internal_count=56 38 16 22 15 18 14 10
is_linear=0
shrinkage=0.1


Tree=1
num_leaves=11
num_cat=0
split_feature=54 20 54 24 5 91 80 76 46 8
split_gain=14.0487 6.59436 4.3461 3.49895 1.96099 1.4662 0.480544 0.324921 0.0641906 0.00134407
threshold=-71.26006317099997 30.017028808999999 276.24341583300009 -217.00752258349996 -343.1616363519999 -977.06061553999996 -1.0000000180025095e-35 -77.600813388999981 -163.74513196899997 -501.36126995099988
decision_type=2 2 2 2 2 2 2 2 2 2
left_child=5 2 6 -4 -3 -1 -2 -7 -9 -10
right_child=1 4 3 -5 -6 7 -8 8 9 -11
leaf_value=-0.019184657488713102 0.11245924429301718 0.010843878578615351 0.13583306532836301 -0.08836196916348954 -0.12735471738267054 -0.12848706341681554 0.17634244481071176 -0.19992949804748536 -0.17307096041341938 -0.16619219509151353
leaf_weight=0.82845441997051228 1.671020336449146 2.5013311766088009 1.2032835185527804 1.6516143530607221 1.7416924200952042 1.5670643951743839 3.9868859127163869 1.4631266891956327 0.45628838986158338 0.75251708179712617
leaf_count=4 4 4 3 7 7 7 7 3 3 7
internal_value=0 0.0559584 0.10672 0.00613185 -0.0458844 -0.140859 0.157475 -0.164639 -0.185841 -0.168789
internal_weight=0 12.7558 8.5128 2.8549 4.24302 5.06745 5.65791 4.239 2.67193 1.20881
internal_count=56 32 21 10 11 24 11 20 13 10
is_linear=0
shrinkage=0.1


Tree=2
num_leaves=9
num_cat=0
split_feature=23 55 55 95 13 4 43 26
split_gain=4.35985 3.57461 1.87301 1.16705 1.06446 0.295371 0.157836 0.0267224
threshold=-225.21500205999999 1.0000000180025095e-35 230.41355896000002 -365.78079605149998 -35.990924834999994 -122.77272033699997 461.9289484025 490.55310440100004
decision_type=2 2 2 2 2 2 2 2
left_child=3 -2 4 -1 -3 -4 -5 -8
right_child=1 2 5 6 -6 -7 7 -9
leaf_value=0.038475432312623861 0.12971910265740647 -0.16992022131180817 0.040526816042972501 -0.10024827337537159 -0.013512846049131373 -6.93434616903395e-05 -0.16206509247996162 -0.1362115638869503
leaf_weight=0.47849193960428271 2.6698848493397227 0.9100252166390419 3.6188258826732618 1.0082439817488205 0.83380963653325835 3.5508023239672202 0.90454923734068848 0.71645236015319824
leaf_count=3 9 7 6 9 3 9 7 3
internal_value=0 0.0282172 -0.00218608 -0.105173 -0.0951345 0.0204213 -0.131315 -0.150638
internal_weight=0 11.5833 8.91346 3.10774 1.74383 7.16963 2.62925 1.621
internal_count=56 34 25 22 10 15 19 10
is_linear=0
shrinkage=0.1


Tree=3
num_leaves=10
num_cat=0
split_feature=54 67 87 1 3 5 7 76 86
split_gain=2.64912 1.85254 0.699465 0.414071 0.348043 0.285378 0.145965 0.074164 0.0106338
threshold=-71.26006317099997 1.0000000180025095e-35 397.47264099100005 -72.498985290999983 -49.477024078499994 -343.1616363519999 250.6595153815 -77.600813388999981 -89.781063556499987
decision_type=2 2 2 2 2 2 2 2 2
left_child=2 3 7 -2 5 -3 -6 -1 -9
right_child=1 4 -4 -5 6 -7 -8 8 -10
leaf_value=-0.10149917634274662 0.15328395362064628 0.01106734733648318 -0.022282335964856001 0.062773820712409542 -0.0016125225001558257 -0.058570449897367961 0.02834714559934659 -0.16315628993017134 -0.14336849545653574
leaf_weight=0.3813905641436578 0.98102799057960544 0.9686527252197269 0.7795555144548415 1.0426576696336258 3.3666663989424706 1.4993890151381473 3.1456394195556641 0.51578792184591293 0.57358448952436536
leaf_count=5 3 1 6 7 7 9 5 7 6
internal_value=0 0.020217 -0.0988612 0.106651 0.000739571 -0.0312391 0.0128589 -0.139451 -0.152737
internal_weight=0 11.004 2.25032 2.02369 8.98035 2.46804 6.51231 1.47076 1.08937
internal_count=56 32 24 10 22 10 12 18 13
is_linear=0
shrinkage=0.1


Tree=4
num_leaves=8
num_cat=0
split_feature=98 55 23 34 1 74 81
split_gain=1.79828 0.791989 2.00445 0.397937 0.184988 0.048477 0.0125979
threshold=199.31908798200004 1.0000000180025095e-35 -225.21500205999999 124.83524799400003 119.54756164600002 174.63180923450003 59.348007202500007
decision_type=2 2 2 2 2 2 2
left_child=1 2 -1 -3 6 -5 -2
right_child=4 3 -4 5 -6 -7 -8
leaf_value=-0.06363365421364478 -0.1466248041078371 -0.052915352768676441 0.11990336289669175 0.013686724449859536 -0.050588687664301024 -0.0035333690021042731 -0.12328443576018483
leaf_weight=0.88313566148281131 0.48824126645922727 1.3069062680006007 1.8240591883659352 4.3508745729923248 0.35387455672025681 2.6187802813947201 0.4393419623374939
leaf_count=9 7 9 7 7 5 7 5
internal_value=0 0.0130788 0.0600303 -0.00227864 -0.112102 0.00721644 -0.13557
internal_weight=0 10.9838 2.70719 8.27656 1.28146 6.96965 0.927583
internal_count=56 39 16 23 17 14 12
is_linear=0
shrinkage=0.1


Tree=5
num_leaves=9
num_cat=0
split_feature=33 49 61 3 84 83 8 33
split_gain=2.055 1.48941 0.707426 0.303434 0.18972 0.134876 0.0809656 0.00564364
threshold=-1.0000000180025095e-35 414.46992492600009 22.129821777000021 -186.77400207499997 -598.94485473649991 -369.93432617249999 114.77934265100002 -661.4845581054999
decision_type=2 2 2 2 2 2 2 2
left_child=1 4 3 -2 -1 -4 7 -6
right_child=2 -3 5 -5 6 -7 -8 -9
leaf_value=-0.076758280943612311 0.026654149605358168 0.041739821304283581 0.012555997561888011 0.095887826123822448 -0.12948151740808553 -0.019173975922896776 -0.19248210684757572 -0.1457100339456984
leaf_weight=0.42307525128126156 1.125982351601124 0.67233407869935025 4.9850712269544593 1.4459798634052257 0.44886980205774307 1.8319734707474715 0.38367685675621033 0.4100445583462724
leaf_count=6 8 6 9 4 6 8 1 8
internal_value=0 -0.083888 0.0208894 0.0655779 -0.134597 0.00402907 -0.15429 -0.137229
internal_weight=0 2.338 9.38901 2.57196 1.66567 6.81704 1.24259 0.858914
internal_count=56 27 29 12 21 17 15 14
is_linear=0
shrinkage=0.1


Tree=6
num_leaves=10
num_cat=0
split_feature=97 67 54 9 89 2 67 89 73
split_gain=1.21063 0.508802 0.856125 0.210418 0.189149 0.217212 0.329239 0.0398158 0.0214125
threshold=-165.28423714599998 1.0000000180025095e-35 -71.26006317099997 -174.72539138749997 37.593179226000011 -697.9738922119999 82.256160736000012 96.410709858000004 43.906459808000008
decision_type=2 2 2 2 2 2 2 2 2
left_child=3 2 -2 -1 5 -3 -7 -6 -5
right_child=1 4 -4 8 7 6 -8 -9 -10
leaf_value=-0.028349640640047802 -0.03558210404019678 0.0067970399023969136 0.11181197455603176 -0.11527831416703732 0.018180078061327508 0.0084275265368559463 -0.11882610993534629 0.0021100666158775263 -0.15060525846578787
leaf_weight=0.30227351188659668 0.60590600594878186 0.82911354303359985 1.127168484032153 0.55043007060885496 2.5139297470450401 0.35015806183218756 0.48482212238013744 3.9869716465473175 0.24927890673279762
leaf_count=5 7 2 6 8 6 2 8 7 5
internal_value=0 0.0110693 0.060281 -0.0994251 0.000623781 -0.0294593 -0.0654609 0.00832442 -0.12629
internal_weight=0 9.89807 1.73307 1.10198 8.165 1.66409 0.83498 6.5009 0.799709
internal_count=56 38 13 18 25 12 10 13 13
is_linear=0
shrinkage=0.1


Tree=7
num_leaves=10
num_cat=0
split_feature=98 55 23 33 94 19 1 42 0
split_gain=0.956605 0.629375 0.886677 0.186757 0.207698 0.3994 0.181894 0.0064921 0.00331982
threshold=199.31908798200004 1.0000000180025095e-35 -225.21500205999999 661.48455810550013 -1.0000000180025095e-35 299.04534053750007 175.85235095000004 504.20196151700003 533.68915939300007
decision_type=2 2 2 2 2 2 2 2 2
left_child=1 2 -1 4 5 -3 7 -2 -5
right_child=6 3 -4 8 -6 -7 -8 -9 -10
leaf_value=-0.029604716339209355 -0.1347530221964007 -0.13407735925470216 0.11582421245772248 0.0019770993836369685 0.001387741729775795 0.0095434642574284689 -0.023707081480306681 -0.1131952329330964 0.0066325289034668824
leaf_weight=0.66325512155890454 0.43492464721202928 0.43669996596872662 1.1395390667021255 2.6789900958538055 0.82888209819793823 0.34787627682089806 0.22729833982884884 0.20579224452376366 3.5770251750946045
leaf_count=9 9 9 7 6 2 2 4 4 4
internal_value=0 0.00902485 0.0623203 -0.00318446 -0.0335189 -0.0703968 -0.100564 -0.127829 0.00463895
internal_weight=0 9.67227 1.80279 7.86947 1.61346 0.784576 0.868015 0.640717 6.25602
internal_count=56 39 16 23 13 11 17 13 10
is_linear=0
shrinkage=0.1


Tree=8
num_leaves=11
num_cat=0
split_feature=98 55 23 76 33 94 65 68 2 60
split_gain=0.633047 0.347197 0.726021 0.127557 0.114165 0.135116 0.348869 0.0111581 0.00217767 0.000698452
threshold=199.31908798200004 1.0000000180025095e-35 -225.21500205999999 -77.600813388999981 661.48455810550013 -1.0000000180025095e-35 1273.7471160890002 90.713895797500001 -1128.4112510684997 1.0000000180025095e-35
decision_type=2 2 2 2 2 2 2 2 2 2
left_child=1 2 -1 -2 5 6 7 -3 -6 -5
right_child=3 4 -4 9 8 -7 -8 -9 -10 -11
leaf_value=-0.032576660355611832 -0.045521796456817913 -0.10535306819249959 0.10546683915752209 -0.12401849169114509 0.002520530414990358 0.0006369599270820654 0.021723852523347173 -0.13980083520931769 0.0062300605243026299 -0.13286918374789233
leaf_weight=0.63826893083751202 0.37393979728221893 0.17963760532438611 0.94519548863172331 0.25682570599019605 3.1687154173851013 0.8340309262275708 0.29561713337898254 0.19731106422841549 3.1614608764648438 0.13657871633768082
leaf_count=9 6 5 7 6 4 2 1 5 6 5
internal_value=0 0.00711454 0.0498237 -0.0873411 -0.0015151 -0.0262555 -0.0596041 -0.123385 0.00437317 -0.127091
internal_weight=0 9.42024 1.58346 0.767344 7.83677 1.5066 0.672566 0.376949 6.33018 0.393404
internal_count=56 39 16 17 23 13 11 10 10 11
is_linear=0
shrinkage=0.1


Tree=9
num_leaves=9
num_cat=0
split_feature=97 68 30 93 36 56 13 73
split_gain=0.501757 0.234246 0.472165 0.177133 0.0713917 0.0227432 0.0174824 0.00302063
threshold=-165.28423714599998 -1.0000000180025095e-35 -1.0000000180025095e-35 219.06419372600001 350.52389526350004 -1.0000000180025095e-35 -35.990924834999994 43.906459808000008
decision_type=2 2 2 2 2 2 2 2
left_child=3 4 -3 5 -2 7 -6 -1
right_child=1 2 -4 -5 6 -7 -8 -9
leaf_value=-0.1212370725493544 -0.015531319134517402 -0.021971758838588772 0.1064972551811577 -0.0066853519566504975 0.00011906905414814725 -0.084015853197303481 0.011071216548116108 -0.14128772588377322
leaf_weight=0.20820082910358906 2.0989819783717385 0.52166469022631645 0.63350944221019634 0.22894545830786228 2.7312129437923431 0.17792152054607946 3.1251974925398827 0.11755885370075703
leaf_count=6 12 8 6 5 6 3 6 4
internal_value=0 0.00640247 0.048482 -0.0796178 0.000292252 -0.112769 0.00596354 -0.128473
internal_weight=0 9.11057 1.15517 0.732627 7.95539 0.503681 5.85641 0.32576
internal_count=56 38 14 18 24 13 12 10
is_linear=0
shrinkage=0.1


Tree=10
num_leaves=10
num_cat=0
split_feature=97 67 27 93 76 17 53 7 7
split_gain=0.503025 0.257246 0.260532 0.0884173 0.0849964 0.108161 0.436504 0.00285389 0.00187541
threshold=-165.28423714599998 1.0000000180025095e-35 1.0000000180025095e-35 219.06419372600001 73.838663578000009 -1.0000000180025095e-35 -93.40562438900001 160.02534484900002 -538.03414917049986
decision_type=2 2 2 2 2 2 2 2 2
left_child=3 2 -2 8 5 6 -3 -6 -1
right_child=1 4 -4 -5 7 -7 -8 -9 -10
leaf_value=-0.10789126705232088 0.099203847946050389 -0.12853707298283393 -0.0064757371038555141 -0.03401990096746952 0.0077616877860329338 -0.0021275941823928339 0.057020272129019646 0.003464731993001454 -0.12174726974768718
leaf_weight=0.16943667083978653 0.55630749091505904 0.32976119592785602 0.4017481692135334 0.19687033630907536 2.60331991314888 1.0666447877883913 0.20595099218189716 3.8045207262039185 0.23066830635070878
leaf_count=4 6 9 7 5 5 2 3 6 9
internal_value=0 0.00591659 0.0548885 -0.0888839 5.93314e-05 -0.0205401 -0.0572008 0.00521046 -0.11588
internal_weight=0 8.96825 0.958056 0.596975 8.0102 1.60236 0.535712 6.40784 0.400105
internal_count=56 38 13 18 25 14 12 11 13
is_linear=0
shrinkage=0.1


Tree=11
num_leaves=9
num_cat=0
split_feature=34 80 13 0 47 33 2 1
split_gain=0.318751 0.224501 0.542891 0.147523 0.0934365 0.073136 0.00122249 0.00115368
threshold=-170.60496139549997 -176.45636081699999 133.38739013650004 -310.86194610599995 -1.0000000180025095e-35 661.48455810550013 -1128.4112510684997 -135.93997192449999
decision_type=2 2 2 2 2 2 2 2
left_child=3 5 4 7 -3 -2 -7 -1
right_child=1 2 -4 -5 -6 6 -8 -9
leaf_value=-0.10631535718120635 -0.022046205518565842 0.051359671232058535 -0.098805780523867209 -0.0083837666419500616 0.12030318359237163 0.0021855673602001776 0.0049525327613260976 -0.11797444996162308
leaf_weight=0.22741189226508141 1.3496582936495531 0.38078309595584869 0.19663851242512465 0.23065895307809192 0.40634991973638435 3.1822472214698792 3.2048275768756866 0.13540265336632729
leaf_count=5 12 6 8 6 4 4 6 5
internal_value=0 0.00482601 0.0498216 -0.0709134 0.0869511 -0.000895444 0.00357394 -0.110667
internal_weight=0 8.7205 0.983772 0.593473 0.787133 7.73673 6.38707 0.362815
internal_count=56 40 18 16 10 22 10 10
is_linear=0
shrinkage=0.1


Tree=12
num_leaves=11
num_cat=0
split_feature=54 80 98 50 33 7 12 42 9 2
split_gain=0.286226 0.10787 0.29398 0.581752 0.0561811 0.0742321 0.0419359 0.00859894 0.00268843 0.0010954
threshold=-276.24341583299997 -176.45636081699999 -217.22314834549996 -1.0000000180025095e-35 661.48455810550013 -1.0000000180025095e-35 -1067.6858444214997 801.89964675900012 -1.0000000180025095e-35 -1128.4112510684997
decision_type=2 2 2 2 2 2 2 2 2 2
left_child=6 4 -3 7 5 -2 -1 -4 -8 -6
right_child=1 2 3 -5 9 -7 8 -9 -10 -11
leaf_value=-0.037000675324440145 -0.047081536799433964 0.12160476150872168 -0.11927447692274742 0.073549962147446316 0.0020902013804147178 -3.1114358747286049e-05 -0.12513122548839758 -0.08537651635676935 -0.10368885868754003 0.0047085465120271413
leaf_weight=0.10301684960722923 0.55610503442585324 0.27860723435878754 0.17646891064941883 0.45245199277996906 3.1882618069648743 0.84461608529090915 0.10769732296466827 0.12993376702070236 0.1279315613210209 3.2029398083686829
leaf_count=2 10 3 6 9 4 2 6 4 4 6
internal_value=0 0.00346038 0.0337519 0.00149738 -0.000572806 -0.0187108 -0.0902213 -0.1049 -0.113489 0.00340238
internal_weight=0 8.82938 1.03746 0.758855 7.79192 1.40072 0.338646 0.306403 0.235629 6.3912
internal_count=56 44 22 19 22 12 12 10 10 10
is_linear=0
shrinkage=0.1


Tree=13
num_leaves=8
num_cat=0
split_feature=25 76 57 67 36 61 51
split_gain=0.158393 0.240558 0.032881 0.0307564 0.0215981 0.00740807 0.00615297
threshold=-1.0000000180025095e-35 -203.67994451499996 -474.76780700699993 82.256160736000012 350.52389526350004 -160.43920898499996 83.663902283000013
decision_type=2 2 2 2 2 2 2
left_child=1 -1 -3 -2 -5 -4 -6
right_child=3 2 5 4 6 -7 -8
leaf_value=0.01352844835256959 0.018915258681763903 -0.043618448458273923 -0.096988057012051376 -0.0086241953963282839 0.0073786823167018263 -0.12924375422635864 0.00089488172407163635
leaf_weight=0.36277098581194878 1.1622492372989635 0.079410380683839321 0.12009495869278908 1.6624136269092558 3.0706987157464027 0.17489251354709345 2.7965565472841263
leaf_count=8 10 5 5 7 5 9 7
internal_value=0 -0.0445048 -0.100736 0.00377449 0.00143742 -0.116112 0.00428826
internal_weight=0 0.737169 0.374398 8.69192 7.52967 0.294987 5.86726
internal_count=56 27 19 29 19 14 12
is_linear=0
shrinkage=0.1


Tree=14
num_leaves=9
num_cat=0
split_feature=54 84 29 87 90 40 46 86
split_gain=0.183235 0.319201 0.0759073 0.259421 0.0150619 0.0114589 0.010791 0.00305315
threshold=-71.26006317099997 -576.55553531699991 136.82462310800005 420.60369110100004 -570.18662261949987 -1.0000000180025095e-35 -163.74513196899997 -1.0000000180025095e-35
decision_type=2 2 2 2 2 2 2 2
left_child=1 -1 3 -2 -4 -6 -3 -8
right_child=2 6 4 -5 5 -7 7 -9
leaf_value=0.022365446877574552 0.083815768613507396 -0.1463872750366135 0.0032588835779628991 -0.018038595437608607 -0.014686097333611665 0.00026753253361278169 -0.12001837462919125 -0.097171292936869783
leaf_weight=0.30697423964738846 0.47110884264111319 0.098783507011830807 5.2952342629432669 0.53294279985129833 0.97509152628481288 1.0800607800483724 0.10324584320187569 0.13493242487311441
leaf_count=8 9 4 8 5 8 2 7 5
internal_value=0 -0.0513995 0.00396173 0.0297523 0.000438782 -0.0068274 -0.1186 -0.107075
internal_weight=0 0.643936 8.35444 1.00405 7.35039 2.05515 0.336962 0.238178
internal_count=56 24 32 14 18 10 16 12
is_linear=0
shrinkage=0.1


Tree=15
num_leaves=10
num_cat=0
split_feature=54 69 18 38 84 33 0 3 7
split_gain=0.191603 0.0397958 0.192741 0.263452 0.0202643 0.0148786 0.0207944 0.00165819 0.000989772
threshold=-276.24341583299997 1.0000000180025095e-35 -1.0000000180025095e-35 -37.370443820999995 -658.03704833999984 661.48455810550013 662.31523132350014 126.97008514400002 128.39796447800001
decision_type=2 2 2 2 2 2 2 2 2
left_child=4 2 3 -2 -1 6 -3 -6 -7
right_child=1 5 -4 -5 7 8 -8 -9 -10
leaf_value=-0.047034009608938721 0.067947664019785525 -0.019548598893602095 0.07149068215629574 -0.10391050891719185 -0.099599547433811386 0.001012482590270769 0.002700252175998574 -0.12011823423157937 0.0035457387743804171
leaf_weight=0.080823298543691635 0.15838604141026735 0.81211160402744809 0.40575130842625995 0.20419921912252903 0.091624623164535346 2.5813817381858826 0.87021579965949059 0.069079716689884663 3.8316994309425354
leaf_count=2 4 10 8 9 4 4 3 6 6
internal_value=0 0.00239458 0.0241443 -0.0288387 -0.0878779 0.000330307 -0.00803996 -0.10842 0.00252606
internal_weight=0 8.86375 0.768337 0.362585 0.241528 8.09541 1.68233 0.160704 6.41308
internal_count=56 44 21 13 12 23 13 10 10
is_linear=0
shrinkage=0.1


Tree=16
num_leaves=7
num_cat=0
split_feature=84 84 7 0 50 8
split_gain=0.87278 0.252851 0.142834 0.026425 0.00993942 0.0119412
threshold=-1.0000000180025095e-35 -576.55553531699991 1.0000000180025095e-35 -237.58099365249996 -98.902000427499985 501.361269951
decision_type=2 2 2 2 2 2
left_child=1 -1 -2 -3 5 -4
right_child=2 3 4 -5 -6 -7
leaf_value=-0.0038226848251753259 0.030915714872590816 -0.081703057658090716 -0.0062569737247289321 -0.13025306976892925 0.0073372427853379317 0.0050776318967203048
leaf_weight=0.25016872771084309 2.4058478018268925 0.13949065376073122 2.0368794631212945 0.57109350804239589 2.2386148832738408 1.7096011042594907
leaf_count=9 11 7 9 11 5 4
internal_value=0 -0.0902832 0.0103373 -0.120722 0.00206534 -0.00108475
internal_weight=0 0.960753 8.39094 0.710584 5.9851 3.74648
internal_count=56 27 29 18 18 13
is_linear=0
shrinkage=0.1


Tree=17
num_leaves=8
num_cat=0
split_feature=47 57 17 31 19 42 39
split_gain=0.157785 0.235431 0.0346026 0.0300791 0.0113658 0.00979972 0.00151675
threshold=-1.0000000180025095e-35 753.13953399650006 -147.50692367599996 54.10141754150002 -299.04534053749995 -551.83433532699985 1.0000000180025095e-35
decision_type=2 2 2 2 2 2 2
left_child=1 2 -1 -2 -5 -4 -7
right_child=3 -3 5 4 -6 6 -8
leaf_value=-0.054983042581696541 0.018857566948538632 0.044702544853771405 -0.085256027206563584 0.0039058580370586759 -0.004604327476481527 -0.1174985190519108 -0.13644031751556412
leaf_weight=0.1778981601819396 1.1193389901891331 0.18908442370593548 0.08813512185588479 5.0398418195545664 2.2790210722014317 0.090431384742260756 0.079383159056305885
leaf_count=8 9 5 4 9 11 6 4
internal_value=0 -0.0484844 -0.0889119 0.00359076 0.00125587 -0.112311 -0.126353
internal_weight=0 0.624932 0.435848 8.4382 7.31886 0.25795 0.169815
internal_count=56 27 22 29 20 14 10
is_linear=0
shrinkage=0.1


Tree=18
num_leaves=9
num_cat=0
split_feature=30 32 50 1 76 60 61 5
split_gain=0.112071 0.140356 0.0468094 0.0272758 0.0279898 0.0113724 0.0104036 0.0079371
threshold=-1.0000000180025095e-35 -268.11282730099992 580.36920356750022 23.999420166499991 169.13651931250004 1034.5730190275003 -22.129821777000014 331.09509277300009
decision_type=2 2 2 2 2 2 2 2
left_child=1 -1 6 4 -2 7 -3 -5
right_child=3 2 -4 5 -6 -7 -8 -9
leaf_value=0.010606097459280112 0.023935998250518092 -0.087687100654937691 -0.023372297080691232 -0.012915277658873434 -4.0896678954255227e-05 0.0027471441842207263 -0.12906416292459016 -0.00044075981120495958
leaf_weight=0.28276865091174841 1.0982086099684218 0.12391381431370974 0.089449519291520119 0.95991549128666531 0.87461707182228554 4.3584742546081543 0.11924150772392828 1.0883437395095825
leaf_count=9 8 6 4 11 4 4 8 2
internal_value=0 -0.0411896 -0.0852245 0.00302486 0.0133063 -0.000141088 -0.107978 -0.00628694
internal_weight=0 0.615373 0.332605 8.37956 1.97283 6.40673 0.243155 2.04826
internal_count=56 27 18 29 12 17 14 13
is_linear=0
shrinkage=0.1


Tree=19
num_leaves=10
num_cat=0
split_feature=54 4 76 34 82 82 0 5 81
split_gain=0.102539 0.0785217 0.0358643 0.0245662 0.133176 0.0504613 0.0107293 0.011171 0.000132774
threshold=-71.26006317099997 613.9885101325001 -77.600813388999981 1.0000000180025095e-35 -874.28180694599985 53.359016418500019 468.5674209595 406.01243591300005 -115.61329650899999
decision_type=2 2 2 2 2 2 2 2 2
left_child=1 2 -1 4 -2 -6 7 -5 -4
right_child=3 -3 8 6 5 -7 -8 -9 -10
leaf_value=-0.045899923873245124 -0.0052904234693832214 0.036792353579856177 -0.11836312165943592 -0.01195831412096751 0.10193070099923388 0.025457135856709081 0.0025634561489610254 0.0029152426194085203 -0.11169525854547283
leaf_weight=0.20345121435821056 0.88139351457357407 0.08455837145447731 0.057406882289797068 1.2419599471613767 0.192753572948275 0.15621303301304579 5.2211004495620728 0.85095468163490284 0.062242722138763251
leaf_count=9 4 2 7 10 5 5 6 2 6
internal_value=0 -0.0489977 -0.0714497 0.00233772 0.0154112 0.0676977 0.000138509 -0.0059109 -0.114894
internal_weight=0 0.407659 0.323101 8.54438 1.23036 0.348967 7.31402 2.09291 0.11965
internal_count=56 24 22 32 14 10 18 12 13
is_linear=0
shrinkage=0.1


Tree=20
num_leaves=10
num_cat=0
split_feature=84 91 34 42 50 50 1 12 17
split_gain=0.127213 0.066359 0.0154314 0.0220712 0.0114881 0.0172967 0.0147125 0.0175183 0.00110447
threshold=-1.0000000180025095e-35 -977.06061553999996 124.83524799400003 504.20196151700003 -98.902000427499985 -566.14249134049999 304.18531298650004 988.83105468800022 -147.50692367599996
decision_type=2 2 2 2 2 2 2 2 2
left_child=1 -1 3 8 5 -2 7 -7 -3
right_child=4 2 -4 -5 -6 6 -8 -9 -10
leaf_value=0.0097074609072337319 0.0087911102560132241 -0.13082537237425376 -0.040799132241273579 -0.058762840167675523 0.0088097701637554343 -0.018514465592870028 0.0027459401799673857 -0.00016676358595794097 -0.11110571467602151
leaf_weight=0.12912782654166222 1.7914973497390736 0.050948136020451784 0.09535166178829968 0.12177799362689257 2.3096640743315211 0.99678305629640829 2.2319625616073608 1.088844358921051 0.064182902220637383
leaf_count=4 6 4 6 6 8 11 2 2 7
internal_value=0 -0.0511265 -0.0747686 -0.0884408 0.00280198 0.00053062 -0.00289691 -0.00893567 -0.119832
internal_weight=0 0.461389 0.332261 0.236909 8.41875 6.10909 4.31759 2.08563 0.115131
internal_count=56 27 23 17 29 21 15 13 11
is_linear=0
shrinkage=0.1


Tree=21
num_leaves=9
num_cat=0
split_feature=95 19 76 31 22 5 19 61
split_gain=0.094489 0.0497196 0.0218405 0.0174105 0.0105838 0.00802137 0.00565052 8.50921e-05
threshold=-1.0000000180025095e-35 874.89740878350005 -77.600813388999981 54.10141754150002 594.69357299800015 1.0000000180025095e-35 -299.04534053749995 204.919826508
decision_type=2 2 2 2 2 2 2 2
left_child=1 2 5 -2 7 -1 -5 -4
right_child=3 -3 4 6 -6 -7 -8 -9
leaf_value=-0.02053409990083634 0.013834843015262714 0.028972363228276343 -0.10912955911885452 0.0023683469265091293 -0.051207184260005527 -0.059564863540983053 -0.0036771760776468827 -0.11524967861161145
leaf_weight=0.096613373607397079 1.1349668148905019 0.072816904634237289 0.056913045234978976 5.0539392158389083 0.041888942942023277 0.11572418175637722 2.2274292777292439 0.037810991052538157
leaf_count=5 11 2 8 9 2 6 9 4
internal_value=0 -0.0461887 -0.0618729 0.00231466 -0.093063 -0.0418059 0.000518973 -0.111573
internal_weight=0 0.421767 0.348951 8.41634 0.136613 0.212338 7.28137 0.094724
internal_count=56 27 25 29 14 11 18 12
is_linear=0
shrinkage=0.1


Tree=22
num_leaves=11
num_cat=0
split_feature=61 50 91 6 61 93 33 6 1 8
split_gain=0.0624151 0.192925 0.136688 0.0470275 0.00883414 0.00894975 0.00881862 0.00540252 0.00288035 0.00549572
threshold=-1.0000000180025095e-35 -566.14249134049999 -166.56498718249998 336.59432983400001 160.43920898500002 -87.094966888499968 98.671417236500005 425.46053314200009 152.33238220300004 501.361269951
decision_type=2 2 2 2 2 2 2 2 2 2
left_child=1 -1 3 -3 5 -2 -4 -5 9 -6
right_child=4 2 6 7 8 -7 -8 -9 -10 -11
leaf_value=0.11269107994333796 0.0012075788570254328 0.023694242247276162 -0.10760801764343378 -0.038154548108819068 -0.0082150676387619248 0.010598227947036465 -0.15425188576977483 -0.074513999760794633 0.0014844856268473889 0.0023468449321274892
leaf_weight=0.078423544764518738 2.2340541917365044 0.14526056684553623 0.080506868893281402 0.092255020514130592 1.1718944292515519 1.8597364681772868 0.081634018570184708 0.073363678064197302 2.1469928529113531 0.8499670922756194
leaf_count=2 5 5 7 4 10 9 3 6 3 2
internal_value=0 -0.0325736 -0.0566575 -0.0178356 0.00217393 0.00547358 -0.131092 -0.0542606 -0.00106631 -0.00377496
internal_weight=0 0.551444 0.47302 0.310879 8.26265 4.09379 0.162141 0.165619 4.16885 2.02186
internal_count=56 27 25 15 29 14 10 10 15 12
is_linear=0
shrinkage=0.1


Tree=23
num_leaves=8
num_cat=0
split_feature=91 91 91 49 61 95 21
split_gain=0.115981 0.0388159 0.0120026 0.0107368 0.0199859 0.00799277 0.000734644
threshold=-1.0000000180025095e-35 -977.06061553999996 -226.17007255549998 -205.069122314 160.43920898500002 -266.97662734999989 1298.345657349
decision_type=2 2 2 2 2 2 2
left_child=1 -1 5 6 -5 -3 -2
right_child=3 2 -4 4 -6 -7 -8
leaf_value=-0.0049767398102834193 -0.00062569464974543724 -0.090781066834946675 -0.10716098841540037 0.017652152277628032 -0.002413515290715876 -0.046184026818526638 0.0015275936686592179
leaf_weight=0.11134819500148296 3.2638282980769864 0.060255391057580709 0.081987654324621739 1.1253326628357165 0.88813701691105951 0.12066116789355874 3.0792544186115265
leaf_count=4 8 6 9 12 5 8 4
internal_value=0 -0.0544624 -0.0754212 0.00243913 0.00880123 -0.0610373 0.000419621
internal_weight=0 0.374252 0.262904 8.35655 2.01347 0.180917 6.34308
internal_count=56 27 23 29 17 14 12
is_linear=0
shrinkage=0.1


Tree=24
num_leaves=7
num_cat=0
split_feature=60 1 53 88 48 8
split_gain=0.035639 0.00959096 0.0991884 0.0847546 0.00597655 0.00770012
threshold=-877.75178527849982 1.0000000180025095e-35 -74.996318817499997 -59.747922897999999 747.13236618050007 555.22399425550009
decision_type=2 2 2 2 2 2
left_child=-1 2 -2 -4 5 -3
right_child=1 4 3 -5 -6 -7
leaf_value=-0.052593309437141404 -0.0054914053303412331 -0.010243074247701484 -0.023464732692390803 0.10056977257410937 0.0011875672501219286 0.0021313607133395945
leaf_weight=0.12696430645883161 1.0057027661241589 1.222578226355836 0.078577382490038761 0.18431234592571677 5.2292447341606021 0.85420170426368702
leaf_count=8 11 15 5 7 8 2
internal_value=0 0.000778748 0.00880482 0.063496 -0.000614872 -0.00515334
internal_weight=0 8.57462 1.26859 0.26289 7.30602 2.07678
internal_count=56 48 23 12 25 17
is_linear=0
shrinkage=0.1


Tree=25
num_leaves=8
num_cat=0
split_feature=29 56 15 1 86 60 68
split_gain=0.0297967 0.0651828 0.0265578 0.0084702 0.0108814 0.00546327 0.00597338
threshold=-255.45594787599995 96.281216621500022 -1162.0029964445 23.999420166499991 -1.0000000180025095e-35 1034.5730190275003 -673.65497398399987
decision_type=2 2 2 2 2 2 2
left_child=1 2 -1 4 -2 6 -5
right_child=3 -3 -4 5 -6 -7 -8
leaf_value=-0.033711385814514626 -0.0011335416481289883 0.012504124139420564 -0.11664958548207092 0.00019752189973092812 0.014026232831467061 0.0014314675136271491 -0.010595706742004971
leaf_weight=0.074377257376909256 0.88022643607109774 0.17362910695374012 0.080281926319003882 1.1042683916166414 1.0246209604665617 4.3676643371582031 0.95726888254284981
leaf_count=4 6 8 8 3 9 4 14
internal_value=0 -0.0295507 -0.0767637 0.00116404 0.00702093 -0.000571246 -0.00481428
internal_weight=0 0.328288 0.154659 8.33405 1.90485 6.4292 2.06154
internal_count=56 20 12 36 15 21 17
is_linear=0
shrinkage=0.1


Tree=26
num_leaves=8
num_cat=0
split_feature=29 57 45 33 41 47 2
split_gain=0.0206296 0.0502422 0.024716 0.00809387 0.0593672 0.0771544 0.00159982
threshold=-255.45594787599995 162.35543441800004 11.762931824000022 601.12099456800013 -1.0000000180025095e-35 144.09043168950004 -969.31505107899977
decision_type=2 2 2 2 2 2 2
left_child=1 -1 -3 4 5 -2 -5
right_child=3 2 -4 6 -6 -7 -8
leaf_value=0.062743172871967456 -0.13101532870405311 -0.078992277810821285 -0.017822727740545229 0.00088754551083123896 0.0015590463674813621 0.025168589303485103 0.0038892727304340939
leaf_weight=0.055150754284114423 0.080624631140379877 0.10853549744933844 0.16876832535490394 4.0743175745010376 0.97417636821046394 0.052047579549252987 3.146916002035141
leaf_count=3 7 8 9 6 13 4 6
internal_value=0 -0.0244275 -0.0417642 0.00097514 -0.00698769 -0.0697441 0.00219566
internal_weight=0 0.332455 0.277304 8.32808 1.10685 0.132672 7.22123
internal_count=56 20 17 36 24 11 12
is_linear=0
shrinkage=0.1


Tree=27
num_leaves=7
num_cat=0
split_feature=91 91 3 29 15 28
split_gain=0.0595857 0.0625927 0.0250246 0.00618293 0.00613541 0.000894626
threshold=-1.0000000180025095e-35 -226.17007255549998 -544.25087308849982 279.50884246800007 -1162.0029964445 -1243.5756683344998
decision_type=2 2 2 2 2 2
left_child=1 2 -1 -2 -4 -5
right_child=3 -3 4 5 -6 -7
leaf_value=0.013400346967190377 0.008067158896432584 -0.11650388872707035 -0.026849774387576048 0.0016164088248478239 -0.064644129931889796 -0.00067231184522434124
leaf_weight=0.14194053970277309 1.3285599178634564 0.080587389413268151 0.099986173212528229 3.9297624826431261 0.075300832279026508 3.0206466671079411
leaf_count=5 14 9 4 6 9 9
internal_value=0 -0.0378041 -0.0178115 0.00181653 -0.0430857 0.000621731
internal_weight=0 0.397815 0.317228 8.27897 0.175287 6.95041
internal_count=56 27 18 29 13 15
is_linear=0
shrinkage=0.1


Tree=28
num_leaves=11
num_cat=0
split_feature=97 35 81 31 38 38 29 64 15 23
split_gain=0.0133519 0.0812552 0.0200306 0.00873853 0.0302602 0.0353746 0.00691926 0.00114626 0.00110433 0.000239933
threshold=-1.0000000180025095e-35 58.977073668999999 143.62696600000004 54.10141754150002 -331.45596313449994 1.0000000180025095e-35 552.43560028100012 1.0000000180025095e-35 1131.0287446975003 172.42148017900004
decision_type=2 2 2 2 2 2 2 2 2 2
left_child=1 2 6 4 -2 -6 7 -1 -5 -9
right_child=3 -3 -4 8 5 -7 -8 9 -10 -11
leaf_value=-0.13227807325912677 0.00048301251603209645 0.0031855694437985522 -0.035472824305054378 -0.001210504940502454 0.073977012120219829 0.0014708195508463919 -0.056531937805200175 -0.11080152539217968 0.0014254043759469237 -0.097319135555957142
leaf_weight=0.021294995211064593 0.86529348418116525 0.88499105582013726 0.1116553358733654 3.2736148019321263 0.13893520180135988 0.13048439100384712 0.031097649829462171 0.02989100432023406 3.0893669128417969 0.023637387435883284
leaf_count=2 3 5 6 9 7 6 4 6 4 4
internal_value=0 -0.0102749 -0.0650252 0.00151096 0.00959527 0.0388611 -0.0961774 -0.112655 6.92867e-05 -0.104848
internal_weight=0 1.10257 0.217576 7.49769 1.13471 0.26942 0.105921 0.0748234 6.36298 0.0535284
internal_count=56 27 22 29 16 13 16 12 13 10
is_linear=0
shrinkage=0.1


Tree=29
num_leaves=9
num_cat=0
split_feature=33 50 84 91 79 76 55 16
split_gain=0.0110205 0.0876298 0.0610547 0.0251484 0.010015 0.00872509 0.00408564 0.00164512
threshold=601.12099456800013 -131.47964477549996 -1.0000000180025095e-35 -977.06061553999996 -169.34527778599997 -77.600813388999981 -1.0000000180025095e-35 -62.079110145499989
decision_type=2 2 2 2 2 2 2 2
left_child=1 -1 3 -3 5 -5 -7 -2
right_child=7 2 -4 4 -6 6 -8 -9
leaf_value=-0.1050459246992662 0.0028893954982073789 0.00080674665224696445 0.010133088771667832 -0.032224631440967266 -0.10845188799242522 -0.10951319180057439 -0.054393661752074211 -0.00013879014264714043
leaf_weight=0.087605631910264381 3.9915407355874777 0.084617370739578868 0.96477725356817257 0.084014583379029895 0.041418511653319334 0.028758902102708483 0.025258778361603951 3.2587169194594026
leaf_count=7 8 4 9 5 6 6 4 7
internal_value=0 -0.0084172 -0.00152844 -0.044134 -0.0653252 -0.0523844 -0.0837392 0.00152834
internal_weight=0 1.31645 1.22885 0.264068 0.179451 0.138032 0.0540177 7.25026
internal_count=56 41 34 25 21 15 10 15
is_linear=0
shrinkage=0.1


Tree=30
num_leaves=8
num_cat=0
split_feature=97 35 55 31 1 15 31
split_gain=0.00963341 0.0642414 0.0132529 0.00641786 0.00348631 0.000724034 0.000624015
threshold=-1.0000000180025095e-35 58.977073668999999 -185.36070632949995 54.10141754150002 199.57917284950003 1131.0287446975003 -93.788814544999994
decision_type=2 2 2 2 2 2 2
left_child=1 2 -1 -2 6 -5 -4
right_child=3 -3 4 5 -6 -7 -8
leaf_value=-0.03963567243684106 0.0083074681072778118 0.0025043437150348621 -0.12051522990417987 -0.0009878576759743869 -0.0629763519525494 0.0011469247434719978 -0.098490225313655894
leaf_weight=0.11236866866238415 1.1049054986797271 0.88135154964402318 0.022854833398014307 3.2661663047038019 0.025429391302168369 3.0934657752513885 0.02942542592063524
leaf_count=8 16 5 4 9 4 4 6
internal_value=0 -0.00886714 -0.0615942 0.00127274 -0.0933465 5.05477e-05 -0.108119
internal_weight=0 1.07143 0.190078 7.46454 0.0777097 6.35963 0.0522803
internal_count=56 27 22 29 14 13 10
is_linear=0
shrinkage=0.1


Tree=31
num_leaves=7
num_cat=0
split_feature=97 35 55 31 25 15
split_gain=0.00798434 0.0549022 0.0110664 0.00549555 0.00292319 0.000691846
threshold=-1.0000000180025095e-35 58.977073668999999 -185.36070632949995 54.10141754150002 -206.76290130649997 1131.0287446975003
decision_type=2 2 2 2 2 2
left_child=1 2 -1 -2 -4 -5
right_child=3 -3 4 5 -6 -7
leaf_value=-0.038500291501164435 0.0076786672504339792 0.00217241328887862 -0.070373961437597124 -0.00099026761272646979 -0.11115416624819992 0.0010965303306911289
leaf_weight=0.10938683385029435 1.1004994693212209 0.88024114118888974 0.037943622097373009 3.2654262962751091 0.032748383935540692 3.0940885543823242
leaf_count=8 16 5 8 9 6 4
internal_value=0 -0.00811976 -0.0584288 0.00115408 -0.0892656 2.50202e-05
internal_weight=0 1.06032 0.180079 7.46001 0.070692 6.35951
internal_count=56 27 22 29 14 13
is_linear=0
shrinkage=0.1


Tree=32
num_leaves=7
num_cat=0
split_feature=97 53 76 53 29 89
split_gain=0.00672392 0.0359475 0.015628 0.00512911 0.00656367 0.00154812
threshold=-1.0000000180025095e-35 290.089523316 -77.600813388999981 -74.996318817499997 474.48783874500003 37.593179226000011
decision_type=2 2 2 2 2 2
left_child=1 2 -1 4 -2 -4
right_child=3 -3 5 -5 -6 -7
leaf_value=-0.029561225426233462 -0.0084018543923960829 0.00053017442973384368 -0.11007226087770579 0.0038677166185270896 0.00095579998517456412 -0.07479653104807181
leaf_weight=0.11428048554807901 1.0003972356207671 0.88276647217571735 0.030814210418611543 3.4672612184658647 2.9895926713943481 0.020864894846454263
leaf_count=8 15 6 8 10 4 5
internal_value=0 -0.00749735 -0.0501971 0.00105436 -0.00139041 -0.0958301
internal_weight=0 1.04873 0.16596 7.45725 3.98999 0.0516791
internal_count=56 27 21 29 19 13
is_linear=0
shrinkage=0.1


Tree=33
num_leaves=8
num_cat=0
split_feature=3 25 91 0 86 60 5
split_gain=0.0063808 0.0878262 0.0309185 0.00526939 0.00483919 0.00112349 0.00184289
threshold=-49.477024078499994 1164.3032836915002 -166.56498718249998 -743.88433837899993 -1.0000000180025095e-35 1034.5730190275003 406.01243591300005
decision_type=2 2 2 2 2 2 2
left_child=1 2 3 -1 5 6 -2
right_child=4 -3 -4 -5 -6 -7 -8
leaf_value=-0.016281208097172945 -0.0053681416625396654 0.0072418796912500699 -0.11050984467557926 -0.053288121296492623 0.0067929221772382239 0.00078367938145422738 0.0011307937481943289
leaf_weight=0.077313728630542755 0.8996776958229018 0.90355137921869755 0.082702892832457797 0.076595273101702332 1.233615099918097 4.3744586706161499 0.84721502661705017
leaf_count=4 15 4 9 7 11 4 2
internal_value=0 -0.0069608 -0.0611967 -0.0346983 0.00107906 -7.24348e-05 -0.00221626
internal_weight=0 1.14016 0.236612 0.153909 7.35497 6.12135 1.74689
internal_count=56 24 20 11 32 21 17
is_linear=0
shrinkage=0.1


Tree=34
num_leaves=9
num_cat=0
split_feature=97 48 47 29 31 12 0 15
split_gain=0.00571187 0.0220635 0.0329841 0.00952866 0.00495484 0.00213968 0.00190339 0.000488805
threshold=-1.0000000180025095e-35 928.72173881550009 144.09043168950004 -211.910560608 54.10141754150002 -460.54277038599997 -351.45328521749997 1131.0287446975003
decision_type=2 2 2 2 2 2 2 2
left_child=1 2 3 6 -2 -5 -1 -6
right_child=4 -3 -4 5 7 -7 -8 -9
leaf_value=-0.055196776070258059 0.0072307071599789583 -0.00033262200851903636 0.049604263060795101 -0.076385055664150367 -0.00095211120000904801 -0.12189010651723307 -0.027210206905801455 0.00080239295974480573
leaf_weight=0.059255765751004219 1.0791693213395772 0.85172738879919052 0.033752938266843557 0.019361386657692492 3.261620067525655 0.022159507730975525 0.041196055244654417 3.0944322943687439
leaf_count=6 16 3 3 5 9 5 5 4
internal_value=0 -0.00698878 -0.0392506 -0.0603752 0.000965766 -0.100671 -0.0437193 -9.79341e-05
internal_weight=0 1.02745 0.175726 0.141973 7.43522 0.0415209 0.100452 6.35605
internal_count=56 27 24 21 29 10 11 13
is_linear=0
shrinkage=0.1


Tree=35
num_leaves=8
num_cat=0
split_feature=97 35 84 55 53 29 67
split_gain=0.00478913 0.0178306 0.0279151 0.00687647 0.00440956 0.00565353 0.00188313
threshold=-1.0000000180025095e-35 99.241984367500024 123.97620201100001 -185.36070632949995 -74.996318817499997 474.48783874500003 -355.59465408299991
decision_type=2 2 2 2 2 2 2
left_child=1 2 3 -1 5 -2 -5
right_child=4 -3 -4 6 -6 -7 -8
leaf_value=-0.040483052984936596 -0.0079632884724281251 -0.00070588700806087465 0.051709783688914615 -0.11201917686575376 0.0034905842905140006 0.00077251302619539162 -0.070325703322452984
leaf_weight=0.087391373235732317 0.98489717347547445 0.85495650046505034 0.02900979295372963 0.019649115856736898 3.4590058270841837 2.9893790781497955 0.024143598042428271
leaf_count=8 15 4 3 6 10 4 6
internal_value=0 -0.00644267 -0.0370599 -0.0566903 0.000879862 -0.00139238 -0.0890329
internal_weight=0 1.01515 0.160194 0.131184 7.43328 3.97428 0.0437927
internal_count=56 27 23 20 29 19 12
is_linear=0
shrinkage=0.1


Tree=36
num_leaves=8
num_cat=0
split_feature=3 8 57 91 86 60 5
split_gain=0.00453889 0.0390536 0.0522267 0.00881246 0.00381443 0.000958479 0.00126913
threshold=-49.477024078499994 555.22399425550009 753.13953399650006 -166.56498718249998 -1.0000000180025095e-35 1034.5730190275003 406.01243591300005
decision_type=2 2 2 2 2 2 2
left_child=1 2 3 -1 5 6 -2
right_child=4 -3 -4 -5 -6 -7 -8
leaf_value=-0.05563737162894114 -0.0047370465210600432 0.0035894032101966137 0.015555851147596873 -0.10671711418089876 0.006003956768414866 0.00066964952873734549 0.00066825726242622204
leaf_weight=0.064508674200624228 0.89233199693262555 0.87569619342684746 0.091072805225849152 0.070893878350034134 1.2202429685275999 4.3753124475479126 0.84638121724128723
leaf_count=7 15 3 5 9 11 4 2
internal_value=0 -0.00598341 -0.0429979 -0.0823816 0.000899175 -0.000119642 -0.00210582
internal_weight=0 1.10217 0.226475 0.135403 7.33427 6.11403 1.73871
internal_count=56 24 21 16 32 21 17
is_linear=0
shrinkage=0.1


Tree=37
num_leaves=4
num_cat=0
split_feature=97 31 35
split_gain=0.00418548 0.00448123 0.000398697
threshold=-1.0000000180025095e-35 54.10141754150002 260.05354595200009
decision_type=2 2 2
left_child=-1 -2 -3
right_child=1 2 -4
leaf_value=-0.006091279816079825 0.0068303432572654147 -0.00093438726359407914 0.00065263773921041518
leaf_weight=0.99464516027364869 1.0618201084434984 3.3653630511835217 2.988864004611969
leaf_count=27 16 9 4
internal_value=0 0.00081697 -0.000187892
internal_weight=0 7.41605 6.35423
internal_count=56 29 13
is_linear=0
shrinkage=0.1


Tree=38
num_leaves=4
num_cat=0
split_feature=97 31 35
split_gain=0.00404754 0.00427683 0.000392005
threshold=-1.0000000180025095e-35 54.10141754150002 260.05354595200009
decision_type=2 2 2
left_child=-1 -2 -3
right_child=1 2 -4
leaf_value=-0.0059927669870256575 0.0066802884320063486 -0.00091841341111696109 0.00065525485585541841
leaf_weight=0.99382978409994382 1.0610401011072097 3.3652268503792584 2.9888335466384888
leaf_count=27 16 9 4
internal_value=0 0.000803203 -0.000178189
internal_weight=0 7.4151 6.35406
internal_count=56 29 13
is_linear=0
shrinkage=0.1


Tree=39
num_leaves=4
num_cat=0
split_feature=97 31 35
split_gain=0.00391654 0.00408304 0.00038549
threshold=-1.0000000180025095e-35 54.10141754150002 260.05354595200009
decision_type=2 2 2
left_child=-1 -2 -3
right_child=1 2 -4
leaf_value=-0.005897556832491116 0.0065346106194867255 -0.00090278548441232234 0.00065777044951831993
leaf_weight=0.99304306285921473 1.0602932865731416 3.3650940698571503 2.9888024926185608
leaf_count=27 16 9 4
internal_value=0 0.000789917 -0.000168717
internal_weight=0 7.41419 6.3539
internal_count=56 29 13
is_linear=0
shrinkage=0.1


Tree=40
num_leaves=4
num_cat=0
split_feature=97 31 35
split_gain=0.00379183 0.0038992 0.000379151
threshold=-1.0000000180025095e-35 54.10141754150002 260.05354595200009
decision_type=2 2 2
left_child=-1 -2 -3
right_child=1 2 -4
leaf_value=-0.0058053520137095584 0.0063930932442574214 -0.00088752889198531618 0.00066016251556365714
leaf_weight=0.99228216463234264 1.0595772075466809 3.3649643859826028 2.9887711405754089
leaf_count=27 16 9 4
internal_value=0 0.000777054 -0.000159501
internal_weight=0 7.41331 6.35374
internal_count=56 29 13
is_linear=0
shrinkage=0.1


Tree=41
num_leaves=8
num_cat=0
split_feature=3 8 31 44 86 60 5
split_gain=0.00369291 0.0347627 0.0352288 0.00586501 0.00364764 0.00104543 0.00109432
threshold=-49.477024078499994 555.22399425550009 -341.40304565449992 -188.32402229349995 -1.0000000180025095e-35 1034.5730190275003 406.01243591300005
decision_type=2 2 2 2 2 2 2
left_child=1 2 -1 -4 5 6 -2
right_child=4 -3 3 -5 -6 -7 -8
leaf_value=0.003482222561822772 -0.0047117395964184098 0.0031698555263555898 -0.05774911751793859 -0.10363319405653769 0.0058060183717296033 0.00063228960547711491 0.00030978775581005311
leaf_weight=0.090502433944493532 0.89150472392793723 0.87392829917371273 0.056170908035710454 0.055267178220674174 1.2156488853506742 4.3753526210784912 0.84563824534416199
leaf_count=6 15 3 7 8 11 4 2
internal_value=0 -0.00547089 -0.042865 -0.0805051 0.000803205 -0.000191751 -0.00226727
internal_weight=0 1.07587 0.201941 0.111438 7.32814 6.1125 1.73714
internal_count=56 24 21 15 32 21 17
is_linear=0
shrinkage=0.1


Tree=42
num_leaves=4
num_cat=0
split_feature=97 31 35
split_gain=0.00358702 0.00399238 0.000329042
threshold=-1.0000000180025095e-35 54.10141754150002 260.05354595200009
decision_type=2 2 2
left_child=-1 -2 -3
right_child=1 2 -4
leaf_value=-0.0056680099302079514 0.0064632074214573676 -0.00086879015919113047 0.00057329125109811113
leaf_weight=0.98536352615337808 1.0511060189455745 3.3628034386783838 2.9882417619228363
leaf_count=27 16 9 4
internal_value=0 0.000754521 -0.000190274
internal_weight=0 7.40215 6.35105
internal_count=56 29 13
is_linear=0
shrinkage=0.1


Tree=43
num_leaves=4
num_cat=0
split_feature=97 31 35
split_gain=0.00347453 0.00382318 0.00032409
threshold=-1.0000000180025095e-35 54.10141754150002 260.05354595200009
decision_type=2 2 2
left_child=-1 -2 -3
right_child=1 2 -4
leaf_value=-0.0055806501806263745 0.006330903228213983 -0.00085529242746655652 0.00057591140818752775
leaf_weight=0.98465061152819533 1.0504226749762891 3.3626952855847776 2.9882045090198517
leaf_count=27 16 9 4
internal_value=0 0.000742432 -0.000181887
internal_weight=0 7.40132 6.3509
internal_count=56 29 13
is_linear=0
shrinkage=0.1


Tree=44
num_leaves=4
num_cat=0
split_feature=97 31 35
split_gain=0.00336732 0.00366218 0.000319256
threshold=-1.0000000180025095e-35 54.10141754150002 260.05354595200009
decision_type=2 2 2
left_child=-1 -2 -3
right_child=1 2 -4
leaf_value=-0.0054959965743095404 0.0062022205314882653 -0.00084206927515415335 0.00057843572400105819
leaf_weight=0.9839607961475848 1.0497661316767333 3.3625891036354005 2.9881680905818939
leaf_count=27 16 9 4
internal_value=0 0.000730734 -0.000173691
internal_weight=0 7.40052 6.35076
internal_count=56 29 13
is_linear=0
shrinkage=0.1


Tree=45
num_leaves=4
num_cat=0
split_feature=97 53 29
split_gain=0.00326512 0.00362772 0.00455367
threshold=-1.0000000180025095e-35 -74.996318817499997 474.48783874500003
decision_type=2 2 2
left_child=-1 2 -2
right_child=1 -3 -4
leaf_value=-0.005413956363894858 -0.0073197712486999279 0.0030907918987859951 0.00058090444057922158
leaf_weight=0.98329332377761591 0.96513950894586775 3.4464805833995342 2.9881306886672974
leaf_count=27 15 10 4
internal_value=0 0.000719426 -0.00134794
internal_weight=0 7.39975 3.95327
internal_count=56 29 19
is_linear=0
shrinkage=0.1


Tree=46
num_leaves=4
num_cat=0
split_feature=97 31 35
split_gain=0.00323425 0.00353529 0.000310984
threshold=-1.0000000180025095e-35 54.10141754150002 260.05354595200009
decision_type=2 2 2
left_child=-1 -2 -3
right_child=1 2 -4
leaf_value=-0.0053890901147531714 0.0060985275515619318 -0.00083145521726572672 0.0005705677802997775
leaf_weight=0.98301542690023769 1.0475095687434075 3.3623176601249725 2.9880578517913818
leaf_count=27 16 9 4
internal_value=0 0.000716088 -0.000171758
internal_weight=0 7.39789 6.35038
internal_count=56 29 13
is_linear=0
shrinkage=0.1


Tree=47
num_leaves=4
num_cat=0
split_feature=97 53 29
split_gain=0.00313755 0.00353387 0.00446205
threshold=-1.0000000180025095e-35 -74.996318817499997 474.48783874500003
decision_type=2 2 2
left_child=-1 2 -2
right_child=1 -3 -4
leaf_value=-0.005309817678348646 -0.0072513626545295286 0.0030461598953425168 0.00057297854921056551
leaf_weight=0.98237195436377067 0.96399216563440893 3.4451263984665275 2.9880209267139435
leaf_count=27 15 10 4
internal_value=0 0.000705167 -0.00133557
internal_weight=0 7.39714 3.95201
internal_count=56 29 19
is_linear=0
shrinkage=0.1


Tree=48
num_leaves=4
num_cat=0
split_feature=97 53 29
split_gain=0.00310893 0.00343378 0.00429913
threshold=-1.0000000180025095e-35 -74.996318817499997 474.48783874500003
decision_type=2 2 2
left_child=-1 2 -2
right_child=1 -3 -4
leaf_value=-0.0052862610590990108 -0.0071200627825533467 0.0030099083203692298 0.00056289040655004658
leaf_weight=0.9821061500115319 0.96307535748928819 3.4442959697917104 2.9879494905471802
leaf_count=27 15 10 4
internal_value=0 0.000702031 -0.00130985
internal_weight=0 7.39532 3.95102
internal_count=56 29 19
is_linear=0
shrinkage=0.1


Tree=49
num_leaves=4
num_cat=0
split_feature=97 31 35
split_gain=0.00308055 0.00343966 0.000299652
threshold=-1.0000000180025095e-35 54.10141754150002 260.05354595200009
decision_type=2 2 2
left_child=-1 -2 -3
right_child=1 2 -4
leaf_value=-0.0052627986270410111 0.0060187975650518328 -0.00082323051834410569 0.00055307295307065879
leaf_weight=0.98184322263114143 1.0437860661186276 3.3618868580088019 2.9878787696361542
leaf_count=27 16 9 4
internal_value=0 0.000698885 -0.000175612
internal_weight=0 7.39355 6.34977
internal_count=56 29 13
is_linear=0
shrinkage=0.1


Tree=50
num_leaves=4
num_cat=0
split_feature=97 53 29
split_gain=0.00298974 0.00334708 0.00421558
threshold=-1.0000000180025095e-35 -74.996318817499997 474.48783874500003
decision_type=2 2 2
left_child=-1 2 -2
right_child=1 -3 -4
leaf_value=-0.0051864511538012104 -0.0070557160086614822 0.0029673960517222551 0.00055551344641836039
leaf_weight=0.98122518707532425 0.96198372938670251 3.4430036442354321 2.9878425300121307
leaf_count=27 15 10 4
internal_value=0 0.000688378 -0.00129821
internal_weight=0 7.39283 3.94983
internal_count=56 29 19
is_linear=0
shrinkage=0.1


Tree=51
num_leaves=4
num_cat=0
split_feature=97 31 35
split_gain=0.0029634 0.00332397 0.000292118
threshold=-1.0000000180025095e-35 54.10141754150002 260.05354595200009
decision_type=2 2 2
left_child=-1 -2 -3
right_child=1 2 -4
leaf_value=-0.0051642208282993577 0.0059210283231710195 -0.00081302344372506045 0.00054590664873417584
leaf_weight=0.98097347922157485 1.0417042002081869 3.361627152422443 2.9877733588218689
leaf_count=27 16 9 4
internal_value=0 0.000685408 -0.000173565
internal_weight=0 7.3911 6.3494
internal_count=56 29 13
is_linear=0
shrinkage=0.1


Tree=52
num_leaves=4
num_cat=0
split_feature=97 53 29
split_gain=0.00287735 0.00326351 0.00413368
threshold=-1.0000000180025095e-35 -74.996318817499997 474.48783874500003
decision_type=2 2 2
left_child=-1 2 -2
right_child=1 -3 -4
leaf_value=-0.0050903876650935176 -0.0069918202220962461 0.0029261015650271366 0.00054830316427714753
leaf_weight=0.98037737305276085 0.96092066122219 3.4417498921975493 2.9877375960350037
leaf_count=27 15 10 4
internal_value=0 0.000675269 -0.00128661
internal_weight=0 7.39041 3.94866
internal_count=56 29 19
is_linear=0
shrinkage=0.1


Tree=53
num_leaves=4
num_cat=0
split_feature=97 31 35
split_gain=0.00285289 0.00321409 0.000284844
threshold=-1.0000000180025095e-35 54.10141754150002 260.05354595200009
decision_type=2 2 2
left_child=-1 -2 -3
right_child=1 2 -4
leaf_value=-0.0050693245673091155 0.005826511598244901 -0.00080300318013058866 0.00053893706638272968
leaf_weight=0.98013642663136114 1.0396820404566822 3.3613720992580056 2.9876694977283478
leaf_count=27 16 9 4
internal_value=0 0.00067247 -0.000171526
internal_weight=0 7.38872 6.34904
internal_count=56 29 13
is_linear=0
shrinkage=0.1


Tree=54
num_leaves=8
num_cat=0
split_feature=3 25 91 86 21 1 5
split_gain=0.00283699 0.0596366 0.0113159 0.0032197 0.00300205 0.000957158 0.000999479
threshold=-49.477024078499994 1164.3032836915002 -166.56498718249998 -1.0000000180025095e-35 -1298.3456573489996 152.33238220300004 406.01243591300005
decision_type=2 2 2 2 2 2 2
left_child=1 2 4 5 -1 6 -2
right_child=3 -3 -4 -5 -6 -7 -8
leaf_value=-0.025152144200225737 -0.0046084501084532725 0.0052047239231597072 -0.097603657257887375 0.0054183838277987277 -0.059214566683001638 0.00054854310938043437 0.00021631017674408082
leaf_weight=0.053282986395061016 0.87300529459025689 0.89210372231900692 0.055645643034949677 1.2066594341304151 0.05029985960572958 4.3917150439228863 0.84489673376083374
leaf_count=4 11 4 9 11 7 8 2
internal_value=0 -0.00485739 -0.061232 0.000697998 -0.0416929 -0.000234286 -0.00223554
internal_weight=0 1.05133 0.159228 7.31628 0.103583 6.10962 1.7179
internal_count=56 24 20 32 11 21 13
is_linear=0
shrinkage=0.1


Tree=55
num_leaves=4
num_cat=0
split_feature=97 31 35
split_gain=0.00276835 0.0033841 0.000252339
threshold=-1.0000000180025095e-35 54.10141754150002 260.05354595200009
decision_type=2 2 2
left_child=-1 -2 -3
right_child=1 2 -4
leaf_value=-0.0049940304072464874 0.0059796691217292074 -0.00079411157457701803 0.00046914874553097714
leaf_weight=0.97983754239976395 1.0301455673761664 3.3596356466878206 2.9872024655342102
leaf_count=27 16 9 4
internal_value=0 0.00066334 -0.000199546
internal_weight=0 7.37698 6.34684
internal_count=56 29 13
is_linear=0
shrinkage=0.1


Tree=56
num_leaves=4
num_cat=0
split_feature=97 31 35
split_gain=0.00268782 0.00325473 0.000249002
threshold=-1.0000000180025095e-35 54.10141754150002 260.05354595200009
decision_type=2 2 2
left_child=-1 -2 -3
right_child=1 2 -4
leaf_value=-0.0049224461269853342 0.0058688201702357078 -0.00078318012848759661 0.00047170884767410619
leaf_weight=0.97926497622393061 1.0295855845324693 3.3595550449099392 2.9871639907360077
leaf_count=27 16 9 4
internal_value=0 0.000653496 -0.000192551
internal_weight=0 7.3763 6.34672
internal_count=56 29 13
is_linear=0
shrinkage=0.1


Tree=57
num_leaves=4
num_cat=0
split_feature=97 31 35
split_gain=0.0026108 0.00313101 0.000245735
threshold=-1.0000000180025095e-35 54.10141754150002 260.05354595200009
decision_type=2 2 2
left_child=-1 -2 -3
right_child=1 2 -4
leaf_value=-0.0048529209434923417 0.0057607177323982196 -0.00077243275487407339 0.00047420916841972013
leaf_weight=0.97870969690848131 1.0290458127856252 3.3594761553686112 2.987125426530838
leaf_count=27 16 9 4
internal_value=0 0.000643956 -0.000185682
internal_weight=0 7.37565 6.3466
internal_count=56 29 13
is_linear=0
shrinkage=0.1


Tree=58
num_leaves=4
num_cat=0
split_feature=97 31 35
split_gain=0.00253706 0.00301265 0.000242557
threshold=-1.0000000180025095e-35 54.10141754150002 260.05354595200009
decision_type=2 2 2
left_child=-1 -2 -3
right_child=1 2 -4
leaf_value=-0.0047853465821886742 0.0056552613130658362 -0.00076190077635579848 0.00047666553580130689
leaf_weight=0.97817060013767321 1.0285247098654506 3.3593987291678786 2.987087607383728
leaf_count=27 16 9 4
internal_value=0 0.000634696 -0.000178947
internal_weight=0 7.37501 6.34649
internal_count=56 29 13
is_linear=0
shrinkage=0.1


Tree=59
num_leaves=4
num_cat=0
split_feature=97 31 35
split_gain=0.00246642 0.00289937 0.00023944
threshold=-1.0000000180025095e-35 54.10141754150002 260.05354595200009
decision_type=2 2 2
left_child=-1 -2 -3
right_child=1 2 -4
leaf_value=-0.0047196352257089505 0.0055523362892777239 -0.00075154294923843168 0.00047904818207398749
leaf_weight=0.97764729533810157 1.028021660633385 3.3593227616511285 2.9870494902133942
leaf_count=27 16 9 4
internal_value=0 0.000625704 -0.00017234
internal_weight=0 7.37439 6.34637
internal_count=56 29 13
is_linear=0
shrinkage=0.1


Tree=60
num_leaves=9
num_cat=0
split_feature=5 75 21 51 5 84 3 41
split_gain=0.00243497 0.0031341 0.0125915 0.0194598 0.0396544 0.0114283 0.00294996 0.0015495
threshold=406.01243591300005 -785.4212408064999 938.0889301305001 1.0000000180025095e-35 -1.0000000180025095e-35 -576.55553531699991 -186.77400207499997 55.954915047500009
decision_type=2 2 2 2 2 2 2 2
left_child=1 -1 3 4 5 -3 -7 -5
right_child=-2 2 -4 7 -6 6 -8 -9
leaf_value=0.00032872569038801741 0.004666417962644746 -0.01492169077439749 -0.00083082407727259476 -0.11327701766316343 0.080110976772723386 -0.04836228640081195 -0.096296683614493297 -0.072098076600927694
leaf_weight=6.0681380927562714 0.98616529908031214 0.079472372075542363 1.0927392840385437 0.019389519933611155 0.035654293838888518 0.022943089250474724 0.029151722439565209 0.017282781074754894
leaf_count=8 14 9 2 6 3 3 7 4
internal_value=0 -0.000624856 -0.00508754 -0.0279008 -0.0134334 -0.0387837 -0.0751859 -0.0938704
internal_weight=0 7.36477 1.29663 0.203894 0.167221 0.131567 0.0520948 0.0366723
internal_count=56 42 34 32 22 19 10 10
is_linear=0
shrinkage=0.1


Tree=61
num_leaves=5
num_cat=0
split_feature=90 20 47 29
split_gain=0.00223933 0.0503643 0.0549629 0.00326815
threshold=-1.0000000180025095e-35 1.0000000180025095e-35 -1.0000000180025095e-35 279.50884246800007
decision_type=2 2 2 2
left_child=3 2 -2 -1
right_child=1 -3 -4 -5
leaf_value=-0.005376447829756565 -0.011895900690761041 -0.0045964461278052982 0.11034356747126527 0.00032069197409962335
leaf_weight=1.2070592230884356 0.064388634636998177 0.90472844906616956 0.085794152691960113 6.0723122447961941
leaf_count=18 7 17 5 9
internal_value=0 0.00430589 0.0579352 -0.000624003
internal_weight=0 1.05491 0.150183 7.27937
internal_count=56 29 12 27
is_linear=0
shrinkage=0.1


Tree=62
num_leaves=4
num_cat=0
split_feature=97 31 35
split_gain=0.00196639 0.00213655 0.000212044
threshold=-1.0000000180025095e-35 54.10141754150002 260.05354595200009
decision_type=2 2 2
left_child=-1 -2 -3
right_child=1 2 -4
leaf_value=-0.0042420557647180777 0.0048413728864836816 -0.00066616228652484485 0.00049206333187464977
leaf_weight=0.9658251218497752 1.0050082216039298 3.3590515553951263 2.9855782091617584
leaf_count=27 16 9 4
internal_value=0 0.000557448 -0.000121139
internal_weight=0 7.34964 6.34463
internal_count=56 29 13
is_linear=0
shrinkage=0.1


Tree=63
num_leaves=4
num_cat=0
split_feature=97 31 35
split_gain=0.00191734 0.00206337 0.000209707
threshold=-1.0000000180025095e-35 54.10141754150002 260.05354595200009
decision_type=2 2 2
left_child=-1 -2 -3
right_child=1 2 -4
leaf_value=-0.0041897652844899219 0.004761189561133518 -0.00065839424269853214 0.00049343990551891541
leaf_weight=0.96542060328647483 1.0046370150521395 3.3589937528595328 2.9855477511882782
leaf_count=27 16 9 4
internal_value=0 0.00055039 -0.000116376
internal_weight=0 7.34918 6.34454
internal_count=56 29 13
is_linear=0
shrinkage=0.1


Tree=64
num_leaves=4
num_cat=0
split_feature=97 53 29
split_gain=0.00187006 0.00205436 0.00284034
threshold=-1.0000000180025095e-35 -74.996318817499997 474.48783874500003
decision_type=2 2 2
left_child=-1 2 -2
right_child=1 -3 -4
leaf_value=-0.0041387091378403814 -0.0058003337800007224 0.0023355030028439669 0.00049478255262118149
leaf_weight=0.96502612542826671 0.94317089556716416 3.4200436612591147 2.9855173826217651
leaf_count=27 15 10 4
internal_value=0 0.000543495 -0.0010165
internal_weight=0 7.34873 3.92869
internal_count=56 29 19
is_linear=0
shrinkage=0.1


Tree=65
num_leaves=4
num_cat=0
split_feature=97 31 35
split_gain=0.001859 0.00200882 0.000205438
threshold=-1.0000000180025095e-35 54.10141754150002 260.05354595200009
decision_type=2 2 2
left_child=-1 -2 -3
right_child=1 2 -4
leaf_value=-0.0041267680462716517 0.0046997806355182923 -0.00065210994907078095 0.00048796302469713605
leaf_weight=0.96487843443173904 1.0033215316943822 3.3588167307898402 2.9854662120342255
leaf_count=27 16 9 4
internal_value=0 0.000541928 -0.000115619
internal_weight=0 7.3476 6.34428
internal_count=56 29 13
is_linear=0
shrinkage=0.1


Tree=66
num_leaves=4
num_cat=0
split_feature=97 53 29
split_gain=0.00181366 0.00201398 0.00279514
threshold=-1.0000000180025095e-35 -74.996318817499997 474.48783874500003
decision_type=2 2 2
left_child=-1 2 -2
right_child=1 -3 -4
leaf_value=-0.0040770294935381438 -0.0057573365534335959 0.0023097301949718961 0.00048929560669046517
leaf_weight=0.96449488028883923 0.94246456609107587 3.4192694188095629 2.9854362308979034
leaf_count=27 15 10 4
internal_value=0 0.000535208 -0.00100953
internal_weight=0 7.34717 3.9279
internal_count=56 29 19
is_linear=0
shrinkage=0.1


Tree=67
num_leaves=4
num_cat=0
split_feature=97 53 29
split_gain=0.00180332 0.0019678 0.00271149
threshold=-1.0000000180025095e-35 -74.996318817499997 474.48783874500003
decision_type=2 2 2
left_child=-1 2 -2
right_child=1 -3 -4
leaf_value=-0.0040656933495934874 -0.0056712680212105092 0.0022879005355703106 0.00048258547940802391
leaf_weight=0.96435255103278894 0.94190258160233531 3.4187737717293203 2.9853858649730682
leaf_count=27 15 10 4
internal_value=0 0.000533719 -0.000993326
internal_weight=0 7.34606 3.92729
internal_count=56 29 19
is_linear=0
shrinkage=0.1


Tree=68
num_leaves=4
num_cat=0
split_feature=97 31 35
split_gain=0.00179294 0.00197154 0.000199405
threshold=-1.0000000180025095e-35 54.10141754150002 260.05354595200009
decision_type=2 2 2
left_child=-1 -2 -3
right_child=1 2 -4
leaf_value=-0.004054272102856687 0.004656442661200879 -0.00064719508345423055 0.00047604879975383739
leaf_weight=0.96421088511124242 1.0011177160777149 3.3585257409140468 2.9853356778621674
leaf_count=27 16 9 4
internal_value=0 0.000532226 -0.000118612
internal_weight=0 7.34498 6.34386
internal_count=56 29 13
is_linear=0
shrinkage=0.1


Tree=69
num_leaves=4
num_cat=0
split_feature=97 53 29
split_gain=0.00174965 0.00192996 0.00266975
threshold=-1.0000000180025095e-35 -74.996318817499997 474.48783874500003
decision_type=2 2 2
left_child=-1 2 -2
right_child=1 -3 -4
leaf_value=-0.0040058710160141486 -0.0056305893975191314 0.0022631337869695256 0.00047740922035053749
leaf_weight=0.96383837761823077 0.94122201250866089 3.4180268119089305 2.9853060245513916
leaf_count=27 15 10 4
internal_value=0 0.0005257 -0.00098673
internal_weight=0 7.34455 3.92653
internal_count=56 29 19
is_linear=0
shrinkage=0.1


Tree=70
num_leaves=4
num_cat=0
split_feature=97 31 35
split_gain=0.00173991 0.00192049 0.000195445
threshold=-1.0000000180025095e-35 54.10141754150002 260.05354595200009
decision_type=2 2 2
left_child=-1 -2 -3
right_child=1 2 -4
leaf_value=-0.0039950019097419586 0.0045975984211797383 -0.0006410930985198543 0.00047096192992842478
leaf_weight=0.96370164188556362 0.99987898906692851 3.3583563757129014 2.985257089138031
leaf_count=27 16 9 4
internal_value=0 0.000524269 -0.000117768
internal_weight=0 7.34349 6.34361
internal_count=56 29 13
is_linear=0
shrinkage=0.1


Tree=71
num_leaves=4
num_cat=0
split_feature=97 53 29
split_gain=0.00169835 0.00189309 0.00262859
threshold=-1.0000000180025095e-35 -74.996318817499997 474.48783874500003
decision_type=2 2 2
left_child=-1 2 -2
right_child=1 -3 -4
leaf_value=-0.0039478121575802104 -0.0055900700762915641 0.0022388617547991498 0.000472314320904729
leaf_weight=0.96333902433980245 0.94055443839170072 3.4172966247424483 2.9852276146411896
leaf_count=27 15 10 4
internal_value=0 0.00051791 -0.000980136
internal_weight=0 7.34308 3.92578
internal_count=56 29 19
is_linear=0
shrinkage=0.1


Tree=72
num_leaves=4
num_cat=0
split_feature=97 31 35
split_gain=0.00168923 0.00187136 0.00019159
threshold=-1.0000000180025095e-35 54.10141754150002 260.05354595200009
decision_type=2 2 2
left_child=-1 -2 -3
right_child=1 2 -4
leaf_value=-0.0039374639559506047 0.0045402106730830418 -0.00063505675251941532 0.00046599645055204797
leaf_weight=0.96320696210023005 0.99866686947643746 3.3581894091330469 2.9851793944835663
leaf_count=27 16 9 4
internal_value=0 0.00051656 -0.000116903
internal_weight=0 7.34204 6.34337
internal_count=56 29 13
is_linear=0
shrinkage=0.1


Tree=73
num_leaves=4
num_cat=0
split_feature=97 53 29
split_gain=0.00164929 0.00185723 0.00258808
threshold=-1.0000000180025095e-35 -74.996318817499997 474.48783874500003
decision_type=2 2 2
left_child=-1 2 -2
right_child=1 -3 -4
leaf_value=-0.0038914197608669841 -0.0055497925492109697 0.0022151219712980802 0.00046730880961766403
leaf_weight=0.96285371563862998 0.93990011932328377 3.4165824479423463 2.9851504564285278
leaf_count=27 15 10 4
internal_value=0 0.000510361 -0.000973558
internal_weight=0 7.34163 3.92505
internal_count=56 29 19
is_linear=0
shrinkage=0.1


Tree=74
num_leaves=4
num_cat=0
split_feature=97 31 35
split_gain=0.00164073 0.00182416 0.000187839
threshold=-1.0000000180025095e-35 54.10141754150002 260.05354595200009
decision_type=2 2 2
left_child=-1 -2 -3
right_child=1 2 -4
leaf_value=-0.003881564527484969 0.0044843215005855403 -0.00062913060759060585 0.00046111036122561272
leaf_weight=0.9627260147826745 0.99748051445931185 3.3580253317486495 2.9851031303405762
leaf_count=27 16 9 4
internal_value=0 0.000509065 -0.000116059
internal_weight=0 7.34061 6.34313
internal_count=56 29 13
is_linear=0
shrinkage=0.1


Tree=75
num_leaves=4
num_cat=0
split_feature=97 53 29
split_gain=0.00160234 0.00182227 0.00254825
threshold=-1.0000000180025095e-35 -74.996318817499997 474.48783874500003
decision_type=2 2 2
left_child=-1 2 -2
right_child=1 -3 -4
leaf_value=-0.0038366377329828285 -0.005509781706642276 0.0021918413191796527 0.00046241071668449545
leaf_weight=0.96238196443300683 0.93925799918361041 3.4158826782368124 2.9850742518901825
leaf_count=27 15 10 4
internal_value=0 0.000503023 -0.000966986
internal_weight=0 7.34021 3.92433
internal_count=56 29 19
is_linear=0
shrinkage=0.1


Tree=76
num_leaves=4
num_cat=0
split_feature=97 53 29
split_gain=0.00159427 0.00178214 0.0024748
threshold=-1.0000000180025095e-35 -74.996318817499997 474.48783874500003
decision_type=2 2 2
left_child=-1 2 -2
right_child=1 -3 -4
leaf_value=-0.0038272149260460265 -0.0054304035492245689 0.0021720149072989889 0.00045631772090258668
leaf_weight=0.96225817303638894 0.93874660739675198 3.4154339311644435 2.9850278496742249
leaf_count=27 15 10 4
internal_value=0 0.000501787 -0.000952056
internal_weight=0 7.33921 3.92377
internal_count=56 29 19
is_linear=0
shrinkage=0.1


Tree=77
num_leaves=4
num_cat=0
split_feature=97 31 35
split_gain=0.00158619 0.00179227 0.000182518
threshold=-1.0000000180025095e-35 54.10141754150002 260.05354595200009
decision_type=2 2 2
left_child=-1 -2 -3
right_child=1 2 -4
leaf_value=-0.0038177385558709372 0.0044453725121644232 -0.00062436024737798411 0.00045036232961326794
leaf_weight=0.96213526953943063 0.99548938730731595 3.3577530472539365 2.9849813580513
leaf_count=27 16 9 4
internal_value=0 0.000500557 -0.00011858
internal_weight=0 7.33822 6.34273
internal_count=56 29 13
is_linear=0
shrinkage=0.1


Tree=78
num_leaves=4
num_cat=0
split_feature=97 53 29
split_gain=0.00154943 0.00174938 0.002438
threshold=-1.0000000180025095e-35 -74.996318817499997 474.48783874500003
decision_type=2 2 2
left_child=-1 2 -2
right_child=1 -3 -4
leaf_value=-0.0037739635383903028 -0.0053925904831530654 0.0021496480247768248 0.00045168050195047016
leaf_weight=0.96180063916835923 0.93812756496481631 3.4147595604881644 2.9849531650543213
leaf_count=27 15 10 4
internal_value=0 0.000494674 -0.000945862
internal_weight=0 7.33784 3.92308
internal_count=56 29 19
is_linear=0
shrinkage=0.1


Tree=79
num_leaves=4
num_cat=0
split_feature=97 31 35
split_gain=0.00154183 0.00174789 0.000179021
threshold=-1.0000000180025095e-35 54.10141754150002 260.05354595200009
decision_type=2 2 2
left_child=-1 -2 -3
right_child=1 2 -4
leaf_value=-0.0037649275051409186 0.0043916364753179586 -0.00061858606323131609 0.0004458085620308585
leaf_weight=0.96168155979830761 0.99436942115426052 3.3575957522261888 2.9849079847335815
leaf_count=27 16 9 4
internal_value=0 0.000493486 -0.000117661
internal_weight=0 7.33687 6.3425
internal_count=56 29 13
is_linear=0
shrinkage=0.1


Tree=80
num_leaves=4
num_cat=0
split_feature=97 53 29
split_gain=0.00150645 0.00171742 0.0024018
threshold=-1.0000000180025095e-35 -74.996318817499997 474.48783874500003
decision_type=2 2 2
left_child=-1 2 -2
right_child=1 -3 -4
leaf_value=-0.0037221812758808266 -0.0053550434299010291 0.0021276951145841536 0.00044712673715228252
leaf_weight=0.96135536313522596 0.93751981272362206 3.4140986055135727 2.9848797023296356
leaf_count=27 15 10 4
internal_value=0 0.000487742 -0.00093969
internal_weight=0 7.3365 3.9224
internal_count=56 29 19
is_linear=0
shrinkage=0.1


Tree=81
num_leaves=4
num_cat=0
split_feature=97 31 35
split_gain=0.0014993 0.00170511 0.000175621
threshold=-1.0000000180025095e-35 54.10141754150002 260.05354595200009
decision_type=2 2 2
left_child=-1 -2 -3
right_child=1 2 -4
leaf_value=-0.0037135525003596822 0.0043391708757073355 -0.00061289114892511005 0.00044136430841201443
leaf_weight=0.96123984456062306 0.99327138275839377 3.3574405827093869 2.9848352372646332
leaf_count=27 16 9 4
internal_value=0 0.000486621 -0.000116732
internal_weight=0 7.33555 6.34228
internal_count=56 29 13
is_linear=0
shrinkage=0.1


Tree=82
num_leaves=9
num_cat=0
split_feature=31 2 2 2 1 60 48 2
split_gain=0.00150061 0.00664473 0.0252064 0.0317451 0.00205892 0.000455342 0.000342057 3.71182e-07
threshold=-1.0000000180025095e-35 -382.96592426349997 267.53653335550007 697.97389221200012 23.999420166499991 1034.5730190275003 928.72173881550009 1.0000000180025095e-35
decision_type=2 2 2 2 2 2 2 2
left_child=1 -1 7 -4 -2 6 -6 -3
right_child=4 2 3 -5 5 -7 -8 -9
leaf_value=-5.345032214309929e-05 0.0049123514940027342 -0.077459666925031048 0.078709190838204018 -0.034598703146874903 -0.0025231374151494738 0.00043023046854084456 0.00012703467954493315 -0.07693822930741219
leaf_weight=0.84371566772460938 0.92344572790898372 0.025099198333918826 0.038555319304578006 0.06893572979606688 1.1429010283900423 4.3748539686203003 0.84866438433527935 0.029931257362477481
leaf_count=2 10 5 5 10 12 4 3 5
internal_value=0 -0.00361998 -0.0221353 0.00604303 0.00049968 -0.000140376 -0.00139382 -0.0771761
internal_weight=0 1.00624 0.162522 0.107491 7.28987 6.36642 1.99157 0.0550305
internal_count=56 27 25 15 29 19 15 10
is_linear=0
shrinkage=0.1


Tree=83
num_leaves=4
num_cat=0
split_feature=97 31 35
split_gain=0.00147084 0.00180971 0.000196793
threshold=-1.0000000180025095e-35 54.10141754150002 260.05354595200009
decision_type=2 2 2
left_child=-1 -2 -3
right_child=1 2 -4
leaf_value=-0.003676201810001454 0.0044754625323170797 -0.00066132604913273212 0.00045482155763180504
leaf_weight=0.9619791256263851 0.98291217978112388 3.3564640181139112 2.9840749204158783
leaf_count=27 16 9 4
internal_value=0 0.0004829 -0.000136029
internal_weight=0 7.32345 6.34054
internal_count=56 29 13
is_linear=0
shrinkage=0.1


Tree=84
num_leaves=4
num_cat=0
split_feature=97 31 35
split_gain=0.00143702 0.00175449 0.000194839
threshold=-1.0000000180025095e-35 54.10141754150002 260.05354595200009
decision_type=2 2 2
left_child=-1 -2 -3
right_child=1 2 -4
leaf_value=-0.0036343516031611916 0.0044091407181603252 -0.00065475894818439349 0.00045584002789865919
leaf_weight=0.96166111459024239 0.98260714556090523 3.3564164361450821 2.9840501844882965
leaf_count=27 16 9 4
internal_value=0 0.000477267 -0.000132071
internal_weight=0 7.32307 6.34047
internal_count=56 29 13
is_linear=0
shrinkage=0.1


Tree=85
num_leaves=4
num_cat=0
split_feature=97 31 35
split_gain=0.00140432 0.00170122 0.000192913
threshold=-1.0000000180025095e-35 54.10141754150002 260.05354595200009
decision_type=2 2 2
left_child=-1 -2 -3
right_child=1 2 -4
leaf_value=-0.003593411153690663 0.0043441343995585914 -0.00064829547812452111 0.00045680856492239538
leaf_weight=0.96135053085163225 0.98231147089973081 3.3563695636112243 2.9840255379676819
leaf_count=27 16 9 4
internal_value=0 0.000471752 -0.000128192
internal_weight=0 7.32271 6.3404
internal_count=56 29 13
is_linear=0
shrinkage=0.1


Tree=86
num_leaves=4
num_cat=0
split_feature=97 31 35
split_gain=0.00137272 0.00164983 0.000191025
threshold=-1.0000000180025095e-35 54.10141754150002 260.05354595200009
decision_type=2 2 2
left_child=-1 -2 -3
right_child=1 2 -4
leaf_value=-0.0035533657375889458 0.0042804438781856675 -0.0006419258044850387 0.00045776309448019643
leaf_weight=0.96104712563101191 0.9820246691815554 3.3563235686160624 2.9840011596679688
leaf_count=27 16 9 4
internal_value=0 0.000466374 -0.00012437
internal_weight=0 7.32235 6.34032
internal_count=56 29 13
is_linear=0
shrinkage=0.1


Tree=87
num_leaves=4
num_cat=0
split_feature=97 31 35
split_gain=0.00134213 0.0016001 0.000189174
threshold=-1.0000000180025095e-35 54.10141754150002 260.05354595200009
decision_type=2 2 2
left_child=-1 -2 -3
right_child=1 2 -4
leaf_value=-0.0035141477389594548 0.0042178486392385672 -0.00063565751540779758 0.00045869567640433842
leaf_weight=0.96075051533989597 0.9817450614646076 3.3562780276406556 2.9839767217636108
leaf_count=27 16 9 4
internal_value=0 0.000461096 -0.000120611
internal_weight=0 7.322 6.34025
internal_count=56 29 13
is_linear=0
shrinkage=0.1


Tree=88
num_leaves=4
num_cat=0
split_feature=97 31 35
split_gain=0.00131251 0.00155211 0.00018736
threshold=-1.0000000180025095e-35 54.10141754150002 260.05354595200009
decision_type=2 2 2
left_child=-1 -2 -3
right_child=1 2 -4
leaf_value=-0.0034757253114006135 0.0041565123539372834 -0.00062947764442965648 0.00045962224895041261
leaf_weight=0.96046042907983054 0.98147376300767053 3.3562339972704649 2.9839524924755096
leaf_count=27 16 9 4
internal_value=0 0.000455952 -0.000116902
internal_weight=0 7.32166 6.34019
internal_count=56 29 13
is_linear=0
shrinkage=0.1


Tree=89
num_leaves=5
num_cat=0
split_feature=31 1 60 48
split_gain=0.0013237 0.00188973 0.000432842 0.000360586
threshold=-1.0000000180025095e-35 23.999420166499991 1034.5730190275003 928.72173881550009
decision_type=2 2 2 2
left_child=-1 -2 3 -3
right_child=1 2 -4 -5
leaf_value=-0.0034177199511384706 0.0047033869598008989 -0.0025277076629096318 0.00041156651031238364 0.00019376132197161005
leaf_weight=0.99682149256113906 0.92022967454977322 1.1417372963624073 4.3739118576049805 0.84880369901657093
leaf_count=27 10 12 4 3
internal_value=0 0.000467672 -0.000144766 -0.00136722
internal_weight=0 7.28468 6.36445 1.99054
internal_count=56 29 19 15
is_linear=0
shrinkage=0.1


Tree=90
num_leaves=7
num_cat=0
split_feature=64 3 75 90 16 0
split_gain=0.00132002 0.028742 0.0111808 0.00160585 0.000476032 0.000110533
threshold=-296.71395874049995 -49.477024078499994 785.42124080650012 -81.405303954999994 -129.42318153399998 813.42613983150011
decision_type=2 2 2 2 2 2
left_child=4 2 3 -2 -1 -6
right_child=1 -3 -4 -5 5 -7
leaf_value=0.0016862421640738085 -0.066610497248211192 0.0021306000731897644 -0.023413444759212636 -0.10410349735379332 -0.00047612608642032863 0.00047876557363797179
leaf_weight=2.2681552227586508 0.019212733954191208 0.96679105539806187 0.057942085433751345 0.028177992906421201 2.8066610973328352 2.1338702440261841
leaf_count=4 4 24 6 7 9 2
internal_value=0 -0.00327385 -0.0528783 -0.0889034 0.000486907 -6.36978e-05
internal_weight=0 1.07212 0.105333 0.0473907 7.20869 4.94053
internal_count=56 41 17 11 15 11
is_linear=0
shrinkage=0.1


Tree=91
num_leaves=4
num_cat=0
split_feature=97 31 35
split_gain=0.00127805 0.00154953 0.000167111
threshold=-1.0000000180025095e-35 54.10141754150002 260.05354595200009
decision_type=2 2 2
left_child=-1 -2 -3
right_child=1 2 -4
leaf_value=-0.0034327849390783311 0.0041572475491270999 -0.00060558727869804597 0.0004230852869167837
leaf_weight=0.95887828699778754 0.97687167534604658 3.355088148266077 2.9836606681346893
leaf_count=27 16 9 4
internal_value=0 0.000449947 -0.000121389
internal_weight=0 7.31562 6.33875
internal_count=56 29 13
is_linear=0
shrinkage=0.1


Tree=92
num_leaves=4
num_cat=0
split_feature=97 31 35
split_gain=0.00124996 0.00150455 0.000165644
threshold=-1.0000000180025095e-35 54.10141754150002 260.05354595200009
decision_type=2 2 2
left_child=-1 -2 -3
right_child=1 2 -4
leaf_value=-0.003395402491780144 0.0040985754690472994 -0.00060006287336581907 0.00042409192451368298
leaf_weight=0.95859866274986405 0.97661124332807947 3.355050316080451 2.9836339950561523
leaf_count=27 16 9 4
internal_value=0 0.000444932 -0.000117991
internal_weight=0 7.3153 6.33868
internal_count=56 29 13
is_linear=0
shrinkage=0.1


Tree=93
num_leaves=4
num_cat=0
split_feature=97 31 35
split_gain=0.00122278 0.00146105 0.000164212
threshold=-1.0000000180025095e-35 54.10141754150002 260.05354595200009
decision_type=2 2 2
left_child=-1 -2 -3
right_child=1 2 -4
leaf_value=-0.0033588149478332636 0.0040409944869837372 -0.00059463061067237201 0.00042509052122113877
leaf_weight=0.95832534634973843 0.97635753755457688 3.3550128401257098 2.9836077988147736
leaf_count=27 16 9 4
internal_value=0 0.000440024 -0.000114645
internal_weight=0 7.31498 6.33862
internal_count=56 29 13
is_linear=0
shrinkage=0.1


Tree=94
num_leaves=4
num_cat=0
split_feature=97 31 35
split_gain=0.00119645 0.00141896 0.000162789
threshold=-1.0000000180025095e-35 54.10141754150002 260.05354595200009
decision_type=2 2 2
left_child=-1 -2 -3
right_child=1 2 -4
leaf_value=-0.0033229492320680683 0.0039844523184927013 -0.00058923525730957959 0.00042606519645352938
leaf_weight=0.95805786922574032 0.97611104464158405 3.3549759888555855 2.9835813641548157
leaf_count=27 16 9 4
internal_value=0 0.000435235 -0.00011133
internal_weight=0 7.31467 6.33856
internal_count=56 29 13
is_linear=0
shrinkage=0.1


Tree=95
num_leaves=4
num_cat=0
split_feature=97 31 35
split_gain=0.00117092 0.00137819 0.000161394
threshold=-1.0000000180025095e-35 54.10141754150002 260.05354595200009
decision_type=2 2 2
left_child=-1 -2 -3
right_child=1 2 -4
leaf_value=-0.0032878093893799819 0.0039288723127229256 -0.00058393315430582107 0.00042700989251004905
leaf_weight=0.95779618644155551 0.9758710681926458 3.3549399508628994 2.9835551381111145
leaf_count=27 16 9 4
internal_value=0 0.000430525 -0.000108078
internal_weight=0 7.31437 6.3385
internal_count=56 29 13
is_linear=0
shrinkage=0.1


Tree=96
num_leaves=4
num_cat=0
split_feature=97 31 35
split_gain=0.00114616 0.00133877 0.000160016
threshold=-1.0000000180025095e-35 54.10141754150002 260.05354595200009
decision_type=2 2 2
left_child=-1 -2 -3
right_child=1 2 -4
leaf_value=-0.00325333417497067 0.003874338225462591 -0.00057870068068723273 0.0004279225379455662
leaf_weight=0.95753993466496456 0.97563786525279272 3.354904105886817 2.9835296273231506
leaf_count=27 16 9 4
internal_value=0 0.000425917 -0.000104879
internal_weight=0 7.31407 6.33843
internal_count=56 29 13
is_linear=0
shrinkage=0.1


Tree=97
num_leaves=5
num_cat=0
split_feature=31 69 60 34
split_gain=0.00113272 0.00103865 0.000381423 0.000503923
threshold=-1.0000000180025095e-35 99.690551758000012 1034.5730190275003 124.83524799400003
decision_type=2 2 2 2
left_child=-1 -2 3 -3
right_child=1 2 -4 -5
leaf_value=-0.0031706928426415769 0.003158774128815408 -0.0030527879783097357 0.00040621377337790371 0.00035699852788859229
leaf_weight=0.99163363524712611 1.1719606330152599 0.86615193833131321 4.3737937211990356 0.86753202299587429
leaf_count=27 11 9 4 5
internal_value=0 0.000431927 -9.13266e-05 -0.00134654
internal_weight=0 7.27944 6.10748 1.73368
internal_count=56 29 18 14
is_linear=0
shrinkage=0.1


Tree=98
num_leaves=4
num_cat=0
split_feature=97 31 35
split_gain=0.00112465 0.00131965 0.000158519
threshold=-1.0000000180025095e-35 54.10141754150002 260.05354595200009
decision_type=2 2 2
left_child=-1 -2 -3
right_child=1 2 -4
leaf_value=-0.003223424973548176 0.0038465626380972521 -0.00057663251736507482 0.00042527870681965556
leaf_weight=0.95713256997987617 0.9751267812680452 3.35485306289047 2.9834928810596466
leaf_count=27 16 9 4
internal_value=0 0.00042185 -0.000105028
internal_weight=0 7.31347 6.33835
internal_count=56 29 13
is_linear=0
shrinkage=0.1


Tree=99
num_leaves=4
num_cat=0
split_feature=97 31 35
split_gain=0.00110121 0.00128217 0.000157187
threshold=-1.0000000180025095e-35 54.10141754150002 260.05354595200009
decision_type=2 2 2
left_child=-1 -2 -3
right_child=1 2 -4
leaf_value=-0.0031900897678919316 0.0037935750094493211 -0.00057151367868460022 0.00042618535023120291
leaf_weight=0.95688563561998297 0.97490323707461346 3.3548183797392994 2.9834674596786499
leaf_count=27 16 9 4
internal_value=0 0.000417404 -0.000101891
internal_weight=0 7.31319 6.33829
internal_count=56 29 13
is_linear=0
shrinkage=0.1


end of trees

feature_importances:
colex97=65
colex31=51
colex35=44
colex29=24
colex53=20
colex1=13
colex5=12
colex91=12
colex3=10
colex33=10
colex60=10
colex76=10
colex2=9
colex54=9
colex55=9
colex84=9
colex0=8
colex8=7
colex50=7
colex61=7
colex86=7
colex7=6
colex15=6
colex67=6
colex23=5
colex34=5
colex47=5
colex17=4
colex19=4
colex25=4
colex42=4
colex48=4
colex49=4
colex57=4
colex80=4
colex98=4
colex12=3
colex13=3
colex21=3
colex38=3
colex68=3
colex81=3
colex89=3
colex90=3
colex93=3
colex95=3
colex4=2
colex6=2
colex9=2
colex16=2
colex20=2
colex30=2
colex36=2
colex41=2
colex46=2
colex51=2
colex56=2
colex64=2
colex69=2
colex73=2
colex75=2
colex82=2
colex87=2
colex94=2
colex18=1
colex22=1
colex24=1
colex26=1
colex27=1
colex28=1
colex32=1
colex39=1
colex40=1
colex43=1
colex44=1
colex45=1
colex58=1
colex65=1
colex74=1
colex79=1
colex83=1
colex88=1

parameters:
[boosting: gbdt]
[objective: lambdarank]
[metric: ndcg]
[tree_learner: serial]
[device_type: cpu]
[data: ]
[valid: ]
[num_iterations: 100]
[learning_rate: 0.1]
[num_leaves: 16]
[num_threads: 6]
[deterministic: 0]
[force_col_wise: 0]
[force_row_wise: 0]
[histogram_pool_size: -1]
[max_depth: -1]
[min_data_in_leaf: 5]
[min_sum_hessian_in_leaf: 0.001]
[bagging_fraction: 1]
[pos_bagging_fraction: 1]
[neg_bagging_fraction: 1]
[bagging_freq: 0]
[bagging_seed: 3]
[feature_fraction: 1]
[feature_fraction_bynode: 1]
[feature_fraction_seed: 2]
[extra_trees: 0]
[extra_seed: 6]
[early_stopping_round: 0]
[first_metric_only: 0]
[max_delta_step: 0]
[lambda_l1: 0]
[lambda_l2: 0]
[linear_lambda: 0]
[min_gain_to_split: 0]
[drop_rate: 0.1]
[max_drop: 50]
[skip_drop: 0.5]
[xgboost_dart_mode: 0]
[uniform_drop: 0]
[drop_seed: 4]
[top_rate: 0.2]
[other_rate: 0.1]
[min_data_per_group: 100]
[max_cat_threshold: 32]
[cat_l2: 10]
[cat_smooth: 10]
[max_cat_to_onehot: 4]
[top_k: 20]
[monotone_constraints: ]
[monotone_constraints_method: basic]
[monotone_penalty: 0]
[feature_contri: ]
[forcedsplits_filename: ]
[refit_decay_rate: 0.9]
[cegb_tradeoff: 1]
[cegb_penalty_split: 0]
[cegb_penalty_feature_lazy: ]
[cegb_penalty_feature_coupled: ]
[path_smooth: 0]
[interaction_constraints: ]
[verbosity: 1]
[saved_feature_importance_type: 0]
[linear_tree: 0]
[max_bin: 255]
[max_bin_by_feature: ]
[min_data_in_bin: 3]
[bin_construct_sample_cnt: 200000]
[data_random_seed: 1]
[is_enable_sparse: 1]
[enable_bundle: 1]
[use_missing: 1]
[zero_as_missing: 0]
[feature_pre_filter: 1]
[pre_partition: 0]
[two_round: 0]
[header: 0]
[label_column: ]
[weight_column: ]
[group_column: ]
[ignore_column: ]
[categorical_feature: ]
[forcedbins_filename: ]
[precise_float_parser: 0]
[parser_config_file: ]
[objective_seed: 5]
[num_class: 1]
[is_unbalance: 0]
[scale_pos_weight: 1]
[sigmoid: 1]
[boost_from_average: 1]
[reg_sqrt: 0]
[alpha: 0.9]
[fair_c: 1]
[poisson_max_delta_step: 0.7]
[tweedie_variance_power: 1.5]
[lambdarank_truncation_level: 30]
[lambdarank_norm: 1]
[label_gain: ]
[eval_at: 1,2,3,4,5]
[multi_error_top_k: 1]
[auc_mu_weights: ]
[num_machines: 1]
[local_listen_port: 12400]
[time_out: 120]
[machine_list_filename: ]
[machines: ]
[gpu_platform_id: -1]
[gpu_device_id: -1]
[gpu_use_dp: 0]
[num_gpu: 1]

end of parameters

pandas_categorical:null
