tree
version=v4
num_class=1
num_tree_per_iteration=1
label_index=0
max_feature_idx=4
objective=lambdarank
feature_names=genetic syntactic featural phonological inventory
feature_infos=[0:1] [0:0.68000000000000005] [0:0.59999999999999998] [0.00020000000000000001:0.53190000000000004] [0:0.63929999999999998]
tree_sizes=1172 1147 1151 1154 1258 1066 1062 949 1066 961 950 961 960 965 957 1065 862 1073 864 756 968 862 969 868 974 863 762 866 970 973 869 973 973 762 760 763 974 763 768 763 757 1180 977 762 869 869 874 760 766 769 760 763 764 766 766 976 765 768 657 975 873 973 763 766 766 768 766 763 766 768 772 872 772 770 770 768 770 771 766 767 771 982 767 770 771 768 870 668 769 772 770 876 770 772 877 771 770 771 773 769

Tree=0
num_leaves=10
num_cat=0
split_feature=1 4 1 3 1 3 0 1 1
split_gain=0.848129 1.04603 1.06189 0.24918 0.208339 0.164457 0.115438 0.00705886 0.000594655
threshold=0.53500000000000014 0.59120000000000006 0.56500000000000006 0.45575000000000004 0.56500000000000006 0.33050000000000007 0.64285000000000003 0.63500000000000012 0.55500000000000016
decision_type=2 2 2 2 2 2 2 2 2
left_child=3 2 8 6 -3 -4 -1 -7 -2
right_child=1 4 5 -5 -6 7 -8 -9 -10
leaf_value=0.056175418259511861 -0.17809072852189345 0.081928140743308023 -0.072883230603903046 0.10286360472489753 -0.0012741106802269773 -0.0038679422853434044 -0.015225281726390059 0.015224886355316139 -0.18417061810415314
leaf_weight=0.50143894553184487 0.35714795812964473 0.62564782612025716 0.4275075066834686 0.71098464727401733 0.57990480214357376 0.47527848184108734 0.41287708654999733 0.32677511684596539 0.29271779581904411
leaf_count=6 6 6 6 6 4 8 6 4 4
internal_value=0 -0.0307998 -0.0774364 0.0584611 0.0419055 -0.0227897 0.0239331 0.00391092 -0.180829
internal_weight=0 3.08498 1.87943 1.6253 1.20555 1.22956 0.914316 0.802054 0.649866
internal_count=56 38 28 18 10 18 12 12 10
is_linear=0
shrinkage=0.1


Tree=1
num_leaves=10
num_cat=0
split_feature=1 3 4 3 4 3 1 1 0
split_gain=6.3552 5.75379 1.97492 2.62494 2.72727 1.12815 0.738689 1.18519 0.0738983
threshold=1.0000000180025095e-35 0.33050000000000007 0.54765000000000008 0.49670000000000009 0.59255000000000013 0.39770000000000005 0.6100000000000001 0.56500000000000006 0.8660500000000001
decision_type=2 2 2 2 2 2 2 2 2
left_child=-1 8 6 4 5 -4 7 -3 -2
right_child=1 2 3 -5 -6 -7 -8 -9 -10
leaf_value=0.19921149788323955 -0.14446196958346871 -0.18868242883613037 0.034185127959967858 -0.066737907832600252 -0.005045719597044503 0.14350813828007966 0.0078686301626551946 -0.023143423253226221 -0.11533191715216146
leaf_weight=1.470405220985415 1.922081023454669 0.82948094047605925 1.3481132015585879 2.1084672510623923 3.7159967869520187 3.1484499648213387 0.93621830642223347 0.90370677411556244 1.5923298075795171
leaf_count=2 4 6 6 6 8 8 4 4 8
internal_value=0 -0.0177476 0.0129628 0.0327922 0.0583452 0.110732 -0.0637058 -0.102368 -0.131264
internal_weight=0 16.5048 12.9904 10.321 8.21256 4.49656 2.66941 1.73319 3.51441
internal_count=56 54 42 28 22 14 14 10 12
is_linear=0
shrinkage=0.1


Tree=2
num_leaves=10
num_cat=0
split_feature=1 3 2 4 3 3 0 4 1
split_gain=3.97467 3.25489 1.66402 1.17138 1.81885 2.26971 1.07918 0.78313 0.0434124
threshold=1.0000000180025095e-35 0.33050000000000007 0.55000000000000016 0.59120000000000006 0.45575000000000004 0.35230000000000006 0.91155000000000019 0.54930000000000012 0.53500000000000014
decision_type=2 2 2 2 2 2 2 2 2
left_child=-1 2 -2 4 5 8 -5 -6 -3
right_child=1 3 -4 6 7 -7 -8 -9 -10
leaf_value=0.17497653093837773 -0.040670625314319135 0.0054568506105573582 -0.19190661365529391 0.11091749043270574 -0.020290066060533539 -0.16880963924811745 -0.00059461079098445738 0.067546752247398145 -0.020202747805446303
leaf_weight=1.1998866796493537 1.6256559863686553 1.3402439057826983 1.3168470039963722 1.8265860080718985 1.6494150683283804 1.2951443959027527 1.65346759557724 2.6391301453113556 1.2978287525475025
leaf_count=2 8 4 4 4 6 8 6 8 6
internal_value=0 -0.0143368 -0.108353 0.0093042 -0.01128 -0.0603931 0.0579351 0.0337639 -0.00716667
internal_weight=0 14.6443 2.9425 11.7018 8.22176 3.93322 3.48005 4.28855 2.63807
internal_count=56 54 12 42 32 18 10 14 10
is_linear=0
shrinkage=0.1


Tree=3
num_leaves=10
num_cat=0
split_feature=1 3 0 4 1 4 4 3 3
split_gain=1.74485 1.50568 1.71864 1.71701 1.25388 0.451958 1.52873 0.261328 0.105514
threshold=0.41000000000000009 0.38810000000000006 0.91155000000000019 0.57955000000000012 0.55500000000000016 0.5606500000000002 0.54930000000000012 0.33050000000000007 0.42870000000000003
decision_type=2 2 2 2 2 2 2 2 2
left_child=-1 3 -3 7 8 6 -6 -2 -4
right_child=1 2 4 -5 5 -7 -8 -9 -10
leaf_value=0.080264718114751721 -0.0049333379487260954 0.10962156465602001 0.058950574770712409 -0.17382468453976935 -0.0089227478471471042 7.4769574018072178e-06 -0.17660872981476083 -0.064832622363611841 0.019006366903270289
leaf_weight=2.2663008272647867 2.0236734598875032 1.4385581761598585 1.3373332917690279 1.0549285560846327 1.3055936656892306 1.0805745124816892 0.93161237239837635 1.1379050221294162 1.308202341198921
leaf_count=6 8 4 4 6 6 4 4 8 6
internal_value=0 -0.0156566 0.011514 -0.0633533 -0.0121529 -0.0530994 -0.0787502 -0.0264921 0.0391984
internal_weight=0 11.6184 7.40187 4.21651 5.96332 3.31778 2.23721 3.16158 2.64554
internal_count=56 50 28 22 24 14 10 16 10
is_linear=0
shrinkage=0.1


Tree=4
num_leaves=11
num_cat=0
split_feature=3 3 0 1 3 1 1 4 1 3
split_gain=0.924496 1.21761 0.649736 0.449257 0.612383 0.475877 1.3559 0.170133 0.17652 0.575387
threshold=0.24260000000000001 0.38810000000000006 0.91155000000000019 0.53500000000000014 0.39770000000000005 0.63500000000000012 0.6100000000000001 0.47425000000000006 0.48500000000000004 0.30405000000000004
decision_type=2 2 2 2 2 2 2 2 2 2
left_child=-1 7 -3 -4 -5 6 -6 -2 -9 -10
right_child=1 2 3 4 5 -7 -8 8 9 -11
leaf_value=0.089383740216986834 -0.021520542717415395 0.08110085109379063 0.063903363156155121 0.044582334773687171 -0.16031324262669674 0.027073281458363015 0.007144884315054236 -0.031849112481268121 -0.035613675185645892 -0.15191490255477488
leaf_weight=1.0599461123347289 1.8904818072915057 1.3837013542652128 1.0049770623445509 1.3534723818302152 0.8391132950782777 0.81233086436986912 1.1409881860017776 1.3289901465177538 1.1177822202444074 0.68675087392330159
leaf_count=4 8 4 4 4 8 4 4 4 4 8
internal_value=0 -0.00819667 0.0202623 0.00391896 -0.0106214 -0.0373783 -0.0638193 -0.0452124 -0.0595059 -0.0798744
internal_weight=0 11.5586 6.53458 5.15088 4.1459 2.79243 1.9801 5.02401 3.13352 1.80453
internal_count=56 52 28 24 20 16 12 24 16 12
is_linear=0
shrinkage=0.1


Tree=5
num_leaves=9
num_cat=0
split_feature=1 3 0 0 1 4 3 3
split_gain=2.00079 0.93108 0.542497 0.410283 0.334482 0.190514 0.0380006 0.0266027
threshold=1.0000000180025095e-35 0.38810000000000006 0.91155000000000019 0.88750000000000007 0.53500000000000014 0.5606500000000002 0.42870000000000003 0.33050000000000007
decision_type=2 2 2 2 2 2 2 2
left_child=-1 3 -3 -2 -4 -6 -7 -5
right_child=1 2 4 7 5 6 -8 -9
leaf_value=0.15216783401214742 -0.082258411188488367 0.074307110182720404 0.054863109840323047 -0.033502936234908513 -0.039845090594593707 0.017416802443913828 -0.0097086575694293239 -0.015079170135889899
leaf_weight=0.80456072092056352 1.726650632917879 1.2511137723922727 0.89460446685552586 1.2711383849382403 1.5598053075373175 1.2449712753295901 0.88259080797433842 2.0439680404961109
leaf_count=2 10 4 4 6 10 4 6 10
internal_value=0 -0.0112579 0.0159455 -0.0427311 9.78752e-06 -0.0132984 0.00616417 -0.0221435
internal_weight=0 10.8748 5.83309 5.04176 4.58197 3.68737 2.12756 3.31511
internal_count=56 54 28 26 24 20 10 16
is_linear=0
shrinkage=0.1


Tree=6
num_leaves=9
num_cat=0
split_feature=1 3 3 1 3 0 1 3
split_gain=1.49433 0.701932 0.584353 0.407662 0.30516 0.204742 0.181369 0.0359456
threshold=1.0000000180025095e-35 0.38810000000000006 0.47130000000000005 0.59500000000000008 0.39770000000000005 0.88750000000000007 0.55500000000000016 0.33050000000000007
decision_type=2 2 2 2 2 2 2 2
left_child=-1 5 3 4 -3 -2 -4 -7
right_child=1 2 6 -5 -6 7 -8 -9
leaf_value=0.14350630778815573 -0.066792462701897357 0.018776190494391123 -0.07494597100652016 -0.012484962574935308 0.085796206051008156 -0.036083131823258785 -0.0053122191110627779 -0.014481253827251237
leaf_weight=0.68074938654899675 1.5833890922367553 1.2124780267477038 0.71100382506847359 1.2515799105167387 1.5452303439378736 1.2633263655006888 0.78925568237900734 1.9738417100161312
leaf_count=2 10 4 4 6 8 6 6 10
internal_value=0 -0.009457 0.0149259 0.0348478 0.0563296 -0.0373249 -0.0383131 -0.0229115
internal_weight=0 10.3301 5.50955 4.00929 2.75771 4.82056 1.50026 3.23717
internal_count=56 54 28 18 12 26 10 16
is_linear=0
shrinkage=0.1


Tree=7
num_leaves=8
num_cat=0
split_feature=1 1 4 4 4 1 2
split_gain=0.41268 0.466651 1.87229 0.353267 0.190087 0.0815684 0.00173375
threshold=0.48500000000000004 0.56500000000000006 0.59255000000000013 0.5606500000000002 0.53495000000000015 0.41000000000000009 0.55000000000000016
decision_type=2 2 2 2 2 2 2
left_child=5 2 6 4 -3 -1 -2
right_child=1 3 -4 -5 -6 -7 -8
leaf_value=0.042635414705989701 -0.14631283661852015 0.0085497563964378586 0.023810921981029479 0.051453063177714191 -0.041335935172181426 0.012231906503469971 -0.15472949138211589
leaf_weight=1.812404088675976 0.68630388192832492 1.8607675284147265 1.50746763497591 1.2190061993896959 1.2957215160131452 1.7197043597698209 0.38039194047451019
leaf_count=6 10 8 6 8 6 8 4
internal_value=0 -0.0141457 -0.0479296 0.00572983 -0.011928 0.0278326 -0.149314
internal_weight=0 6.94966 2.57416 4.3755 3.15649 3.53211 1.0667
internal_count=56 42 20 22 14 14 14
is_linear=0
shrinkage=0.1


Tree=8
num_leaves=9
num_cat=0
split_feature=4 3 3 1 0 3 1 3
split_gain=1.1082 0.372029 0.202061 0.251071 0.151799 0.111031 0.0988275 0.0288136
threshold=1.0000000180025095e-35 0.38810000000000006 0.47130000000000005 0.59500000000000008 0.88750000000000007 0.39770000000000005 0.63500000000000012 0.33050000000000007
decision_type=2 2 2 2 2 2 2 2
left_child=-1 4 3 5 -2 -3 -4 -6
right_child=1 2 6 -5 7 -7 -8 -9
leaf_value=0.13610413885673397 -0.055406693485106476 0.021156350730409862 -0.050764790576733942 -0.013337891463068383 -0.028119577741918745 0.064597160980973678 0.0071036943148606313 -0.0090269961535132219
leaf_weight=0.56473359465599138 1.4065117910504321 1.1888391077518465 0.63858852908015229 1.2137442566454413 1.2738690972328188 1.1648738048970697 0.54868577048182487 2.0828550774604082
leaf_count=2 10 4 6 6 6 8 4 10
internal_value=0 -0.00807553 0.0117126 0.0236051 -0.0278283 0.0426556 -0.0240215 -0.0162726
internal_weight=0 9.51797 4.75473 3.56746 4.76324 2.35371 1.18727 3.35672
internal_count=56 54 28 18 26 12 10 16
is_linear=0
shrinkage=0.1


Tree=9
num_leaves=8
num_cat=0
split_feature=1 4 1 3 3 1 3
split_gain=0.322828 0.284209 1.02827 0.0705689 0.0598564 0.0499598 0.000471355
threshold=0.48500000000000004 0.59120000000000006 0.56500000000000006 0.33050000000000007 0.39770000000000005 0.41000000000000009 0.39770000000000005
decision_type=2 2 2 2 2 2 2
left_child=5 2 6 -4 -3 -1 -2
right_child=1 4 3 -5 -6 -7 -8
leaf_value=0.036808454760615339 -0.13638701806296247 0.0037803471457072135 -0.025598492184900942 0.0037384904116991714 0.038602091755439799 0.012566456235065707 -0.14160598059299803
leaf_weight=1.7304631248116495 0.32175185903906811 1.3035485818982127 1.2576303891837599 2.3559662699699402 0.79451139271259297 1.6710787862539289 0.37445047870278358
leaf_count=6 6 6 6 12 6 8 6
internal_value=0 -0.0132174 -0.0279115 -0.00647158 0.0169669 0.0248991 -0.139194
internal_weight=0 6.40786 4.3098 3.6136 2.09806 3.40154 0.696202
internal_count=56 42 30 18 12 14 12
is_linear=0
shrinkage=0.1


Tree=10
num_leaves=8
num_cat=0
split_feature=1 3 3 4 1 4 3
split_gain=0.229207 0.348728 0.180906 0.538778 0.197033 0.1505 0.0654825
threshold=0.41000000000000009 0.38810000000000006 0.47130000000000005 0.5606500000000002 0.59500000000000008 0.47425000000000006 0.39770000000000005
decision_type=2 2 2 2 2 2 2
left_child=-1 5 4 -4 6 -2 -3
right_child=1 2 3 -5 -6 -7 -8
leaf_value=0.032997596324831166 -0.010947741218084776 0.024659867278653935 -0.10840048767944616 0.033510553102276831 -0.010148698027645359 -0.053091838662396654 0.05950965561800467
leaf_weight=1.7260095924139021 1.7443829625844958 1.1815405189991 0.44915434904396512 0.66161651164293289 1.1833633035421374 1.6477738060057161 0.99171471223235119
leaf_count=6 8 4 6 4 6 14 8
internal_value=0 -0.0072465 0.0111086 -0.023873 0.0226846 -0.0314197 0.0405628
internal_weight=0 7.85955 4.46739 1.11077 3.35662 3.39216 2.17326
internal_count=56 50 28 10 18 22 12
is_linear=0
shrinkage=0.1


Tree=11
num_leaves=8
num_cat=0
split_feature=1 3 3 1 1 3 1
split_gain=0.181359 0.239576 0.201414 0.139968 0.118376 0.0287863 0.0162748
threshold=0.41000000000000009 0.38810000000000006 0.47130000000000005 0.56500000000000006 0.59500000000000008 0.39770000000000005 0.63500000000000012
decision_type=2 2 2 2 2 2 2
left_child=-1 3 4 -2 5 -3 -4
right_child=1 2 6 -5 -6 -7 -8
leaf_value=0.029321892275857117 -0.051150550011640816 0.02488478614767145 -0.042429108430697415 -0.0096175384228040298 -0.0042757419037937816 0.04845838848342416 -0.016894721886498945
leaf_weight=1.7215189486742017 1.3734072335064413 1.1753850132226946 0.52202318981289841 1.9829544685781 1.1826975494623186 0.92618456110358227 0.47833124548196793
leaf_count=6 12 4 6 10 6 8 4
internal_value=0 -0.00660625 0.00906578 -0.0266126 0.0210317 0.0352739 -0.0302195
internal_weight=0 7.64098 4.28462 3.35636 3.28427 2.10157 1.00035
internal_count=56 50 28 22 18 12 10
is_linear=0
shrinkage=0.1


Tree=12
num_leaves=8
num_cat=0
split_feature=1 3 3 4 3 3 1
split_gain=0.173389 0.168232 0.20504 0.134125 0.11262 0.159432 0.0342355
threshold=0.41000000000000009 0.38810000000000006 0.47130000000000005 0.47425000000000006 0.45575000000000004 0.39770000000000005 0.63500000000000012
decision_type=2 2 2 2 2 2 2
left_child=-1 3 4 -2 5 -3 -4
right_child=1 2 6 -5 -6 -7 -8
leaf_value=0.028624622835531067 -0.0041443896207551054 0.024509725045132897 -0.049674911447196088 -0.044425521089466506 0.039959715301572968 -0.037247673528061929 -0.012815878189362218
leaf_weight=1.7236547842621801 1.7276081070303919 1.1683268249034879 0.54477069713175275 1.5850062938407061 1.424333818256855 0.65091566368937503 0.46888415515422821
leaf_count=6 8 4 6 14 6 8 4
internal_value=0 -0.00651783 0.0066324 -0.0234179 0.0189008 0.00241324 -0.0326251
internal_weight=0 7.56985 4.25723 3.31261 3.24358 1.81924 1.01365
internal_count=56 50 28 22 18 12 10
is_linear=0
shrinkage=0.1


Tree=13
num_leaves=8
num_cat=0
split_feature=3 3 1 4 1 0 1
split_gain=0.428803 0.336294 0.236259 0.189423 0.201137 0.401439 0.131336
threshold=0.47130000000000005 0.45575000000000004 0.41000000000000009 0.59120000000000006 0.56500000000000006 0.64285000000000003 0.55500000000000016
decision_type=2 2 2 2 2 2 2
left_child=1 2 -1 4 5 -4 -2
right_child=6 -3 3 -5 -6 -7 -8
leaf_value=0.030055725919502063 -0.08502548769852887 0.048714096775098872 -0.018137677622971363 0.014740760897735614 -0.0054786310437169332 -0.13088598952051453 -0.016890901443502231
leaf_weight=1.7268950864672641 0.68372192233800955 1.6262591034173963 0.97459216415882133 1.6780269294977186 1.9627296663820741 0.46716173272579908 0.48260085843503475
leaf_count=6 4 6 4 10 10 10 6
internal_value=0 0.00785776 -0.00189978 -0.0127574 -0.0263108 -0.0546707 -0.0568328
internal_weight=0 8.43566 6.80941 5.08251 3.40448 1.44175 1.16632
internal_count=56 46 40 34 24 14 10
is_linear=0
shrinkage=0.1


Tree=14
num_leaves=8
num_cat=0
split_feature=3 1 3 3 4 4 0
split_gain=0.807313 0.293854 0.297964 0.0637511 0.134552 0.598503 0.0111224
threshold=0.47130000000000005 0.41000000000000009 0.33050000000000007 0.45575000000000004 0.59120000000000006 0.47425000000000006 0.88750000000000007
decision_type=2 2 2 2 2 2 2
left_child=1 -1 6 4 5 -4 -3
right_child=-2 2 3 -5 -6 -7 -8
leaf_value=0.047475986085408983 -0.073915230695814862 -0.034592247892211957 0.032690985046080374 0.033039479195707412 0.027342392394345633 -0.12027783887602855 -0.020711879739785083
leaf_weight=1.7719655930995921 1.2813691385090358 1.0970095023512842 0.77305445820093177 1.6000808253884313 1.521862883120775 0.38224865775555372 1.2185336500406263
leaf_count=6 10 6 4 6 8 10 6
internal_value=0 0.0113228 0.00160583 0.0172478 0.00780947 -0.017921 -0.0272878
internal_weight=0 8.36476 6.59279 4.27725 2.67717 1.1553 2.31554
internal_count=56 46 40 28 22 14 12
is_linear=0
shrinkage=0.1


Tree=15
num_leaves=9
num_cat=0
split_feature=3 3 4 4 1 3 1 3
split_gain=0.474199 0.196694 0.189861 0.1625 0.130405 0.354068 0.0138404 0.000230418
threshold=0.47130000000000005 0.45575000000000004 0.47425000000000006 0.59120000000000006 0.48500000000000004 0.30405000000000004 0.63500000000000012 0.39770000000000005
decision_type=2 2 2 2 2 2 2 2
left_child=1 2 -1 4 -4 -6 -2 -7
right_child=6 -3 3 -5 5 7 -8 -9
leaf_value=0.02330561616180514 -0.070748731689555186 0.035916747740239056 -0.004863080873165903 0.014645008809603602 -0.015239453623878966 -0.12298054269044101 -0.048884516577571972 -0.11828182122864546
leaf_weight=2.3640382587909681 0.60284906718880005 1.9369285143911836 1.6948230862617495 1.6221874319016931 1.1275394745171068 0.26715613901615132 0.55704404041171074 0.17127499356865883
leaf_count=10 6 6 4 10 4 8 4 4
internal_value=0 0.0076091 4.32516e-05 -0.011219 -0.0240858 -0.0448902 -0.0602483 -0.121145
internal_weight=0 9.18395 7.24702 4.88298 3.26079 1.56597 1.15989 0.438431
internal_count=56 46 40 30 20 16 10 12
is_linear=0
shrinkage=0.1


Tree=16
num_leaves=7
num_cat=0
split_feature=1 3 1 4 3 4
split_gain=0.097111 0.22249 0.121454 0.0933218 0.0637557 0.0456065
threshold=0.41000000000000009 0.38810000000000006 0.56500000000000006 0.5606500000000002 0.42870000000000003 0.53495000000000015
decision_type=2 2 2 2 2 2
left_child=-1 2 -2 -3 -5 -4
right_child=1 3 5 4 -6 -7
leaf_value=0.019162274661615269 -0.049181041752968085 -0.0046315985435007026 0.0060071104347909675 0.037225916948805823 0.0021146446809563292 -0.023055788989128953
leaf_weight=2.0921922698616982 1.2445335430093112 2.2792490590363741 0.97798765450716052 1.3929057121276858 0.82256383635103691 1.2054960690438745
leaf_count=6 12 14 4 6 8 6
internal_value=0 -0.00506027 -0.0242491 0.00957458 0.0241897 -0.0100384
internal_weight=0 7.92274 3.42802 4.49472 2.21547 2.18348
internal_count=56 50 22 28 14 10
is_linear=0
shrinkage=0.1


Tree=17
num_leaves=9
num_cat=0
split_feature=1 3 1 1 4 4 4 3
split_gain=0.0996314 0.175931 0.0974776 0.0717614 0.040365 0.0213671 0.0273873 0.0210857
threshold=0.41000000000000009 0.38810000000000006 0.56500000000000006 0.55500000000000016 0.53495000000000015 0.49515000000000003 0.59120000000000006 0.45575000000000004
decision_type=2 2 2 2 2 2 2 2
left_child=-1 2 -2 7 -4 -5 -7 -3
right_child=1 3 4 5 -6 6 -8 -9
leaf_value=0.019441112962098744 -0.044966726643142718 0.014880156368304285 0.0054429718657271935 0.0033427508312623465 -0.021905565198829902 -0.029595077122609417 0.0084555513601306826 0.036922947260428565
leaf_weight=2.0821468308568001 1.216590498108417 1.2393131982535122 0.97857027500867877 1.6907659471035006 1.2032988741993902 0.53911174088716496 0.29140254855155945 0.66781047359108914
leaf_count=6 12 6 4 4 6 8 4 6
internal_value=0 -0.00517184 -0.0222862 0.00796211 -0.00963972 -0.00310924 -0.0162443 0.0225988
internal_weight=0 7.82686 3.39846 4.4284 2.18187 2.52128 0.830514 1.90712
internal_count=56 50 22 28 10 16 12 12
is_linear=0
shrinkage=0.1


Tree=18
num_leaves=7
num_cat=0
split_feature=0 3 4 1 1 4
split_gain=0.107668 0.118312 0.0762967 0.0728557 0.060171 0.475706
threshold=0.64285000000000003 0.33050000000000007 0.59120000000000006 0.56500000000000006 0.44000000000000006 0.55125000000000013
decision_type=2 2 2 2 2 2
left_child=-1 -2 3 4 -3 -6
right_child=1 2 -4 -5 5 -7
leaf_value=0.026200072496941215 -0.031878827443088648 -0.0075171420960800685 0.019116681209883482 0.0053107188571850546 0.034254164220962502 -0.1273773627678069
leaf_weight=1.3528461493551738 1.3046742770820836 1.6714663654565813 1.7352580502629278 3.0450169052928686 0.38638442754745472 0.34438927844166756
leaf_count=6 8 4 10 12 8 8
internal_value=0 -0.00417625 0.000855805 -0.00496131 -0.0179819 -0.0419174
internal_weight=0 8.48719 7.18252 5.44726 2.40224 0.730774
internal_count=56 50 42 32 20 16
is_linear=0
shrinkage=0.1


Tree=19
num_leaves=6
num_cat=0
split_feature=1 3 4 1 3
split_gain=0.129245 0.142813 0.0729754 0.0566338 0.010536
threshold=0.41000000000000009 0.38810000000000006 0.47425000000000006 0.55500000000000016 0.45575000000000004
decision_type=2 2 2 2 2
left_child=-1 2 -2 4 -3
right_child=1 3 -4 -5 -6
leaf_value=0.022282559465920407 -0.0086670333041880942 0.01402521007233882 -0.03844481716213944 -0.0037985846436607868 0.030073145444824263
leaf_weight=2.0523441433906555 1.9232628718018534 1.2126046679913995 1.4385600606910882 2.456638771109283 0.61740817129611958
leaf_count=6 8 6 14 16 6
internal_value=0 -0.00597916 -0.0214093 0.00612196 0.0194394
internal_weight=0 7.64847 3.36182 4.28665 1.83001
internal_count=56 50 22 28 12
is_linear=0
shrinkage=0.1


Tree=20
num_leaves=8
num_cat=0
split_feature=1 3 3 1 1 4 1
split_gain=0.119142 0.113835 0.0879074 0.122706 0.0718221 0.021963 0.0134437
threshold=0.41000000000000009 0.38810000000000006 0.47130000000000005 0.59500000000000008 0.56500000000000006 0.53495000000000015 0.55500000000000016
decision_type=2 2 2 2 2 2 2
left_child=-1 4 3 -3 -2 -6 -4
right_child=1 2 6 -5 5 -7 -8
leaf_value=0.021411654635014356 -0.039411236301147401 0.031271000973528265 -0.038343501679802189 -0.0063506601015801134 0.0024126729221570866 -0.017868436833009572 -0.012303322445619299
leaf_weight=2.0474073365330696 1.1816036324016752 1.6861528661102057 0.38584578782320011 1.7844024449586868 0.9710551314055923 1.1862507797777651 0.40779051743447781
leaf_count=6 12 12 4 6 4 6 6
internal_value=0 -0.00576585 0.00506162 0.0119276 -0.0195938 -0.00873942 -0.0249634
internal_weight=0 7.6031 4.26419 3.47056 3.33891 2.15731 0.793636
internal_count=56 50 28 18 22 10 10
is_linear=0
shrinkage=0.1


Tree=21
num_leaves=7
num_cat=0
split_feature=0 3 1 4 1 3
split_gain=0.100882 0.0902127 0.0527105 0.0349524 0.0606912 0.0241105
threshold=0.64285000000000003 0.38810000000000006 0.55500000000000016 0.47425000000000006 0.48500000000000004 0.45575000000000004
decision_type=2 2 2 2 2 2
left_child=-1 3 5 -2 -5 -3
right_child=1 2 -4 4 -6 -7
leaf_value=0.025568809627727087 0.0017545825703781011 0.011243990153115377 -0.0034304687441742547 -0.0070368001661868119 -0.035259792370635611 0.036256240620182206
leaf_weight=1.3285284861922271 0.96924264729022791 1.1991126257926223 2.4224282763898373 1.6550029516220095 1.4120001373812554 0.56791674718260754
leaf_count=6 4 6 16 4 14 6
internal_value=0 -0.0041296 0.00614955 -0.0147989 -0.0200302 0.0192828
internal_weight=0 8.2257 4.18946 4.03625 3.067 1.76703
internal_count=56 50 28 22 18 12
is_linear=0
shrinkage=0.1


Tree=22
num_leaves=8
num_cat=0
split_feature=1 3 3 1 1 4 1
split_gain=0.113569 0.0880926 0.075644 0.087672 0.0684897 0.0183721 0.00887369
threshold=0.41000000000000009 0.38810000000000006 0.47130000000000005 0.59500000000000008 0.56500000000000006 0.53495000000000015 0.55500000000000016
decision_type=2 2 2 2 2 2 2
left_child=-1 4 3 -3 -2 -6 -4
right_child=1 2 6 -5 5 -7 -8
leaf_value=0.021038990776022809 -0.037453153586617556 0.026939129247896376 -0.03570978857024365 -0.0051192038876224574 0.0028992354226151378 -0.015687592998804956 -0.014104244126175594
leaf_weight=2.0203982591629028 1.1598340063355865 1.6459935195744038 0.36745221912860859 1.7708024308085442 0.96951525658369098 1.1779053620994089 0.39384853560477495
leaf_count=6 12 12 4 6 4 6 6
internal_value=0 -0.00567871 0.00397309 0.0103244 -0.0178719 -0.00729603 -0.0245325
internal_weight=0 7.48535 4.1781 3.4168 3.30725 2.14742 0.761301
internal_count=56 50 28 18 22 10 10
is_linear=0
shrinkage=0.1


Tree=23
num_leaves=7
num_cat=0
split_feature=0 3 1 4 1 4
split_gain=0.0927851 0.0670226 0.0400328 0.0306595 0.0505513 0.0165154
threshold=0.64285000000000003 0.38810000000000006 0.55500000000000016 0.47425000000000006 0.48500000000000004 0.49515000000000003
decision_type=2 2 2 2 2 2
left_child=-1 3 -3 -2 -5 -4
right_child=1 2 5 4 -6 -7
leaf_value=0.024677961706138993 0.0022771885943676478 0.016574044885173174 0.0020429663186347928 -0.0063093032965758347 -0.032250357411912581 -0.016054974461788787
leaf_weight=1.3116052113473422 0.96749906986951684 1.7250672616064546 1.6756548136472704 1.6426596194505694 1.3842173796147106 0.72127361129969347
leaf_count=6 4 12 4 4 14 12
internal_value=0 -0.00398796 0.00495746 -0.0132192 -0.0181724 -0.00340299
internal_weight=0 8.11637 4.122 3.99438 3.02688 2.39693
internal_count=56 50 28 22 18 16
is_linear=0
shrinkage=0.1


Tree=24
num_leaves=8
num_cat=0
split_feature=1 3 1 3 1 4 1
split_gain=0.0994705 0.0805196 0.0689485 0.0399749 0.0690225 0.0147955 0.00499252
threshold=0.41000000000000009 0.38810000000000006 0.56500000000000006 0.47130000000000005 0.59500000000000008 0.53495000000000015 0.55500000000000016
decision_type=2 2 2 2 2 2 2
left_child=-1 2 -2 4 -3 -4 -5
right_child=1 3 5 6 -6 -7 -8
leaf_value=0.019798483948415355 -0.036816897824809423 0.023348907387192089 0.0027397803158451038 -0.026157903893777531 -0.005214193347703535 -0.013994853874409461 -0.0094718130422440025
leaf_weight=1.9974543154239652 1.1465209457091989 1.6291181836277246 0.96667691320180926 0.34359767660498608 1.7600125819444656 1.1650586407631633 0.37502710055559874
leaf_count=6 12 12 4 4 6 6 6
internal_value=0 -0.00535425 -0.0170419 0.00397324 0.00851578 -0.00640621 -0.01745
internal_weight=0 7.38601 3.27826 4.10776 3.38913 2.13174 0.718625
internal_count=56 50 22 28 18 10 10
is_linear=0
shrinkage=0.1


Tree=25
num_leaves=7
num_cat=0
split_feature=0 3 4 4 1 3
split_gain=0.0852942 0.0584388 0.030282 0.0283689 0.0448536 0.0171708
threshold=0.64285000000000003 0.38810000000000006 0.5606500000000002 0.47425000000000006 0.48500000000000004 0.42870000000000003
decision_type=2 2 2 2 2 2
left_child=-1 3 -3 -2 -5 -4
right_child=1 2 5 4 -6 -7
leaf_value=0.023803583811682343 0.0024468462877532456 -0.0035400531427713339 0.020443036843844957 -0.0060530269098288811 -0.030581035395097541 0.00027391846731458081
leaf_weight=1.2960514836013324 0.96499533578753327 2.1497379168868065 1.2760093063116071 1.631566256284714 1.3728780574165282 0.63075357489287842
leaf_count=6 4 14 6 4 14 8
internal_value=0 -0.00384387 0.00459709 -0.01247 -0.0172611 0.0137711
internal_weight=0 8.02594 4.0565 3.96944 3.00444 1.90676
internal_count=56 50 28 22 18 14
is_linear=0
shrinkage=0.1


Tree=26
num_leaves=6
num_cat=0
split_feature=1 3 1 1 4
split_gain=0.0887698 0.0693949 0.0710488 0.0277645 0.0112616
threshold=0.41000000000000009 0.38810000000000006 0.56500000000000006 0.55500000000000016 0.53495000000000015
decision_type=2 2 2 2 2
left_child=-1 2 -2 -3 -4
right_child=1 3 4 -5 -6
leaf_value=0.018793248527558298 -0.03615776372446846 0.01345837772295937 0.0028199339717414067 -0.0033535901094973795 -0.011791209789247928
leaf_weight=1.9776635244488714 1.1338368835859003 1.6875721905380485 0.96498113870620761 2.3505515279248357 1.1635897085070608
leaf_count=6 12 12 4 16 6
internal_value=0 -0.00509097 -0.0159379 0.0036723 -0.00516729
internal_weight=0 7.30053 3.26241 4.03812 2.12857
internal_count=56 50 22 28 10
is_linear=0
shrinkage=0.1


Tree=27
num_leaves=7
num_cat=0
split_feature=0 3 4 3 4 4
split_gain=0.080939 0.0412856 0.0461831 0.0211692 0.0372261 0.0322347
threshold=0.64285000000000003 0.45575000000000004 0.54930000000000012 0.33050000000000007 0.59120000000000006 0.47425000000000006
decision_type=2 2 2 2 2 2
left_child=-1 3 -3 -2 5 -5
right_child=1 2 -4 4 -6 -7
leaf_value=0.023350387835389029 -0.020119360946442639 -0.0025652973451236257 0.02619469532352401 0.0030556241181679271 0.0084480800969193633 -0.019482565577518162
leaf_weight=1.2790267392992971 1.247950962744653 1.7266833158209922 0.82518344558775414 0.96349515765905414 1.340882610529661 1.8588806083425877
leaf_count=6 8 6 10 4 8 14
internal_value=0 -0.00375054 0.00673467 -0.00869524 -0.00527082 -0.0117885
internal_weight=0 7.96308 2.55187 5.41121 4.16326 2.82238
internal_count=56 50 16 34 26 18
is_linear=0
shrinkage=0.1


Tree=28
num_leaves=8
num_cat=0
split_feature=1 3 3 1 4 3 1
split_gain=0.101044 0.0450198 0.0987911 0.0345654 0.140235 0.0139246 0.000561023
threshold=0.41000000000000009 0.47130000000000005 0.45575000000000004 0.56500000000000006 0.59255000000000013 0.33050000000000007 0.55500000000000016
decision_type=2 2 2 2 2 2 2
left_child=-1 2 3 4 -2 -5 -3
right_child=1 6 -4 5 -6 -7 -8
leaf_value=0.020200613643205342 -0.042271051140957187 -0.032532087849633594 0.016632279523613548 -0.0098732882495143927 0.0069010976003257493 0.0054626787720775264 -0.026860296509714568
leaf_weight=1.9515747129917143 1.2380215409211814 0.3311072178184985 1.862274933606386 1.1649708384647968 1.0911791548132896 1.2038859724998472 0.36847969703376293
leaf_count=6 16 4 6 6 4 8 6
internal_value=0 -0.00543022 -0.00285868 -0.0105848 -0.019235 -0.00207934 -0.0295447
internal_weight=0 7.25992 6.56033 4.69806 2.3292 2.36886 0.699587
internal_count=56 50 40 34 20 14 10
is_linear=0
shrinkage=0.1


Tree=29
num_leaves=8
num_cat=0
split_feature=1 3 1 3 1 4 1
split_gain=0.0769187 0.0521742 0.0526753 0.0340803 0.049021 0.00949384 0.000128584
threshold=0.41000000000000009 0.38810000000000006 0.56500000000000006 0.47130000000000005 0.59500000000000008 0.53495000000000015 0.55500000000000016
decision_type=2 2 2 2 2 2 2
left_child=-1 2 -2 4 -3 -4 -5
right_child=1 3 5 6 -6 -7 -8
leaf_value=0.017608598562308432 -0.03193788509839629 0.01989669343082422 0.0023435238139642334 -0.019455608282377884 -0.0044865158059251373 -0.011084970032419234 -0.016643958501645847
leaf_weight=1.9512395858764646 1.1036518500186505 1.5630065826699142 0.96151507645845447 0.30539455637335766 1.7450931183993816 1.1636590538546441 0.34800142701715231
leaf_count=6 12 12 4 4 6 6 6
internal_value=0 -0.00477845 -0.0142139 0.00291191 0.00703403 -0.00500937 -0.0179581
internal_weight=0 7.19032 3.22883 3.9615 3.3081 2.12517 0.653396
internal_count=56 50 22 28 18 10 10
is_linear=0
shrinkage=0.1


Tree=30
num_leaves=7
num_cat=0
split_feature=0 3 4 0 1 3
split_gain=0.0767428 0.0408532 0.0580317 0.0175649 0.0326395 0.0243249
threshold=0.64285000000000003 0.45575000000000004 0.54930000000000012 0.91155000000000019 0.56500000000000006 0.33050000000000007
decision_type=2 2 2 2 2 2
left_child=-1 3 -3 4 -2 -6
right_child=1 2 -4 -5 5 -7
leaf_value=0.022981211749856904 -0.015393120325369434 -0.003284660734526441 0.029763548891786385 -0.018367937836882849 -0.0076681584921545233 0.013265579609700618
leaf_weight=1.2529419213533399 1.7635412616655233 1.7227992787957194 0.76828649640083302 1.3686552811414001 1.1068590302020314 1.1134902052581308
leaf_count=6 10 6 10 14 4 6
internal_value=0 -0.00367102 0.00690788 -0.00859446 -0.00523681 0.00282997
internal_weight=0 7.84363 2.49109 5.35255 3.98389 2.22035
internal_count=56 50 16 34 20 10
is_linear=0
shrinkage=0.1


Tree=31
num_leaves=8
num_cat=0
split_feature=1 3 3 1 1 4 1
split_gain=0.0701909 0.0426253 0.0537225 0.0489979 0.042011 0.00854355 1.77754e-05
threshold=0.41000000000000009 0.38810000000000006 0.47130000000000005 0.56500000000000006 0.59500000000000008 0.53495000000000015 0.55500000000000016
decision_type=2 2 2 2 2 2 2
left_child=-1 3 4 -2 -3 -5 -4
right_child=1 2 6 5 -6 -7 -8
leaf_value=0.016902420948365263 -0.030359815504697876 0.0196635084764267 -0.023324016638520784 0.0026847395612904453 -0.0030292971029436048 -0.010047363391473026 -0.024373958873049627
leaf_weight=1.9333465695381162 1.0891826304141434 1.5376362027600412 0.30135441571474064 0.96367196366190944 1.7378200106322765 1.1631755698472259 0.34681777190417051
leaf_count=6 12 12 4 4 6 6 6
internal_value=0 -0.004577 0.00241838 -0.0131115 0.00762366 -0.00427846 -0.0238858
internal_weight=0 7.13966 3.92363 3.21603 3.27546 2.12685 0.648172
internal_count=56 50 28 22 18 10 10
is_linear=0
shrinkage=0.1


Tree=32
num_leaves=8
num_cat=0
split_feature=0 3 3 1 1 4 1
split_gain=0.0675756 0.0305978 0.0274524 0.0377741 0.0277075 0.0193647 0.024679
threshold=0.64285000000000003 0.38810000000000006 0.47130000000000005 0.59500000000000008 0.63500000000000012 0.47425000000000006 0.48500000000000004
decision_type=2 2 2 2 2 2 2
left_child=-1 5 3 -3 -4 -2 -7
right_child=1 2 4 -5 -6 6 -8
leaf_value=0.021721485722488516 0.0026027335406600908 0.017945922551853646 -0.035414877331359347 -0.0036031601953136132 0.006888186132620904 -0.0054460584560208636 -0.023871354073208464
leaf_weight=1.2361122965812681 0.96252574026584659 1.5317235738039021 0.34383904002606858 1.7347335927188396 0.28166000358760357 1.6146973669528963 1.3221905129030345
leaf_count=6 4 12 6 6 4 4 14
internal_value=0 -0.00344615 0.00282654 0.00650174 -0.016366 -0.00970685 -0.0137411
internal_weight=0 7.79137 3.89196 3.26646 0.625499 3.89941 2.93689
internal_count=56 50 28 18 10 22 18
is_linear=0
shrinkage=0.1


Tree=33
num_leaves=6
num_cat=0
split_feature=1 3 1 4 3
split_gain=0.0591009 0.0465758 0.026817 0.130081 0.00988993
threshold=0.41000000000000009 0.45575000000000004 0.56500000000000006 0.59255000000000013 0.33050000000000007
decision_type=2 2 2 2 2
left_child=-1 2 3 -2 -4
right_child=1 -3 4 -5 -6
leaf_value=0.015564732331155655 -0.040431289531062314 0.006911026948334684 -0.0091659912423522529 0.0073691370801109704 0.0038573007437578085
leaf_weight=1.9187791272997854 1.2047374346293509 2.4529053047299385 1.1563907852396371 1.0793836191296577 1.1762237027287481
leaf_count=6 16 16 6 4 8
internal_value=0 -0.00422444 -0.0101408 -0.0178427 -0.00259898
internal_weight=0 7.06964 4.61674 2.28412 2.33261
internal_count=56 50 34 20 14
is_linear=0
shrinkage=0.1


Tree=34
num_leaves=6
num_cat=0
split_feature=0 3 0 1 3
split_gain=0.0618086 0.030552 0.0145041 0.0280594 0.0186009
threshold=0.64285000000000003 0.45575000000000004 0.91155000000000019 0.56500000000000006 0.33050000000000007
decision_type=2 2 2 2 2
left_child=-1 2 3 -2 -5
right_child=1 -3 -4 4 -6
leaf_value=0.02089111866766924 -0.014027213061632108 0.0059548102481824629 -0.016556050082681403 -0.00619846085171944 0.012150208413868683
leaf_weight=1.2227530367672441 1.7382092885673048 2.438752805814147 1.3418164208997039 1.1074998006224634 1.1024677678942678
leaf_count=6 10 16 14 4 6
internal_value=0 -0.00330515 -0.00757411 -0.00452153 0.00295498
internal_weight=0 7.72875 5.28999 3.94818 2.20997
internal_count=56 50 34 20 10
is_linear=0
shrinkage=0.1


Tree=35
num_leaves=6
num_cat=0
split_feature=1 3 1 1 4
split_gain=0.052679 0.0371197 0.0436354 0.0360697 0.00595087
threshold=0.41000000000000009 0.38810000000000006 0.56500000000000006 0.55500000000000016 0.53495000000000015
decision_type=2 2 2 2 2
left_child=-1 2 -2 -3 -4
right_child=1 3 4 -5 -6
leaf_value=0.01474913825939035 -0.02850727883650428 0.014244692903913204 0.0021155569651529938 -0.0054565703981054661 -0.0085152407932568199
leaf_weight=1.9052446708083151 1.0636905038263651 1.5753497220575812 0.9631847403943542 2.2660175999626517 1.1615854883566497
leaf_count=6 12 12 4 16 6
internal_value=0 -0.00399736 -0.0119733 0.00262294 -0.00369617
internal_weight=0 7.02983 3.18846 3.84137 2.12477
internal_count=56 50 22 28 10
is_linear=0
shrinkage=0.1


Tree=36
num_leaves=8
num_cat=0
split_feature=0 3 3 1 4 1 1
split_gain=0.056998 0.0214877 0.04245 0.0327437 0.0153029 0.0163713 0.00374429
threshold=0.64285000000000003 0.38810000000000006 0.47130000000000005 0.59500000000000008 0.47425000000000006 0.48500000000000004 0.55500000000000016
decision_type=2 2 2 2 2 2 2
left_child=-1 4 3 -3 -2 -6 -4
right_child=1 2 6 -5 5 -7 -8
leaf_value=0.020217227121993833 0.0025160201559735786 0.017491307137500731 -0.013557039565368479 -0.0026987047499952535 -0.0052738187613234032 -0.020351022562018931 -0.029404890543883008
leaf_weight=1.2058034241199491 0.96271452680230174 1.5018083238974218 0.27222442999482144 1.7269165888428688 1.6078615859150889 1.3044631420634685 0.32957417238503695
leaf_count=6 4 12 4 6 4 14 6
internal_value=0 -0.00316369 0.00214762 0.00669247 -0.00841398 -0.0120271 -0.0222361
internal_weight=0 7.70556 3.83052 3.22872 3.87504 2.91232 0.601799
internal_count=56 50 28 18 22 18 10
is_linear=0
shrinkage=0.1


Tree=37
num_leaves=6
num_cat=0
split_feature=1 3 1 4 3
split_gain=0.051279 0.0319462 0.0235448 0.114471 0.00864009
threshold=0.41000000000000009 0.45575000000000004 0.56500000000000006 0.59255000000000013 0.33050000000000007
decision_type=2 2 2 2 2
left_child=-1 2 3 -2 -4
right_child=1 -3 4 -5 -6
leaf_value=0.014611939061550597 -0.037726211400610582 0.0053466684678602668 -0.0079396206769693674 0.0074571118011973504 0.0042602376464719021
leaf_weight=1.8902420550584791 1.1751332075800747 2.4159147692844272 1.1552266459912064 1.0724040269851685 1.1668651849031446
leaf_count=6 16 16 6 4 8
internal_value=0 -0.0039539 -0.00887101 -0.0161672 -0.00180912
internal_weight=0 6.98554 4.56963 2.24754 2.32209
internal_count=56 50 34 20 14
is_linear=0
shrinkage=0.1


Tree=38
num_leaves=6
num_cat=0
split_feature=0 3 4 1 4
split_gain=0.0540605 0.0200294 0.0132986 0.0189495 0.00569541
threshold=0.64285000000000003 0.45575000000000004 0.59120000000000006 0.56500000000000006 0.53495000000000015
decision_type=2 2 2 2 2
left_child=-1 2 3 -2 -5
right_child=1 -3 -4 4 -6
leaf_value=0.019791492170069414 -0.017053371825981257 0.0044685079470267522 0.0020808169730307828 0.0025996118890812183 -0.007809374851942389
leaf_weight=1.1938640736043451 1.7938908375799658 2.4051387803629041 1.3315247185528276 0.96166009083390269 1.1594346882775424
leaf_count=6 14 16 10 4 6
internal_value=0 -0.00308801 -0.00655212 -0.00948826 -0.00309016
internal_weight=0 7.65165 5.24651 3.91499 2.12109
internal_count=56 50 34 24 10
is_linear=0
shrinkage=0.1


Tree=39
num_leaves=6
num_cat=0
split_feature=1 3 1 1 4
split_gain=0.0514377 0.0234835 0.0393757 0.0282115 0.00479675
threshold=0.41000000000000009 0.38810000000000006 0.56500000000000006 0.55500000000000016 0.53495000000000015
decision_type=2 2 2 2 2
left_child=-1 2 -2 -3 -4
right_child=1 3 4 -5 -6
leaf_value=0.014700489630714301 -0.026251102953548645 0.011741515385872659 0.0027128086824152594 -0.0058162129248049213 -0.0068341733093322844
leaf_weight=1.8747853860259054 1.0412216424010696 1.546012959443033 0.96163477748632464 2.2426646752282977 1.1624634861946104
leaf_count=6 12 12 4 16 6
internal_value=0 -0.00396322 -0.0103209 0.00134842 -0.00251201
internal_weight=0 6.954 3.16532 3.78868 2.1241
internal_count=56 50 22 28 10
is_linear=0
shrinkage=0.1


Tree=40
num_leaves=6
num_cat=0
split_feature=0 3 0 1 3
split_gain=0.0506738 0.0133893 0.012114 0.0210485 0.0184984
threshold=0.64285000000000003 0.45575000000000004 0.91155000000000019 0.56500000000000006 0.33050000000000007
decision_type=2 2 2 2 2
left_child=-1 2 3 -2 -5
right_child=1 -3 -4 4 -6
leaf_value=0.019296563491206939 -0.011365375958667587 0.003199360779171186 -0.014114559354156798 -0.005704705253660616 0.012612933839325581
leaf_weight=1.1787984576076267 1.706575036980212 2.40210628695786 1.3171740935649721 1.1060147304087879 1.0992456302046774
leaf_count=6 10 16 14 4 6
internal_value=0 -0.00298079 -0.00581984 -0.00302688 0.003426
internal_weight=0 7.63112 5.22901 3.91184 2.20526
internal_count=56 50 34 20 10
is_linear=0
shrinkage=0.1


Tree=41
num_leaves=10
num_cat=0
split_feature=1 1 4 0 1 1 3 3 3
split_gain=0.0470643 0.022453 0.103408 0.0654836 0.380833 0.00828533 0.0061479 0.0202178 4.43829e-05
threshold=0.41000000000000009 0.56500000000000006 0.59255000000000013 0.64285000000000003 0.48500000000000004 0.55500000000000016 0.30405000000000004 0.42870000000000003 0.35230000000000006
decision_type=2 2 2 2 2 2 2 2 2
left_child=-1 2 3 -2 -5 8 -3 -8 -6
right_child=1 6 -4 4 5 -7 7 -9 -10
leaf_value=0.014118798454563356 -0.012434623309764735 -0.0056662510831077114 0.010081855105313349 0.038947943142146425 -0.11569307098610791 -0.14678278182572468 0.013411371415899235 -0.0031729136979313324 -0.11247536522335577
leaf_weight=1.8621381744742391 0.89302230626344703 1.106278399005532 1.2548780441284177 0.23835944011807442 0.08525374811142683 0.14124230947345495 1.1710072532296183 1.9746671952307222 0.086219476535916328
leaf_count=6 4 4 6 4 4 4 8 10 6
internal_value=0 -0.00378239 -0.010916 -0.0291626 -0.0562703 -0.128848 0.000745755 0.00300074 -0.114075
internal_weight=0 6.95093 2.69898 1.4441 0.551075 0.312716 4.25195 3.14567 0.171473
internal_count=56 50 28 22 18 14 22 18 10
is_linear=0
shrinkage=0.1


Tree=42
num_leaves=8
num_cat=0
split_feature=1 3 3 1 3 0 1
split_gain=0.0440165 0.0314321 0.0438838 0.0171285 0.0285064 0.00283366 2.78997e-05
threshold=0.41000000000000009 0.33050000000000007 0.47130000000000005 0.59500000000000008 0.38810000000000006 0.88750000000000007 0.55500000000000016
decision_type=2 2 2 2 2 2 2
left_child=-1 5 3 4 -3 -2 -4
right_child=1 2 6 -5 -6 -7 -8
leaf_value=0.01364554314354352 -0.017842139635203966 -0.0030163891540890917 -0.025065411168789194 -0.0033536663264810392 0.018750959245945348 -0.010494235733217522 -0.026493780565834131
leaf_weight=1.8597420305013654 0.9613044681027535 1.0352005423046651 0.26503420621156681 1.7234174404293297 1.4364746613427994 1.1559095242992041 0.28251283150166273
leaf_count=6 6 10 4 6 12 6 6
internal_value=0 -0.00369938 0.000823364 0.00429858 0.00963424 -0.0138305 -0.0258024
internal_weight=0 6.85985 4.74264 4.19509 2.47168 2.11721 0.547547
internal_count=56 50 38 28 22 12 10
is_linear=0
shrinkage=0.1


Tree=43
num_leaves=6
num_cat=0
split_feature=0 4 3 1 4
split_gain=0.0470354 0.0120465 0.0905853 0.0110087 0.0244671
threshold=0.88750000000000007 0.55125000000000013 0.39770000000000005 0.53500000000000014 0.49515000000000003
decision_type=2 2 2 2 2
left_child=-1 3 -3 -2 -5
right_child=1 2 -4 4 -6
leaf_value=0.015642002934918232 0.005279160383573964 0.0036685176699353889 -0.050876420421508001 0.001068261877432768 -0.01615881637421443
leaf_weight=1.5741176684387026 1.7442709393799303 1.1071488875895736 0.41996674984693516 2.645780991762877 1.1976262871176002
leaf_count=16 6 6 10 10 8
internal_value=0 -0.00346073 -0.0113317 -0.00130959 -0.00429979
internal_weight=0 7.11479 1.52712 5.58768 3.84341
internal_count=56 40 16 24 18
is_linear=0
shrinkage=0.1


Tree=44
num_leaves=7
num_cat=0
split_feature=0 3 4 1 4 2
split_gain=0.0390687 0.00946359 0.00956342 0.0298319 0.016695 0.00296525
threshold=0.88750000000000007 0.45575000000000004 0.47425000000000006 0.55500000000000016 0.59255000000000013 0.45000000000000007
decision_type=2 2 2 2 2 2
left_child=5 2 -2 4 -4 -1
right_child=1 -3 3 -5 -6 -7
leaf_value=0.016798919882448249 0.003343768127627246 0.0023730670995038144 -0.0081425415980221558 -0.020480592415013158 0.0079250185687355923 0.0068286842779377065
leaf_weight=1.1720626149326561 0.96694520115852345 2.1508867717348039 1.6503754355944698 1.257182555273175 1.0633248165249825 0.40013518510386337
leaf_count=6 4 14 8 10 4 10
internal_value=0 -0.00316303 -0.00557451 -0.00774619 -0.0018467 0.0142614
internal_weight=0 7.08871 4.93783 3.97088 2.7137 1.5722
internal_count=56 40 26 22 12 16
is_linear=0
shrinkage=0.1


Tree=45
num_leaves=7
num_cat=0
split_feature=1 3 4 3 3 0
split_gain=0.0395694 0.0346244 0.0197526 0.00918093 0.00728938 0.00391536
threshold=0.41000000000000009 0.33050000000000007 0.5606500000000002 0.39770000000000005 0.35230000000000006 0.88750000000000007
decision_type=2 2 2 2 2 2
left_child=-1 5 4 -4 -3 -2
right_child=1 2 3 -5 -6 -7
leaf_value=0.012988399220101744 -0.018849340602013393 0.0036026454362322853 0.0046154100982457478 0.020227136226667913 -0.0069270272110225272 -0.010206701624942704
leaf_weight=1.8449165448546407 0.96466578077524934 0.9671968258917335 1.0903381006792185 0.57552254758775223 2.0528859449550509 1.1479502199217675
leaf_count=6 6 4 6 10 18 6
internal_value=0 -0.00352464 0.00126711 0.010009 -0.00355485 -0.0141531
internal_weight=0 6.79856 4.68594 1.66586 3.02008 2.11262
internal_count=56 50 38 16 22 12
is_linear=0
shrinkage=0.1


Tree=46
num_leaves=7
num_cat=0
split_feature=1 3 4 3 3 0
split_gain=0.0377665 0.0295835 0.0130725 0.00776099 0.00550808 0.00334657
threshold=0.41000000000000009 0.33050000000000007 0.5606500000000002 0.35230000000000006 0.42870000000000003 0.88750000000000007
decision_type=2 2 2 2 2 2
left_child=-1 5 3 -3 -4 -2
right_child=1 2 4 -5 -6 -7
leaf_value=0.012699975062007436 -0.017637551121842038 0.0044385906292782806 0.011616578646218526 -0.0064144867134149327 -0.0013492309092186395 -0.0096368346293900023
leaf_weight=1.8420010954141615 0.96051977761089835 0.97016874328255687 1.2117142984643576 2.0535548029001802 0.44906942639499892 1.1472554020583627
leaf_count=6 6 4 8 18 8 6
internal_value=0 -0.00344411 0.000982762 -0.00293225 0.00811067 -0.0132828
internal_weight=0 6.79228 4.68451 3.02372 1.66078 2.10778
internal_count=56 50 38 22 16 12
is_linear=0
shrinkage=0.1


Tree=47
num_leaves=6
num_cat=0
split_feature=4 3 1 1 0
split_gain=0.0380345 0.0254604 0.0205101 0.0146954 0.00671953
threshold=0.47425000000000006 0.38810000000000006 0.55500000000000016 0.48500000000000004 0.88750000000000007
decision_type=2 2 2 2 2
left_child=4 3 -3 -2 -1
right_child=1 2 -4 -5 -6
leaf_value=0.016749027977202839 -0.0044606560189312918 0.010795161731125298 -0.0044822629833767835 -0.018885789859902104 0.005476828296939522
leaf_weight=1.1564024426043036 1.5923268869519236 1.484110673889518 2.154383247718215 1.2690775871742515 0.97447557002305973
leaf_count=6 4 12 16 14 4
internal_value=0 -0.00380093 0.00174927 -0.0108584 0.0115941
internal_weight=0 6.4999 3.63849 2.8614 2.13088
internal_count=56 46 28 18 10
is_linear=0
shrinkage=0.1


Tree=48
num_leaves=6
num_cat=0
split_feature=4 3 1 1 0
split_gain=0.0395269 0.0194398 0.0184753 0.0148679 0.00423507
threshold=0.47425000000000006 0.38810000000000006 0.55500000000000016 0.48500000000000004 0.88750000000000007
decision_type=2 2 2 2 2
left_child=4 3 -3 -2 -1
right_child=1 2 -4 -5 -6
leaf_value=0.015921664896415371 -0.0036184873302052543 0.0095586470931835147 -0.0049427796668991579 -0.018153624698481422 0.0069810004371939835
leaf_weight=1.1520824152976277 1.587082587182522 1.4822129579260948 2.1572093763388693 1.2643882939592002 0.98090150579810131
leaf_count=6 4 12 16 14 4
internal_value=0 -0.00388093 0.000963158 -0.0100636 0.0118101
internal_weight=0 6.49089 3.63942 2.85147 2.13298
internal_count=56 46 28 18 10
is_linear=0
shrinkage=0.1


Tree=49
num_leaves=6
num_cat=0
split_feature=4 3 1 1 0
split_gain=0.0441461 0.0138009 0.0179938 0.0150194 0.00170825
threshold=0.47425000000000006 0.38810000000000006 0.55500000000000016 0.48500000000000004 0.88750000000000007
decision_type=2 2 2 2 2
left_child=4 3 -3 -2 -1
right_child=1 2 -4 -5 -6
leaf_value=0.015084961818178054 -0.0028438195085441105 0.0084616492560382461 -0.0058438322799276108 -0.017476771559526021 0.0094189661763168647
leaf_weight=1.1470080558210614 1.5821426510810854 1.4802776500582697 2.1655881111510098 1.2600974121596662 0.99256280809640873
leaf_count=6 4 12 16 14 4
internal_value=0 -0.00410775 -3.55865e-05 -0.00933129 0.0124565
internal_weight=0 6.48811 3.64587 2.84224 2.13957
internal_count=56 46 28 18 10
is_linear=0
shrinkage=0.1


Tree=50
num_leaves=6
num_cat=0
split_feature=4 1 4 1 0
split_gain=0.0606454 0.0158535 0.0198969 0.0246108 3.54941e-05
threshold=0.47425000000000006 0.48500000000000004 0.59120000000000006 0.6100000000000001 0.88750000000000007
decision_type=2 2 2 2 2
left_child=4 -2 3 -3 -1
right_child=1 2 -4 -5 -6
leaf_value=0.014131988014540421 0.0031634927849739699 -0.022636280584115744 0.0019095265746380931 -0.004970248224088804 0.014943894678553791
leaf_weight=1.1391193214803934 1.7975758109241722 1.3349875833373519 1.44074210524559 1.9266833923757074 1.0211167708039284
leaf_count=6 8 18 12 8 4
internal_value=0 -0.00482424 -0.00787768 -0.0122009 0.0145158
internal_weight=0 6.49999 4.70241 3.26167 2.16024
internal_count=56 46 38 26 10
is_linear=0
shrinkage=0.1


Tree=51
num_leaves=6
num_cat=0
split_feature=4 4 0 1 4
split_gain=0.162858 0.0585689 0.0287422 0.0161963 0.0125302
threshold=0.47425000000000006 0.53495000000000015 0.88750000000000007 0.53500000000000014 0.59120000000000006
decision_type=2 2 2 2 2
left_child=2 -2 -1 -3 -5
right_child=1 3 -4 4 -6
leaf_value=0.011893118578252359 -0.022726713403561902 0.0050091410337924809 0.034504320159563347 -0.013183429692769637 0.00042891996140757355
leaf_weight=1.1207586843520403 1.9031318672932682 1.9600829146802423 1.1279667541384697 1.4679961306974294 1.2537608304992316
leaf_count=6 10 10 4 16 10
internal_value=0 -0.00793459 0.023235 -0.00192171 -0.00691298
internal_weight=0 6.58497 2.24873 4.68184 2.72176
internal_count=56 46 10 36 26
is_linear=0
shrinkage=0.1


Tree=52
num_leaves=6
num_cat=0
split_feature=1 3 0 1 0
split_gain=0.041936 0.025493 0.0122643 0.0179775 0.00767269
threshold=0.41000000000000009 0.33050000000000007 0.91155000000000019 0.55500000000000016 0.88750000000000007
decision_type=2 2 2 2 2
left_child=-1 4 -3 -4 -2
right_child=1 2 3 -5 -6
leaf_value=0.013525236370064734 -0.019333730553342574 0.0086559926232618236 0.0063365036591430182 -0.0086541448605808816 -0.0072026776080471484
leaf_weight=1.8089055642485616 0.96297467127442393 1.3219922152347861 1.3240582946455108 2.0212312298826873 1.13693998940289
leaf_count=6 6 12 12 14 6
internal_value=0 -0.00361536 0.000501583 -0.00272088 -0.0127657
internal_weight=0 6.7672 4.66728 3.34529 2.09991
internal_count=56 50 38 26 12
is_linear=0
shrinkage=0.1


Tree=53
num_leaves=6
num_cat=0
split_feature=1 3 4 3 0
split_gain=0.0387044 0.0237777 0.00959701 0.0156025 0.00657619
threshold=0.41000000000000009 0.33050000000000007 0.59120000000000006 0.45575000000000004 0.88750000000000007
decision_type=2 2 2 2 2
left_child=-1 4 3 -3 -2
right_child=1 2 -4 -5 -6
leaf_value=0.012987593064781143 -0.018419771900176348 -0.012074094996140483 0.0074214510308451519 0.0025319323317485555 -0.0071784277488772244
leaf_weight=1.8091007322072981 0.95987600926309857 1.1137020951136949 1.4009571373462675 2.1303366227075458 1.1366289975121615
leaf_count=6 6 14 10 14 6
internal_value=0 -0.00348525 0.000504642 -0.00248242 -0.0123252
internal_weight=0 6.7415 4.645 3.24404 2.09651
internal_count=56 50 38 28 12
is_linear=0
shrinkage=0.1


Tree=54
num_leaves=6
num_cat=0
split_feature=1 3 0 1 0
split_gain=0.0361546 0.0218727 0.0104936 0.0167057 0.00576694
threshold=0.41000000000000009 0.33050000000000007 0.91155000000000019 0.55500000000000016 0.88750000000000007
decision_type=2 2 2 2 2
left_child=-1 4 -3 -4 -2
right_child=1 2 3 -5 -6
leaf_value=0.012567021586867348 -0.017576287187787597 0.0080482631852672477 0.0062054614050293579 -0.0082585977414584393 -0.0070397297341318228
leaf_weight=1.8054779469966886 0.95651404187083278 1.308245293330401 1.3238525558263066 2.0122892465442419 1.13683863915503
leaf_count=6 6 12 12 14 6
internal_value=0 -0.00336752 0.000457656 -0.00251895 -0.0118542
internal_weight=0 6.73774 4.64439 3.33614 2.09335
internal_count=56 50 38 26 12
is_linear=0
shrinkage=0.1


Tree=55
num_leaves=8
num_cat=0
split_feature=1 3 4 4 1 4 0
split_gain=0.0334374 0.0205453 0.00843783 0.0167786 0.104392 0.139493 0.00497389
threshold=0.41000000000000009 0.33050000000000007 0.59120000000000006 0.49515000000000003 0.48500000000000004 0.5606500000000002 0.88750000000000007
decision_type=2 2 2 2 2 2 2
left_child=-1 6 3 -3 -5 -6 -2
right_child=1 2 -4 4 5 -7 -8
leaf_value=0.012080219398333876 -0.016800121044928586 0.001123769606481573 0.0069864420806995623 0.037413484857276927 -0.12670093267526009 -0.0021772908089778054 -0.0070067615400304485
leaf_weight=1.8057437613606451 0.95391123928129706 2.6302366383606572 1.3899629097431896 0.22093536891043175 0.14392625633627176 0.23991726618260145 1.1364241652190683
leaf_count=6 6 10 10 4 8 6 6
internal_value=0 -0.00324837 0.000470203 -0.00232958 -0.0173485 -0.0488688 -0.0114759
internal_weight=0 6.71531 4.62498 3.23502 0.604779 0.383844 2.09034
internal_count=56 50 38 28 18 14 12
is_linear=0
shrinkage=0.1


Tree=56
num_leaves=6
num_cat=0
split_feature=1 3 4 3 0
split_gain=0.0306869 0.0225152 0.00833232 0.011242 0.004125
threshold=0.41000000000000009 0.33050000000000007 0.59120000000000006 0.45575000000000004 0.88750000000000007
decision_type=2 2 2 2 2
left_child=-1 4 3 -3 -2
right_child=1 2 -4 -5 -6
leaf_value=0.011569357064246867 -0.016573177822024995 -0.010218957927299613 0.0072823662414554825 0.0022685151319438604 -0.0076547968173798081
leaf_weight=1.8046409487724302 0.95508746989071402 1.0963921375805514 1.3822131119668482 2.1052024359814823 1.1348701966926453
leaf_count=6 6 14 10 14 6
internal_value=0 -0.00312845 0.00079355 -0.00200784 -0.0117304
internal_weight=0 6.67377 4.58381 3.20159 2.08996
internal_count=56 50 38 28 12
is_linear=0
shrinkage=0.1


Tree=57
num_leaves=6
num_cat=0
split_feature=1 3 0 4 0
split_gain=0.0288744 0.0208943 0.00833469 0.0136705 0.00363483
threshold=0.41000000000000009 0.33050000000000007 0.91155000000000019 0.55125000000000013 0.88750000000000007
decision_type=2 2 2 2 2
left_child=-1 4 -3 -4 -2
right_child=1 2 3 -5 -6
leaf_value=0.011232757500630401 -0.015882940670201812 0.0075770017412596195 0.003695062836858322 -0.0093008457852607387 -0.0075045999821774685
leaf_weight=1.8017615377902982 0.95240971446037326 1.2843884881585834 1.8739782987395304 1.4248278518207369 1.134751357603818
leaf_count=6 6 12 12 14 6
internal_value=0 -0.00303413 0.000742752 -0.00191816 -0.0113278
internal_weight=0 6.67036 4.58319 3.29881 2.08716
internal_count=56 50 38 26 12
is_linear=0
shrinkage=0.1


Tree=58
num_leaves=5
num_cat=0
split_feature=0 3 4 1
split_gain=0.027579 0.012662 0.0123743 0.0139732
threshold=0.64285000000000003 0.33050000000000007 0.59120000000000006 0.56500000000000006
decision_type=2 2 2 2
left_child=-1 -2 3 -3
right_child=1 2 -4 -5
leaf_value=0.01458257506837572 -0.011740646416124602 -0.009283146982645046 0.0079340904122026483 0.0016982913773436312
leaf_weight=1.1245557107031343 1.1766126668080685 1.9699928843183441 1.376919165253639 2.8136792927980423
leaf_count=6 8 20 10 12
internal_value=0 -0.00223503 -0.000419551 -0.00282404
internal_weight=0 7.3372 6.16059 4.78367
internal_count=56 50 42 32
is_linear=0
shrinkage=0.1


Tree=59
num_leaves=8
num_cat=0
split_feature=1 3 4 4 1 4 0
split_gain=0.0281931 0.019238 0.00656387 0.0115269 0.0795611 0.0988645 0.00359927
threshold=0.41000000000000009 0.33050000000000007 0.59120000000000006 0.49515000000000003 0.48500000000000004 0.5606500000000002 0.88750000000000007
decision_type=2 2 2 2 2 2 2
left_child=-1 6 3 -3 -5 -6 -2
right_child=1 2 -4 4 5 -7 -8
leaf_value=0.011121904687765156 -0.015500279278452002 0.00092053061891346683 0.0064083802377362126 0.032594880361209659 -0.11836835046159844 -0.0057904726351744006 -0.0071570591150782042
leaf_weight=1.7949174568057058 0.95053587108850512 2.6313049045857047 1.3749557957053182 0.2169058509171008 0.11921127536334097 0.22568887379020452 1.1338577554561196
leaf_count=6 6 10 10 4 8 6 6
internal_value=0 -0.00300083 0.000631727 -0.0018557 -0.0148586 -0.0447019 -0.0109618
internal_weight=0 6.65246 4.56807 3.19311 0.561806 0.3449 2.08439
internal_count=56 50 38 28 18 14 12
is_linear=0
shrinkage=0.1


Tree=60
num_leaves=7
num_cat=0
split_feature=1 3 3 4 2 0
split_gain=0.0259564 0.0208116 0.00664812 0.0568737 0.0199671 0.00340276
threshold=0.41000000000000009 0.33050000000000007 0.42870000000000003 0.55125000000000013 0.55000000000000016 0.88750000000000007
decision_type=2 2 2 2 2 2
left_child=-1 5 4 -4 -3 -2
right_child=1 2 3 -5 -6 -7
leaf_value=0.010669887873383514 -0.015576073290443557 -0.0051500321642566349 0.0051760918753434634 -0.033477185185125956 0.013813218926851424 -0.0074609133306484006
leaf_weight=1.7940074950456617 0.95119956973940167 1.0575040890835226 1.8338669287040832 0.48037412203848351 1.1690939217805862 1.1311452370136974
leaf_count=6 6 12 10 10 6 6
internal_value=0 -0.00289013 0.000905881 -0.00284729 0.00480678 -0.0111679
internal_weight=0 6.62318 4.54084 2.31424 2.2266 2.08234
internal_count=56 50 38 20 18 12
is_linear=0
shrinkage=0.1


Tree=61
num_leaves=8
num_cat=0
split_feature=4 3 1 1 0 3 3
split_gain=0.0263337 0.0222598 0.0102705 0.0101444 0.00403166 0.000878577 0.131758
threshold=0.47425000000000006 0.38810000000000006 0.59500000000000008 0.48500000000000004 0.88750000000000007 0.39770000000000005 0.47130000000000005
decision_type=2 2 2 2 2 2 2
left_child=4 3 5 -2 -1 -3 -7
right_child=1 2 -4 -5 -6 6 -8
leaf_value=0.01385246043456524 -0.004520219682918286 0.0062644555634310184 -0.002887153530988043 -0.016605981623650123 0.0050200160613553604 0.054760752395328904 -0.042358996967322995
leaf_weight=1.1165086198598149 1.583208352327347 1.0474023073911669 1.8896065969020126 1.2372728077461941 0.96215246990323056 0.31114162830635894 0.25349997449666262
leaf_count=6 4 4 10 14 4 8 6
internal_value=0 -0.00321037 0.00211505 -0.00982193 0.00976418 0.00797854 0.0111581
internal_weight=0 6.32213 3.50165 2.82048 2.07866 1.61204 0.564642
internal_count=56 46 28 18 10 18 14
is_linear=0
shrinkage=0.1


Tree=62
num_leaves=6
num_cat=0
split_feature=4 3 4 1 0
split_gain=0.0214753 0.0235139 0.0128901 0.00862066 0.00356482
threshold=0.47425000000000006 0.38810000000000006 0.5606500000000002 0.48500000000000004 0.88750000000000007
decision_type=2 2 2 2 2
left_child=4 3 -3 -2 -1
right_child=1 2 -4 -5 -6
leaf_value=0.0126671550257911 -0.004813147636509571 -0.0028158518946123576 0.0094669543486376791 -0.015963113468699448 0.0043511708523835974
leaf_weight=1.1153082679957154 1.5825357362627985 1.9367072172462942 1.5288934856653211 1.2342025806428862 0.95846575126051892
leaf_count=6 4 14 14 14 4
internal_value=0 -0.00291264 0.00260286 -0.0096987 0.00882364
internal_weight=0 6.28234 3.4656 2.81674 2.07377
internal_count=56 46 28 18 10
is_linear=0
shrinkage=0.1


Tree=63
num_leaves=6
num_cat=0
split_feature=1 3 4 3 0
split_gain=0.0217164 0.0221531 0.00852718 0.00846742 0.0045751
threshold=0.41000000000000009 0.33050000000000007 0.59120000000000006 0.45575000000000004 0.88750000000000007
decision_type=2 2 2 2 2
left_child=-1 4 3 -3 -2
right_child=1 2 -4 -5 -6
leaf_value=0.0097819867907891905 -0.016315963656671657 -0.0086966518747799218 0.007986536649585178 0.002224258488341352 -0.0068955369079858886
leaf_weight=1.7839515432715414 0.94847547542303834 1.0848699047928678 1.3369939699769018 2.0543910060077906 1.1294272635132072
leaf_count=6 6 14 10 14 6
internal_value=0 -0.00266252 0.00129857 -0.0015498 -0.0111956
internal_weight=0 6.55416 4.47625 3.13926 2.0779
internal_count=56 50 38 28 12
is_linear=0
shrinkage=0.1


Tree=64
num_leaves=6
num_cat=0
split_feature=4 3 1 1 0
split_gain=0.0228166 0.0182575 0.0098139 0.00823007 0.00280782
threshold=0.47425000000000006 0.38810000000000006 0.55500000000000016 0.48500000000000004 0.88750000000000007
decision_type=2 2 2 2 2
left_child=4 3 -3 -2 -1
right_child=1 2 -4 -5 -6
leaf_value=0.01252998672292932 -0.0042171041310553698 0.0082901405869020162 -0.0025564040821383529 -0.015127771506821328 0.0051415832274372426
leaf_weight=1.1099703889340164 1.5787492915987971 1.4071387872099879 2.0486672413535416 1.2299790440592913 0.95855601876974095
leaf_count=6 4 12 16 14 4
internal_value=0 -0.00300684 0.0018601 -0.00899503 0.0091062
internal_weight=0 6.26453 3.45581 2.80873 2.06853
internal_count=56 46 28 18 10
is_linear=0
shrinkage=0.1


Tree=65
num_leaves=6
num_cat=0
split_feature=1 3 0 1 0
split_gain=0.0224397 0.0195652 0.00857674 0.00896603 0.00449765
threshold=0.41000000000000009 0.33050000000000007 0.91155000000000019 0.55500000000000016 0.88750000000000007
decision_type=2 2 2 2 2
left_child=-1 4 -3 -4 -2
right_child=1 2 3 -5 -6
leaf_value=0.0099672719892787403 -0.015817080921818948 0.0080682977500690905 0.0047785447455123706 -0.0059976387715238756 -0.006468242736480858
leaf_weight=1.7763327509164808 0.94610785739496384 1.2452547699213026 1.283456434030086 1.9378608255647121 1.1282947110012171
leaf_count=6 6 12 12 14 6
internal_value=0 -0.00270681 0.00102037 -0.00170413 -0.0107321
internal_weight=0 6.54097 4.46657 3.22132 2.0744
internal_count=56 50 38 26 12
is_linear=0
shrinkage=0.1


Tree=66
num_leaves=6
num_cat=0
split_feature=1 3 4 3 0
split_gain=0.0211022 0.0183774 0.00635719 0.00966808 0.0039579
threshold=0.41000000000000009 0.33050000000000007 0.59120000000000006 0.45575000000000004 0.88750000000000007
decision_type=2 2 2 2 2
left_child=-1 4 3 -3 -2
right_child=1 2 -4 -5 -6
leaf_value=0.0096622751816041463 -0.015187746619412246 -0.0091414329005561346 0.0067852752982404847 0.0025621454674496537 -0.0064126489989335097
leaf_weight=1.776580289006233 0.94399411277845535 1.0773667562752964 1.3281575310975311 2.0467744399793446 1.1284023365005849
leaf_count=6 6 14 10 14 6
internal_value=0 -0.0026309 0.000989909 -0.00147386 -0.0104098
internal_weight=0 6.5247 4.4523 3.12414 2.0724
internal_count=56 50 38 28 12
is_linear=0
shrinkage=0.1


Tree=67
num_leaves=6
num_cat=0
split_feature=4 3 1 1 0
split_gain=0.0217156 0.016319 0.00753742 0.007 0.00344387
threshold=0.47425000000000006 0.38810000000000006 0.48500000000000004 0.55500000000000016 0.88750000000000007
decision_type=2 2 2 2 2
left_child=4 2 -2 -3 -1
right_child=1 3 -4 -5 -6
leaf_value=0.012720938406650445 -0.0040281374262069623 0.0071164536413313413 -0.014482874056857803 -0.0020643096832097542 0.0045119302874348354
leaf_weight=1.1024967730045321 1.5769094899296763 1.4025979340076449 1.2255395732354371 2.0361270350404084 0.95264228805899609
leaf_count=6 4 12 14 16 4
internal_value=0 -0.00293583 -0.0086001 0.00168037 0.00891572
internal_weight=0 6.24117 2.80245 3.43872 2.05514
internal_count=56 46 18 28 10
is_linear=0
shrinkage=0.1


Tree=68
num_leaves=6
num_cat=0
split_feature=1 3 0 4 0
split_gain=0.0214464 0.0164538 0.00657745 0.0111724 0.00395791
threshold=0.41000000000000009 0.33050000000000007 0.91155000000000019 0.55125000000000013 0.88750000000000007
decision_type=2 2 2 2 2
left_child=-1 4 -3 -4 -2
right_child=1 2 3 -5 -6
leaf_value=0.0097633335421590146 -0.014802009412437101 0.006978001105226392 0.0034886532735194939 -0.0084383664593431721 -0.00602002715979362
leaf_weight=1.769295237958431 0.94194876449182663 1.2353232910390941 1.8374832931440326 1.3716662554070351 1.1274523823522029
leaf_count=6 6 12 12 14 6
internal_value=0 -0.00265191 0.000777552 -0.00160924 -0.0100174
internal_weight=0 6.51387 4.44447 3.20915 2.0694
internal_count=56 50 38 26 12
is_linear=0
shrinkage=0.1


Tree=69
num_leaves=6
num_cat=0
split_feature=0 3 4 1 1
split_gain=0.0196531 0.00964848 0.0101642 0.00697967 0.00679128
threshold=0.64285000000000003 0.38810000000000006 0.47425000000000006 0.48500000000000004 0.55500000000000016
decision_type=2 2 2 2 2
left_child=-1 2 -2 -4 -3
right_child=1 4 3 -5 -6
leaf_value=0.012463117236086525 0.0035312415294558165 0.0072873097646785501 -0.0040469677027191141 -0.014113235287818819 -0.0017680391742532645
leaf_weight=1.0974535029381511 0.94918432831764254 1.3995320657268169 1.5772557631134989 1.22283475974109 2.0288256830535829
leaf_count=6 4 12 4 14 16
internal_value=0 -0.0019056 -0.00541157 -0.00844303 0.00192856
internal_weight=0 7.17763 3.74927 2.80009 3.42836
internal_count=56 50 22 18 28
is_linear=0
shrinkage=0.1


Tree=70
num_leaves=6
num_cat=0
split_feature=1 3 4 3 0
split_gain=0.0201592 0.0153403 0.00558391 0.00916936 0.00389043
threshold=0.41000000000000009 0.33050000000000007 0.59120000000000006 0.45575000000000004 0.88750000000000007
decision_type=2 2 2 2 2
left_child=-1 4 3 -3 -2
right_child=1 2 -4 -5 -6
leaf_value=0.0094768242419527235 -0.014437434399559818 -0.0090581586506913014 0.0061877273518255518 0.0023681125708113434 -0.0057250785343255601
leaf_weight=1.7651605010032652 0.94025815138593349 1.0717737158993261 1.3221299964934585 2.0373375457711518 1.1267152121290562
leaf_count=6 6 14 10 14 6
internal_value=0 -0.00257426 0.000744109 -0.00157075 -0.0096883
internal_weight=0 6.49821 4.43124 3.10911 2.06697
internal_count=56 50 38 28 12
is_linear=0
shrinkage=0.1


Tree=71
num_leaves=7
num_cat=0
split_feature=4 3 1 3 4 0
split_gain=0.019921 0.0134858 0.00679216 0.00648568 0.0371458 0.00313185
threshold=0.47425000000000006 0.38810000000000006 0.48500000000000004 0.42870000000000003 0.55125000000000013 0.88750000000000007
decision_type=2 2 2 2 2 2
left_child=5 2 -2 -3 -5 -1
right_child=1 3 -4 4 -6 -7
leaf_value=0.012220491829872615 -0.0036300153124049386 0.0074188199541863273 -0.013571538693302243 0.0045340206428813529 -0.028027979742010468 0.0043688101971964951
leaf_weight=1.0924550127238037 1.5742341279983523 1.1737301754765215 1.2196798390941692 1.8149310168810191 0.43414145242422808 0.94959411025047291
leaf_count=6 4 8 14 10 10 4
internal_value=0 -0.00281481 -0.00796998 0.00139316 -0.00175147 0.0085693
internal_weight=0 6.21672 2.79391 3.4228 2.24907 2.04205
internal_count=56 46 18 28 20 10
is_linear=0
shrinkage=0.1


Tree=72
num_leaves=6
num_cat=0
split_feature=1 3 0 1 0
split_gain=0.0181336 0.0159961 0.00652245 0.00919177 0.00404959
threshold=0.41000000000000009 0.33050000000000007 0.91155000000000019 0.55500000000000016 0.88750000000000007
decision_type=2 2 2 2 2
left_child=-1 4 -3 -4 -2
right_child=1 2 3 -5 -6
leaf_value=0.0090041020722680266 -0.014558520377360183 0.0071476869077133206 0.0051690337768022388 -0.0057930887941397211 -0.0056649794833472551
leaf_weight=1.7593449652194975 0.93899072427302632 1.227283490123227 1.2706488788826393 1.9217984043061731 1.1258861194364724
leaf_count=6 6 12 12 14 6
internal_value=0 -0.00244291 0.000951894 -0.00142998 -0.00970927
internal_weight=0 6.48461 4.41973 3.19245 2.06488
internal_count=56 50 38 26 12
is_linear=0
shrinkage=0.1


Tree=73
num_leaves=6
num_cat=0
split_feature=0 3 4 1 1
split_gain=0.0174461 0.00958044 0.00914562 0.00686082 0.006344
threshold=0.64285000000000003 0.38810000000000006 0.47425000000000006 0.55500000000000016 0.48500000000000004
decision_type=2 2 2 2 2
left_child=-1 2 -2 -3 -4
right_child=1 3 4 -5 -6
leaf_value=0.011790307653247685 0.0032071683862953566 0.0074521148112005669 -0.0039768438463159477 -0.0016836140954805427 -0.013588344678495956
leaf_weight=1.0889677498489616 0.94548821821808848 1.3875366551801565 1.5733336433768275 2.0169685101136565 1.2186205995967609
leaf_count=6 4 12 4 16 14
internal_value=0 -0.00179773 -0.00529335 0.00203973 -0.00817203
internal_weight=0 7.14195 3.73744 3.40451 2.79195
internal_count=56 50 22 28 18
is_linear=0
shrinkage=0.1


Tree=74
num_leaves=6
num_cat=0
split_feature=1 3 4 3 0
split_gain=0.0183797 0.0145792 0.00478228 0.0100026 0.00392597
threshold=0.41000000000000009 0.33050000000000007 0.59120000000000006 0.45575000000000004 0.88750000000000007
decision_type=2 2 2 2 2
left_child=-1 4 3 -3 -2
right_child=1 2 -4 -5 -6
leaf_value=0.0090770639503625489 -0.014181822713746404 -0.0091880446519845421 0.0058565499359286392 0.0027697339108092201 -0.005419656891059446
leaf_weight=1.7546197250485418 0.93724084738642011 1.0679594706743958 1.3079157937318084 2.0278161894530058 1.1253388011828063
leaf_count=6 6 14 10 14 6
internal_value=0 -0.00246306 0.000786596 -0.00135538 -0.0094012
internal_weight=0 6.46627 4.40369 3.09578 2.06258
internal_count=56 50 38 28 12
is_linear=0
shrinkage=0.1


Tree=75
num_leaves=6
num_cat=0
split_feature=4 3 1 1 0
split_gain=0.0175833 0.0131144 0.00620229 0.00612336 0.00287669
threshold=0.47425000000000006 0.38810000000000006 0.48500000000000004 0.55500000000000016 0.88750000000000007
decision_type=2 2 2 2 2
left_child=4 2 -2 -3 -1
right_child=1 3 -4 -5 -6
leaf_value=0.011590911108218496 -0.0035846051601560198 0.0066362678038065686 -0.013097778270568945 -0.002001152260450184 0.0040450136559872429
leaf_weight=1.0842848625034096 1.5704754143953326 1.3851919490844014 1.2159581828163935 2.014321121852845 0.94597664847969998
leaf_count=6 4 12 14 16 4
internal_value=0 -0.00265026 -0.00773601 0.00151832 0.00807499
internal_weight=0 6.18595 2.78643 3.39951 2.03026
internal_count=56 46 18 28 10
is_linear=0
shrinkage=0.1


Tree=76
num_leaves=6
num_cat=0
split_feature=1 3 0 4 0
split_gain=0.0186101 0.0133371 0.00498987 0.00965743 0.00384129
threshold=0.41000000000000009 0.33050000000000007 0.91155000000000019 0.55125000000000013 0.88750000000000007
decision_type=2 2 2 2 2
left_child=-1 4 -3 -4 -2
right_child=1 2 3 -5 -6
leaf_value=0.0091522410316505088 -0.013851599222965087 0.0060722790367374567 0.0032980026261938259 -0.0078479853986701126 -0.0051797764318468184
leaf_weight=1.7484113834798334 0.93542704964056644 1.2190739905927328 1.8237151546636599 1.3548891842365263 1.1252902834676204
leaf_count=6 6 12 12 14 6
internal_value=0 -0.00247769 0.000633067 -0.00145301 -0.0091162
internal_weight=0 6.4584 4.39768 3.1786 2.06072
internal_count=56 50 38 26 12
is_linear=0
shrinkage=0.1


Tree=77
num_leaves=6
num_cat=0
split_feature=1 3 4 3 0
split_gain=0.0164517 0.0129174 0.00487535 0.00880033 0.00347381
threshold=0.41000000000000009 0.33050000000000007 0.59120000000000006 0.45575000000000004 0.88750000000000007
decision_type=2 2 2 2 2
left_child=-1 4 3 -3 -2
right_child=1 2 -4 -5 -6
leaf_value=0.0086014815840560494 -0.01337657879789547 -0.0087875318681252309 0.0058608374510376324 0.002441113185965378 -0.0051258296437187356
leaf_weight=1.7492839992046354 0.93385479087010059 1.0656121346401053 1.3031619153916834 2.0231677209958434 1.1250766231678424
leaf_count=6 6 14 10 14 6
internal_value=0 -0.00233246 0.000731408 -0.00143271 -0.00886806
internal_weight=0 6.45087 4.39194 3.08878 2.05893
internal_count=56 50 38 28 12
is_linear=0
shrinkage=0.1


Tree=78
num_leaves=6
num_cat=0
split_feature=4 3 1 1 0
split_gain=0.0178847 0.0122751 0.00651373 0.00551478 0.00266951
threshold=0.47425000000000006 0.38810000000000006 0.55500000000000016 0.48500000000000004 0.88750000000000007
decision_type=2 2 2 2 2
left_child=4 3 -3 -2 -1
right_child=1 2 -4 -5 -6
leaf_value=0.011566426666330454 -0.0036816570766809 0.0066562935451255998 -0.0022656543601136127 -0.012657052552059801 0.0042842352400577505
leaf_weight=1.0768823865801098 1.5707165375351908 1.3804499469697478 2.0094451829791069 1.2134320809273047 0.94525648653507222
leaf_count=6 4 12 16 14 4
internal_value=0 -0.00267334 0.00136759 -0.00759346 0.00816234
internal_weight=0 6.17404 3.3899 2.78415 2.02214
internal_count=56 46 28 18 10
is_linear=0
shrinkage=0.1


Tree=79
num_leaves=6
num_cat=0
split_feature=1 3 0 1 0
split_gain=0.0168382 0.0119116 0.00425874 0.00856001 0.0033811
threshold=0.41000000000000009 0.33050000000000007 0.91155000000000019 0.55500000000000016 0.88750000000000007
decision_type=2 2 2 2 2
left_child=-1 4 -3 -4 -2
right_child=1 2 3 -5 -6
leaf_value=0.0087193540090956968 -0.013090240872906582 0.0056217336871205118 0.0050321239423916711 -0.0055757363010760265 -0.0049468035944244598
leaf_weight=1.743198364973068 0.93219023803249035 1.2143915868364272 1.2659591364208611 1.90604254277423 1.1253431639634071
leaf_count=6 6 12 12 14 6
internal_value=0 -0.00235875 0.000585871 -0.00134209 -0.00863629
internal_weight=0 6.44393 4.38639 3.172 2.05753
internal_count=56 50 38 26 12
is_linear=0
shrinkage=0.1


Tree=80
num_leaves=6
num_cat=0
split_feature=0 3 4 1 1
split_gain=0.0161731 0.00688456 0.00793995 0.00559277 0.00523359
threshold=0.64285000000000003 0.38810000000000006 0.47425000000000006 0.48500000000000004 0.55500000000000016
decision_type=2 2 2 2 2
left_child=-1 2 -2 -4 -3
right_child=1 4 3 -5 -6
leaf_value=0.011440194179469615 0.0032479183306478999 0.0062722001818784389 -0.003439780670136742 -0.012482421122595982 -0.0017306190812780122
leaf_weight=1.0735211689025161 0.94023223221302066 1.3809714717790487 1.5689445324242117 1.2125869620358569 2.0015809549950063
leaf_count=6 4 12 4 14 16
internal_value=0 -0.00172871 -0.00469644 -0.00738185 0.00153664
internal_weight=0 7.10432 3.72176 2.78153 3.38255
internal_count=56 50 22 18 28
is_linear=0
shrinkage=0.1


Tree=81
num_leaves=8
num_cat=0
split_feature=1 3 4 3 3 1 0
split_gain=0.0169064 0.0109857 0.00492566 0.0319895 0.00587923 0.00533655 0.00333221
threshold=0.41000000000000009 0.33050000000000007 0.55125000000000013 0.42870000000000003 0.49670000000000009 0.6100000000000001 0.88750000000000007
decision_type=2 2 2 2 2 2 2
left_child=-1 6 5 -4 -5 -3 -2
right_child=1 2 3 4 -6 -7 -8
leaf_value=0.0087486321814899942 -0.012821337822261162 0.0083865614709636369 0.0045299263216728707 -0.039964290016985822 -0.016470242211525557 -0.00057915213268631234 -0.0047330588241822937
leaf_weight=1.7387913949787615 0.93072287691757116 1.1124689711723479 1.1885379292070863 0.19825339876115311 0.23018014803528786 1.6463869977742431 1.1250671148300169
leaf_count=6 6 12 10 6 4 6 6
internal_value=0 -0.0023652 0.00046759 -0.00391484 -0.0273419 0.00303614 -0.00839489
internal_weight=0 6.43162 4.37583 1.61697 0.428434 2.75886 2.05579
internal_count=56 50 38 20 10 18 12
is_linear=0
shrinkage=0.1


Tree=82
num_leaves=6
num_cat=0
split_feature=3 3 1 0 4
split_gain=0.0154465 0.0107668 0.00716255 0.0053723 0.00482928
threshold=0.30405000000000004 0.38810000000000006 0.55500000000000016 0.88750000000000007 0.47425000000000006
decision_type=2 2 2 2 2
left_child=-1 3 -3 -2 -5
right_child=1 2 -4 4 -6
leaf_value=0.01000248236647425 -0.012264825412263907 0.0076929583797819244 -0.0016892650239411636 0.0023007887184257622 -0.0067219357701966079
leaf_weight=1.2981627974659202 0.9364547447767112 1.3746771225705745 1.9938864372670648 0.93724735081195865 1.6160461513791231
leaf_count=8 8 12 16 4 8
internal_value=0 -0.0018933 0.00213953 -0.00578609 -0.00340993
internal_weight=0 6.85831 3.36856 3.48975 2.55329
internal_count=56 48 28 20 12
is_linear=0
shrinkage=0.1


Tree=83
num_leaves=6
num_cat=0
split_feature=0 3 1 4 1
split_gain=0.0149583 0.00805474 0.00650854 0.00636639 0.00530606
threshold=0.64285000000000003 0.38810000000000006 0.55500000000000016 0.47425000000000006 0.48500000000000004
decision_type=2 2 2 2 2
left_child=-1 3 -3 -2 -5
right_child=1 2 -4 4 -6
leaf_value=0.011035664476800232 0.002255111695252352 0.0071662034877145097 -0.0017757344412408103 -0.0034331314671505447 -0.012246884926385579
leaf_weight=1.0673755146563051 0.93643454089760814 1.3763087913393977 1.9923054743558166 1.5651399344205859 1.2119606230407951
leaf_count=6 4 12 16 4 14
internal_value=0 -0.00166322 0.00187766 -0.00487522 -0.00727956
internal_weight=0 7.08215 3.36861 3.71354 2.7771
internal_count=56 50 28 22 18
is_linear=0
shrinkage=0.1


Tree=84
num_leaves=6
num_cat=0
split_feature=1 3 1 1 4
split_gain=0.0157659 0.0110567 0.0177207 0.00740029 0.00221415
threshold=0.41000000000000009 0.38810000000000006 0.56500000000000006 0.55500000000000016 0.53495000000000015
decision_type=2 2 2 2 2
left_child=-1 2 -2 -3 -4
right_child=1 3 4 -5 -6
leaf_value=0.008470077434916989 -0.017677751262326829 0.0072809852905265163 0.0022195522835633009 -0.0022458330399203561 -0.0043682796128199043
leaf_weight=1.7306379377841947 0.98594380798749659 1.3818977186456325 0.93563908338546786 1.9888655636459587 1.1219432414509354
leaf_count=6 12 12 4 16 6
internal_value=0 -0.00228531 -0.00665463 0.00165984 -0.00137261
internal_weight=0 6.41429 3.04353 3.37076 2.05758
internal_count=56 50 22 28 10
is_linear=0
shrinkage=0.1


Tree=85
num_leaves=6
num_cat=0
split_feature=1 1 0 2 4
split_gain=0.0168956 0.0136103 0.00416338 0.00392382 4.58555e-05
threshold=0.48500000000000004 0.56500000000000006 0.91155000000000019 0.45000000000000007 0.53495000000000015
decision_type=2 2 2 2 2
left_child=3 -2 4 -1 -3
right_child=1 2 -4 -5 -6
leaf_value=0.011024744633973375 -0.012111419242117496 0.0020756190491181543 -0.0038876572921383822 0.0033475306940603405 0.0030104450619450316
leaf_weight=1.0635583363473415 1.3253646129742263 0.93436076492071185 1.8452814030461016 1.7798077529296279 1.1968620689585803
leaf_count=6 20 4 12 8 6
internal_value=0 -0.00333532 -0.000410249 0.00621919 0.0026006
internal_weight=0 5.30187 3.9765 2.84337 2.13122
internal_count=56 42 22 14 10
is_linear=0
shrinkage=0.1


Tree=86
num_leaves=7
num_cat=0
split_feature=1 4 3 4 4 0
split_gain=0.0214388 0.0106926 0.0573449 0.0168529 0.0105418 0.00190901
threshold=0.48500000000000004 0.49515000000000003 0.42870000000000003 0.59120000000000006 0.59335000000000016 0.88750000000000007
decision_type=2 2 2 2 2 2
left_child=5 -2 3 -3 -4 -1
right_child=1 2 4 -5 -6 -7
leaf_value=0.010335014872432352 0.00094972725767428201 -0.010226172674501986 -0.053952744298649338 0.006720194504246939 -0.021650986268853048 0.0049891193446436949
leaf_weight=1.0618421882390978 2.5180500276619568 1.1955147732514892 0.2658335743471979 1.1526432386599481 0.16297177225351334 1.8009028909727929
leaf_count=6 10 12 8 8 4 8
internal_value=0 -0.0037694 -0.00804854 -0.00190769 -0.0416761 0.00697201
internal_weight=0 5.29501 2.77696 2.34816 0.428805 2.86275
internal_count=56 42 32 20 12 14
is_linear=0
shrinkage=0.1


Tree=87
num_leaves=5
num_cat=0
split_feature=0 3 0 1
split_gain=0.0119494 0.00795684 0.00421266 0.000827027
threshold=0.88750000000000007 0.45575000000000004 0.91155000000000019 0.56500000000000006
decision_type=2 2 2 2
left_child=-1 2 3 -2
right_child=1 -3 -4 -5
leaf_value=0.0085572748158269148 -0.0039801416047433747 0.0035642622904923579 -0.0091768339602273791 -0.00091930718981725616
leaf_weight=1.3586691545788196 1.5648541636765005 2.004149675834924 1.163766984362155 2.0251940311864018
leaf_count=16 4 14 14 8
internal_value=0 -0.00172041 -0.00394837 -0.00225348
internal_weight=0 6.75796 4.75382 3.59005
internal_count=56 40 26 12
is_linear=0
shrinkage=0.1


Tree=88
num_leaves=6
num_cat=0
split_feature=1 3 1 4 4
split_gain=0.0113504 0.0153627 0.0183164 0.00632113 0.00253328
threshold=0.41000000000000009 0.38810000000000006 0.56500000000000006 0.5606500000000002 0.53495000000000015
decision_type=2 2 2 2 2
left_child=-1 2 -2 -3 -4
right_child=1 3 4 -5 -6
leaf_value=0.0071955525170026811 -0.01829705820010117 -0.0010822532153211225 0.0021327461289777729 0.0076851427455906125 -0.0049198025223365222
leaf_weight=1.7258106730878351 0.98560027685016427 1.8910846910439434 0.9338239170610908 1.4550977330654857 1.1204030853696165
leaf_count=6 12 14 4 14 6
internal_value=0 -0.00194458 -0.00709058 0.00273028 -0.00171381
internal_weight=0 6.38601 3.03983 3.34618 2.05423
internal_count=56 50 22 28 10
is_linear=0
shrinkage=0.1


Tree=89
num_leaves=6
num_cat=0
split_feature=0 3 4 1 1
split_gain=0.0114929 0.0100917 0.00627334 0.00476261 0.00460183
threshold=0.64285000000000003 0.38810000000000006 0.47425000000000006 0.55500000000000016 0.48500000000000004
decision_type=2 2 2 2 2
left_child=-1 2 -2 -3 -4
right_child=1 3 4 -5 -6
leaf_value=0.0097200799075907035 0.0020381091700968162 0.0070903408497227753 -0.0038662972448932059 -0.00059636010214369681 -0.012087487223357792
leaf_weight=1.0576600320637224 0.93279439210891757 1.3569826595485213 1.5648053400218489 1.985392249189317 1.2053087450331075
leaf_count=6 4 12 4 16 14
internal_value=0 -0.00145921 -0.00505495 0.00252439 -0.00744343
internal_weight=0 7.04528 3.70291 3.34237 2.77011
internal_count=56 50 22 28 18
is_linear=0
shrinkage=0.1


Tree=90
num_leaves=6
num_cat=0
split_feature=1 3 1 4 4
split_gain=0.0121299 0.0128653 0.0173134 0.00411333 0.002185
threshold=0.41000000000000009 0.38810000000000006 0.56500000000000006 0.5606500000000002 0.53495000000000015
decision_type=2 2 2 2 2
left_child=-1 2 -2 -3 -4
right_child=1 3 4 -5 -6
leaf_value=0.0074493550151798378 -0.017650249038512377 -0.00080243920600327884 0.0020746705803384486 0.0062790457976938593 -0.0044788497388652633
leaf_weight=1.7210530042648313 0.98140175011940334 1.8901154296472671 0.93232208490371737 1.4491127170622347 1.1197920241393147
leaf_count=6 12 14 4 14 6
internal_value=0 -0.00201181 -0.00672589 0.00227069 -0.00150144
internal_weight=0 6.37274 3.03352 3.33923 2.05211
internal_count=56 50 22 28 10
is_linear=0
shrinkage=0.1


Tree=91
num_leaves=7
num_cat=0
split_feature=1 3 1 4 3 4
split_gain=0.0117965 0.0118408 0.0159868 0.00474351 0.0240139 0.00206367
threshold=0.41000000000000009 0.38810000000000006 0.56500000000000006 0.55125000000000013 0.42870000000000003 0.53495000000000015
decision_type=2 2 2 2 2 2
left_child=-1 2 -2 -3 -5 -4
right_child=1 3 5 4 -6 -7
leaf_value=0.0073471628677269354 -0.017030358842095281 0.0056582214353724618 0.0019831375464437763 0.0054601107462944054 -0.022819027821687005 -0.0043872649889131884
leaf_weight=1.7203650139272211 0.97827611502725664 1.7761804466135802 0.9313931837677959 1.1538438429124651 0.40592260798439372 1.1200250168330965
leaf_count=6 12 10 4 8 10 6
internal_value=0 -0.00198563 -0.00651127 0.00212455 -0.00189942 -0.00149495
internal_weight=0 6.36564 3.02969 3.33595 1.55977 2.05142
internal_count=56 50 22 28 18 10
is_linear=0
shrinkage=0.1


Tree=92
num_leaves=6
num_cat=0
split_feature=0 3 4 1 1
split_gain=0.0117241 0.0095275 0.0057761 0.00536759 0.00386818
threshold=0.64285000000000003 0.38810000000000006 0.47425000000000006 0.55500000000000016 0.48500000000000004
decision_type=2 2 2 2 2
left_child=-1 2 -2 -3 -4
right_child=1 3 4 -5 -6
leaf_value=0.0098432214417594061 0.0018414434150038521 0.0072752896734331442 -0.0039851368144929004 -0.00090615997751711686 -0.011531320568831542
leaf_weight=1.0523787625133989 0.93131480365991626 1.3474657596088948 1.5632058382034304 1.9805614217184482 1.2013095159782095
leaf_count=6 4 12 4 16 14
internal_value=0 -0.0014748 -0.00496974 0.00240638 -0.0072643
internal_weight=0 7.02386 3.69583 3.32803 2.76452
internal_count=56 50 22 28 18
is_linear=0
shrinkage=0.1


Tree=93
num_leaves=6
num_cat=0
split_feature=3 3 0 4 4
split_gain=0.0114647 0.00945158 0.00488765 0.00429874 0.00352718
threshold=0.30405000000000004 0.38810000000000006 0.88750000000000007 0.5606500000000002 0.47425000000000006
decision_type=2 2 2 2 2
left_child=-1 2 -2 -3 -4
right_child=1 3 4 -5 -6
leaf_value=0.0086847104583269771 -0.011497347023277113 -0.00096485336677898294 0.0018785277418220834 0.0062936580944673876 -0.0058602081951913236
leaf_weight=1.2790371598675845 0.92896270682103965 1.8879917273297908 0.93082115426659617 1.4368802257813511 1.603638347238302
leaf_count=8 8 14 4 14 8
internal_value=0 -0.00163636 -0.00529236 0.00217199 -0.00301803
internal_weight=0 6.78829 3.46342 3.32487 2.53446
internal_count=56 48 20 28 12
is_linear=0
shrinkage=0.1


Tree=94
num_leaves=7
num_cat=0
split_feature=1 3 1 4 3 4
split_gain=0.0120774 0.0108477 0.0149193 0.00448771 0.0175358 0.00194048
threshold=0.41000000000000009 0.38810000000000006 0.56500000000000006 0.55125000000000013 0.42870000000000003 0.53495000000000015
decision_type=2 2 2 2 2 2
left_child=-1 2 -2 -3 -5 -4
right_child=1 3 5 4 -6 -7
leaf_value=0.0074523028498277438 -0.016522559931391637 0.0053620420766946541 0.0018768857607919178 0.0042646884195899851 -0.020090901356200522 -0.0043038088602192102
leaf_weight=1.7125997208058832 0.97551756119355593 1.7765611791983249 0.93031715601682696 1.1482674833387134 0.39810792496427883 1.1189026124775407
leaf_count=6 12 10 4 8 10 6
internal_value=0 -0.00201063 -0.00634352 0.00193343 -0.00200556 -0.00149786
internal_weight=0 6.34767 3.02474 3.32294 1.54638 2.04922
internal_count=56 50 22 28 18 10
is_linear=0
shrinkage=0.1


Tree=95
num_leaves=6
num_cat=0
split_feature=0 3 0 1 4
split_gain=0.0114231 0.0089923 0.00484169 0.00782644 5.19738e-06
threshold=0.64285000000000003 0.45575000000000004 0.91155000000000019 0.56500000000000006 0.53495000000000015
decision_type=2 2 2 2 2
left_child=-1 2 3 -2 -5
right_child=1 -3 -4 4 -6
leaf_value=0.0097441140163717355 -0.0072941887130876272 0.0039943543622808584 -0.0094819802263437936 0.0017592661765820394 0.0020748679860697786
leaf_weight=1.0466999132186172 1.6216698384378108 2.1137548941187561 1.1512238516006617 0.93023693189024959 1.1884386818855999
leaf_count=6 10 16 14 4 6
internal_value=0 -0.00145592 -0.0038111 -0.00206569 0.0019363
internal_weight=0 7.00532 4.89157 3.74035 2.11868
internal_count=56 50 34 20 10
is_linear=0
shrinkage=0.1


Tree=96
num_leaves=6
num_cat=0
split_feature=1 3 1 1 4
split_gain=0.0105444 0.0114623 0.0145379 0.00533873 0.00196308
threshold=0.41000000000000009 0.38810000000000006 0.56500000000000006 0.55500000000000016 0.53495000000000015
decision_type=2 2 2 2 2
left_child=-1 2 -2 -3 -4
right_child=1 3 4 -5 -6
leaf_value=0.006969457621465263 -0.016402062726757718 0.0070576429383127351 0.0018363802353382156 -0.0011214643323101956 -0.004378464202488907
leaf_weight=1.7096499428153036 0.97262258175760541 1.3385033486410978 0.93082719668746028 1.9764345344156025 1.1195381623692808
leaf_count=6 12 12 4 16 6
internal_value=0 -0.00188001 -0.00633331 0.00218109 -0.00155704
internal_weight=0 6.33793 3.02299 3.31494 2.05037
internal_count=56 50 22 28 10
is_linear=0
shrinkage=0.1


Tree=97
num_leaves=6
num_cat=0
split_feature=0 3 4 4 1
split_gain=0.0110875 0.00763383 0.00498846 0.00485995 0.00381589
threshold=0.64285000000000003 0.38810000000000006 0.47425000000000006 0.5606500000000002 0.48500000000000004
decision_type=2 2 2 2 2
left_child=-1 2 -2 -3 -4
right_child=1 3 4 -5 -6
leaf_value=0.0096204432362024059 0.0017690477027443978 -0.0012808208216656953 -0.0034393275469670292 0.0064565541019379257 -0.01094604955869825
leaf_weight=1.0426037535071371 0.92992773279547725 1.8848339463584127 1.5584148876369002 1.4259361391887067 1.1975092344218863
leaf_count=6 4 14 4 14 14
internal_value=0 -0.00143359 -0.00456416 0.00205164 -0.00670116
internal_weight=0 6.99662 3.68585 3.31077 2.75592
internal_count=56 50 22 28 18
is_linear=0
shrinkage=0.1


Tree=98
num_leaves=6
num_cat=0
split_feature=1 3 1 1 4
split_gain=0.0110747 0.00974853 0.0138581 0.00431741 0.00169063
threshold=0.41000000000000009 0.38810000000000006 0.56500000000000006 0.55500000000000016 0.53495000000000015
decision_type=2 2 2 2 2
left_child=-1 2 -2 -3 -4
right_child=1 3 4 -5 -6
leaf_value=0.0071518971806679909 -0.015891222727202926 0.0062085098842741843 0.0017749327991539413 -0.0011527231886704231 -0.0039950663148337609
leaf_weight=1.7054523117840288 0.96907046844717148 1.3366968343034389 0.92939002066850696 1.9724436441902069 1.1194641622714696
leaf_count=6 12 12 4 16 6
internal_value=0 -0.00192779 -0.00603807 0.00182078 -0.00137771
internal_weight=0 6.32707 3.01792 3.30914 2.04885
internal_count=56 50 22 28 10
is_linear=0
shrinkage=0.1


Tree=99
num_leaves=6
num_cat=0
split_feature=0 3 0 1 4
split_gain=0.0110799 0.00655412 0.00473571 0.00686452 1.69153e-05
threshold=0.64285000000000003 0.45575000000000004 0.91155000000000019 0.56500000000000006 0.53495000000000015
decision_type=2 2 2 2 2
left_child=-1 2 3 -2 -5
right_child=1 -3 -4 4 -6
leaf_value=0.0096330598382722548 -0.0066302007195888114 0.0032285656360289739 -0.009068094889017133 0.0017053801300611659 0.0022749378956829834
leaf_weight=1.0393647737801073 1.615021340781823 2.1064009116962552 1.1462345132022163 0.9285375960171226 1.1893397872336207
leaf_count=6 10 16 14 4 6
internal_value=0 -0.00143328 -0.00344588 -0.0017195 0.00202523
internal_weight=0 6.98553 4.87913 3.7329 2.11788
internal_count=56 50 34 20 10
is_linear=0
shrinkage=0.1


end of trees

feature_importances:
syntactic=200
phonological=174
inventory=126
genetic=88
featural=5

parameters:
[boosting: gbdt]
[objective: lambdarank]
[metric: ndcg]
[tree_learner: serial]
[device_type: cpu]
[data: ]
[valid: ]
[num_iterations: 100]
[learning_rate: 0.1]
[num_leaves: 16]
[num_threads: 6]
[deterministic: 0]
[force_col_wise: 0]
[force_row_wise: 0]
[histogram_pool_size: -1]
[max_depth: -1]
[min_data_in_leaf: 5]
[min_sum_hessian_in_leaf: 0.001]
[bagging_fraction: 1]
[pos_bagging_fraction: 1]
[neg_bagging_fraction: 1]
[bagging_freq: 0]
[bagging_seed: 3]
[feature_fraction: 1]
[feature_fraction_bynode: 1]
[feature_fraction_seed: 2]
[extra_trees: 0]
[extra_seed: 6]
[early_stopping_round: 0]
[first_metric_only: 0]
[max_delta_step: 0]
[lambda_l1: 0]
[lambda_l2: 0]
[linear_lambda: 0]
[min_gain_to_split: 0]
[drop_rate: 0.1]
[max_drop: 50]
[skip_drop: 0.5]
[xgboost_dart_mode: 0]
[uniform_drop: 0]
[drop_seed: 4]
[top_rate: 0.2]
[other_rate: 0.1]
[min_data_per_group: 100]
[max_cat_threshold: 32]
[cat_l2: 10]
[cat_smooth: 10]
[max_cat_to_onehot: 4]
[top_k: 20]
[monotone_constraints: ]
[monotone_constraints_method: basic]
[monotone_penalty: 0]
[feature_contri: ]
[forcedsplits_filename: ]
[refit_decay_rate: 0.9]
[cegb_tradeoff: 1]
[cegb_penalty_split: 0]
[cegb_penalty_feature_lazy: ]
[cegb_penalty_feature_coupled: ]
[path_smooth: 0]
[interaction_constraints: ]
[verbosity: 1]
[saved_feature_importance_type: 0]
[linear_tree: 0]
[max_bin: 255]
[max_bin_by_feature: ]
[min_data_in_bin: 3]
[bin_construct_sample_cnt: 200000]
[data_random_seed: 1]
[is_enable_sparse: 1]
[enable_bundle: 1]
[use_missing: 1]
[zero_as_missing: 0]
[feature_pre_filter: 1]
[pre_partition: 0]
[two_round: 0]
[header: 0]
[label_column: ]
[weight_column: ]
[group_column: ]
[ignore_column: ]
[categorical_feature: ]
[forcedbins_filename: ]
[precise_float_parser: 0]
[parser_config_file: ]
[objective_seed: 5]
[num_class: 1]
[is_unbalance: 0]
[scale_pos_weight: 1]
[sigmoid: 1]
[boost_from_average: 1]
[reg_sqrt: 0]
[alpha: 0.9]
[fair_c: 1]
[poisson_max_delta_step: 0.7]
[tweedie_variance_power: 1.5]
[lambdarank_truncation_level: 30]
[lambdarank_norm: 1]
[label_gain: ]
[eval_at: 1,2,3,4,5]
[multi_error_top_k: 1]
[auc_mu_weights: ]
[num_machines: 1]
[local_listen_port: 12400]
[time_out: 120]
[machine_list_filename: ]
[machines: ]
[gpu_platform_id: -1]
[gpu_device_id: -1]
[gpu_use_dp: 0]
[num_gpu: 1]

end of parameters

pandas_categorical:null
