tree
version=v4
num_class=1
num_tree_per_iteration=1
label_index=0
max_feature_idx=0
objective=lambdarank
feature_names=off_dist
feature_infos=[0:0.87947164010000001]
tree_sizes=953 850 853 851 1056 754 861 854 857 862 758 860 761 656 660 658 759 652 661 661 758 659 661 760 661 662 659 667 665 659 660 669 865 661 664 662 658 665 871 766 768 766 763 763 766 764 665 767 665 756 666 774 770 767 772 668 773 666 668 668 667 667 665 667 666 668 672 668 669 671 669 667 670 670 668 669 667 671 669 668 771 770 668 670 669 669 673 669 669 670 667 674 669 675 772 668 776 667 671 670

Tree=0
num_leaves=8
num_cat=0
split_feature=0 0 0 0 0 0 0
split_gain=1.20387 1.35717 0.402226 0.331918 0.27328 0.394255 0.251746
threshold=0.54197812480000007 0.69938644515000015 0.57229193560000013 0.73125261315000001 0.58048861260000006 0.6490310047500002 0.80233301090000009
decision_type=2 2 2 2 2 2 2
left_child=-1 2 -2 -3 -4 -6 -5
right_child=1 3 4 6 5 -7 -8
leaf_value=0.12064864082958238 0.010020104801326674 0.097665375200758228 -0.18065600950388441 -0.028853667369934569 -0.035237801678148668 -0.152385835317152 0.058739340618186475
leaf_weight=0.70131486654281605 0.39200150594115291 0.62084041535854328 0.35319817438721646 0.75584341213107087 0.74065172672271706 0.46931939758360386 0.57980901002883911
leaf_count=6 4 6 4 12 8 8 8
internal_value=0 -0.0216309 -0.0805536 0.037252 -0.103267 -0.0806768 0.00917061
internal_weight=0 3.91166 1.95517 1.95649 1.56317 1.20997 1.33565
internal_count=56 50 24 26 20 16 20
is_linear=0
shrinkage=0.1


Tree=1
num_leaves=7
num_cat=0
split_feature=0 0 0 0 0 0
split_gain=9.46097 0.844244 1.15141 0.424902 0.412233 1.15133
threshold=0.54197812480000007 0.6490310047500002 0.80233301090000009 0.58048861260000006 0.7601111906500001 0.73125261315000001
decision_type=2 2 2 2 2 2
left_child=-1 3 4 -2 5 -3
right_child=1 2 -4 -5 -6 -7
leaf_value=0.14151250982241287 -0.029347978562697108 -0.095125261807562117 -0.0032491684518624999 0.030696726090193027 -0.11123421203224633 0.0081680523274227246
leaf_weight=3.7705505639314678 2.485267534852027 3.0534599013626558 3.2807894945144653 2.2414225935935974 2.1752042323350906 1.6688618957996366
leaf_count=6 8 14 8 8 8 4
internal_value=0 -0.0357987 -0.0520171 -0.000874448 -0.0752135 -0.0586215
internal_weight=0 14.905 10.1783 4.72669 6.89753 4.72232
internal_count=56 50 34 16 26 18
is_linear=0
shrinkage=0.1


Tree=2
num_leaves=7
num_cat=0
split_feature=0 0 0 0 0 0
split_gain=3.26437 1.85873 0.374908 0.286982 0.0683299 0.0476482
threshold=0.54197812480000007 0.69938644515000015 0.61376230040000002 0.7601111906500001 0.57229193560000013 0.84499235145000007
decision_type=2 2 2 2 2 2
left_child=-1 2 4 -3 -2 -5
right_child=1 3 -4 5 -6 -7
leaf_value=0.1237507890190702 -0.023696656911415655 0.040283405567072647 -0.084689160930381813 0.0092254727094817218 -0.048787997517095553 -0.010400746469713049
leaf_weight=1.8963582813739801 2.1794748753309241 3.1027522683143598 2.5187815465033054 3.3706447184085846 2.1619308348745108 1.9541854262351988
leaf_count=6 4 10 12 12 8 4
internal_value=0 -0.0153506 -0.0539979 0.016109 -0.0361916 0.00202275
internal_weight=0 15.2878 6.86019 8.42758 4.34141 5.32483
internal_count=56 50 24 26 12 16
is_linear=0
shrinkage=0.1


Tree=3
num_leaves=7
num_cat=0
split_feature=0 0 0 0 0 0
split_gain=1.51792 1.18422 0.080171 0.152734 0.062615 0.0513153
threshold=0.57229193560000013 0.80233301090000009 0.69938644515000015 0.61376230040000002 0.6490310047500002 0.73125261315000001
decision_type=2 2 2 2 2 2
left_child=-1 2 3 -2 -5 -4
right_child=1 -3 5 4 -6 -7
leaf_value=0.060388513374129295 -0.03249457126470795 0.027916692336978251 -0.017825017326861176 -0.051515877219442056 -0.10018195023748495 -0.036870448698798526
leaf_weight=3.3250466696918037 1.9467152059078201 4.2960526645183554 2.3690086305141449 0.46172102540731408 0.6185632236301899 3.5119198560714722
leaf_count=10 8 8 6 4 8 12
internal_value=0 -0.0152071 -0.0360046 -0.0492278 -0.0793817 -0.0291984
internal_weight=0 13.204 8.90793 3.027 1.08028 5.88093
internal_count=56 46 38 20 12 18
is_linear=0
shrinkage=0.1


Tree=4
num_leaves=9
num_cat=0
split_feature=0 0 0 0 0 0 0 0
split_gain=2.42263 0.657631 0.151767 0.0930476 0.11607 0.107965 0.0138924 0.637206
threshold=0.54197812480000007 0.69938644515000015 0.80233301090000009 0.58048861260000006 0.61376230040000002 0.6490310047500002 0.73125261315000001 0.7601111906500001
decision_type=2 2 2 2 2 2 2 2
left_child=-1 3 6 -2 -5 -6 -3 -8
right_child=1 2 -4 4 5 -7 7 -9
leaf_value=0.11998591765492504 -0.054425303292751574 -0.0014173742169495687 0.01822231390469908 -0.011685675192596563 -0.01611326482771409 -0.081460987369234752 0.024649283182909387 -0.075771147279247775
leaf_weight=1.5139513537287719 2.5876628533005706 1.5718309134244899 4.0077753067016602 1.680201590061188 0.43383836746215798 0.60595402307808399 1.6742119789123537 1.0149402394890783
leaf_count=6 8 6 8 4 4 8 4 8
internal_value=0 -0.01338 0.00425312 -0.0408506 -0.0279363 -0.0541956 -0.00888596 -0.0132514
internal_weight=0 13.5764 8.26876 5.30766 2.71999 1.03979 4.26098 2.68915
internal_count=56 50 26 24 16 12 18 12
is_linear=0
shrinkage=0.1


Tree=5
num_leaves=6
num_cat=0
split_feature=0 0 0 0 0
split_gain=1.77595 0.34026 0.0727477 0.140235 0.159238
threshold=0.54197812480000007 0.80233301090000009 0.57229193560000013 0.68036491340000016 0.73125261315000001
decision_type=2 2 2 2 2
left_child=-1 2 -2 -4 -5
right_child=1 -3 3 4 -6
leaf_value=0.11376149584103097 -0.0031121074271492346 0.013975636275881984 -0.044813546061862414 0.0073992560389622587 -0.028966500470093793
leaf_weight=1.2557546868920333 1.8690438643097858 3.9880788177251807 2.4566675219684839 1.8842403516173361 3.3357756063342094
leaf_count=6 4 8 16 10 12
internal_value=0 -0.0105555 -0.0208043 -0.0251119 -0.0158398
internal_weight=0 13.5338 9.54573 7.67668 5.22002
internal_count=56 50 42 38 22
is_linear=0
shrinkage=0.1


Tree=6
num_leaves=7
num_cat=0
split_feature=0 0 0 0 0 0
split_gain=0.397954 0.30107 0.170332 0.120036 0.0604012 0.0437364
threshold=0.57229193560000013 0.69938644515000015 0.61376230040000002 0.80233301090000009 0.6490310047500002 0.73125261315000001
decision_type=2 2 2 2 2 2
left_child=-1 2 -2 5 -4 -3
right_child=1 3 4 -5 -6 -7
leaf_value=0.032140275105298391 -0.023031985903719278 0.0033701325425362152 -0.048434464023391091 0.012520933799999766 -0.10765001955897696 -0.017475256917831711
leaf_weight=3.0364157557487497 1.8163536414504045 1.4702180847525577 0.31143639236688603 4.1239112019538879 0.38544771634042263 3.1913299560546875
leaf_count=10 8 6 4 8 8 12
internal_value=0 -0.00863739 -0.0391574 9.34201e-05 -0.0811867 -0.0109008
internal_weight=0 11.2987 2.51324 8.78546 0.696884 4.66155
internal_count=56 46 20 26 12 18
is_linear=0
shrinkage=0.1


Tree=7
num_leaves=7
num_cat=0
split_feature=0 0 0 0 0 0
split_gain=0.10947 1.79528 0.130573 0.0919382 0.102894 0.0266833
threshold=0.69938644515000015 0.54197812480000007 0.58048861260000006 0.7601111906500001 0.73125261315000001 0.84499235145000007
decision_type=2 2 2 2 2 2
left_child=1 -1 -3 4 -2 -5
right_child=3 2 -4 5 -6 -7
leaf_value=0.10707339038201613 0.0016465706117751136 -0.052525577089100495 -0.019347142808552459 0.0049554523217731974 0.038372863238845006 -0.01016505756120056
leaf_weight=1.0626244656741617 1.4330365657806396 2.4866555649787188 2.2680355459451675 3.0348774790763855 1.6311551928520203 1.8963610231876371
leaf_count=6 6 8 16 12 4 4
internal_value=0 -0.0104368 -0.0366991 0.00759362 0.021197 -0.000859303
internal_weight=0 5.81732 4.75469 7.99543 3.06419 4.93124
internal_count=56 30 24 26 10 16
is_linear=0
shrinkage=0.1


Tree=8
num_leaves=7
num_cat=0
split_feature=0 0 0 0 0 0
split_gain=0.38313 0.256596 0.157062 0.121091 0.120074 0.0441904
threshold=0.57229193560000013 0.80233301090000009 0.7601111906500001 0.69938644515000015 0.61376230040000002 0.6490310047500002
decision_type=2 2 2 2 2 2
left_child=-1 2 3 4 -2 -6
right_child=1 -3 -4 -5 5 -7
leaf_value=0.033361261702514612 -0.019104747440663417 0.011851779866752243 -0.060776647478605984 -0.0035189921471045198 -0.040519676532975314 -0.09532308527002531
leaf_weight=2.7584564331918964 1.7654412966221555 4.037064865231514 0.82397357374429692 3.9026609361171722 0.2644398845732211 0.33168062195181847
leaf_count=10 8 8 8 10 4 8
internal_value=0 -0.00827176 -0.0197331 -0.0143344 -0.0322076 -0.0710122
internal_weight=0 11.1253 7.0882 6.26422 2.36156 0.596121
internal_count=56 46 38 30 20 12
is_linear=0
shrinkage=0.1


Tree=9
num_leaves=7
num_cat=0
split_feature=0 0 0 0 0 0
split_gain=0.176359 0.165107 0.0968175 0.069216 0.0714378 0.0288244
threshold=0.57229193560000013 0.69938644515000015 0.61376230040000002 0.80233301090000009 0.73125261315000001 0.6490310047500002
decision_type=2 2 2 2 2 2
left_child=-1 2 -2 4 -3 -4
right_child=1 3 5 -5 -6 -7
leaf_value=0.022324558232919279 -0.018218791270304232 0.010592097660400231 -0.040609181852237518 0.010167193964223734 -0.01629210995629515 -0.087196063251577666
leaf_weight=2.812283569946886 1.7524622082710259 1.4435421675443629 0.23728176578879345 4.0194276422262192 3.1348516270518303 0.30164875462651253
leaf_count=10 8 6 4 8 12 8
internal_value=0 -0.00576562 -0.0296179 0.000591207 -0.00781567 -0.0666847
internal_weight=0 10.8892 2.29139 8.59782 4.57839 0.538931
internal_count=56 46 20 26 18 12
is_linear=0
shrinkage=0.1


Tree=10
num_leaves=6
num_cat=0
split_feature=0 0 0 0 0
split_gain=0.336174 0.219469 0.212766 0.0116783 0.00737427
threshold=0.69938644515000015 0.7601111906500001 0.73125261315000001 0.84499235145000007 0.57229193560000013
decision_type=2 2 2 2 2
left_child=4 2 -2 -3 -1
right_child=1 3 -4 -5 -6
leaf_value=-0.015783604065314673 0.0055708652179065725 0.0038032401379089298 0.058141688629454617 -0.0063552350866335015 -0.023197334530833578
leaf_weight=3.3417084962129593 1.4219978377223015 2.8978558629751205 1.6787064522504807 1.8567991256713865 2.2416899837553501
leaf_count=10 6 12 4 4 20
internal_value=0 0.0133343 0.0340325 -0.000163872 -0.0187602
internal_weight=0 7.85536 3.1007 4.75465 5.5834
internal_count=56 26 10 16 30
is_linear=0
shrinkage=0.1


Tree=11
num_leaves=7
num_cat=0
split_feature=0 0 0 0 0 0
split_gain=0.239462 0.176324 0.0605318 0.176729 0.0700964 0.0236664
threshold=0.57229193560000013 0.80233301090000009 0.73125261315000001 0.69938644515000015 0.61376230040000002 0.6490310047500002
decision_type=2 2 2 2 2 2
left_child=-1 2 3 4 -2 -6
right_child=1 -3 -4 -5 5 -7
leaf_value=0.026654469894071747 -0.016127627034021597 0.010286127353427616 -0.026068025895301203 0.018409322383010795 -0.03434165649965177 -0.078669769136712975
leaf_weight=2.7051033359020957 1.7294674646109327 3.9711114317178726 3.2546036243438721 1.5536422953009608 0.21618157625198353 0.27195422071963549
leaf_count=10 8 8 12 6 4 8
internal_value=0 -0.00655663 -0.0160764 -0.00745359 -0.025573 -0.0590381
internal_weight=0 10.997 7.02585 3.77125 2.2176 0.488136
internal_count=56 46 38 26 20 12
is_linear=0
shrinkage=0.1


Tree=12
num_leaves=6
num_cat=0
split_feature=0 0 0 0 0
split_gain=0.0427888 0.999344 0.157933 0.022803 0.0041727
threshold=0.80233301090000009 0.54197812480000007 0.58048861260000006 0.69938644515000015 0.73125261315000001
decision_type=2 2 2 2 2
left_child=1 -1 -3 -4 -5
right_child=-2 2 3 4 -6
leaf_value=0.099582600443007679 0.0086810970489429404 -0.036711973089433463 -0.014701852564309188 0.0024282573057365416 -0.0040384043542189959
leaf_weight=0.85502509213983913 4.0085639804601678 2.2220026366412622 2.0176426535472274 1.4834614396095274 3.0480780526995659
leaf_count=6 8 8 16 6 12
internal_value=0 -0.003615 -0.0136748 -0.00585878 -0.00192145
internal_weight=0 9.62621 8.77118 6.54918 4.53154
internal_count=56 48 42 34 18
is_linear=0
shrinkage=0.1


Tree=13
num_leaves=5
num_cat=0
split_feature=0 0 0 0
split_gain=0.143926 0.111537 0.0251689 0.0379648
threshold=0.57229193560000013 0.80233301090000009 0.69938644515000015 0.73125261315000001
decision_type=2 2 2 2
left_child=-1 2 -2 -4
right_child=1 -3 3 -5
leaf_value=0.020941474528190278 -0.021977149630288441 0.0080457077257161825 0.0044413120375594852 -0.015138502467749906
leaf_weight=2.633212424814702 2.1487668855115754 4.0019039958715439 1.4599528536200521 3.0783647447824478
leaf_count=10 20 8 6 12
internal_value=0 -0.00515889 -0.0130612 -0.00883978
internal_weight=0 10.689 6.68708 4.53832
internal_count=56 46 38 18
is_linear=0
shrinkage=0.1


Tree=14
num_leaves=5
num_cat=0
split_feature=0 0 0 0
split_gain=0.0642542 0.052848 0.034056 0.0108773
threshold=0.69938644515000015 0.57229193560000013 0.7601111906500001 0.84499235145000007
decision_type=2 2 2 2
left_child=1 -1 -2 -4
right_child=2 -3 3 -5
leaf_value=-0.00019121714740565844 0.012477597515252348 -0.021034402547720724 0.0035510254744225279 -0.0062920707218458776
leaf_weight=2.8793453853577384 3.7190071046352369 2.1063655484467745 2.8479528427124023 1.8532447814941404
leaf_count=10 10 20 12 4
internal_value=0 -0.00899706 0.00532727 -0.000329191
internal_weight=0 4.98571 8.4202 4.7012
internal_count=56 30 26 16
is_linear=0
shrinkage=0.1


Tree=15
num_leaves=5
num_cat=0
split_feature=0 0 0 0
split_gain=0.0473411 0.0744582 0.0324422 0.00822611
threshold=0.57229193560000013 0.69938644515000015 0.80233301090000009 0.73125261315000001
decision_type=2 2 2 2
left_child=-1 -2 3 -3
right_child=1 2 -4 -5
leaf_value=0.011794878823579496 -0.019869918223421171 0.0014325215166768987 0.0077225106600955704 -0.007612281866947017
leaf_weight=2.7118880860507497 2.1011384166777125 1.500230535864828 3.9918119609355927 3.04940365254879
leaf_count=10 20 6 8 12
internal_value=0 -0.00300551 0.00114302 -0.00462978
internal_weight=0 10.6426 8.54145 4.54963
internal_count=56 46 26 18
is_linear=0
shrinkage=0.1


Tree=16
num_leaves=6
num_cat=0
split_feature=0 0 0 0 0
split_gain=0.701508 0.447315 0.592198 0.0944386 0.00590259
threshold=0.69938644515000015 0.7601111906500001 0.73125261315000001 0.58048861260000006 0.84499235145000007
decision_type=2 2 2 2 2
left_child=3 2 -2 -1 -3
right_child=1 4 -4 -5 -6
leaf_value=-0.03719296464303886 0.0013961264639749643 0.0023614213064037572 0.087850973773400884 -0.0098054357319782483 -0.0048816920763204048
leaf_weight=3.5390461627393961 1.469663605093956 2.8647827729582787 1.7190278023481369 1.9543229993432758 1.8527401983737943
leaf_count=14 6 12 4 16 4
internal_value=0 0.0190724 0.0480041 -0.0274496 -0.000483209
internal_weight=0 7.90621 3.18869 5.49337 4.71752
internal_count=56 26 10 30 16
is_linear=0
shrinkage=0.1


Tree=17
num_leaves=5
num_cat=0
split_feature=0 0 0 0
split_gain=0.19229 0.138395 0.171377 0.172448
threshold=0.57229193560000013 0.80233301090000009 0.73125261315000001 0.69938644515000015
decision_type=2 2 2 2
left_child=-1 2 3 -2
right_child=1 -3 -4 -5
leaf_value=0.024988605035702296 -0.018520300576181682 0.0093974308122281996 -0.030403943743327989 0.024547183667913641
leaf_weight=2.5094951577484617 2.086610706523059 3.9267838001251221 3.3590952455997467 1.6769297868013384
leaf_count=10 20 8 12 6
internal_value=0 -0.0056753 -0.0139851 0.000669382
internal_weight=0 11.0494 7.12264 3.76354
internal_count=56 46 38 26
is_linear=0
shrinkage=0.1


Tree=18
num_leaves=5
num_cat=0
split_feature=0 0 0 0
split_gain=0.160273 0.101959 0.00687083 0.0265231
threshold=0.57229193560000013 0.80233301090000009 0.73125261315000001 0.69938644515000015
decision_type=2 2 2 2
left_child=-1 2 3 -2
right_child=1 -3 -4 -5
leaf_value=0.022447251569380964 -0.017375645146326963 0.0072887468359192648 -0.016307217203930302 -0.00017841185024411351
leaf_weight=2.5679385997354993 2.0654702093452197 4.0035370290279388 3.1061255075037479 1.5850474983453753
leaf_count=10 20 8 12 6
internal_value=0 -0.00535708 -0.0128502 -0.00990864
internal_weight=0 10.7602 6.75664 3.65052
internal_count=56 46 38 26
is_linear=0
shrinkage=0.1


Tree=19
num_leaves=5
num_cat=0
split_feature=0 0 0 0
split_gain=0.0725039 0.0698641 0.0137183 0.0103302
threshold=0.57229193560000013 0.80233301090000009 0.69938644515000015 0.73125261315000001
decision_type=2 2 2 2
left_child=-1 2 -2 -4
right_child=1 -3 3 -5
leaf_value=0.014847518521764426 -0.01676725536320002 0.0067814613737803165 -0.00022397995539137541 -0.010284265074027575
leaf_weight=2.6354036238044509 2.0494817076250893 3.9872512221336365 1.5317369550466535 3.0591759085655212
leaf_count=10 20 8 6 12
internal_value=0 -0.00368184 -0.00996456 -0.0069277
internal_weight=0 10.6276 6.64039 4.59091
internal_count=56 46 38 18
is_linear=0
shrinkage=0.1


Tree=20
num_leaves=6
num_cat=0
split_feature=0 0 0 0 0
split_gain=0.0695825 0.905024 0.106866 0.0320165 0.00662983
threshold=0.69938644515000015 0.54197812480000007 0.58048861260000006 0.7601111906500001 0.84499235145000007
decision_type=2 2 2 2 2
left_child=1 -1 -3 -2 -5
right_child=3 2 -4 4 -6
leaf_value=0.094733133390342214 0.012352069987541923 -0.041899568337176771 -0.0098475800181256554 0.003021037235325858 -0.004669257436732
leaf_weight=0.71224010735750276 3.7717106789350492 2.2677219798788428 1.9217575984075663 2.8296963423490524 1.8565162569284437
leaf_count=6 10 8 16 12 4
internal_value=0 -0.00948004 -0.027197 0.00549408 -2.5593e-05
internal_weight=0 4.90172 4.18948 8.45792 4.68621
internal_count=56 30 24 26 16
is_linear=0
shrinkage=0.1


Tree=21
num_leaves=5
num_cat=0
split_feature=0 0 0 0
split_gain=0.0885606 0.0712271 0.00708496 0.01917
threshold=0.57229193560000013 0.80233301090000009 0.69938644515000015 0.73125261315000001
decision_type=2 2 2 2
left_child=-1 2 -2 -4
right_child=1 -3 3 -5
leaf_value=0.017076930434124019 -0.015192695554994619 0.0066347080684984938 0.0008372704968249283 -0.012699983495595951
leaf_weight=2.4668794404715308 2.0234521646052581 3.9869640022516251 1.5830990523099897 3.0836947150528431
leaf_count=10 20 8 6 12
internal_value=0 -0.00394548 -0.0102506 -0.00810779
internal_weight=0 10.6772 6.69025 4.66679
internal_count=56 46 38 18
is_linear=0
shrinkage=0.1


Tree=22
num_leaves=5
num_cat=0
split_feature=0 0 0 0
split_gain=0.0352265 0.0494034 0.0138324 0.00761555
threshold=0.57229193560000013 0.80233301090000009 0.69938644515000015 0.73125261315000001
decision_type=2 2 2 2
left_child=-1 2 -2 -4
right_child=1 -3 3 -5
leaf_value=0.010605618224672094 -0.014751101582637267 0.006278259143086805 0.00092560389960983389 -0.0076976609157873993
leaf_weight=2.5278064729645857 2.0107734901830536 3.9726231843233109 1.5406377017498014 3.0548257119953632
leaf_count=10 20 8 6 12
internal_value=0 -0.0025342 -0.00783352 -0.0048067
internal_weight=0 10.5789 6.60624 4.59546
internal_count=56 46 38 18
is_linear=0
shrinkage=0.1


Tree=23
num_leaves=6
num_cat=0
split_feature=0 0 0 0 0
split_gain=0.028206 0.0232861 0.0159221 0.0290596 7.74736e-06
threshold=0.69938644515000015 0.57229193560000013 0.84499235145000007 0.80233301090000009 0.73125261315000001
decision_type=2 2 2 2 2
left_child=1 -1 3 4 -2
right_child=2 -3 -4 -5 -6
leaf_value=-0.00013100899196013708 0.0010265455141152634 -0.01443112525186553 -0.00475795213901045 0.0154299223531852 0.0013039035548800713
leaf_weight=2.6557001555338511 1.50788129866123 1.9935050187632439 1.8582764863967893 2.1034528315067291 3.0324280336499214
leaf_count=10 6 20 4 4 12
internal_value=0 -0.00626267 0.00342464 0.00571333 0.00121179
internal_weight=0 4.64921 8.50204 6.64376 4.54031
internal_count=56 30 26 22 18
is_linear=0
shrinkage=0.1


Tree=24
num_leaves=5
num_cat=0
split_feature=0 0 0 0
split_gain=0.0193032 0.02771 0.0127824 0.00256902
threshold=0.69938644515000015 0.57229193560000013 0.7601111906500001 0.84499235145000007
decision_type=2 2 2 2
left_child=1 -1 -2 -4
right_child=2 -3 3 -5
leaf_value=0.0015130181164467208 0.0071391550024368158 -0.01411411601508923 0.0012186340535236338 -0.0035409837096266185
leaf_weight=2.6405883347615609 3.7988786026835424 1.9896863736212251 2.9100236892700195 1.8581349551677702
leaf_count=10 10 20 12 4
internal_value=0 -0.00520215 0.00281164 -0.000636173
internal_weight=0 4.63027 8.56704 4.76816
internal_count=56 30 26 16
is_linear=0
shrinkage=0.1


Tree=25
num_leaves=5
num_cat=0
split_feature=0 0 0 0
split_gain=0.0162443 0.0545011 0.0102812 0.0424196
threshold=0.80233301090000009 0.7601111906500001 0.69938644515000015 0.57229193560000013
decision_type=2 2 2 2
left_child=1 2 3 -1
right_child=-2 -3 -4 -5
leaf_value=0.0056125852526022662 0.0053780963327125612 -0.024407864119323608 0.0041371245074888919 -0.013810743434126605
leaf_weight=2.5770531296730006 3.9577888697385797 0.99361079931259233 3.8797531798481941 1.9947066372260449
leaf_count=10 8 8 10 20
internal_value=0 -0.00225358 0.000351011 -0.00286202
internal_weight=0 9.44512 8.45151 4.57176
internal_count=56 48 40 30
is_linear=0
shrinkage=0.1


Tree=26
num_leaves=5
num_cat=0
split_feature=0 0 0 0
split_gain=0.0148829 0.0134448 0.045011 0.0420703
threshold=0.80233301090000009 0.57229193560000013 0.7601111906500001 0.69938644515000015
decision_type=2 2 2 2
left_child=1 -1 3 -3
right_child=-2 2 -4 -5
leaf_value=0.0039348401964228565 0.0051378372866914806 -0.013283911195379453 -0.026038149683393109 0.0046428413665776814
leaf_weight=2.586988937109707 3.954076200723649 1.9789463412016628 0.85117096081376065 3.8675109297037125
leaf_count=10 8 20 8 10
internal_value=0 -0.00218807 -0.00455308 -0.00142512
internal_weight=0 9.28462 6.69763 5.84646
internal_count=56 48 38 30
is_linear=0
shrinkage=0.1


Tree=27
num_leaves=5
num_cat=0
split_feature=0 0 0 0
split_gain=0.0134492 0.0127986 0.0197271 0.000792543
threshold=0.80233301090000009 0.57229193560000013 0.69938644515000015 0.73125261315000001
decision_type=2 2 2 2
left_child=1 -1 -3 -4
right_child=-2 2 3 -5
leaf_value=0.0038728166543684872 0.0048765915314174279 -0.012810662729162517 0.00096453311398558795 -0.0018017317036489477
leaf_weight=2.5786330904811603 3.9526457488536844 1.9718911340460179 1.5659230947494505 3.0587914064526558
leaf_count=10 8 20 6 12
internal_value=0 -0.00210081 -0.00443591 -0.000865078
internal_weight=0 9.17524 6.59661 4.62471
internal_count=56 48 38 18
is_linear=0
shrinkage=0.1


Tree=28
num_leaves=5
num_cat=0
split_feature=0 0 0 0
split_gain=0.0220349 0.0170493 0.0126315 0.00363204
threshold=0.69938644515000015 0.57229193560000013 0.7601111906500001 0.84499235145000007
decision_type=2 2 2 2
left_child=1 -1 -2 -4
right_child=2 -3 3 -5
leaf_value=-0.00033054701206423984 0.0072749120374746906 -0.012638353457194221 0.0017733498709689652 -0.0038796261277590453
leaf_weight=2.6361758364364514 3.8211038559675199 1.9640276003628967 2.9011891148984432 1.8686239868402479
leaf_count=10 10 20 12 4
internal_value=0 -0.00558529 0.00299077 -0.000441262
internal_weight=0 4.6002 8.59092 4.76981
internal_count=56 30 26 16
is_linear=0
shrinkage=0.1


Tree=29
num_leaves=5
num_cat=0
split_feature=0 0 0 0
split_gain=0.0119349 0.0391792 0.00926132 0.032849
threshold=0.80233301090000009 0.7601111906500001 0.57229193560000013 0.69938644515000015
decision_type=2 2 2 2
left_child=1 2 -1 -4
right_child=-2 -3 3 -5
leaf_value=0.0053263916079469547 0.0046037682256703733 -0.020544966248485522 -0.012401262499894259 0.0034121600097721839
leaf_weight=2.5525408806279284 3.9673025459051141 1.0100160911679257 1.9750800346955655 3.9224141910672188
leaf_count=10 8 8 20 10
internal_value=0 -0.0019307 0.00029423 -0.00188378
internal_weight=0 9.46005 8.45004 5.89749
internal_count=56 48 40 30
is_linear=0
shrinkage=0.1


Tree=30
num_leaves=5
num_cat=0
split_feature=0 0 0 0
split_gain=0.0111684 0.0104542 0.0323743 0.0336337
threshold=0.80233301090000009 0.57229193560000013 0.7601111906500001 0.69938644515000015
decision_type=2 2 2 2
left_child=1 -1 3 -3
right_child=-2 2 -4 -5
leaf_value=0.0035396885828804393 0.0044459018340574632 -0.011979119104340607 -0.02189975211390853 0.0040769069543139967
leaf_weight=2.5656698094680888 3.962935522198678 1.9585585482418535 0.87536610290408123 3.9077580720186234
leaf_count=10 8 20 8 10
internal_value=0 -0.00189301 -0.00396052 -0.00128364
internal_weight=0 9.30735 6.74168 5.86632
internal_count=56 48 38 30
is_linear=0
shrinkage=0.1


Tree=31
num_leaves=5
num_cat=0
split_feature=0 0 0 0
split_gain=0.0102497 0.0097815 0.0165198 0.000110095
threshold=0.80233301090000009 0.57229193560000013 0.68036491340000016 0.73125261315000001
decision_type=2 2 2 2
left_child=1 -1 -3 -4
right_child=-2 2 3 -5
leaf_value=0.0034203023787441654 0.0042524991818062427 -0.011981804264894112 -0.00015797902886801116 -0.0011529590513260374
leaf_weight=2.5594873577356321 3.9616228640079507 1.8172360016033051 1.7402103319764135 3.0810333825647831
leaf_count=10 8 16 10 12
internal_value=0 -0.00183158 -0.00385645 -0.000793825
internal_weight=0 9.19797 6.63848 4.82124
internal_count=56 48 38 22
is_linear=0
shrinkage=0.1


Tree=32
num_leaves=7
num_cat=0
split_feature=0 0 0 0 0 0
split_gain=0.0151367 0.633654 0.054457 0.0103421 0.0162415 9.62263e-05
threshold=0.69938644515000015 0.54197812480000007 0.58048861260000006 0.84499235145000007 0.80233301090000009 0.73125261315000001
decision_type=2 2 2 2 2 2
left_child=1 -1 -3 4 5 -2
right_child=3 2 -4 -5 -6 -7
leaf_value=0.092392493555639083 0.00039037163349871879 -0.030121320262323316 -0.0066358273735434977 -0.0041163250726177448 0.0116483938235652 0.001348041087002992
leaf_weight=0.58587699849158603 1.5686902105808238 2.0906400941312318 1.8708045883104203 1.8813094645738599 2.0704294592142105 3.1683379970490932
leaf_count=6 6 8 16 4 4 12
internal_value=0 -0.00467452 -0.0190302 0.00244644 0.00426012 0.0010309
internal_weight=0 4.54732 3.96144 8.68877 6.80746 4.73703
internal_count=56 30 24 26 22 18
is_linear=0
shrinkage=0.1


Tree=33
num_leaves=5
num_cat=0
split_feature=0 0 0 0
split_gain=0.0326042 0.0232812 0.0174495 0.015734
threshold=0.57229193560000013 0.80233301090000009 0.7601111906500001 0.69938644515000015
decision_type=2 2 2 2
left_child=-1 2 3 -2
right_child=1 -3 -4 -5
leaf_value=0.010585998625160853 -0.011081161664367312 0.0037925910794704264 -0.018006721679867766 -9.7149819303690187e-05
leaf_weight=2.3840664345771083 1.9563017506152371 3.9432676583528519 1.0071110874414442 3.9118573516607285
leaf_count=10 20 8 8 10
internal_value=0 -0.00233282 -0.00584601 -0.00375895
internal_weight=0 10.8185 6.87527 5.86816
internal_count=56 46 38 30
is_linear=0
shrinkage=0.1


Tree=34
num_leaves=5
num_cat=0
split_feature=0 0 0 0
split_gain=0.016135 0.0195607 0.00858412 0.00738551
threshold=0.57229193560000013 0.69938644515000015 0.80233301090000009 0.73125261315000001
decision_type=2 2 2 2
left_child=-1 -2 3 -3
right_child=1 2 -4 -5
leaf_value=0.0073861526353763461 -0.010754940537645058 0.0031406281216047427 0.0038099040093223565 -0.0052583730215607395
leaf_weight=2.4105457672849306 1.9397841431200493 1.5570003539323787 3.9300475716590881 3.1959424763917923
leaf_count=10 20 6 8 12
internal_value=0 -0.00167608 0.000352137 -0.00250697
internal_weight=0 10.6228 8.68299 4.75294
internal_count=56 46 26 18
is_linear=0
shrinkage=0.1


Tree=35
num_leaves=5
num_cat=0
split_feature=0 0 0 0
split_gain=0.00767334 0.0272972 0.0111075 0.019433
threshold=0.80233301090000009 0.7601111906500001 0.69938644515000015 0.57229193560000013
decision_type=2 2 2 2
left_child=1 2 3 -1
right_child=-2 -3 -4 -5
leaf_value=0.0027575735766382187 0.0037012423774066662 -0.017450648631945752 0.0042167476772372202 -0.010627767908238913
leaf_weight=2.4610754684545064 3.9272338300943384 0.96943406760692674 3.8431288227438927 1.9393059257417915
leaf_count=10 8 8 10 20
internal_value=0 -0.00157774 0.000288907 -0.00314152
internal_weight=0 9.21294 8.24351 4.40038
internal_count=56 48 40 30
is_linear=0
shrinkage=0.1


Tree=36
num_leaves=5
num_cat=0
split_feature=0 0 0 0
split_gain=0.00711081 0.0266856 0.00872408 0.0190814
threshold=0.80233301090000009 0.7601111906500001 0.69938644515000015 0.57229193560000013
decision_type=2 2 2 2
left_child=1 2 3 -1
right_child=-2 -3 -4 -5
leaf_value=0.0030139594772083992 0.0035548121563111373 -0.018322291395470935 0.003685169581488866 -0.010284656182232729
leaf_weight=2.4508050922304356 3.9285310208797464 0.8577381297945984 3.8499430045485497 1.9275088626891372
leaf_count=10 8 8 10 20
internal_value=0 -0.001537 0.000212749 -0.00284062
internal_weight=0 9.086 8.22826 4.37831
internal_count=56 48 40 30
is_linear=0
shrinkage=0.1


Tree=37
num_leaves=5
num_cat=0
split_feature=0 0 0 0
split_gain=0.00661021 0.00658678 0.0126733 0.00196109
threshold=0.80233301090000009 0.57229193560000013 0.69938644515000015 0.73125261315000001
decision_type=2 2 2 2
left_child=1 -1 -3 -4
right_child=-2 2 3 -5
leaf_value=0.0029340079083530163 0.0034220490860572537 -0.0099761247238623358 0.0025794772745944276 -0.0017785331556974045
leaf_weight=2.4452506778761727 3.928687810897828 1.9210651284083722 1.555142670869827 3.0728882849216461
leaf_count=10 8 20 6 12
internal_value=0 -0.00149474 -0.00314831 -0.000314125
internal_weight=0 8.99435 6.5491 4.62803
internal_count=56 48 38 18
is_linear=0
shrinkage=0.1


Tree=38
num_leaves=7
num_cat=0
split_feature=0 0 0 0 0 0
split_gain=0.0100743 0.483499 0.0391389 0.00953965 0.0125935 0.000527483
threshold=0.69938644515000015 0.54197812480000007 0.58048861260000006 0.84499235145000007 0.80233301090000009 0.73125261315000001
decision_type=2 2 2 2 2 2
left_child=1 -1 -3 4 5 -2
right_child=3 2 -4 -5 -6 -7
leaf_value=0.087655974941972969 0.0023950340292946972 -0.025522806658457686 -0.0054201467753066564 -0.0043200454635850625 0.010280195407265691 0.00013946372611818678
leaf_weight=0.50985608436167318 1.5477998852729777 2.0280970633029942 1.8537510875612495 1.8758381158113477 2.0502594858407974 3.1404538825154305
leaf_count=6 6 8 16 4 4 12
internal_value=0 -0.00389789 -0.0159229 0.00198719 0.00374297 0.000884127
internal_weight=0 4.3917 3.88185 8.61435 6.73851 4.68825
internal_count=56 30 24 26 22 18
is_linear=0
shrinkage=0.1


Tree=39
num_leaves=6
num_cat=0
split_feature=0 0 0 0 0
split_gain=0.0142112 0.0148624 0.00559287 0.0208328 0.00960038
threshold=0.57229193560000013 0.69938644515000015 0.84499235145000007 0.80233301090000009 0.73125261315000001
decision_type=2 2 2 2 2
left_child=-1 -2 3 4 -3
right_child=1 2 -4 -5 -6
leaf_value=0.0071060817447091001 -0.0094965445895913801 0.0043147986497988301 -0.0046010913545501513 0.010023061225730785 -0.0051693857437202714
leaf_weight=2.313293402083219 1.9242617823183525 1.5928799957036952 1.8939845114946363 2.0351410135626793 3.234720341861248
leaf_count=10 20 6 4 4 12
internal_value=0 -0.00153904 0.000209597 0.00153725 -0.00204005
internal_weight=0 10.681 8.75673 6.86274 4.8276
internal_count=56 46 26 22 18
is_linear=0
shrinkage=0.1


Tree=40
num_leaves=6
num_cat=0
split_feature=0 0 0 0 0
split_gain=0.00574141 0.0178966 0.0185025 0.00650753 0.0181222
threshold=0.84499235145000007 0.80233301090000009 0.7601111906500001 0.69938644515000015 0.57229193560000013
decision_type=2 2 2 2 2
left_child=1 2 3 4 -1
right_child=-2 -3 -4 -5 -6
leaf_value=0.0037956916754432845 -0.0050279332486991204 0.0093898383352240752 -0.013702034746512779 0.0034874328237251362 -0.009308976381661227
leaf_weight=2.3300671279430372 1.937952563166619 2.0208515226840964 1.0200040824711312 3.972927987575531 1.9287850381806491
leaf_count=10 4 4 8 10 20
internal_value=0 0.000864382 -0.000997819 0.000576366 -0.00213926
internal_weight=0 11.2726 9.25178 8.23178 4.25885
internal_count=56 52 48 40 30
is_linear=0
shrinkage=0.1


Tree=41
num_leaves=6
num_cat=0
split_feature=0 0 0 0 0
split_gain=0.00955752 0.0151501 0.0168859 0.0103015 0.013884
threshold=0.84499235145000007 0.80233301090000009 0.7601111906500001 0.69938644515000015 0.57229193560000013
decision_type=2 2 2 2 2
left_child=1 2 3 4 -1
right_child=-2 -3 -4 -5 -6
leaf_value=0.0025858977741774151 -0.0063446965205711681 0.0090187244685728217 -0.013500720444728359 0.0043966391744121452 -0.0089336577212429033
leaf_weight=2.309950756374743 2.0139385908842096 2.0037107691168776 0.91078313440084535 4.1203472018241882 1.912522856146097
leaf_count=10 4 4 8 10 20
internal_value=0 0.00113507 -0.000572002 0.000839423 -0.00263176
internal_weight=0 11.2573 9.2536 8.34282 4.22247
internal_count=56 52 48 40 30
is_linear=0
shrinkage=0.1


Tree=42
num_leaves=6
num_cat=0
split_feature=0 0 0 0 0
split_gain=0.035918 0.0196511 0.00925508 0.0058209 0.0107894
threshold=0.84499235145000007 0.69938644515000015 0.57229193560000013 0.73125261315000001 0.80233301090000009
decision_type=2 2 2 2 2
left_child=1 2 -1 -3 -5
right_child=-2 3 -4 4 -6
leaf_value=0.0011091945029856828 -0.011533899144183577 0.0095470920709071431 -0.0083766282229262821 -0.00022586145297566379 0.0092566545760949682
leaf_weight=2.2434191727079433 2.2565371692180642 2.2970201745629311 1.8993932623416183 3.075385820120573 1.9676120728254316
leaf_count=10 4 6 20 12 4
internal_value=0 0.00226657 -0.00323986 0.00537448 0.0034739
internal_weight=0 11.4828 4.14281 7.34002 5.043
internal_count=56 52 30 22 16
is_linear=0
shrinkage=0.1


Tree=43
num_leaves=6
num_cat=0
split_feature=0 0 0 0 0
split_gain=0.0629782 0.0210518 0.0263113 0.0195481 0.0145842
threshold=0.84499235145000007 0.80233301090000009 0.7601111906500001 0.69938644515000015 0.57229193560000013
decision_type=2 2 2 2 2
left_child=1 2 3 4 -1
right_child=-2 -3 -4 -5 -6
leaf_value=0.0030237095676006352 -0.018725823642972105 0.011935086274469433 -0.014671607458306625 0.0074214786901831802 -0.0087395931873688083
leaf_weight=2.3397685121744818 1.5764528214931495 1.9936701804399497 1.0047704800963408 4.0630819648504257 1.9178855093196032
leaf_count=10 4 4 8 10 20
internal_value=0 0.00260799 0.000613985 0.0024598 -0.00227514
internal_weight=0 11.3192 9.32551 8.32074 4.25765
internal_count=56 52 48 40 30
is_linear=0
shrinkage=0.1


Tree=44
num_leaves=6
num_cat=0
split_feature=0 0 0 0 0
split_gain=0.0164948 0.0222435 0.0249302 0.00706417 0.01595
threshold=0.84499235145000007 0.80233301090000009 0.7601111906500001 0.69938644515000015 0.57229193560000013
decision_type=2 2 2 2 2
left_child=1 2 3 4 -1
right_child=-2 -3 -4 -5 -6
leaf_value=0.0036335614964226881 -0.0099993869070252768 0.010861095072770697 -0.016631643900731349 0.0040425742595706195 -0.0086571498467700406
leaf_weight=2.3646133202128077 1.4573215842247016 2.0006409212946883 0.89521874487400133 3.872617170214653 1.9076932510361073
leaf_count=10 4 4 8 10 20
internal_value=0 0.00131986 -0.000791673 0.000949318 -0.00185455
internal_weight=0 11.0408 9.04014 8.14492 4.27231
internal_count=56 52 48 40 30
is_linear=0
shrinkage=0.1


Tree=45
num_leaves=6
num_cat=0
split_feature=0 0 0 0 0
split_gain=0.00746157 0.0206089 0.0182705 0.030984 0.0137262
threshold=0.84499235145000007 0.80233301090000009 0.73125261315000001 0.69938644515000015 0.57229193560000013
decision_type=2 2 2 2 2
left_child=1 2 3 4 -1
right_child=-2 -3 -4 -5 -6
leaf_value=0.0029497114351365924 -0.0067999936314412299 0.010064865294083014 -0.007291025703657009 0.014720258943316892 -0.0084507444536486686
leaf_weight=2.3760771169327164 1.4268107488751418 1.9992292970418937 3.1506661660969257 1.4679579213261602 1.901082834228873
leaf_count=10 4 4 12 6 20
internal_value=0 0.000890525 -0.00117131 0.00218479 -0.00211749
internal_weight=0 10.895 8.89578 5.74512 4.27716
internal_count=56 52 48 36 30
is_linear=0
shrinkage=0.1


Tree=46
num_leaves=5
num_cat=0
split_feature=0 0 0 0
split_gain=0.00929602 0.0141642 0.0118315 0.00802564
threshold=0.68036491340000016 0.73125261315000001 0.80233301090000009 0.57229193560000013
decision_type=2 2 2 2
left_child=3 -2 -3 -1
right_child=1 2 -4 -5
leaf_value=-7.9042691550748828e-05 0.01063365462493924 -0.0044668888643405848 0.0040443844331843563 -0.008933784714225658
leaf_weight=2.4237392554059634 1.5335905617102961 3.1427807882428169 3.4003173559904099 1.7719080187380312
leaf_count=10 10 12 8 16
internal_value=0 0.00198366 -4.37502e-05 -0.00381858
internal_weight=0 8.07669 6.5431 4.19565
internal_count=56 30 20 26
is_linear=0
shrinkage=0.1


Tree=47
num_leaves=6
num_cat=0
split_feature=0 0 0 0 0
split_gain=0.0127426 0.00653312 0.0100289 0.0147451 0.00523661
threshold=0.69938644515000015 0.84499235145000007 0.80233301090000009 0.73125261315000001 0.57229193560000013
decision_type=2 2 2 2 2
left_child=4 2 3 -2 -1
right_child=1 -3 -4 -5 -6
leaf_value=-0.0013082418511353563 0.0096690591694394718 -0.003845970093611813 0.0095832545762900741 -0.0026589988745115414 -0.0083163734622938093
leaf_weight=2.4459051955491304 1.3964411616325376 1.3943426385521887 2.0067467540502548 3.1784648410975933 1.8901841491460798
leaf_count=10 6 4 4 12 20
internal_value=0 0.00237203 0.00368933 0.00110401 -0.00436322
internal_weight=0 7.976 6.58165 4.57491 4.33609
internal_count=56 26 22 18 30
is_linear=0
shrinkage=0.1


Tree=48
num_leaves=5
num_cat=0
split_feature=0 0 0 0
split_gain=0.0134807 0.00541821 0.0048125 0.00147199
threshold=0.69938644515000015 0.7601111906500001 0.57229193560000013 0.84499235145000007
decision_type=2 2 2 2
left_child=2 -2 -1 -3
right_child=1 3 -4 -5
leaf_value=-0.0015621229399556433 0.0052515985924010654 0.0012967981142495656 -0.0082676465297629644 -0.002654789458754882
leaf_weight=2.4598372294567534 3.6837379410862905 2.9575070403516293 1.8947029700502751 1.3837266042828558
leaf_count=10 10 12 20 4
internal_value=0 0.00243082 -0.00447976 3.72675e-05
internal_weight=0 8.02497 4.35454 4.34123
internal_count=56 26 30 16
is_linear=0
shrinkage=0.1


Tree=49
num_leaves=6
num_cat=0
split_feature=0 0 0 0 0
split_gain=0.495224 0.829886 0.16656 0.920893 0.000155745
threshold=0.61376230040000002 0.58048861260000006 0.80233301090000009 0.7601111906500001 0.73125261315000001
decision_type=2 2 2 2 2
left_child=1 -1 3 4 -2
right_child=2 -3 -4 -5 -6
leaf_value=-0.001372319781824013 0.0017828408786577724 0.10162273753295051 0.0045917052425471601 -0.092430983603364769 0.00051486132241652602
leaf_weight=2.4797315462492415 1.6612137625925227 1.1428884733468296 3.3866694942116737 1.4329518340528009 2.3237413540482521
leaf_count=14 18 4 8 8 4
internal_value=0 0.0311213 -0.0128048 -0.0236791 0.00104345
internal_weight=0 3.62262 8.80458 5.41791 3.98496
internal_count=56 18 38 30 22
is_linear=0
shrinkage=0.1


Tree=50
num_leaves=5
num_cat=0
split_feature=0 0 0 0
split_gain=0.00775468 0.00198269 0.00845741 0.0109466
threshold=0.80233301090000009 0.57229193560000013 0.69938644515000015 0.73125261315000001
decision_type=2 2 2 2
left_child=1 -1 -3 -4
right_child=-2 2 3 -5
leaf_value=0.00081100656129656345 0.0040466356264356185 -0.0081325079022055817 0.0072901419643536447 -0.0036123459246415416
leaf_weight=2.419132271781562 3.3872093930840501 1.887980227358639 1.3632643371820448 2.8383481688797474
leaf_count=10 8 20 6 12
internal_value=0 -0.00161091 -0.00257303 -7.4901e-05
internal_weight=0 8.50873 6.08959 4.20161
internal_count=56 48 38 18
is_linear=0
shrinkage=0.1


Tree=51
num_leaves=6
num_cat=0
split_feature=0 0 0 0 0
split_gain=0.00948311 0.00601346 0.00432814 0.0086372 0.00624232
threshold=0.69938644515000015 0.57229193560000013 0.84499235145000007 0.80233301090000009 0.73125261315000001
decision_type=2 2 2 2 2
left_child=1 -1 3 4 -2
right_child=2 -3 -4 -5 -6
leaf_value=-0.00045808248537785548 0.0062466626726556326 -0.0079808133121870694 -0.0029307156718846768 0.0086568069291149997 -0.0019996316787674307
leaf_weight=2.4371099248528481 1.3590338826179502 1.8840965153649447 1.3804684877395628 2.0059834346175194 2.8285086266696453
leaf_count=10 6 20 4 4 12
internal_value=0 -0.00373808 0.00213271 0.00326129 0.000676638
internal_weight=0 4.32121 7.57399 6.19353 4.18754
internal_count=56 30 26 22 18
is_linear=0
shrinkage=0.1


Tree=52
num_leaves=6
num_cat=0
split_feature=0 0 0 0 0
split_gain=0.0107467 0.00498429 0.00336973 0.00723104 0.00416436
threshold=0.69938644515000015 0.57229193560000013 0.84499235145000007 0.80233301090000009 0.73125261315000001
decision_type=2 2 2 2 2
left_child=1 -1 3 4 -2
right_child=2 -3 -4 -5 -6
leaf_value=-0.00099756343991141169 0.0054827356241059179 -0.0078419246415633009 -0.0021994987794955938 0.0082097475557737568 -0.0012781227782329603
leaf_weight=2.448845149949193 1.3446106314659116 1.8814594494178889 1.3748850747942922 2.004985436797142 2.8255053870379925
leaf_count=10 6 20 4 4 12
internal_value=0 -0.00397135 0.00227777 0.00327464 0.000901846
internal_weight=0 4.3303 7.54999 6.1751 4.17012
internal_count=56 30 26 22 18
is_linear=0
shrinkage=0.1


Tree=53
num_leaves=6
num_cat=0
split_feature=0 0 0 0 0
split_gain=0.0103752 0.00480511 0.00259 0.00650437 0.0031658
threshold=0.69938644515000015 0.57229193560000013 0.84499235145000007 0.80233301090000009 0.73125261315000001
decision_type=2 2 2 2 2
left_child=1 -1 3 4 -2
right_child=2 -3 -4 -5 -6
leaf_value=-0.00098451614122641549 0.0048785210615133502 -0.0077039291632270725 -0.001688813408206786 0.0077970210172673363 -0.0010336315574716467
leaf_weight=2.4538384284824133 1.3330881372094152 1.879306513816118 1.3707838878035543 2.0040417239069939 2.8251820504665375
leaf_count=10 6 20 4 4 12
internal_value=0 -0.00389876 0.00224262 0.00311715 0.000861729
internal_weight=0 4.33314 7.5331 6.16231 4.15827
internal_count=56 30 26 22 18
is_linear=0
shrinkage=0.1


Tree=54
num_leaves=6
num_cat=0
split_feature=0 0 0 0 0
split_gain=0.0097143 0.00478086 0.00201949 0.00592659 0.00251437
threshold=0.69938644515000015 0.57229193560000013 0.84499235145000007 0.80233301090000009 0.73125261315000001
decision_type=2 2 2 2 2
left_child=1 -1 3 4 -2
right_child=2 -3 -4 -5 -6
leaf_value=-0.00086761403895227831 0.0043864426867984375 -0.0075701554501106582 -0.0013024387734924066 0.0074129077306127646 -0.0008953387939917483
leaf_weight=2.4571066107600927 1.3234400674700735 1.8772891224361954 1.3675944730639455 2.0031402111053467 2.8256149031221867
leaf_count=10 6 20 4 4 12
internal_value=0 -0.00377058 0.00217336 0.00294601 0.000789411
internal_weight=0 4.3344 7.51979 6.1522 4.14905
internal_count=56 30 26 22 18
is_linear=0
shrinkage=0.1


Tree=55
num_leaves=5
num_cat=0
split_feature=0 0 0 0
split_gain=0.00906856 0.0047708 0.00173661 0.00203213
threshold=0.69938644515000015 0.57229193560000013 0.80233301090000009 0.73125261315000001
decision_type=2 2 2 2
left_child=1 -1 3 -2
right_child=2 -3 -4 -5
leaf_value=-0.00074516495260334428 0.0039785338403711635 -0.0074410266153645439 0.0037890697930716556 -0.00077978101605341089
leaf_weight=2.4598404010757804 1.3151443824172018 1.8753252536989746 3.3673196062445641 2.8263872712850571
leaf_count=10 6 20 8 12
internal_value=0 -0.00364169 0.0021025 0.000731223
internal_weight=0 4.33517 7.50885 4.14153
internal_count=56 30 26 18
is_linear=0
shrinkage=0.1


Tree=56
num_leaves=6
num_cat=0
split_feature=0 0 0 0 0
split_gain=0.00796771 0.00500943 0.00192773 0.00529541 0.00162098
threshold=0.69938644515000015 0.57229193560000013 0.84499235145000007 0.80233301090000009 0.73125261315000001
decision_type=2 2 2 2 2
left_child=1 -1 3 4 -2
right_child=2 -3 -4 -5 -6
leaf_value=-0.00044726825449602469 0.0035858592779183839 -0.0073110798341950688 -0.0014283601194454566 0.0069478087241966156 -0.00066489799568500007
leaf_weight=2.4592898432165384 1.3141893818974493 1.8732119360938666 1.3653351068496702 2.0024077221751213 2.8267020992934704
leaf_count=10 6 20 4 4 12
internal_value=0 -0.00341492 0.00197042 0.0027258 0.000684159
internal_weight=0 4.3325 7.50863 6.1433 4.14089
internal_count=56 30 26 22 18
is_linear=0
shrinkage=0.1


Tree=57
num_leaves=5
num_cat=0
split_feature=0 0 0 0
split_gain=0.00774509 0.0048235 0.00174379 0.000535817
threshold=0.69938644515000015 0.57229193560000013 0.7601111906500001 0.84499235145000007
decision_type=2 2 2 2
left_child=1 -1 -2 -4
right_child=2 -3 3 -5
leaf_value=-0.00045732491428873945 0.003527913588538524 -0.0071924528294984805 0.0013380336961432194 -0.0011218978840633706
leaf_weight=2.4627904277294874 3.609394408762455 1.8712816224433479 2.5268865264952183 1.3631227836012842
leaf_count=10 10 20 12 4
internal_value=0 -0.00336529 0.00194488 0.000476034
internal_weight=0 4.33407 7.4994 3.89001
internal_count=56 30 26 16
is_linear=0
shrinkage=0.1


Tree=58
num_leaves=5
num_cat=0
split_feature=0 0 0 0
split_gain=0.00602485 0.00222847 0.00614276 0.00186572
threshold=0.80233301090000009 0.57229193560000013 0.68036491340000016 0.73125261315000001
decision_type=2 2 2 2
left_child=1 -1 -3 -4
right_child=-2 2 3 -5
leaf_value=0.0011217922163156426 0.0035799338348064106 -0.0074432656138486309 0.0025449865686738744 -0.0018911278412190064
leaf_weight=2.44546648301184 3.3636167868971834 1.7519403807818887 1.4235775559209285 2.8383332453668118
leaf_count=10 8 16 10 12
internal_value=0 -0.00142346 -0.00245846 -0.000409362
internal_weight=0 8.45932 6.01385 4.26191
internal_count=56 48 38 22
is_linear=0
shrinkage=0.1


Tree=59
num_leaves=5
num_cat=0
split_feature=0 0 0 0
split_gain=0.00591103 0.00535404 0.00175581 0.00110764
threshold=0.69938644515000015 0.57229193560000013 0.80233301090000009 0.73125261315000001
decision_type=2 2 2 2
left_child=1 -1 3 -2
right_child=2 -3 -4 -5
leaf_value=0.00012082687248147795 0.0027293967405709104 -0.006983753917779896 0.0033933879257968128 -0.00079211918457134419
leaf_weight=2.4581493968144059 1.3041782751679418 1.8658912219107149 3.3652040138840675 2.8342766910791397
leaf_count=10 6 20 8 12
internal_value=0 -0.00294491 0.00169704 0.000317639
internal_weight=0 4.32404 7.50366 4.13845
internal_count=56 30 26 18
is_linear=0
shrinkage=0.1


Tree=60
num_leaves=5
num_cat=0
split_feature=0 0 0 0
split_gain=0.00612402 0.00492386 0.00181855 0.000641566
threshold=0.69938644515000015 0.57229193560000013 0.7601111906500001 0.84499235145000007
decision_type=2 2 2 2
left_child=1 -1 -2 -4
right_child=2 -3 3 -5
leaf_value=-6.1338906001218155e-05 0.0033470624120936934 -0.0068745119084011423 0.0011709749439609812 -0.001519230541671489
leaf_weight=2.4620393188670278 3.6037108525633812 1.8636723975650964 2.537230372428894 1.3625406920909884
leaf_count=10 10 20 12 4
internal_value=0 -0.0029967 0.00172758 0.000231044
internal_weight=0 4.32571 7.50348 3.89977
internal_count=56 30 26 16
is_linear=0
shrinkage=0.1


Tree=61
num_leaves=5
num_cat=0
split_feature=0 0 0 0
split_gain=0.00520145 0.00231095 0.00531055 0.00104946
threshold=0.80233301090000009 0.57229193560000013 0.68036491340000016 0.73125261315000001
decision_type=2 2 2 2
left_child=1 -1 -3 -4
right_child=-2 2 3 -5
leaf_value=0.0012673378063402995 0.0033257082750123091 -0.0070237910884328476 0.0017457773211515225 -0.0015837690206470106
leaf_weight=2.4472698364406806 3.3643437847495088 1.7457175329327581 1.418775468599051 2.8448931761085987
leaf_count=10 8 16 10 12
internal_value=0 -0.00132308 -0.002378 -0.000475831
internal_weight=0 8.45666 6.00939 4.26367
internal_count=56 48 38 22
is_linear=0
shrinkage=0.1


Tree=62
num_leaves=5
num_cat=0
split_feature=0 0 0 0
split_gain=0.0050652 0.00511568 0.00155701 0.000587901
threshold=0.69938644515000015 0.57229193560000013 0.7601111906500001 0.84499235145000007
decision_type=2 2 2 2
left_child=1 -1 -2 -4
right_child=2 -3 3 -5
leaf_value=0.00026337414811550128 0.0030693608562658353 -0.0066877959429117355 0.0010839636001857423 -0.0014903608455697607
leaf_weight=2.4595439750701189 3.6013236492872238 1.8589302184991536 2.545989777892828 1.3615058958530428
leaf_count=10 10 20 12 4
internal_value=0 -0.00272883 0.00156941 0.00018698
internal_weight=0 4.31847 7.50882 3.9075
internal_count=56 30 26 16
is_linear=0
shrinkage=0.1


Tree=63
num_leaves=5
num_cat=0
split_feature=0 0 0 0
split_gain=0.00506869 0.00236704 0.00477132 0.000966731
threshold=0.80233301090000009 0.57229193560000013 0.69938644515000015 0.73125261315000001
decision_type=2 2 2 2
left_child=1 -1 -3 -4
right_child=-2 2 3 -5
leaf_value=0.0013154295841384632 0.0032829988226748216 -0.0065858574067732328 0.001772001416241769 -0.0015186997779687271
leaf_weight=2.4476887276396138 3.3644224181771287 1.8578369286842642 1.2994203716516493 2.852554690092802
leaf_count=10 8 20 6 12
internal_value=0 -0.00130598 -0.00237363 -0.000488827
internal_weight=0 8.4575 6.00981 4.15198
internal_count=56 48 38 18
is_linear=0
shrinkage=0.1


Tree=64
num_leaves=5
num_cat=0
split_feature=0 0 0 0
split_gain=0.0046498 0.00489909 0.00157164 0.000431771
threshold=0.69938644515000015 0.57229193560000013 0.80233301090000009 0.73125261315000001
decision_type=2 2 2 2
left_child=1 -1 3 -2
right_child=2 -3 -4 -5
leaf_value=0.00030990558649863012 0.0017114719509997859 -0.0064961883304491298 0.0031085611023360352 -0.00048840108374996287
leaf_weight=2.4599226745776832 1.2986579164862631 1.85520135005936 3.3645816668868065 2.8505554534494877
leaf_count=10 6 20 8 12
internal_value=0 -0.00261624 0.00150249 0.000200135
internal_weight=0 4.31512 7.5138 4.14921
internal_count=56 30 26 18
is_linear=0
shrinkage=0.1


Tree=65
num_leaves=5
num_cat=0
split_feature=0 0 0 0
split_gain=0.00487168 0.0045167 0.0019753 0.000617857
threshold=0.69938644515000015 0.57229193560000013 0.7601111906500001 0.84499235145000007
decision_type=2 2 2 2
left_child=1 -1 -2 -4
right_child=2 -3 3 -5
leaf_value=0.00012822591775039696 0.0032304814388284878 -0.0064069441497940222 0.00090066206663834295 -0.0017361730060029509
leaf_weight=2.4632958974689245 3.5955723747611046 1.8532018908299503 2.5596560388803482 1.3611957207322123
leaf_count=10 10 20 12 4
internal_value=0 -0.00267752 0.00153764 -1.47637e-05
internal_weight=0 4.3165 7.51642 3.92085
internal_count=56 30 26 16
is_linear=0
shrinkage=0.1


Tree=66
num_leaves=5
num_cat=0
split_feature=0 0 0 0
split_gain=0.00442427 0.00227358 0.00442562 0.000453464
threshold=0.80233301090000009 0.57229193560000013 0.68036491340000016 0.73125261315000001
decision_type=2 2 2 2
left_child=1 -1 -3 -4
right_child=-2 2 3 -5
leaf_value=0.0013489770594978642 0.0030679479291301354 -0.0065220997706499084 0.00093007286456871577 -0.0012593815028787219
leaf_weight=2.4495449168607575 3.3637525960803041 1.7369096372276542 1.4120434354990719 2.8658359795808792
leaf_count=10 8 16 10 12
internal_value=0 -0.00121921 -0.00226511 -0.000536686
internal_weight=0 8.46433 6.01479 4.27788
internal_count=56 48 38 22
is_linear=0
shrinkage=0.1


Tree=67
num_leaves=5
num_cat=0
split_feature=0 0 0 0
split_gain=0.00410677 0.00465704 0.0017321 0.000545119
threshold=0.69938644515000015 0.57229193560000013 0.7601111906500001 0.84499235145000007
decision_type=2 2 2 2
left_child=1 -1 -2 -4
right_child=2 -3 3 -5
leaf_value=0.00038780512398782887 0.0029964766711455247 -0.0062536746960882711 0.00081545739858050628 -0.001659641340573595
leaf_weight=2.4609920694492757 3.5937861278653145 1.849073725286871 2.5728651098906994 1.3602838367223742
leaf_count=10 10 20 12 4
internal_value=0 -0.00246148 0.00140949 -4.05582e-05
internal_weight=0 4.31007 7.52694 3.93315
internal_count=56 30 26 16
is_linear=0
shrinkage=0.1


Tree=68
num_leaves=5
num_cat=0
split_feature=0 0 0 0
split_gain=0.00436177 0.00231129 0.00407211 0.000455675
threshold=0.80233301090000009 0.57229193560000013 0.69938644515000015 0.73125261315000001
decision_type=2 2 2 2
left_child=1 -1 -3 -4
right_child=-2 2 3 -5
leaf_value=0.0013801482984538878 0.0030466810730446353 -0.0061711482797261966 0.0010253577018300951 -0.0012334283579754695
leaf_weight=2.4496825537644309 3.3635959848761567 1.8480256572365759 1.294651001691818 2.8795677907764912
leaf_count=10 8 20 6 12
internal_value=0 -0.00120962 -0.00226306 -0.000532857
internal_weight=0 8.47193 6.02224 4.17422
internal_count=56 48 38 18
is_linear=0
shrinkage=0.1


Tree=69
num_leaves=5
num_cat=0
split_feature=0 0 0 0
split_gain=0.00389793 0.00133061 0.00447899 0.000163521
threshold=0.80233301090000009 0.69938644515000015 0.57229193560000013 0.73125261315000001
decision_type=2 2 2 2
left_child=1 2 -1 -3
right_child=-2 3 -4 -5
leaf_value=0.00041704018760831981 0.0028805223991379171 0.0010635688918090025 -0.0060996622595432346 -0.00028966884331129252
leaf_weight=2.4611629475839418 3.3637704029679307 1.2939688861370084 1.8455824693664906 2.8812194652855396
leaf_count=10 8 6 20 12
internal_value=0 -0.00114236 -0.00237558 0.000129725
internal_weight=0 8.48193 4.30675 4.17519
internal_count=56 48 30 18
is_linear=0
shrinkage=0.1


Tree=70
num_leaves=5
num_cat=0
split_feature=0 0 0 0
split_gain=0.00401805 0.0041607 0.00216246 0.000545766
threshold=0.69938644515000015 0.57229193560000013 0.7601111906500001 0.84499235145000007
decision_type=2 2 2 2
left_child=1 -1 -2 -4
right_child=2 -3 3 -5
leaf_value=0.00025152524232138849 0.0031685011448130741 -0.0060295679029968539 0.00062877821947270084 -0.0018438918031926065
leaf_weight=2.464095170609653 3.5891499519348145 1.8437202861532567 2.5968907028436661 1.3601715788245203
leaf_count=10 10 20 12 4
internal_value=0 -0.00243675 0.00139104 -0.000221159
internal_weight=0 4.30782 7.54621 3.95706
internal_count=56 30 26 16
is_linear=0
shrinkage=0.1


Tree=71
num_leaves=5
num_cat=0
split_feature=0 0 0 0
split_gain=0.0038432 0.00224168 0.00381535 0.000205084
threshold=0.80233301090000009 0.57229193560000013 0.68036491340000016 0.73125261315000001
decision_type=2 2 2 2
left_child=1 -1 -3 -4
right_child=-2 2 3 -5
leaf_value=0.001417768923438931 0.002861136585439049 -0.0061370582953982449 0.00041455718463097774 -0.0010564845975335939
leaf_weight=2.4508866840042156 3.3629888221621522 1.7287702211178837 1.4063630546443162 2.9060803279280663
leaf_count=10 8 16 10 12
internal_value=0 -0.00113305 -0.0021679 -0.000576752
internal_weight=0 8.4921 6.04121 4.31244
internal_count=56 48 38 22
is_linear=0
shrinkage=0.1


Tree=72
num_leaves=5
num_cat=0
split_feature=0 0 0 0
split_gain=0.00343005 0.00122118 0.00430631 9.28742e-05
threshold=0.80233301090000009 0.69938644515000015 0.57229193560000013 0.73125261315000001
decision_type=2 2 2 2
left_child=1 2 -1 -3
right_child=-2 3 -4 -5
leaf_value=0.00048172454257365273 0.0027031712433638697 0.00084883809909328456 -0.0059132648084461508 -0.00016996351995010497
leaf_weight=2.4618964586406928 3.3638056218624124 1.2916464954614637 1.8399875136092303 2.9121518433094025
leaf_count=10 8 6 20 12
internal_value=0 -0.00106904 -0.00225352 0.00014307
internal_weight=0 8.50568 4.30188 4.2038
internal_count=56 48 30 18
is_linear=0
shrinkage=0.1


Tree=73
num_leaves=5
num_cat=0
split_feature=0 0 0 0
split_gain=0.00360602 0.00403237 0.00242143 0.000528063
threshold=0.69938644515000015 0.57229193560000013 0.7601111906500001 0.84499235145000007
decision_type=2 2 2 2
left_child=1 -1 -2 -4
right_child=2 -3 3 -5
leaf_value=0.00033165558931798448 0.0031988382115174492 -0.0058568361472021652 0.00044518867753993475 -0.001981129460436343
leaf_weight=2.4645960354246199 3.5857925936579704 1.8382215867750344 2.6345593333244324 1.3600572943687441
leaf_count=10 10 20 12 4
internal_value=0 -0.00231215 0.00131244 -0.000380906
internal_weight=0 4.30282 7.58041 3.99462
internal_count=56 30 26 16
is_linear=0
shrinkage=0.1


Tree=74
num_leaves=5
num_cat=0
split_feature=0 0 0 0
split_gain=0.00344293 0.00226937 0.00359986 0.00020087
threshold=0.80233301090000009 0.57229193560000013 0.69938644515000015 0.73125261315000001
decision_type=2 2 2 2
left_child=1 -1 -3 -4
right_child=-2 2 3 -5
leaf_value=0.0014998527661894794 0.0027096916698491 -0.0058015070084564925 0.00053856976169917945 -0.00095745985104840083
leaf_weight=2.4513903651386482 3.3629750832915315 1.8374905809760091 1.2900728136301038 2.9493638277053833
leaf_count=10 8 20 6 12
internal_value=0 -0.00106851 -0.00210457 -0.000502214
internal_weight=0 8.52832 6.07693 4.23944
internal_count=56 48 38 18
is_linear=0
shrinkage=0.1


Tree=75
num_leaves=5
num_cat=0
split_feature=0 0 0 0
split_gain=0.00308819 0.00110109 0.00419508 4.6484e-05
threshold=0.80233301090000009 0.69938644515000015 0.57229193560000013 0.73125261315000001
decision_type=2 2 2 2
left_child=1 2 -1 -3
right_child=-2 3 -4 -5
leaf_value=0.00055863675292438294 0.0025671308471065016 0.00063229769150163978 -0.005757446675697003 -8.7001721484575387e-05
leaf_weight=2.4625157904811186 3.3631377667188653 1.2895113229751585 1.8353448854759333 2.962382148951292
leaf_count=10 8 6 20 12
internal_value=0 -0.00100981 -0.00213856 0.000131147
internal_weight=0 8.54975 4.29786 4.25189
internal_count=56 48 30 18
is_linear=0
shrinkage=0.1


Tree=76
num_leaves=5
num_cat=0
split_feature=0 0 0 0
split_gain=0.00325524 0.00396486 0.00268097 0.000479762
threshold=0.69938644515000015 0.57229193560000013 0.7601111906500001 0.84499235145000007
decision_type=2 2 2 2
left_child=1 -1 -2 -4
right_child=2 -3 3 -5
leaf_value=0.00041820255041662407 0.0032321302057954368 -0.0057220343228825792 0.000250441240288249 -0.0020533551845380248
leaf_weight=2.4651860222220421 3.5827544629573822 1.8339603221975265 2.6964139118790627 1.3597838580608366
leaf_count=10 10 20 12 4
internal_value=0 -0.00220114 0.0012388 -0.000521874
internal_weight=0 4.29915 7.63895 4.0562
internal_count=56 30 26 16
is_linear=0
shrinkage=0.1


Tree=77
num_leaves=5
num_cat=0
split_feature=0 0 0 0
split_gain=0.00314618 0.00235804 0.00347821 8.77844e-05
threshold=0.80233301090000009 0.57229193560000013 0.68036491340000016 0.73125261315000001
decision_type=2 2 2 2
left_child=1 -1 -3 -4
right_child=-2 2 3 -5
leaf_value=0.0016079852297654702 0.0025936650725016928 -0.0058743712810815406 7.7822133847542819e-05 -0.0008796499783216105
leaf_weight=2.4519088035449368 3.3622990921139726 1.7211593883112071 1.4009050955064593 3.0257258303463459
leaf_count=10 8 16 10 12
internal_value=0 -0.00101407 -0.00205981 -0.000576637
internal_weight=0 8.5997 6.14779 4.42663
internal_count=56 48 38 22
is_linear=0
shrinkage=0.1


Tree=78
num_leaves=5
num_cat=0
split_feature=0 0 0 0
split_gain=0.00282204 0.00101555 0.0042385 2.45507e-05
threshold=0.80233301090000009 0.69938644515000015 0.57229193560000013 0.73125261315000001
decision_type=2 2 2 2
left_child=1 2 -1 -3
right_child=-2 3 -4 -5
leaf_value=0.00066249107793639624 0.0024577840683565316 0.00048766227442591898 -0.0056885211111703145 -3.2874434781211309e-05
leaf_weight=2.4632690623402578 3.3629676699638376 1.2875391468405721 1.8325829142704604 3.058161798864603
leaf_count=10 8 6 20 12
internal_value=0 -0.000956477 -0.00204681 0.00012135
internal_weight=0 8.64155 4.29585 4.3457
internal_count=56 48 30 18
is_linear=0
shrinkage=0.1


Tree=79
num_leaves=5
num_cat=0
split_feature=0 0 0 0
split_gain=0.00298628 0.00409924 0.00307878 0.000404448
threshold=0.69938644515000015 0.57229193560000013 0.7601111906500001 0.84499235145000007
decision_type=2 2 2 2
left_child=1 -1 -2 -4
right_child=2 -3 3 -5
leaf_value=0.00054837646587707276 0.0033237770011952765 -0.0056947061742255506 1.104064053330737e-05 -0.0020882009352196479
leaf_weight=2.4661179226823151 3.57978755235672 1.8337972485460339 2.8244767561554909 1.3595462441444395
leaf_count=10 10 20 12 4
internal_value=0 -0.00211413 0.00117089 -0.000671082
internal_weight=0 4.29992 7.76381 4.18402
internal_count=56 30 26 16
is_linear=0
shrinkage=0.1


Tree=80
num_leaves=6
num_cat=0
split_feature=0 0 0 0 0
split_gain=0.00292324 0.01222 0.00339953 0.00361051 0.00264793
threshold=0.80233301090000009 0.7601111906500001 0.73125261315000001 0.57229193560000013 0.69938644515000015
decision_type=2 2 2 2 2
left_child=1 2 3 -1 -5
right_child=-2 -3 -4 4 -6
leaf_value=0.0018426806782694178 0.0025074167244554506 -0.011972043962612165 0.0035408744258489271 -0.0057165728681762363 0.00019767962757910666
leaf_weight=2.4524121969006938 3.3621253147721299 0.90398000553250302 2.2977062985301018 1.8397257970646024 1.2863205894827843
leaf_count=10 8 8 4 20 6
internal_value=0 -0.000960147 0.000303733 -0.00102961 -0.00328295
internal_weight=0 8.78014 7.87616 5.57846 3.12605
internal_count=56 48 40 36 26
is_linear=0
shrinkage=0.1


Tree=81
num_leaves=6
num_cat=0
split_feature=0 0 0 0 0
split_gain=0.0026625 0.0121518 0.00202287 0.00386306 0.00267299
threshold=0.80233301090000009 0.7601111906500001 0.73125261315000001 0.57229193560000013 0.69938644515000015
decision_type=2 2 2 2 2
left_child=1 2 3 -1 -5
right_child=-2 -3 -4 4 -6
leaf_value=0.0022221045140659985 0.0023888904039608841 -0.012576203735880196 0.002770183434535538 -0.0055405448508617956 0.00040668519484628109
leaf_weight=2.4435479575768095 3.3623006269335756 0.81154122576117504 2.3010282963514328 1.832519584801048 1.2861375734210014
leaf_count=10 8 8 4 20 6
internal_value=0 -0.000925917 0.000276475 -0.000755147 -0.0030879
internal_weight=0 8.67477 7.86323 5.56221 3.11866
internal_count=56 48 40 36 26
is_linear=0
shrinkage=0.1


Tree=82
num_leaves=5
num_cat=0
split_feature=0 0 0 0
split_gain=0.00245774 0.00319823 0.00997649 0.00628834
threshold=0.80233301090000009 0.57229193560000013 0.7601111906500001 0.69938644515000015
decision_type=2 2 2 2
left_child=1 -1 3 -3
right_child=-2 2 -4 -5
leaf_value=0.0021679031519355411 0.0022923888512180086 -0.0053918586934869617 -0.012977330653855361 0.0018127591807820271
leaf_weight=2.4399358551017922 3.362352319061757 1.8289682180620728 0.74287306889891613 3.5882940590381622
leaf_count=10 8 20 8 10
internal_value=0 -0.000896247 -0.00210991 -0.000619653
internal_weight=0 8.60007 6.16014 5.41726
internal_count=56 48 38 30
is_linear=0
shrinkage=0.1


Tree=83
num_leaves=5
num_cat=0
split_feature=0 0 0 0
split_gain=0.0023289 0.00253417 0.00289296 0.000166092
threshold=0.80233301090000009 0.57229193560000013 0.68036491340000016 0.73125261315000001
decision_type=2 2 2 2
left_child=1 -1 -3 -4
right_child=-2 2 3 -5
leaf_value=0.0018466824040403529 0.0022295698092460836 -0.0054483621188390801 0.0002949270086970471 -0.001025508557894925
leaf_weight=2.4403528114780766 3.3622414916753778 1.7152209882624445 1.3972478923387823 2.9934975169599056
leaf_count=10 8 16 10 12
internal_value=0 -0.000877145 -0.00196577 -0.000605312
internal_weight=0 8.54632 6.10597 4.39075
internal_count=56 48 38 22
is_linear=0
shrinkage=0.1


Tree=84
num_leaves=5
num_cat=0
split_feature=0 0 0 0
split_gain=0.0021726 0.00378961 0.00195345 0.000564255
threshold=0.69938644515000015 0.57229193560000013 0.7601111906500001 0.84499235145000007
decision_type=2 2 2 2
left_child=1 -1 -2 -4
right_child=2 -3 3 -5
leaf_value=0.00076213042156001159 0.0027120092164550566 -0.0052556754654518806 0.00034343850295523882 -0.0021511369420006503
leaf_weight=2.4527840716764331 3.5820778012275696 1.8251109384000299 2.7199814133346081 1.3601656630635259
leaf_count=10 10 20 12 4
internal_value=0 -0.00180529 0.00100792 -0.000488158
internal_weight=0 4.2779 7.66222 4.08015
internal_count=56 30 26 16
is_linear=0
shrinkage=0.1


Tree=85
num_leaves=5
num_cat=0
split_feature=0 0 0 0
split_gain=0.00249966 0.00201639 0.00932531 0.00645209
threshold=0.80233301090000009 0.57229193560000013 0.7601111906500001 0.69938644515000015
decision_type=2 2 2 2
left_child=1 -1 3 -3
right_child=-2 2 -4 -5
leaf_value=0.0015281555270283843 0.0023127822608153682 -0.0052474566350204166 -0.012240215945073095 0.0020560890150448431
leaf_weight=2.4444223647005838 3.3614408448338517 1.8256939360871909 0.75970813259482373 3.5842310860753059
leaf_count=10 8 20 8 10
internal_value=0 -0.000902512 -0.00186555 -0.000408647
internal_weight=0 8.61406 6.16963 5.40993
internal_count=56 48 38 30
is_linear=0
shrinkage=0.1


Tree=86
num_leaves=5
num_cat=0
split_feature=0 0 0 0
split_gain=0.00234329 0.00207058 0.00278167 6.62726e-05
threshold=0.80233301090000009 0.57229193560000013 0.68036491340000016 0.73125261315000001
decision_type=2 2 2 2
left_child=1 -1 -3 -4
right_child=-2 2 3 -5
leaf_value=0.0015831141880771121 0.0022371323375479867 -0.0052816592060644313 3.823795014827624e-05 -0.00079580362293680596
leaf_weight=2.4411506652832013 3.3614339977502832 1.7124431873671708 1.3944374392740426 3.0074520669877529
leaf_count=10 8 16 10 12
internal_value=0 -0.000878962 -0.00186195 -0.000531595
internal_weight=0 8.55548 6.11433 4.40189
internal_count=56 48 38 22
is_linear=0
shrinkage=0.1


Tree=87
num_leaves=5
num_cat=0
split_feature=0 0 0 0
split_gain=0.00211773 0.000818632 0.00940378 0.00718828
threshold=0.80233301090000009 0.57229193560000013 0.7601111906500001 0.69938644515000015
decision_type=2 2 2 2
left_child=1 -1 3 -3
right_child=-2 2 -4 -5
leaf_value=0.00071211744193283935 0.0021277443657207943 -0.0051172803458574157 -0.012050042039477564 0.0025978833550139788
leaf_weight=2.4513553106226009 3.3619502037763604 1.8223272575996814 0.73646732047200192 3.5801528170704842
leaf_count=10 8 20 8 10
internal_value=0 -0.000832724 -0.0014496 -4.54237e-06
internal_weight=0 8.5903 6.13895 5.40248
internal_count=56 48 38 30
is_linear=0
shrinkage=0.1


Tree=88
num_leaves=5
num_cat=0
split_feature=0 0 0 0
split_gain=0.00197865 0.00165968 0.0028395 5.0277e-05
threshold=0.80233301090000009 0.57229193560000013 0.69938644515000015 0.73125261315000001
decision_type=2 2 2 2
left_child=1 -1 -3 -4
right_child=-2 2 3 -5
leaf_value=0.0013934905515375633 0.0020547834233854605 -0.004998404479664504 0.00024107239577831664 -0.00050737861309082502
leaf_weight=2.4416629108600301 3.3620339930057535 1.8211939889006314 1.2825815081596372 2.9894603900611401
leaf_count=10 8 20 6 12
internal_value=0 -0.000809409 -0.00169215 -0.000282674
internal_weight=0 8.5349 6.09324 4.27204
internal_count=56 48 38 18
is_linear=0
shrinkage=0.1


Tree=89
num_leaves=5
num_cat=0
split_feature=0 0 0 0
split_gain=0.00197578 0.00337237 0.00177814 0.000654714
threshold=0.69938644515000015 0.57229193560000013 0.7601111906500001 0.84499235145000007
decision_type=2 2 2 2
left_child=1 -1 -2 -4
right_child=2 -3 3 -5
leaf_value=0.00069872048878127533 0.0025876646744765809 -0.0049840794260915386 0.00042972549198132476 -0.0022577023753991977
leaf_weight=2.4498820924200118 3.5792846605181694 1.8200718564912675 2.718450166285038 1.3600620105862615
leaf_count=10 10 20 12 4
internal_value=0 -0.00172358 0.000961055 -0.000466451
internal_weight=0 4.26995 7.6578 4.07851
internal_count=56 30 26 16
is_linear=0
shrinkage=0.1


Tree=90
num_leaves=5
num_cat=0
split_feature=0 0 0 0
split_gain=0.00212356 0.00176019 0.00801896 0.00580789
threshold=0.80233301090000009 0.57229193560000013 0.7601111906500001 0.69938644515000015
decision_type=2 2 2 2
left_child=1 -1 3 -3
right_child=-2 2 -4 -5
leaf_value=0.0014392642310643827 0.0021315500500707013 -0.0049799459989117827 -0.011361802717916321 0.0019565717910861933
leaf_weight=2.4418999571353179 3.3608164712786683 1.8207917278632519 0.75848148763179768 3.5812065526843071
leaf_count=10 8 20 8 10
internal_value=0 -0.000832762 -0.00173335 -0.000381443
internal_weight=0 8.60238 6.16048 5.402
internal_count=56 48 38 30
is_linear=0
shrinkage=0.1


Tree=91
num_leaves=5
num_cat=0
split_feature=0 0 0 0
split_gain=0.00199866 0.00182612 0.00256602 1.46971e-05
threshold=0.80233301090000009 0.57229193560000013 0.68036491340000016 0.73125261315000001
decision_type=2 2 2 2
left_child=1 -1 -3 -4
right_child=-2 2 3 -5
leaf_value=0.0015008800599830227 0.002066033482955637 -0.0050252459200171712 -0.00019000313976409041 -0.00058308788031687531
leaf_weight=2.4387752399779838 3.3608097583055505 1.7084017819724975 1.3908271389082072 3.0089589431881905
leaf_count=10 8 16 10 12
internal_value=0 -0.000812403 -0.00173601 -0.000458829
internal_weight=0 8.54696 6.10819 4.39979
internal_count=56 48 38 22
is_linear=0
shrinkage=0.1


Tree=92
num_leaves=5
num_cat=0
split_feature=0 0 0 0
split_gain=0.00180346 0.000790403 0.00804729 0.00639867
threshold=0.80233301090000009 0.57229193560000013 0.7601111906500001 0.69938644515000015
decision_type=2 2 2 2
left_child=1 -1 3 -3
right_child=-2 2 -4 -5
leaf_value=0.00075037979439003489 0.0019635352464676581 -0.0048654549122577667 -0.011157567086369332 0.0024203753311165675
leaf_weight=2.4475395563058537 3.361276403069497 1.8178496113978324 0.73955165222287167 3.5778267234563828
leaf_count=10 8 20 8 10
internal_value=0 -0.000768982 -0.0013751 -3.42833e-05
internal_weight=0 8.58277 6.13523 5.39568
internal_count=56 48 38 30
is_linear=0
shrinkage=0.1


Tree=93
num_leaves=5
num_cat=0
split_feature=0 0 0 0
split_gain=0.00173707 0.00166913 0.00236103 1.18348e-05
threshold=0.77832465235000015 0.57229193560000013 0.68036491340000016 0.73125261315000001
decision_type=2 2 2 2
left_child=1 -1 -3 -4
right_child=-2 2 3 -5
leaf_value=0.0013370236778028014 0.0017313760788583877 -0.0048971667249924963 -0.00019528343112348539 -0.00056033590803511012
leaf_weight=2.4390404052101076 3.8961305283010006 1.7065141592174766 1.3899724935181441 2.4594987072050571
leaf_count=10 12 16 10 8
internal_value=0 -0.000843726 -0.00180106 -0.000428522
internal_weight=0 7.99503 5.55599 3.84947
internal_count=56 44 34 18
is_linear=0
shrinkage=0.1


Tree=94
num_leaves=6
num_cat=0
split_feature=0 0 0 0 0
split_gain=0.00177026 0.00312633 0.00171496 0.00265666 1.44787e-07
threshold=0.69938644515000015 0.57229193560000013 0.84499235145000007 0.80233301090000009 0.73125261315000001
decision_type=2 2 2 2 2
left_child=1 -1 3 4 -2
right_child=2 -3 -4 -5 -6
leaf_value=0.00069867971606465875 0.00017567531974086315 -0.00477745260158034 -0.0023133633831922064 0.0046115853000053492 0.00021578066064969299
leaf_weight=2.4476286373101175 1.2799898162484167 1.8160402714274821 1.3601840510964391 2.0021612942218781 3.033548915758729
leaf_count=10 6 20 4 4 12
internal_value=0 -0.00163379 0.000907515 0.00160118 0.00020388
internal_weight=0 4.26367 7.67588 6.3157 4.31354
internal_count=56 30 26 22 18
is_linear=0
shrinkage=0.1


Tree=95
num_leaves=5
num_cat=0
split_feature=0 0 0 0
split_gain=0.00202609 0.0029285 0.00196089 0.000428097
threshold=0.69938644515000015 0.57229193560000013 0.7601111906500001 0.84499235145000007
decision_type=2 2 2 2
left_child=1 -1 -2 -4
right_child=2 -3 3 -5
leaf_value=0.00050693387030111166 0.0026840729929494649 -0.0047904717817352166 0.00019697520906913248 -0.0019680893940061325
leaf_weight=2.451451470144093 3.5721578374505043 1.8170835105702279 2.7848754189908504 1.358914330601692
leaf_count=10 10 20 12 4
internal_value=0 -0.00174813 0.00096709 -0.000513036
internal_weight=0 4.26853 7.71595 4.14379
internal_count=56 30 26 16
is_linear=0
shrinkage=0.1


Tree=96
num_leaves=6
num_cat=0
split_feature=0 0 0 0 0
split_gain=0.00180909 0.00781624 0.00257989 0.00248453 0.00174435
threshold=0.80233301090000009 0.7601111906500001 0.73125261315000001 0.57229193560000013 0.69938644515000015
decision_type=2 2 2 2 2
left_child=1 2 3 -1 -5
right_child=-2 -3 -4 4 -6
leaf_value=0.0014401745422792332 0.0019707036352892993 -0.0098805959729748403 0.0030393114352907286 -0.0048120915733079091 1.1689990172923846e-05
leaf_weight=2.4417578126303834 3.3591018840670595 0.84825431182980526 2.3006979301571846 1.8209532666951418 1.2742160633206367
leaf_count=10 8 8 4 20 6
internal_value=0 -0.000762141 0.000224736 -0.000944773 -0.00282624
internal_weight=0 8.68588 7.83763 5.53693 3.09517
internal_count=56 48 40 36 26
is_linear=0
shrinkage=0.1


Tree=97
num_leaves=5
num_cat=0
split_feature=0 0 0 0
split_gain=0.00165421 0.00223951 0.00635171 0.00473464
threshold=0.80233301090000009 0.57229193560000013 0.7601111906500001 0.69938644515000015
decision_type=2 2 2 2
left_child=1 -1 3 -3
right_child=-2 2 -4 -5
leaf_value=0.0018346940606190751 0.0018820580425829927 -0.0046847280396274176 -0.010176954619816644 0.001584093921220436
leaf_weight=2.4338485896587354 3.3592851981520662 1.8164530368521807 0.7807797249406575 3.5779609307646751
leaf_count=10 8 20 8 10
internal_value=0 -0.000734385 -0.00174694 -0.000526797
internal_weight=0 8.60904 6.17519 5.39441
internal_count=56 48 38 30
is_linear=0
shrinkage=0.1


Tree=98
num_leaves=5
num_cat=0
split_feature=0 0 0 0
split_gain=0.0016884 0.00203103 0.00197648 8.21195e-05
threshold=0.77832465235000015 0.57229193560000013 0.68036491340000016 0.73125261315000001
decision_type=2 2 2 2
left_child=1 -1 -3 -4
right_child=-2 2 3 -5
leaf_value=0.0015733185513475082 0.0016974310757184533 -0.0047263350214328025 -1.868596608482479e-05 -0.00098150772684456366
leaf_weight=2.4341459600254893 3.92772151902318 1.7040383750572798 1.3835094585083427 2.4625982828438282
leaf_count=10 12 16 10 8
internal_value=0 -0.000835025 -0.00189126 -0.000635165
internal_weight=0 7.98429 5.55015 3.84611
internal_count=56 44 34 18
is_linear=0
shrinkage=0.1


Tree=99
num_leaves=5
num_cat=0
split_feature=0 0 0 0
split_gain=0.00158494 0.00297781 0.00149804 0.000420729
threshold=0.69938644515000015 0.57229193560000013 0.7601111906500001 0.84499235145000007
decision_type=2 2 2 2
left_child=1 -1 -2 -4
right_child=2 -3 3 -5
leaf_value=0.00072918199129374845 0.0023550580349273593 -0.0046177381801480333 0.00026461112345162299 -0.00188150436132221
leaf_weight=2.4451895677484572 3.5732238441705704 1.8144908114336429 2.7868751510977745 1.3588865250349043
leaf_count=10 10 20 12 4
internal_value=0 -0.00154844 0.000854495 -0.000438837
internal_weight=0 4.25968 7.71899 4.14576
internal_count=56 30 26 16
is_linear=0
shrinkage=0.1


end of trees

feature_importances:
off_dist=451

parameters:
[boosting: gbdt]
[objective: lambdarank]
[metric: ndcg]
[tree_learner: serial]
[device_type: cpu]
[data: ]
[valid: ]
[num_iterations: 100]
[learning_rate: 0.1]
[num_leaves: 16]
[num_threads: 6]
[deterministic: 0]
[force_col_wise: 0]
[force_row_wise: 0]
[histogram_pool_size: -1]
[max_depth: -1]
[min_data_in_leaf: 5]
[min_sum_hessian_in_leaf: 0.001]
[bagging_fraction: 1]
[pos_bagging_fraction: 1]
[neg_bagging_fraction: 1]
[bagging_freq: 0]
[bagging_seed: 3]
[feature_fraction: 1]
[feature_fraction_bynode: 1]
[feature_fraction_seed: 2]
[extra_trees: 0]
[extra_seed: 6]
[early_stopping_round: 0]
[first_metric_only: 0]
[max_delta_step: 0]
[lambda_l1: 0]
[lambda_l2: 0]
[linear_lambda: 0]
[min_gain_to_split: 0]
[drop_rate: 0.1]
[max_drop: 50]
[skip_drop: 0.5]
[xgboost_dart_mode: 0]
[uniform_drop: 0]
[drop_seed: 4]
[top_rate: 0.2]
[other_rate: 0.1]
[min_data_per_group: 100]
[max_cat_threshold: 32]
[cat_l2: 10]
[cat_smooth: 10]
[max_cat_to_onehot: 4]
[top_k: 20]
[monotone_constraints: ]
[monotone_constraints_method: basic]
[monotone_penalty: 0]
[feature_contri: ]
[forcedsplits_filename: ]
[refit_decay_rate: 0.9]
[cegb_tradeoff: 1]
[cegb_penalty_split: 0]
[cegb_penalty_feature_lazy: ]
[cegb_penalty_feature_coupled: ]
[path_smooth: 0]
[interaction_constraints: ]
[verbosity: 1]
[saved_feature_importance_type: 0]
[linear_tree: 0]
[max_bin: 255]
[max_bin_by_feature: ]
[min_data_in_bin: 3]
[bin_construct_sample_cnt: 200000]
[data_random_seed: 1]
[is_enable_sparse: 1]
[enable_bundle: 1]
[use_missing: 1]
[zero_as_missing: 0]
[feature_pre_filter: 1]
[pre_partition: 0]
[two_round: 0]
[header: 0]
[label_column: ]
[weight_column: ]
[group_column: ]
[ignore_column: ]
[categorical_feature: ]
[forcedbins_filename: ]
[precise_float_parser: 0]
[parser_config_file: ]
[objective_seed: 5]
[num_class: 1]
[is_unbalance: 0]
[scale_pos_weight: 1]
[sigmoid: 1]
[boost_from_average: 1]
[reg_sqrt: 0]
[alpha: 0.9]
[fair_c: 1]
[poisson_max_delta_step: 0.7]
[tweedie_variance_power: 1.5]
[lambdarank_truncation_level: 30]
[lambdarank_norm: 1]
[label_gain: ]
[eval_at: 1,2,3,4,5]
[multi_error_top_k: 1]
[auc_mu_weights: ]
[num_machines: 1]
[local_listen_port: 12400]
[time_out: 120]
[machine_list_filename: ]
[machines: ]
[gpu_platform_id: -1]
[gpu_device_id: -1]
[gpu_use_dp: 0]
[num_gpu: 1]

end of parameters

pandas_categorical:null
