519 200
aar 7.689777851 0.229200542 0.431774676 4.808625698 1.369967461 0.208333388 -9.249432564 5.225506306 -1.054718375 -0.277120531 -3.971029997 -1.911981940 -0.965683937 -1.255786180 1.419660091 1.444771409 1.517321944 -0.431610763 4.570951939 2.098015308 -0.371031970 2.445768356 2.179763317 -4.181012630 -4.108964443 0.449478626 -1.310327649 -1.933817387 -0.777848721 2.841569185 0.012993127 -1.022662878 4.148152828 -6.284265041 2.932179451 1.492009640 -1.519816518 -4.786352634 2.769186974 1.939825058 -1.201309443 -0.364099443 8.801748276 -1.547454596 -0.881397426 -4.963288307 3.923638344 3.686266899 -0.981468320 0.755366325 0.173176855 0.076205909 -0.888116896 1.118129492 -2.542918205 -7.172254086 -4.104342461 -0.589022160 -2.429230213 1.185514092 3.481597662 -1.480413437 -6.173865318 -5.163619518 3.447523594 -1.604804993 -4.224473000 -4.609004498 4.744102955 4.702799797 0.015714645 0.018255100 3.363350153 6.268300056 -0.557907999 -0.150807768 4.792060852 0.368927360 -1.136100531 -2.733020067 -0.782301068 -1.923919320 -3.276770115 9.232969284 1.964844465 1.262729168 -0.666805208 -5.834470272 -4.827894688 6.432994366 2.336418390 -1.606591940 1.166143894 -3.997779608 -2.359060287 -2.704143047 1.344255328 -2.385770559 10.522288322 5.694785595 7.689777851 0.229200542 0.431774676 4.808625698 1.369967461 0.208333388 -9.249432564 5.225506306 -1.054718375 -0.277120531 -3.971029997 -1.911981940 -0.965683937 -1.255786180 1.419660091 1.444771409 1.517321944 -0.431610763 4.570951939 2.098015308 -0.371031970 2.445768356 2.179763317 -4.181012630 -4.108964443 0.449478626 -1.310327649 -1.933817387 -0.777848721 2.841569185 0.012993127 -1.022662878 4.148152828 -6.284265041 2.932179451 1.492009640 -1.519816518 -4.786352634 2.769186974 1.939825058 -1.201309443 -0.364099443 8.801748276 -1.547454596 -0.881397426 -4.963288307 3.923638344 3.686266899 -0.981468320 0.755366325 0.173176855 0.076205909 -0.888116896 1.118129492 -2.542918205 -7.172254086 -4.104342461 -0.589022160 -2.429230213 1.185514092 3.481597662 -1.480413437 -6.173865318 -5.163619518 3.447523594 -1.604804993 -4.224473000 -4.609004498 4.744102955 4.702799797 0.015714645 0.018255100 3.363350153 6.268300056 -0.557907999 -0.150807768 4.792060852 0.368927360 -1.136100531 -2.733020067 -0.782301068 -1.923919320 -3.276770115 9.232969284 1.964844465 1.262729168 -0.666805208 -5.834470272 -4.827894688 6.432994366 2.336418390 -1.606591940 1.166143894 -3.997779608 -2.359060287 -2.704143047 1.344255328 -2.385770559 10.522288322 5.694785595
abe 8.223729134 0.576281786 0.571471512 4.833727837 1.462172627 -0.094291762 -9.211045265 5.103636265 -0.981088996 -0.400196403 -3.940629244 -1.817501307 -0.980054140 -1.617354870 1.415060163 1.287884951 1.950552702 -0.857075572 4.802982807 1.775805116 -0.704178512 2.564580441 2.403754711 -4.708093166 -4.094807625 0.650104046 -1.615276933 -1.743168473 -0.598515391 3.341796398 0.279808372 -0.614574671 3.816761494 -6.660337448 3.009785891 1.435615540 -1.709626198 -4.588700294 2.287380934 1.829361081 -1.254192829 -0.348110527 9.160184860 -1.331184149 -0.665669739 -5.031855583 4.236723423 3.199166298 -1.376800895 1.209923983 0.671910524 0.271506965 -0.724801660 1.414652228 -2.195591450 -7.221010685 -4.211463451 -0.660130143 -2.551944256 1.639636397 3.613809109 -1.369213223 -6.430285454 -4.668564320 3.926229477 -1.603592992 -4.143857956 -4.494102478 4.338868618 5.088674068 -0.214352250 -0.595981061 3.896993876 5.971848965 -1.131344318 -0.277125716 4.774234772 0.325251818 -0.744129896 -2.542642832 -1.077404976 -2.306225777 -3.494923115 8.972434998 1.851830363 1.453411579 -0.765703499 -6.002130032 -5.095335960 6.351413727 2.700915337 -1.746429682 1.500904083 -4.128487587 -2.696548700 -2.571913719 1.416014791 -2.798980713 10.222921371 5.181292057 8.223729134 0.576281786 0.571471512 4.833727837 1.462172627 -0.094291762 -9.211045265 5.103636265 -0.981088996 -0.400196403 -3.940629244 -1.817501307 -0.980054140 -1.617354870 1.415060163 1.287884951 1.950552702 -0.857075572 4.802982807 1.775805116 -0.704178512 2.564580441 2.403754711 -4.708093166 -4.094807625 0.650104046 -1.615276933 -1.743168473 -0.598515391 3.341796398 0.279808372 -0.614574671 3.816761494 -6.660337448 3.009785891 1.435615540 -1.709626198 -4.588700294 2.287380934 1.829361081 -1.254192829 -0.348110527 9.160184860 -1.331184149 -0.665669739 -5.031855583 4.236723423 3.199166298 -1.376800895 1.209923983 0.671910524 0.271506965 -0.724801660 1.414652228 -2.195591450 -7.221010685 -4.211463451 -0.660130143 -2.551944256 1.639636397 3.613809109 -1.369213223 -6.430285454 -4.668564320 3.926229477 -1.603592992 -4.143857956 -4.494102478 4.338868618 5.088674068 -0.214352250 -0.595981061 3.896993876 5.971848965 -1.131344318 -0.277125716 4.774234772 0.325251818 -0.744129896 -2.542642832 -1.077404976 -2.306225777 -3.494923115 8.972434998 1.851830363 1.453411579 -0.765703499 -6.002130032 -5.095335960 6.351413727 2.700915337 -1.746429682 1.500904083 -4.128487587 -2.696548700 -2.571913719 1.416014791 -2.798980713 10.222921371 5.181292057
abk 6.154894352 1.408752561 -0.667788804 3.907407761 1.815904260 0.617556095 -12.092350960 4.563089848 0.542899609 -1.109001994 -3.911517620 -2.404053211 -0.435588151 -0.547764659 -0.759382248 2.551746845 3.160933733 0.079279788 5.281754494 2.457862377 -3.255331516 2.256202221 2.729032516 -4.862930298 -5.258072853 -0.187396646 -6.945059776 -2.916727781 -3.521680355 1.954828382 1.978702068 -2.742900372 2.346385956 -5.095717430 4.892841816 0.874844909 -2.228734255 -2.813405752 2.534562588 3.166527271 -2.031090736 -0.772127271 7.824557304 -0.203639537 -0.577544034 -3.938667774 1.628735423 -0.071190268 -0.442363858 2.300454378 2.187947989 2.539742470 -1.075991035 -1.072575450 -1.569204807 -4.890387058 -4.041014671 -0.529401779 -3.245063543 2.172773361 1.864488959 -1.180670023 -6.983108997 -3.403590679 3.846536160 -0.127681285 -7.237802982 -1.085077286 5.214337349 5.907233715 0.001512490 -1.779709816 4.835550308 5.079823971 -2.851881742 -0.920206606 5.949679375 1.631556869 -1.355782032 -0.497845799 -1.394406080 -0.678146124 -0.465315014 9.702186584 4.473918915 2.310208559 -0.138840765 -6.033772945 -4.718882084 8.341279984 0.569590151 -1.358958364 2.594178200 -3.734224081 -4.508227348 -1.815674424 3.014852524 -0.334891140 10.686745644 5.338518620 6.154894352 1.408752561 -0.667788804 3.907407761 1.815904260 0.617556095 -12.092350960 4.563089848 0.542899609 -1.109001994 -3.911517620 -2.404053211 -0.435588151 -0.547764659 -0.759382248 2.551746845 3.160933733 0.079279788 5.281754494 2.457862377 -3.255331516 2.256202221 2.729032516 -4.862930298 -5.258072853 -0.187396646 -6.945059776 -2.916727781 -3.521680355 1.954828382 1.978702068 -2.742900372 2.346385956 -5.095717430 4.892841816 0.874844909 -2.228734255 -2.813405752 2.534562588 3.166527271 -2.031090736 -0.772127271 7.824557304 -0.203639537 -0.577544034 -3.938667774 1.628735423 -0.071190268 -0.442363858 2.300454378 2.187947989 2.539742470 -1.075991035 -1.072575450 -1.569204807 -4.890387058 -4.041014671 -0.529401779 -3.245063543 2.172773361 1.864488959 -1.180670023 -6.983108997 -3.403590679 3.846536160 -0.127681285 -7.237802982 -1.085077286 5.214337349 5.907233715 0.001512490 -1.779709816 4.835550308 5.079823971 -2.851881742 -0.920206606 5.949679375 1.631556869 -1.355782032 -0.497845799 -1.394406080 -0.678146124 -0.465315014 9.702186584 4.473918915 2.310208559 -0.138840765 -6.033772945 -4.718882084 8.341279984 0.569590151 -1.358958364 2.594178200 -3.734224081 -4.508227348 -1.815674424 3.014852524 -0.334891140 10.686745644 5.338518620
abq 7.494393349 0.471774459 0.812618732 5.261512280 1.565626144 0.560425103 -9.216824532 5.078619480 -0.761196434 -0.133358955 -3.957749605 -2.232259750 -1.099626541 -1.442362309 1.312822580 1.315550566 1.726043224 -0.467328161 4.657349586 1.995998144 -0.690789878 2.790931225 2.264107227 -4.015228271 -4.243350506 0.703191459 -1.189985752 -1.690790057 -0.620602608 2.851581097 0.134745225 -0.570529819 4.619420052 -5.929656982 2.631496906 1.448107123 -1.761799932 -4.728081226 3.057031631 1.607152939 -1.105152726 0.106852353 9.084430695 -1.367142797 -0.934649527 -5.087700367 3.737613201 4.142458916 -0.885302126 1.067112803 0.478095144 -0.030091979 -0.624880195 0.913418829 -2.008253574 -7.137821674 -3.517014742 -0.309871972 -2.809388638 1.817505479 3.801627874 -1.697661996 -6.623686790 -4.944048405 3.465160847 -1.447584510 -3.781618357 -5.063812256 4.519424438 4.764320374 -0.438721210 0.164860308 3.352361917 6.082150936 -0.192842185 -0.426034659 4.424824238 0.255880833 -1.446724892 -2.737776995 -0.399672151 -2.208280563 -3.778353453 9.598406792 2.046663761 1.543331623 -0.962099314 -6.339385509 -4.465322971 6.529586315 2.032251835 -1.589759469 1.079679012 -3.741186857 -2.576595783 -2.598725557 1.105625868 -2.866795540 10.711160660 5.512462616 7.494393349 0.471774459 0.812618732 5.261512280 1.565626144 0.560425103 -9.216824532 5.078619480 -0.761196434 -0.133358955 -3.957749605 -2.232259750 -1.099626541 -1.442362309 1.312822580 1.315550566 1.726043224 -0.467328161 4.657349586 1.995998144 -0.690789878 2.790931225 2.264107227 -4.015228271 -4.243350506 0.703191459 -1.189985752 -1.690790057 -0.620602608 2.851581097 0.134745225 -0.570529819 4.619420052 -5.929656982 2.631496906 1.448107123 -1.761799932 -4.728081226 3.057031631 1.607152939 -1.105152726 0.106852353 9.084430695 -1.367142797 -0.934649527 -5.087700367 3.737613201 4.142458916 -0.885302126 1.067112803 0.478095144 -0.030091979 -0.624880195 0.913418829 -2.008253574 -7.137821674 -3.517014742 -0.309871972 -2.809388638 1.817505479 3.801627874 -1.697661996 -6.623686790 -4.944048405 3.465160847 -1.447584510 -3.781618357 -5.063812256 4.519424438 4.764320374 -0.438721210 0.164860308 3.352361917 6.082150936 -0.192842185 -0.426034659 4.424824238 0.255880833 -1.446724892 -2.737776995 -0.399672151 -2.208280563 -3.778353453 9.598406792 2.046663761 1.543331623 -0.962099314 -6.339385509 -4.465322971 6.529586315 2.032251835 -1.589759469 1.079679012 -3.741186857 -2.576595783 -2.598725557 1.105625868 -2.866795540 10.711160660 5.512462616
ace 7.833853722 -0.324427098 0.529524624 6.465092182 -0.203556746 -1.300850630 -11.044836044 6.212944508 0.463565290 1.372111201 -4.890483856 -1.644245148 -0.768566966 -0.067749143 3.285869360 1.659773469 1.418327928 -1.076393485 4.785480976 1.388855934 -0.833518684 1.811658740 2.855116129 -6.083003044 -3.535372496 1.280360699 -1.365522265 -1.585595965 -1.691076636 4.090507984 0.030350655 -0.067008659 4.287105083 -7.181288242 2.824898720 0.781769812 -0.859720170 -4.927009106 3.236018896 0.307032019 -1.497631788 -0.320966393 7.696514130 -1.619555712 -1.148478866 -4.017148972 2.852586746 2.791398048 -0.965628266 1.892951250 -0.653070450 1.038509727 0.378818363 1.344835281 -2.359294176 -7.468922138 -3.544656515 -0.786014318 -3.882480621 1.419837832 2.117822647 -3.795299053 -6.935903549 -5.388488770 2.945906401 -0.953634083 -4.671155930 -4.926599503 5.971686363 3.153215885 -0.273824453 -0.323546976 4.970401764 6.548726559 -1.234193087 0.842963457 4.706337452 2.937277079 -2.325196981 -3.961277485 -0.593043566 -2.228484154 -5.491147041 10.509872437 2.228050709 2.924157619 2.792057753 -6.159696579 -7.299734592 5.214906693 2.124347687 -1.779868960 3.542775154 -4.790286541 -1.206238747 -2.091794729 2.820261955 -2.248114586 9.599054337 6.310398579 7.833853722 -0.324427098 0.529524624 6.465092182 -0.203556746 -1.300850630 -11.044836044 6.212944508 0.463565290 1.372111201 -4.890483856 -1.644245148 -0.768566966 -0.067749143 3.285869360 1.659773469 1.418327928 -1.076393485 4.785480976 1.388855934 -0.833518684 1.811658740 2.855116129 -6.083003044 -3.535372496 1.280360699 -1.365522265 -1.585595965 -1.691076636 4.090507984 0.030350655 -0.067008659 4.287105083 -7.181288242 2.824898720 0.781769812 -0.859720170 -4.927009106 3.236018896 0.307032019 -1.497631788 -0.320966393 7.696514130 -1.619555712 -1.148478866 -4.017148972 2.852586746 2.791398048 -0.965628266 1.892951250 -0.653070450 1.038509727 0.378818363 1.344835281 -2.359294176 -7.468922138 -3.544656515 -0.786014318 -3.882480621 1.419837832 2.117822647 -3.795299053 -6.935903549 -5.388488770 2.945906401 -0.953634083 -4.671155930 -4.926599503 5.971686363 3.153215885 -0.273824453 -0.323546976 4.970401764 6.548726559 -1.234193087 0.842963457 4.706337452 2.937277079 -2.325196981 -3.961277485 -0.593043566 -2.228484154 -5.491147041 10.509872437 2.228050709 2.924157619 2.792057753 -6.159696579 -7.299734592 5.214906693 2.124347687 -1.779868960 3.542775154 -4.790286541 -1.206238747 -2.091794729 2.820261955 -2.248114586 9.599054337 6.310398579
acw 8.229979515 0.456274867 0.736931682 4.768212795 1.364755988 -0.175720572 -8.902768135 5.206427097 -0.161168009 0.538818955 -4.484586239 -1.767179012 -0.323275268 -0.813948333 1.704600811 0.982789993 1.191842914 -0.436687231 4.284596920 2.572156668 0.032068029 3.200463772 1.172738314 -4.021648407 -3.378060818 0.512734711 -1.228036046 -2.325541258 -0.821470916 2.447344542 -0.669506252 -1.335719347 4.449595928 -6.535693645 2.921598911 1.517156482 -0.741591513 -5.291189194 2.863782644 1.295519829 -1.952715278 -0.864768684 9.210282326 -0.789234638 -0.417871177 -4.530861855 3.603325129 3.496603489 -1.134806275 1.230390429 -0.206539094 -0.244618148 -0.192109972 0.173325360 -4.024197578 -7.720338821 -4.265332699 -0.193089560 -2.752208948 1.402313590 3.221801281 -1.929580450 -5.920211792 -5.396553040 3.323744297 -1.950936198 -4.176574707 -5.073164463 5.396391392 4.365199566 0.375952363 0.425842345 3.115992785 6.409666538 -0.814263701 -0.523253322 4.864393234 0.507851243 -0.223913491 -1.985166073 -1.413542986 -1.909608245 -4.010863781 9.353713989 1.955814242 1.407817602 -0.788622677 -5.698991299 -5.433921814 6.667226315 1.069598675 -1.185776114 1.615982652 -3.516613722 -3.190021276 -2.912294865 1.373412371 -3.102524042 10.455605507 6.460232258 8.229979515 0.456274867 0.736931682 4.768212795 1.364755988 -0.175720572 -8.902768135 5.206427097 -0.161168009 0.538818955 -4.484586239 -1.767179012 -0.323275268 -0.813948333 1.704600811 0.982789993 1.191842914 -0.436687231 4.284596920 2.572156668 0.032068029 3.200463772 1.172738314 -4.021648407 -3.378060818 0.512734711 -1.228036046 -2.325541258 -0.821470916 2.447344542 -0.669506252 -1.335719347 4.449595928 -6.535693645 2.921598911 1.517156482 -0.741591513 -5.291189194 2.863782644 1.295519829 -1.952715278 -0.864768684 9.210282326 -0.789234638 -0.417871177 -4.530861855 3.603325129 3.496603489 -1.134806275 1.230390429 -0.206539094 -0.244618148 -0.192109972 0.173325360 -4.024197578 -7.720338821 -4.265332699 -0.193089560 -2.752208948 1.402313590 3.221801281 -1.929580450 -5.920211792 -5.396553040 3.323744297 -1.950936198 -4.176574707 -5.073164463 5.396391392 4.365199566 0.375952363 0.425842345 3.115992785 6.409666538 -0.814263701 -0.523253322 4.864393234 0.507851243 -0.223913491 -1.985166073 -1.413542986 -1.909608245 -4.010863781 9.353713989 1.955814242 1.407817602 -0.788622677 -5.698991299 -5.433921814 6.667226315 1.069598675 -1.185776114 1.615982652 -3.516613722 -3.190021276 -2.912294865 1.373412371 -3.102524042 10.455605507 6.460232258
ady 7.740651131 0.962536454 0.135856092 5.660172462 1.366633534 1.119828939 -9.505959511 4.992391109 -0.689187646 -0.468679696 -4.035679817 -2.144750357 -1.123759866 -1.283709407 1.210410714 1.461699486 1.645533085 -0.369088143 4.357758999 1.861710787 -1.043815255 2.639832020 2.007801533 -4.343956470 -4.507337570 0.414386481 -1.283928514 -1.830767274 -0.232523054 2.825547934 0.297088057 -0.730371475 5.158574581 -6.121707439 2.711982727 1.380048871 -1.452127934 -4.592655182 3.368096828 1.750450373 -1.837944269 0.114875913 8.669114113 -1.774244905 -1.066367507 -4.822122097 3.465728521 3.518693209 -0.985600948 0.779064059 0.034740746 -0.309992462 -0.305557281 0.782853305 -2.485423803 -7.187417984 -3.534534693 -0.271306306 -3.264519453 1.496504188 3.844620943 -1.799048424 -6.437389374 -4.982942104 3.421505928 -1.221777916 -4.040649891 -4.652418613 4.487297535 5.261111736 0.064973086 -0.182620436 3.655176878 6.137133121 -0.153690115 -0.126693249 4.651340008 -0.099089354 -1.317801118 -2.140612841 -0.330059081 -2.353867054 -3.740475416 9.435881615 2.097468853 1.065168858 -1.195152640 -6.252097607 -4.466844559 6.239477158 2.168794394 -1.375208139 1.129836202 -3.784018278 -2.753593206 -2.820782423 1.140014648 -2.757850647 10.825910568 5.277909279 7.740651131 0.962536454 0.135856092 5.660172462 1.366633534 1.119828939 -9.505959511 4.992391109 -0.689187646 -0.468679696 -4.035679817 -2.144750357 -1.123759866 -1.283709407 1.210410714 1.461699486 1.645533085 -0.369088143 4.357758999 1.861710787 -1.043815255 2.639832020 2.007801533 -4.343956470 -4.507337570 0.414386481 -1.283928514 -1.830767274 -0.232523054 2.825547934 0.297088057 -0.730371475 5.158574581 -6.121707439 2.711982727 1.380048871 -1.452127934 -4.592655182 3.368096828 1.750450373 -1.837944269 0.114875913 8.669114113 -1.774244905 -1.066367507 -4.822122097 3.465728521 3.518693209 -0.985600948 0.779064059 0.034740746 -0.309992462 -0.305557281 0.782853305 -2.485423803 -7.187417984 -3.534534693 -0.271306306 -3.264519453 1.496504188 3.844620943 -1.799048424 -6.437389374 -4.982942104 3.421505928 -1.221777916 -4.040649891 -4.652418613 4.487297535 5.261111736 0.064973086 -0.182620436 3.655176878 6.137133121 -0.153690115 -0.126693249 4.651340008 -0.099089354 -1.317801118 -2.140612841 -0.330059081 -2.353867054 -3.740475416 9.435881615 2.097468853 1.065168858 -1.195152640 -6.252097607 -4.466844559 6.239477158 2.168794394 -1.375208139 1.129836202 -3.784018278 -2.753593206 -2.820782423 1.140014648 -2.757850647 10.825910568 5.277909279
aeb 7.689777851 0.229200542 0.431774676 4.808625698 1.369967461 0.208333388 -9.249432564 5.225506306 -1.054718375 -0.277120531 -3.971029997 -1.911981940 -0.965683937 -1.255786180 1.419660091 1.444771409 1.517321944 -0.431610763 4.570951939 2.098015308 -0.371031970 2.445768356 2.179763317 -4.181012630 -4.108964443 0.449478626 -1.310327649 -1.933817387 -0.777848721 2.841569185 0.012993127 -1.022662878 4.148152828 -6.284265041 2.932179451 1.492009640 -1.519816518 -4.786352634 2.769186974 1.939825058 -1.201309443 -0.364099443 8.801748276 -1.547454596 -0.881397426 -4.963288307 3.923638344 3.686266899 -0.981468320 0.755366325 0.173176855 0.076205909 -0.888116896 1.118129492 -2.542918205 -7.172254086 -4.104342461 -0.589022160 -2.429230213 1.185514092 3.481597662 -1.480413437 -6.173865318 -5.163619518 3.447523594 -1.604804993 -4.224473000 -4.609004498 4.744102955 4.702799797 0.015714645 0.018255100 3.363350153 6.268300056 -0.557907999 -0.150807768 4.792060852 0.368927360 -1.136100531 -2.733020067 -0.782301068 -1.923919320 -3.276770115 9.232969284 1.964844465 1.262729168 -0.666805208 -5.834470272 -4.827894688 6.432994366 2.336418390 -1.606591940 1.166143894 -3.997779608 -2.359060287 -2.704143047 1.344255328 -2.385770559 10.522288322 5.694785595 7.689777851 0.229200542 0.431774676 4.808625698 1.369967461 0.208333388 -9.249432564 5.225506306 -1.054718375 -0.277120531 -3.971029997 -1.911981940 -0.965683937 -1.255786180 1.419660091 1.444771409 1.517321944 -0.431610763 4.570951939 2.098015308 -0.371031970 2.445768356 2.179763317 -4.181012630 -4.108964443 0.449478626 -1.310327649 -1.933817387 -0.777848721 2.841569185 0.012993127 -1.022662878 4.148152828 -6.284265041 2.932179451 1.492009640 -1.519816518 -4.786352634 2.769186974 1.939825058 -1.201309443 -0.364099443 8.801748276 -1.547454596 -0.881397426 -4.963288307 3.923638344 3.686266899 -0.981468320 0.755366325 0.173176855 0.076205909 -0.888116896 1.118129492 -2.542918205 -7.172254086 -4.104342461 -0.589022160 -2.429230213 1.185514092 3.481597662 -1.480413437 -6.173865318 -5.163619518 3.447523594 -1.604804993 -4.224473000 -4.609004498 4.744102955 4.702799797 0.015714645 0.018255100 3.363350153 6.268300056 -0.557907999 -0.150807768 4.792060852 0.368927360 -1.136100531 -2.733020067 -0.782301068 -1.923919320 -3.276770115 9.232969284 1.964844465 1.262729168 -0.666805208 -5.834470272 -4.827894688 6.432994366 2.336418390 -1.606591940 1.166143894 -3.997779608 -2.359060287 -2.704143047 1.344255328 -2.385770559 10.522288322 5.694785595
afb 7.973712444 0.792268217 0.225448191 4.750598907 1.517812490 0.528116703 -8.810143471 4.736228466 -1.605243802 -0.481702566 -4.359541416 -2.081398249 -0.907439411 -0.757145166 1.523284912 1.534676313 1.442193985 -0.136264414 4.347949505 2.121533871 -0.167582959 2.560112000 1.851204395 -4.429044724 -3.712131023 0.395605028 -1.536706448 -1.968947053 -0.671797931 2.864140272 -0.393907160 -0.559320092 4.445532322 -6.699233055 3.100459337 1.801225543 -1.819141865 -4.924743176 3.338845730 1.553923368 -1.146269798 0.151324093 8.209611893 -1.241953850 -0.979250014 -5.592698097 4.337509155 3.453913689 -0.814006805 1.026054978 0.152368501 0.287547290 -1.312962651 0.764679670 -2.841493368 -7.678857327 -4.248794079 -0.306928754 -2.732642651 1.431541800 3.721374512 -1.693616152 -6.185447216 -5.333362579 3.902340889 -1.673862815 -4.639488697 -4.860845089 4.807125568 4.601582050 0.210124925 0.118347116 3.251234531 6.082619190 -0.359625161 -0.691625357 5.296176910 0.311916202 -1.168065071 -2.600353718 -1.196641922 -1.604497075 -2.835683107 9.100777626 1.979077220 1.569935560 -0.862348437 -6.460260391 -4.577023029 6.856328011 2.429898977 -2.129381418 0.974652588 -4.377714634 -2.014839411 -2.130979061 1.218310714 -1.926572084 10.244474411 6.045107365 7.973712444 0.792268217 0.225448191 4.750598907 1.517812490 0.528116703 -8.810143471 4.736228466 -1.605243802 -0.481702566 -4.359541416 -2.081398249 -0.907439411 -0.757145166 1.523284912 1.534676313 1.442193985 -0.136264414 4.347949505 2.121533871 -0.167582959 2.560112000 1.851204395 -4.429044724 -3.712131023 0.395605028 -1.536706448 -1.968947053 -0.671797931 2.864140272 -0.393907160 -0.559320092 4.445532322 -6.699233055 3.100459337 1.801225543 -1.819141865 -4.924743176 3.338845730 1.553923368 -1.146269798 0.151324093 8.209611893 -1.241953850 -0.979250014 -5.592698097 4.337509155 3.453913689 -0.814006805 1.026054978 0.152368501 0.287547290 -1.312962651 0.764679670 -2.841493368 -7.678857327 -4.248794079 -0.306928754 -2.732642651 1.431541800 3.721374512 -1.693616152 -6.185447216 -5.333362579 3.902340889 -1.673862815 -4.639488697 -4.860845089 4.807125568 4.601582050 0.210124925 0.118347116 3.251234531 6.082619190 -0.359625161 -0.691625357 5.296176910 0.311916202 -1.168065071 -2.600353718 -1.196641922 -1.604497075 -2.835683107 9.100777626 1.979077220 1.569935560 -0.862348437 -6.460260391 -4.577023029 6.856328011 2.429898977 -2.129381418 0.974652588 -4.377714634 -2.014839411 -2.130979061 1.218310714 -1.926572084 10.244474411 6.045107365
afr 3.563232183 23.128715515 -33.302360535 -50.618400574 117.134841919 -209.207351685 -68.752616882 -113.165115356 -15.210059166 -123.369247437 65.037841797 -32.193309784 -161.551132202 25.586872101 243.930938721 25.695470810 -209.626251221 6.927582741 141.701828003 95.891586304 -329.819549561 -8.216231346 22.140674591 61.163566589 39.088363647 110.557769775 -68.466308594 111.019859314 -246.729217529 135.809799194 -79.884880066 292.483551025 120.176544189 -93.871940613 -37.552566528 210.242034912 -16.336992264 -50.146675110 -252.091339111 -18.220924377 -65.564132690 10.930951118 -120.660133362 31.918676376 -133.166198730 -64.970756531 -221.241836548 -114.290504456 -18.284801483 197.936370850 25.432031631 -41.117740631 -43.637596130 31.969642639 55.709331512 31.630235672 4.582699299 -164.395980835 177.407913208 -57.200328827 -105.486206055 -49.461086273 -66.248229980 63.659713745 -289.968383789 -0.821073890 43.894584656 67.912696838 193.230529785 133.668991089 -72.530799866 1.211780667 -181.709899902 95.889480591 -280.633697510 -51.183460236 114.640739441 131.395645142 -163.050064087 0.306426853 36.670043945 -235.191253662 17.451347351 283.172119141 -8.752944946 96.457733154 -90.522682190 -199.070907593 133.279663086 -10.020708084 139.306594849 -202.922073364 -126.430282593 66.081504822 189.724441528 -165.544448853 -194.809570312 -97.980621338 -50.233657837 32.828155518 3.563232183 23.128715515 -33.302360535 -50.618400574 117.134841919 -209.207351685 -68.752616882 -113.165115356 -15.210059166 -123.369247437 65.037841797 -32.193309784 -161.551132202 25.586872101 243.930938721 25.695470810 -209.626251221 6.927582741 141.701828003 95.891586304 -329.819549561 -8.216231346 22.140674591 61.163566589 39.088363647 110.557769775 -68.466308594 111.019859314 -246.729217529 135.809799194 -79.884880066 292.483551025 120.176544189 -93.871940613 -37.552566528 210.242034912 -16.336992264 -50.146675110 -252.091339111 -18.220924377 -65.564132690 10.930951118 -120.660133362 31.918676376 -133.166198730 -64.970756531 -221.241836548 -114.290504456 -18.284801483 197.936370850 25.432031631 -41.117740631 -43.637596130 31.969642639 55.709331512 31.630235672 4.582699299 -164.395980835 177.407913208 -57.200328827 -105.486206055 -49.461086273 -66.248229980 63.659713745 -289.968383789 -0.821073890 43.894584656 67.912696838 193.230529785 133.668991089 -72.530799866 1.211780667 -181.709899902 95.889480591 -280.633697510 -51.183460236 114.640739441 131.395645142 -163.050064087 0.306426853 36.670043945 -235.191253662 17.451347351 283.172119141 -8.752944946 96.457733154 -90.522682190 -199.070907593 133.279663086 -10.020708084 139.306594849 -202.922073364 -126.430282593 66.081504822 189.724441528 -165.544448853 -194.809570312 -97.980621338 -50.233657837 32.828155518
aho 7.689777851 0.229200542 0.431774676 4.808625698 1.369967461 0.208333388 -9.249432564 5.225506306 -1.054718375 -0.277120531 -3.971029997 -1.911981940 -0.965683937 -1.255786180 1.419660091 1.444771409 1.517321944 -0.431610763 4.570951939 2.098015308 -0.371031970 2.445768356 2.179763317 -4.181012630 -4.108964443 0.449478626 -1.310327649 -1.933817387 -0.777848721 2.841569185 0.012993127 -1.022662878 4.148152828 -6.284265041 2.932179451 1.492009640 -1.519816518 -4.786352634 2.769186974 1.939825058 -1.201309443 -0.364099443 8.801748276 -1.547454596 -0.881397426 -4.963288307 3.923638344 3.686266899 -0.981468320 0.755366325 0.173176855 0.076205909 -0.888116896 1.118129492 -2.542918205 -7.172254086 -4.104342461 -0.589022160 -2.429230213 1.185514092 3.481597662 -1.480413437 -6.173865318 -5.163619518 3.447523594 -1.604804993 -4.224473000 -4.609004498 4.744102955 4.702799797 0.015714645 0.018255100 3.363350153 6.268300056 -0.557907999 -0.150807768 4.792060852 0.368927360 -1.136100531 -2.733020067 -0.782301068 -1.923919320 -3.276770115 9.232969284 1.964844465 1.262729168 -0.666805208 -5.834470272 -4.827894688 6.432994366 2.336418390 -1.606591940 1.166143894 -3.997779608 -2.359060287 -2.704143047 1.344255328 -2.385770559 10.522288322 5.694785595 7.689777851 0.229200542 0.431774676 4.808625698 1.369967461 0.208333388 -9.249432564 5.225506306 -1.054718375 -0.277120531 -3.971029997 -1.911981940 -0.965683937 -1.255786180 1.419660091 1.444771409 1.517321944 -0.431610763 4.570951939 2.098015308 -0.371031970 2.445768356 2.179763317 -4.181012630 -4.108964443 0.449478626 -1.310327649 -1.933817387 -0.777848721 2.841569185 0.012993127 -1.022662878 4.148152828 -6.284265041 2.932179451 1.492009640 -1.519816518 -4.786352634 2.769186974 1.939825058 -1.201309443 -0.364099443 8.801748276 -1.547454596 -0.881397426 -4.963288307 3.923638344 3.686266899 -0.981468320 0.755366325 0.173176855 0.076205909 -0.888116896 1.118129492 -2.542918205 -7.172254086 -4.104342461 -0.589022160 -2.429230213 1.185514092 3.481597662 -1.480413437 -6.173865318 -5.163619518 3.447523594 -1.604804993 -4.224473000 -4.609004498 4.744102955 4.702799797 0.015714645 0.018255100 3.363350153 6.268300056 -0.557907999 -0.150807768 4.792060852 0.368927360 -1.136100531 -2.733020067 -0.782301068 -1.923919320 -3.276770115 9.232969284 1.964844465 1.262729168 -0.666805208 -5.834470272 -4.827894688 6.432994366 2.336418390 -1.606591940 1.166143894 -3.997779608 -2.359060287 -2.704143047 1.344255328 -2.385770559 10.522288322 5.694785595
aii 7.605025768 0.583693922 0.515591741 4.884149551 1.191739917 -0.290780962 -8.998016357 5.042011738 -0.782098293 -0.258028030 -3.715348721 -1.776825309 -0.774634063 -1.526264548 1.215385079 1.129657269 1.677770495 -0.346038431 5.095228195 1.795106530 -0.710692465 2.526457548 1.854227304 -4.218179226 -3.840901136 0.057624310 -1.357761860 -1.711435676 -0.496536672 2.969528675 0.151205555 -1.296832442 4.536487103 -6.262942791 3.011733770 1.849848628 -1.441114187 -4.494830132 2.921824455 2.287217379 -0.886390805 -0.593466520 8.663216591 -1.433236361 -0.331004262 -4.670406342 3.908534050 3.896589994 -1.006243944 0.756419659 0.441731930 0.244421124 -0.939944983 1.201989412 -2.520769358 -6.916308403 -4.661391735 -0.735240221 -2.259811878 1.426840544 3.315942049 -1.647190213 -6.416239262 -5.391324997 3.197923422 -1.705235720 -3.923983574 -4.727692127 4.564008236 4.592404842 0.080025546 0.323609114 3.355879068 6.396653652 -0.203033894 -0.359291732 5.050907612 0.050736010 -1.021891117 -2.883828163 -0.175190210 -1.852229118 -3.377987623 9.056169510 1.678976893 2.046250820 -0.785891771 -5.988281250 -5.198357582 6.344538689 1.940591097 -1.666085601 1.177788734 -4.236558437 -2.104639530 -2.756230116 1.025753856 -2.712215424 10.155897141 5.523661613 7.605025768 0.583693922 0.515591741 4.884149551 1.191739917 -0.290780962 -8.998016357 5.042011738 -0.782098293 -0.258028030 -3.715348721 -1.776825309 -0.774634063 -1.526264548 1.215385079 1.129657269 1.677770495 -0.346038431 5.095228195 1.795106530 -0.710692465 2.526457548 1.854227304 -4.218179226 -3.840901136 0.057624310 -1.357761860 -1.711435676 -0.496536672 2.969528675 0.151205555 -1.296832442 4.536487103 -6.262942791 3.011733770 1.849848628 -1.441114187 -4.494830132 2.921824455 2.287217379 -0.886390805 -0.593466520 8.663216591 -1.433236361 -0.331004262 -4.670406342 3.908534050 3.896589994 -1.006243944 0.756419659 0.441731930 0.244421124 -0.939944983 1.201989412 -2.520769358 -6.916308403 -4.661391735 -0.735240221 -2.259811878 1.426840544 3.315942049 -1.647190213 -6.416239262 -5.391324997 3.197923422 -1.705235720 -3.923983574 -4.727692127 4.564008236 4.592404842 0.080025546 0.323609114 3.355879068 6.396653652 -0.203033894 -0.359291732 5.050907612 0.050736010 -1.021891117 -2.883828163 -0.175190210 -1.852229118 -3.377987623 9.056169510 1.678976893 2.046250820 -0.785891771 -5.988281250 -5.198357582 6.344538689 1.940591097 -1.666085601 1.177788734 -4.236558437 -2.104639530 -2.756230116 1.025753856 -2.712215424 10.155897141 5.523661613
ain 7.495672703 1.395402908 -0.847347021 5.303984642 -0.317728490 0.120056026 -9.074179649 4.992761612 -1.002024770 -1.008026004 -2.783793688 -1.718883038 -0.925601602 -1.548167944 1.333994865 2.085486889 2.003148079 -1.125134706 5.506465435 1.812010169 0.276465058 3.568314552 0.736867547 -3.023080111 -5.488051891 0.269107550 -1.409801960 -2.301980019 -1.798351765 3.942112923 -1.179845810 -1.070270061 3.435856819 -6.367837906 1.529674530 2.304306984 -3.364256144 -5.238748074 1.830085397 1.881513357 -1.233054042 0.951910615 9.407491684 -2.285106897 -1.154008389 -5.358464718 4.257091045 2.260252237 -0.320353866 0.797325671 0.443831861 -0.144912347 -1.808167458 1.103369117 -2.409951210 -7.040995598 -4.075100899 -0.112649024 -4.066171169 2.925945997 2.472929716 -1.029318452 -7.086756229 -5.277104378 3.407653093 -0.832412720 -3.388315439 -4.345405579 4.923457623 4.744819164 -0.091700055 -1.629194975 3.745591164 7.039192677 -0.511552095 -0.490983665 4.825124741 0.821278930 0.515987515 -3.978596687 -1.798245192 -2.316357374 -4.750032425 7.742546558 1.992208481 0.947109818 -1.473528385 -5.159973145 -4.332794189 5.505072117 1.954450130 -3.022119522 2.223412991 -4.333858490 -1.709841967 -3.238662958 0.767020762 -3.010723352 10.563581467 3.604777575 7.495672703 1.395402908 -0.847347021 5.303984642 -0.317728490 0.120056026 -9.074179649 4.992761612 -1.002024770 -1.008026004 -2.783793688 -1.718883038 -0.925601602 -1.548167944 1.333994865 2.085486889 2.003148079 -1.125134706 5.506465435 1.812010169 0.276465058 3.568314552 0.736867547 -3.023080111 -5.488051891 0.269107550 -1.409801960 -2.301980019 -1.798351765 3.942112923 -1.179845810 -1.070270061 3.435856819 -6.367837906 1.529674530 2.304306984 -3.364256144 -5.238748074 1.830085397 1.881513357 -1.233054042 0.951910615 9.407491684 -2.285106897 -1.154008389 -5.358464718 4.257091045 2.260252237 -0.320353866 0.797325671 0.443831861 -0.144912347 -1.808167458 1.103369117 -2.409951210 -7.040995598 -4.075100899 -0.112649024 -4.066171169 2.925945997 2.472929716 -1.029318452 -7.086756229 -5.277104378 3.407653093 -0.832412720 -3.388315439 -4.345405579 4.923457623 4.744819164 -0.091700055 -1.629194975 3.745591164 7.039192677 -0.511552095 -0.490983665 4.825124741 0.821278930 0.515987515 -3.978596687 -1.798245192 -2.316357374 -4.750032425 7.742546558 1.992208481 0.947109818 -1.473528385 -5.159973145 -4.332794189 5.505072117 1.954450130 -3.022119522 2.223412991 -4.333858490 -1.709841967 -3.238662958 0.767020762 -3.010723352 10.563581467 3.604777575
aka 9.962059975 2.196822643 0.795136929 6.996346474 0.278401494 0.166830868 -10.055356026 4.397449017 0.612517178 -1.435045958 -2.103040218 -0.172529519 -0.856242478 0.977897465 1.080873132 1.952177525 -0.017228216 -1.888104320 1.772845745 1.298111558 1.639081478 0.942679286 1.403500795 -4.249404907 -4.097228527 1.942205071 0.139206126 -1.186559319 1.700940132 3.447405815 -3.803945065 0.479754746 1.897907853 -5.901743412 2.564840317 3.133427620 -0.397928774 -6.784532070 4.988744259 -0.372295618 0.451339036 1.161404848 5.650174618 -2.563179255 -0.915208578 -3.653205872 4.007950783 2.633515120 -1.931521535 -1.467987061 0.268450379 3.376366854 1.260417342 -0.098761454 -0.939461827 -7.751212120 -1.875203252 0.838550568 0.490330637 0.502474189 -0.159668028 -3.428952932 -7.442240715 -2.734148502 5.235631466 0.615170062 -5.729385376 -0.564167380 4.125037193 4.861243725 -0.213166580 3.120259047 1.304058433 3.619806290 0.475046098 -0.212225467 4.439108372 0.373744577 -0.767400384 -3.832239866 -1.129092216 -3.961194992 -5.632265568 8.672752380 -0.007369220 -0.734510541 -0.210820869 -3.456380367 -4.956799507 2.638672829 2.615108013 0.605637074 0.987286806 0.238433629 -1.037362099 -6.051591396 -1.820977449 -1.527243376 10.526664734 5.504944324 9.962059975 2.196822643 0.795136929 6.996346474 0.278401494 0.166830868 -10.055356026 4.397449017 0.612517178 -1.435045958 -2.103040218 -0.172529519 -0.856242478 0.977897465 1.080873132 1.952177525 -0.017228216 -1.888104320 1.772845745 1.298111558 1.639081478 0.942679286 1.403500795 -4.249404907 -4.097228527 1.942205071 0.139206126 -1.186559319 1.700940132 3.447405815 -3.803945065 0.479754746 1.897907853 -5.901743412 2.564840317 3.133427620 -0.397928774 -6.784532070 4.988744259 -0.372295618 0.451339036 1.161404848 5.650174618 -2.563179255 -0.915208578 -3.653205872 4.007950783 2.633515120 -1.931521535 -1.467987061 0.268450379 3.376366854 1.260417342 -0.098761454 -0.939461827 -7.751212120 -1.875203252 0.838550568 0.490330637 0.502474189 -0.159668028 -3.428952932 -7.442240715 -2.734148502 5.235631466 0.615170062 -5.729385376 -0.564167380 4.125037193 4.861243725 -0.213166580 3.120259047 1.304058433 3.619806290 0.475046098 -0.212225467 4.439108372 0.373744577 -0.767400384 -3.832239866 -1.129092216 -3.961194992 -5.632265568 8.672752380 -0.007369220 -0.734510541 -0.210820869 -3.456380367 -4.956799507 2.638672829 2.615108013 0.605637074 0.987286806 0.238433629 -1.037362099 -6.051591396 -1.820977449 -1.527243376 10.526664734 5.504944324
akk 8.375873566 0.352708757 -0.861975551 5.026906490 0.934632480 0.100142881 -8.767553329 5.472939491 -1.821448803 -0.390092611 -4.974493980 -1.547954679 -0.254333735 -1.273329139 2.881132364 2.205447197 1.980666757 -0.579819262 5.221594334 2.964591026 -0.597622097 2.878029585 1.244119883 -4.803804398 -4.209964275 0.542218029 -2.172562599 -2.305859566 -0.074411809 2.962955952 1.788496017 -0.531500220 3.760966301 -6.108742714 2.658621788 1.823328018 -2.787818432 -5.354086876 2.864504099 1.860316515 -2.294868469 0.274732351 8.786334038 -1.727641702 -1.783329725 -5.563567162 3.659247875 3.404012442 -0.986008286 0.942980170 -0.189661413 0.538458705 -0.537900507 1.107479095 -2.752460241 -6.588353634 -3.245454788 -1.270399213 -1.619663835 1.315745592 3.187898397 -1.470483184 -6.000291348 -4.773664951 3.977707386 -1.688907623 -5.134924889 -4.851482868 5.351083279 5.475275993 1.237120628 -0.136953399 3.702532291 6.838818073 -0.558774054 -0.084947228 4.227288723 0.307290494 -1.734002829 -3.746225357 -1.305795670 -1.284446478 -4.149059772 8.378712654 1.784996748 1.017640948 -0.583093524 -6.335410595 -4.613833427 6.851323128 3.962057829 -1.346686363 1.794033766 -4.996905327 -2.247737646 -3.816433430 0.743207872 -1.536575913 10.730558395 6.617603779 8.375873566 0.352708757 -0.861975551 5.026906490 0.934632480 0.100142881 -8.767553329 5.472939491 -1.821448803 -0.390092611 -4.974493980 -1.547954679 -0.254333735 -1.273329139 2.881132364 2.205447197 1.980666757 -0.579819262 5.221594334 2.964591026 -0.597622097 2.878029585 1.244119883 -4.803804398 -4.209964275 0.542218029 -2.172562599 -2.305859566 -0.074411809 2.962955952 1.788496017 -0.531500220 3.760966301 -6.108742714 2.658621788 1.823328018 -2.787818432 -5.354086876 2.864504099 1.860316515 -2.294868469 0.274732351 8.786334038 -1.727641702 -1.783329725 -5.563567162 3.659247875 3.404012442 -0.986008286 0.942980170 -0.189661413 0.538458705 -0.537900507 1.107479095 -2.752460241 -6.588353634 -3.245454788 -1.270399213 -1.619663835 1.315745592 3.187898397 -1.470483184 -6.000291348 -4.773664951 3.977707386 -1.688907623 -5.134924889 -4.851482868 5.351083279 5.475275993 1.237120628 -0.136953399 3.702532291 6.838818073 -0.558774054 -0.084947228 4.227288723 0.307290494 -1.734002829 -3.746225357 -1.305795670 -1.284446478 -4.149059772 8.378712654 1.784996748 1.017640948 -0.583093524 -6.335410595 -4.613833427 6.851323128 3.962057829 -1.346686363 1.794033766 -4.996905327 -2.247737646 -3.816433430 0.743207872 -1.536575913 10.730558395 6.617603779
akz 7.689777851 0.229200542 0.431774676 4.808625698 1.369967461 0.208333388 -9.249432564 5.225506306 -1.054718375 -0.277120531 -3.971029997 -1.911981940 -0.965683937 -1.255786180 1.419660091 1.444771409 1.517321944 -0.431610763 4.570951939 2.098015308 -0.371031970 2.445768356 2.179763317 -4.181012630 -4.108964443 0.449478626 -1.310327649 -1.933817387 -0.777848721 2.841569185 0.012993127 -1.022662878 4.148152828 -6.284265041 2.932179451 1.492009640 -1.519816518 -4.786352634 2.769186974 1.939825058 -1.201309443 -0.364099443 8.801748276 -1.547454596 -0.881397426 -4.963288307 3.923638344 3.686266899 -0.981468320 0.755366325 0.173176855 0.076205909 -0.888116896 1.118129492 -2.542918205 -7.172254086 -4.104342461 -0.589022160 -2.429230213 1.185514092 3.481597662 -1.480413437 -6.173865318 -5.163619518 3.447523594 -1.604804993 -4.224473000 -4.609004498 4.744102955 4.702799797 0.015714645 0.018255100 3.363350153 6.268300056 -0.557907999 -0.150807768 4.792060852 0.368927360 -1.136100531 -2.733020067 -0.782301068 -1.923919320 -3.276770115 9.232969284 1.964844465 1.262729168 -0.666805208 -5.834470272 -4.827894688 6.432994366 2.336418390 -1.606591940 1.166143894 -3.997779608 -2.359060287 -2.704143047 1.344255328 -2.385770559 10.522288322 5.694785595 7.689777851 0.229200542 0.431774676 4.808625698 1.369967461 0.208333388 -9.249432564 5.225506306 -1.054718375 -0.277120531 -3.971029997 -1.911981940 -0.965683937 -1.255786180 1.419660091 1.444771409 1.517321944 -0.431610763 4.570951939 2.098015308 -0.371031970 2.445768356 2.179763317 -4.181012630 -4.108964443 0.449478626 -1.310327649 -1.933817387 -0.777848721 2.841569185 0.012993127 -1.022662878 4.148152828 -6.284265041 2.932179451 1.492009640 -1.519816518 -4.786352634 2.769186974 1.939825058 -1.201309443 -0.364099443 8.801748276 -1.547454596 -0.881397426 -4.963288307 3.923638344 3.686266899 -0.981468320 0.755366325 0.173176855 0.076205909 -0.888116896 1.118129492 -2.542918205 -7.172254086 -4.104342461 -0.589022160 -2.429230213 1.185514092 3.481597662 -1.480413437 -6.173865318 -5.163619518 3.447523594 -1.604804993 -4.224473000 -4.609004498 4.744102955 4.702799797 0.015714645 0.018255100 3.363350153 6.268300056 -0.557907999 -0.150807768 4.792060852 0.368927360 -1.136100531 -2.733020067 -0.782301068 -1.923919320 -3.276770115 9.232969284 1.964844465 1.262729168 -0.666805208 -5.834470272 -4.827894688 6.432994366 2.336418390 -1.606591940 1.166143894 -3.997779608 -2.359060287 -2.704143047 1.344255328 -2.385770559 10.522288322 5.694785595
ale 7.689777851 0.229200542 0.431774676 4.808625698 1.369967461 0.208333388 -9.249432564 5.225506306 -1.054718375 -0.277120531 -3.971029997 -1.911981940 -0.965683937 -1.255786180 1.419660091 1.444771409 1.517321944 -0.431610763 4.570951939 2.098015308 -0.371031970 2.445768356 2.179763317 -4.181012630 -4.108964443 0.449478626 -1.310327649 -1.933817387 -0.777848721 2.841569185 0.012993127 -1.022662878 4.148152828 -6.284265041 2.932179451 1.492009640 -1.519816518 -4.786352634 2.769186974 1.939825058 -1.201309443 -0.364099443 8.801748276 -1.547454596 -0.881397426 -4.963288307 3.923638344 3.686266899 -0.981468320 0.755366325 0.173176855 0.076205909 -0.888116896 1.118129492 -2.542918205 -7.172254086 -4.104342461 -0.589022160 -2.429230213 1.185514092 3.481597662 -1.480413437 -6.173865318 -5.163619518 3.447523594 -1.604804993 -4.224473000 -4.609004498 4.744102955 4.702799797 0.015714645 0.018255100 3.363350153 6.268300056 -0.557907999 -0.150807768 4.792060852 0.368927360 -1.136100531 -2.733020067 -0.782301068 -1.923919320 -3.276770115 9.232969284 1.964844465 1.262729168 -0.666805208 -5.834470272 -4.827894688 6.432994366 2.336418390 -1.606591940 1.166143894 -3.997779608 -2.359060287 -2.704143047 1.344255328 -2.385770559 10.522288322 5.694785595 7.689777851 0.229200542 0.431774676 4.808625698 1.369967461 0.208333388 -9.249432564 5.225506306 -1.054718375 -0.277120531 -3.971029997 -1.911981940 -0.965683937 -1.255786180 1.419660091 1.444771409 1.517321944 -0.431610763 4.570951939 2.098015308 -0.371031970 2.445768356 2.179763317 -4.181012630 -4.108964443 0.449478626 -1.310327649 -1.933817387 -0.777848721 2.841569185 0.012993127 -1.022662878 4.148152828 -6.284265041 2.932179451 1.492009640 -1.519816518 -4.786352634 2.769186974 1.939825058 -1.201309443 -0.364099443 8.801748276 -1.547454596 -0.881397426 -4.963288307 3.923638344 3.686266899 -0.981468320 0.755366325 0.173176855 0.076205909 -0.888116896 1.118129492 -2.542918205 -7.172254086 -4.104342461 -0.589022160 -2.429230213 1.185514092 3.481597662 -1.480413437 -6.173865318 -5.163619518 3.447523594 -1.604804993 -4.224473000 -4.609004498 4.744102955 4.702799797 0.015714645 0.018255100 3.363350153 6.268300056 -0.557907999 -0.150807768 4.792060852 0.368927360 -1.136100531 -2.733020067 -0.782301068 -1.923919320 -3.276770115 9.232969284 1.964844465 1.262729168 -0.666805208 -5.834470272 -4.827894688 6.432994366 2.336418390 -1.606591940 1.166143894 -3.997779608 -2.359060287 -2.704143047 1.344255328 -2.385770559 10.522288322 5.694785595
als 7.306349277 -1.566457510 -1.355785728 7.350442410 0.298326612 -0.212125614 -9.129683495 4.937553406 -2.052167654 1.153804898 -7.045515537 -2.857306242 -4.265422821 -0.774123192 1.465500236 0.568466783 3.811332226 -1.625811577 5.755503654 -0.948858738 -3.811248541 1.993140101 1.822848320 -8.068848610 -3.462076902 1.614446163 -4.213914871 -4.163415432 -0.597551703 3.618224144 4.506580353 2.013955832 3.949209213 -8.568817139 2.952406883 1.003059149 -4.458519459 -4.881316185 2.212336779 -1.772194028 -1.631219983 2.928301573 7.875857830 0.428474933 -3.045533657 -7.587590694 3.057880163 3.432210445 -4.186109543 2.486376047 0.741512835 4.722493649 0.798776388 1.584231019 -1.520432711 -10.517588615 -4.055043697 -1.397305489 -3.468998432 2.661921740 4.798180103 -2.154764175 -3.201470137 -1.875064850 5.265991211 -2.916100025 -7.561144352 -7.827918530 4.394404411 7.095168114 -0.010592818 1.694761634 3.482070923 7.479051113 -1.515615582 -0.719610691 5.943527699 2.981255770 -2.229459286 -5.316468716 -1.467718601 -1.231521606 -4.894799709 11.658831596 3.299336433 3.387151480 0.686382532 -5.178023338 -0.403305739 3.984169483 3.615727186 0.168981701 -0.667243481 -4.375243187 -3.804260731 -3.820383072 1.720555782 -0.923741102 12.619737625 6.871106148 7.306349277 -1.566457510 -1.355785728 7.350442410 0.298326612 -0.212125614 -9.129683495 4.937553406 -2.052167654 1.153804898 -7.045515537 -2.857306242 -4.265422821 -0.774123192 1.465500236 0.568466783 3.811332226 -1.625811577 5.755503654 -0.948858738 -3.811248541 1.993140101 1.822848320 -8.068848610 -3.462076902 1.614446163 -4.213914871 -4.163415432 -0.597551703 3.618224144 4.506580353 2.013955832 3.949209213 -8.568817139 2.952406883 1.003059149 -4.458519459 -4.881316185 2.212336779 -1.772194028 -1.631219983 2.928301573 7.875857830 0.428474933 -3.045533657 -7.587590694 3.057880163 3.432210445 -4.186109543 2.486376047 0.741512835 4.722493649 0.798776388 1.584231019 -1.520432711 -10.517588615 -4.055043697 -1.397305489 -3.468998432 2.661921740 4.798180103 -2.154764175 -3.201470137 -1.875064850 5.265991211 -2.916100025 -7.561144352 -7.827918530 4.394404411 7.095168114 -0.010592818 1.694761634 3.482070923 7.479051113 -1.515615582 -0.719610691 5.943527699 2.981255770 -2.229459286 -5.316468716 -1.467718601 -1.231521606 -4.894799709 11.658831596 3.299336433 3.387151480 0.686382532 -5.178023338 -0.403305739 3.984169483 3.615727186 0.168981701 -0.667243481 -4.375243187 -3.804260731 -3.820383072 1.720555782 -0.923741102 12.619737625 6.871106148
alt 8.186531067 0.266651720 0.872453153 4.427009106 1.338355780 0.492245376 -9.092472076 5.260124207 -0.787397742 0.080523312 -4.437704563 -2.065433502 -1.372750401 -1.066313386 0.944967330 1.574206233 1.787949800 -0.447832465 4.481618881 2.255834341 0.003275186 2.636747360 1.558323145 -4.252485275 -4.048025131 0.665828466 -1.178327560 -2.071417809 -1.161576509 2.714526415 -0.329855531 -0.690216184 3.645344734 -6.444584846 2.873346806 1.541585326 -1.855008364 -5.115291119 2.749171257 2.212124109 -1.185590863 -0.055078775 8.724134445 -1.579659343 -1.011430144 -4.744181633 3.504180431 3.640022755 -0.500383735 1.133243799 0.461058140 0.573151052 -0.584450364 0.505845070 -2.235832214 -6.908110619 -3.647331953 -0.787662923 -2.544233799 1.107367277 3.124660492 -1.536173463 -6.264607906 -4.986958981 3.110026836 -1.253164053 -4.165862560 -4.197815418 5.084465027 4.220718384 -0.131608278 -0.215896934 3.206387997 6.472815514 -0.488499165 0.341567844 4.478616714 0.036170930 -1.087872624 -2.279615402 -0.448314190 -2.142210245 -3.362310171 9.606213570 1.872782826 1.310032010 -1.166888714 -5.412075520 -4.792443275 6.306827545 1.931917071 -1.184575438 0.670710802 -3.664359093 -2.077709675 -3.096190929 1.577544689 -2.660819530 10.149596214 5.563573360 8.186531067 0.266651720 0.872453153 4.427009106 1.338355780 0.492245376 -9.092472076 5.260124207 -0.787397742 0.080523312 -4.437704563 -2.065433502 -1.372750401 -1.066313386 0.944967330 1.574206233 1.787949800 -0.447832465 4.481618881 2.255834341 0.003275186 2.636747360 1.558323145 -4.252485275 -4.048025131 0.665828466 -1.178327560 -2.071417809 -1.161576509 2.714526415 -0.329855531 -0.690216184 3.645344734 -6.444584846 2.873346806 1.541585326 -1.855008364 -5.115291119 2.749171257 2.212124109 -1.185590863 -0.055078775 8.724134445 -1.579659343 -1.011430144 -4.744181633 3.504180431 3.640022755 -0.500383735 1.133243799 0.461058140 0.573151052 -0.584450364 0.505845070 -2.235832214 -6.908110619 -3.647331953 -0.787662923 -2.544233799 1.107367277 3.124660492 -1.536173463 -6.264607906 -4.986958981 3.110026836 -1.253164053 -4.165862560 -4.197815418 5.084465027 4.220718384 -0.131608278 -0.215896934 3.206387997 6.472815514 -0.488499165 0.341567844 4.478616714 0.036170930 -1.087872624 -2.279615402 -0.448314190 -2.142210245 -3.362310171 9.606213570 1.872782826 1.310032010 -1.166888714 -5.412075520 -4.792443275 6.306827545 1.931917071 -1.184575438 0.670710802 -3.664359093 -2.077709675 -3.096190929 1.577544689 -2.660819530 10.149596214 5.563573360
amh 2.038169146 6.191118717 -1.498473287 0.051934719 3.756098986 2.251276493 -11.415205956 1.044141173 -2.539397001 -0.350370795 -6.050597668 -0.210499778 -3.222934008 -1.577921152 1.434031725 -0.980222702 -3.231027365 3.931084156 11.859383583 4.042153358 -6.103345394 1.355693102 6.542576790 -6.764740944 -7.714768410 -3.292519331 -3.777585030 2.801211596 5.554900169 -0.023953885 -0.838285565 1.469891787 7.049146652 -5.820139885 5.570011139 3.883944988 -2.591928005 -5.191381454 -4.449833870 2.121313572 -0.256725311 -3.914232492 7.664637566 -0.271070600 -5.965911865 -8.141986847 -0.559641957 3.297753334 0.764601350 1.223343968 -1.709167361 2.040423393 3.056424379 2.252834320 -4.438948154 -11.218343735 -8.377771378 2.706693649 -2.550128698 6.046990395 4.446071148 -4.480559826 -4.606222630 -1.219693780 6.714879990 -5.159231186 -11.111288071 -4.485378265 5.849759102 3.277906179 -3.931672096 -1.627523541 5.174968719 6.007651329 3.275372028 -6.375184059 12.063773155 -3.827631235 -2.000834942 -8.717184067 -4.164826870 5.760222435 -5.214943409 7.146723270 -3.105818033 2.995558500 -2.574280262 -9.173506737 -2.176160336 13.077697754 -0.654707909 0.041389409 8.973879814 -3.177502155 1.083752275 -4.392518044 1.539377451 -3.014847994 13.896580696 6.900804520 2.038169146 6.191118717 -1.498473287 0.051934719 3.756098986 2.251276493 -11.415205956 1.044141173 -2.539397001 -0.350370795 -6.050597668 -0.210499778 -3.222934008 -1.577921152 1.434031725 -0.980222702 -3.231027365 3.931084156 11.859383583 4.042153358 -6.103345394 1.355693102 6.542576790 -6.764740944 -7.714768410 -3.292519331 -3.777585030 2.801211596 5.554900169 -0.023953885 -0.838285565 1.469891787 7.049146652 -5.820139885 5.570011139 3.883944988 -2.591928005 -5.191381454 -4.449833870 2.121313572 -0.256725311 -3.914232492 7.664637566 -0.271070600 -5.965911865 -8.141986847 -0.559641957 3.297753334 0.764601350 1.223343968 -1.709167361 2.040423393 3.056424379 2.252834320 -4.438948154 -11.218343735 -8.377771378 2.706693649 -2.550128698 6.046990395 4.446071148 -4.480559826 -4.606222630 -1.219693780 6.714879990 -5.159231186 -11.111288071 -4.485378265 5.849759102 3.277906179 -3.931672096 -1.627523541 5.174968719 6.007651329 3.275372028 -6.375184059 12.063773155 -3.827631235 -2.000834942 -8.717184067 -4.164826870 5.760222435 -5.214943409 7.146723270 -3.105818033 2.995558500 -2.574280262 -9.173506737 -2.176160336 13.077697754 -0.654707909 0.041389409 8.973879814 -3.177502155 1.083752275 -4.392518044 1.539377451 -3.014847994 13.896580696 6.900804520
ami 8.601637840 1.410944343 -0.552091122 5.988162518 0.736887336 1.333271265 -9.882986069 5.082801342 -1.313351393 -0.914870143 -4.562384129 -1.830126762 -0.986970782 -0.610033810 1.282262683 1.770777345 1.559546947 -0.244429767 4.139421463 1.656662822 -1.135093093 2.438581705 1.994583368 -4.430262089 -4.494525433 -0.094169497 -1.170479059 -1.929016352 -0.100682199 2.622655153 -0.109785810 -1.241251707 5.419525146 -6.543360233 2.834044695 1.314175963 -0.540884495 -4.177279949 3.414838791 1.986105442 -2.361165762 -0.359573096 8.082971573 -2.551699162 -0.763706982 -4.897773266 3.371256828 2.098781347 -0.991003156 0.310126990 -0.925131023 -0.561383128 0.123538077 0.971075654 -3.618149281 -7.107186794 -4.516147614 -0.562427759 -3.590638638 0.574867129 3.454353809 -1.664020896 -6.039999962 -5.497801781 3.654485464 -1.835451722 -5.244979858 -3.583235264 4.525499344 5.583087444 0.980613172 -0.922833800 4.074052811 6.129715919 -0.236015692 0.492871642 4.862018108 -0.534310102 -1.240216255 -1.266174078 -0.422439396 -1.863047242 -3.529404163 9.240081787 1.918860435 0.517040730 -0.914151251 -5.792593479 -4.921107292 5.314941406 2.637932301 -1.884651065 1.563523054 -3.777904272 -2.553643465 -3.385127306 1.611518621 -2.566513062 10.487973213 5.743654728 8.601637840 1.410944343 -0.552091122 5.988162518 0.736887336 1.333271265 -9.882986069 5.082801342 -1.313351393 -0.914870143 -4.562384129 -1.830126762 -0.986970782 -0.610033810 1.282262683 1.770777345 1.559546947 -0.244429767 4.139421463 1.656662822 -1.135093093 2.438581705 1.994583368 -4.430262089 -4.494525433 -0.094169497 -1.170479059 -1.929016352 -0.100682199 2.622655153 -0.109785810 -1.241251707 5.419525146 -6.543360233 2.834044695 1.314175963 -0.540884495 -4.177279949 3.414838791 1.986105442 -2.361165762 -0.359573096 8.082971573 -2.551699162 -0.763706982 -4.897773266 3.371256828 2.098781347 -0.991003156 0.310126990 -0.925131023 -0.561383128 0.123538077 0.971075654 -3.618149281 -7.107186794 -4.516147614 -0.562427759 -3.590638638 0.574867129 3.454353809 -1.664020896 -6.039999962 -5.497801781 3.654485464 -1.835451722 -5.244979858 -3.583235264 4.525499344 5.583087444 0.980613172 -0.922833800 4.074052811 6.129715919 -0.236015692 0.492871642 4.862018108 -0.534310102 -1.240216255 -1.266174078 -0.422439396 -1.863047242 -3.529404163 9.240081787 1.918860435 0.517040730 -0.914151251 -5.792593479 -4.921107292 5.314941406 2.637932301 -1.884651065 1.563523054 -3.777904272 -2.553643465 -3.385127306 1.611518621 -2.566513062 10.487973213 5.743654728
ang 15.892292023 7.440722942 -2.195279121 8.290391922 5.297142029 4.429887772 -1.889753699 10.500879288 -5.308549404 -4.843504906 -2.333023548 1.917438030 -2.319034815 7.396634102 15.849134445 3.268481493 13.490846634 8.126339912 10.351004601 9.888747215 -8.980207443 -5.195791245 14.513210297 -9.446632385 5.390394211 6.258484840 -11.780203819 1.603412390 -0.217714369 2.107605696 0.860906899 1.201630116 10.132081985 -7.963202000 4.504934311 7.678492546 -1.511164308 -9.493188858 -1.450227499 2.253695250 -2.728937864 -11.814377785 9.764904022 -4.470598221 -3.690410376 -3.126323700 5.843113422 7.635935307 5.050208569 1.391767144 -1.274443150 -7.492897987 5.106846333 11.880145073 14.904373169 -1.243443131 -3.196374655 -14.298632622 1.753633380 1.522030830 2.686398268 -15.009509087 -2.058755875 -0.258041561 1.815680027 -1.051475286 -0.489378989 -15.781531334 11.635018349 -0.999354184 -5.246011734 2.012184143 1.007366419 10.238421440 5.301435947 11.372689247 -4.246958256 15.525421143 11.849400520 2.591643810 -6.327265263 12.650278091 -3.731806517 10.187651634 4.796298981 2.943624258 1.405806303 1.860680699 1.334220171 7.027195454 3.600290060 5.231214523 -4.060069084 -1.857961178 2.630439043 -5.234317780 -2.971599102 -7.506443977 9.611894608 -1.516313791 15.892292023 7.440722942 -2.195279121 8.290391922 5.297142029 4.429887772 -1.889753699 10.500879288 -5.308549404 -4.843504906 -2.333023548 1.917438030 -2.319034815 7.396634102 15.849134445 3.268481493 13.490846634 8.126339912 10.351004601 9.888747215 -8.980207443 -5.195791245 14.513210297 -9.446632385 5.390394211 6.258484840 -11.780203819 1.603412390 -0.217714369 2.107605696 0.860906899 1.201630116 10.132081985 -7.963202000 4.504934311 7.678492546 -1.511164308 -9.493188858 -1.450227499 2.253695250 -2.728937864 -11.814377785 9.764904022 -4.470598221 -3.690410376 -3.126323700 5.843113422 7.635935307 5.050208569 1.391767144 -1.274443150 -7.492897987 5.106846333 11.880145073 14.904373169 -1.243443131 -3.196374655 -14.298632622 1.753633380 1.522030830 2.686398268 -15.009509087 -2.058755875 -0.258041561 1.815680027 -1.051475286 -0.489378989 -15.781531334 11.635018349 -0.999354184 -5.246011734 2.012184143 1.007366419 10.238421440 5.301435947 11.372689247 -4.246958256 15.525421143 11.849400520 2.591643810 -6.327265263 12.650278091 -3.731806517 10.187651634 4.796298981 2.943624258 1.405806303 1.860680699 1.334220171 7.027195454 3.600290060 5.231214523 -4.060069084 -1.857961178 2.630439043 -5.234317780 -2.971599102 -7.506443977 9.611894608 -1.516313791
ani 7.689777851 0.229200542 0.431774676 4.808625698 1.369967461 0.208333388 -9.249432564 5.225506306 -1.054718375 -0.277120531 -3.971029997 -1.911981940 -0.965683937 -1.255786180 1.419660091 1.444771409 1.517321944 -0.431610763 4.570951939 2.098015308 -0.371031970 2.445768356 2.179763317 -4.181012630 -4.108964443 0.449478626 -1.310327649 -1.933817387 -0.777848721 2.841569185 0.012993127 -1.022662878 4.148152828 -6.284265041 2.932179451 1.492009640 -1.519816518 -4.786352634 2.769186974 1.939825058 -1.201309443 -0.364099443 8.801748276 -1.547454596 -0.881397426 -4.963288307 3.923638344 3.686266899 -0.981468320 0.755366325 0.173176855 0.076205909 -0.888116896 1.118129492 -2.542918205 -7.172254086 -4.104342461 -0.589022160 -2.429230213 1.185514092 3.481597662 -1.480413437 -6.173865318 -5.163619518 3.447523594 -1.604804993 -4.224473000 -4.609004498 4.744102955 4.702799797 0.015714645 0.018255100 3.363350153 6.268300056 -0.557907999 -0.150807768 4.792060852 0.368927360 -1.136100531 -2.733020067 -0.782301068 -1.923919320 -3.276770115 9.232969284 1.964844465 1.262729168 -0.666805208 -5.834470272 -4.827894688 6.432994366 2.336418390 -1.606591940 1.166143894 -3.997779608 -2.359060287 -2.704143047 1.344255328 -2.385770559 10.522288322 5.694785595 7.689777851 0.229200542 0.431774676 4.808625698 1.369967461 0.208333388 -9.249432564 5.225506306 -1.054718375 -0.277120531 -3.971029997 -1.911981940 -0.965683937 -1.255786180 1.419660091 1.444771409 1.517321944 -0.431610763 4.570951939 2.098015308 -0.371031970 2.445768356 2.179763317 -4.181012630 -4.108964443 0.449478626 -1.310327649 -1.933817387 -0.777848721 2.841569185 0.012993127 -1.022662878 4.148152828 -6.284265041 2.932179451 1.492009640 -1.519816518 -4.786352634 2.769186974 1.939825058 -1.201309443 -0.364099443 8.801748276 -1.547454596 -0.881397426 -4.963288307 3.923638344 3.686266899 -0.981468320 0.755366325 0.173176855 0.076205909 -0.888116896 1.118129492 -2.542918205 -7.172254086 -4.104342461 -0.589022160 -2.429230213 1.185514092 3.481597662 -1.480413437 -6.173865318 -5.163619518 3.447523594 -1.604804993 -4.224473000 -4.609004498 4.744102955 4.702799797 0.015714645 0.018255100 3.363350153 6.268300056 -0.557907999 -0.150807768 4.792060852 0.368927360 -1.136100531 -2.733020067 -0.782301068 -1.923919320 -3.276770115 9.232969284 1.964844465 1.262729168 -0.666805208 -5.834470272 -4.827894688 6.432994366 2.336418390 -1.606591940 1.166143894 -3.997779608 -2.359060287 -2.704143047 1.344255328 -2.385770559 10.522288322 5.694785595
aoz 7.689777851 0.229200542 0.431774676 4.808625698 1.369967461 0.208333388 -9.249432564 5.225506306 -1.054718375 -0.277120531 -3.971029997 -1.911981940 -0.965683937 -1.255786180 1.419660091 1.444771409 1.517321944 -0.431610763 4.570951939 2.098015308 -0.371031970 2.445768356 2.179763317 -4.181012630 -4.108964443 0.449478626 -1.310327649 -1.933817387 -0.777848721 2.841569185 0.012993127 -1.022662878 4.148152828 -6.284265041 2.932179451 1.492009640 -1.519816518 -4.786352634 2.769186974 1.939825058 -1.201309443 -0.364099443 8.801748276 -1.547454596 -0.881397426 -4.963288307 3.923638344 3.686266899 -0.981468320 0.755366325 0.173176855 0.076205909 -0.888116896 1.118129492 -2.542918205 -7.172254086 -4.104342461 -0.589022160 -2.429230213 1.185514092 3.481597662 -1.480413437 -6.173865318 -5.163619518 3.447523594 -1.604804993 -4.224473000 -4.609004498 4.744102955 4.702799797 0.015714645 0.018255100 3.363350153 6.268300056 -0.557907999 -0.150807768 4.792060852 0.368927360 -1.136100531 -2.733020067 -0.782301068 -1.923919320 -3.276770115 9.232969284 1.964844465 1.262729168 -0.666805208 -5.834470272 -4.827894688 6.432994366 2.336418390 -1.606591940 1.166143894 -3.997779608 -2.359060287 -2.704143047 1.344255328 -2.385770559 10.522288322 5.694785595 7.689777851 0.229200542 0.431774676 4.808625698 1.369967461 0.208333388 -9.249432564 5.225506306 -1.054718375 -0.277120531 -3.971029997 -1.911981940 -0.965683937 -1.255786180 1.419660091 1.444771409 1.517321944 -0.431610763 4.570951939 2.098015308 -0.371031970 2.445768356 2.179763317 -4.181012630 -4.108964443 0.449478626 -1.310327649 -1.933817387 -0.777848721 2.841569185 0.012993127 -1.022662878 4.148152828 -6.284265041 2.932179451 1.492009640 -1.519816518 -4.786352634 2.769186974 1.939825058 -1.201309443 -0.364099443 8.801748276 -1.547454596 -0.881397426 -4.963288307 3.923638344 3.686266899 -0.981468320 0.755366325 0.173176855 0.076205909 -0.888116896 1.118129492 -2.542918205 -7.172254086 -4.104342461 -0.589022160 -2.429230213 1.185514092 3.481597662 -1.480413437 -6.173865318 -5.163619518 3.447523594 -1.604804993 -4.224473000 -4.609004498 4.744102955 4.702799797 0.015714645 0.018255100 3.363350153 6.268300056 -0.557907999 -0.150807768 4.792060852 0.368927360 -1.136100531 -2.733020067 -0.782301068 -1.923919320 -3.276770115 9.232969284 1.964844465 1.262729168 -0.666805208 -5.834470272 -4.827894688 6.432994366 2.336418390 -1.606591940 1.166143894 -3.997779608 -2.359060287 -2.704143047 1.344255328 -2.385770559 10.522288322 5.694785595
apc 7.689777851 0.229200542 0.431774676 4.808625698 1.369967461 0.208333388 -9.249432564 5.225506306 -1.054718375 -0.277120531 -3.971029997 -1.911981940 -0.965683937 -1.255786180 1.419660091 1.444771409 1.517321944 -0.431610763 4.570951939 2.098015308 -0.371031970 2.445768356 2.179763317 -4.181012630 -4.108964443 0.449478626 -1.310327649 -1.933817387 -0.777848721 2.841569185 0.012993127 -1.022662878 4.148152828 -6.284265041 2.932179451 1.492009640 -1.519816518 -4.786352634 2.769186974 1.939825058 -1.201309443 -0.364099443 8.801748276 -1.547454596 -0.881397426 -4.963288307 3.923638344 3.686266899 -0.981468320 0.755366325 0.173176855 0.076205909 -0.888116896 1.118129492 -2.542918205 -7.172254086 -4.104342461 -0.589022160 -2.429230213 1.185514092 3.481597662 -1.480413437 -6.173865318 -5.163619518 3.447523594 -1.604804993 -4.224473000 -4.609004498 4.744102955 4.702799797 0.015714645 0.018255100 3.363350153 6.268300056 -0.557907999 -0.150807768 4.792060852 0.368927360 -1.136100531 -2.733020067 -0.782301068 -1.923919320 -3.276770115 9.232969284 1.964844465 1.262729168 -0.666805208 -5.834470272 -4.827894688 6.432994366 2.336418390 -1.606591940 1.166143894 -3.997779608 -2.359060287 -2.704143047 1.344255328 -2.385770559 10.522288322 5.694785595 7.689777851 0.229200542 0.431774676 4.808625698 1.369967461 0.208333388 -9.249432564 5.225506306 -1.054718375 -0.277120531 -3.971029997 -1.911981940 -0.965683937 -1.255786180 1.419660091 1.444771409 1.517321944 -0.431610763 4.570951939 2.098015308 -0.371031970 2.445768356 2.179763317 -4.181012630 -4.108964443 0.449478626 -1.310327649 -1.933817387 -0.777848721 2.841569185 0.012993127 -1.022662878 4.148152828 -6.284265041 2.932179451 1.492009640 -1.519816518 -4.786352634 2.769186974 1.939825058 -1.201309443 -0.364099443 8.801748276 -1.547454596 -0.881397426 -4.963288307 3.923638344 3.686266899 -0.981468320 0.755366325 0.173176855 0.076205909 -0.888116896 1.118129492 -2.542918205 -7.172254086 -4.104342461 -0.589022160 -2.429230213 1.185514092 3.481597662 -1.480413437 -6.173865318 -5.163619518 3.447523594 -1.604804993 -4.224473000 -4.609004498 4.744102955 4.702799797 0.015714645 0.018255100 3.363350153 6.268300056 -0.557907999 -0.150807768 4.792060852 0.368927360 -1.136100531 -2.733020067 -0.782301068 -1.923919320 -3.276770115 9.232969284 1.964844465 1.262729168 -0.666805208 -5.834470272 -4.827894688 6.432994366 2.336418390 -1.606591940 1.166143894 -3.997779608 -2.359060287 -2.704143047 1.344255328 -2.385770559 10.522288322 5.694785595
apw 7.216965199 1.221986890 -0.184312299 3.439696312 0.233191460 -0.215271458 -9.947794914 3.858410835 -2.265836239 -0.968935132 -3.999712944 -1.540861368 0.037132084 -0.100252643 1.321812510 0.874010205 3.106352806 -1.142590761 4.113571644 2.444576025 -1.471021175 2.660578012 2.583896875 -3.934707403 -3.788699865 -0.396044314 -0.510442138 -2.005151987 -1.753416181 2.697352409 0.919758439 -2.250103474 2.694040060 -5.768786430 2.363064766 0.115049079 -2.203930855 -4.363064766 -0.759344995 0.296182096 -1.660300851 -0.442636728 6.423361301 0.564265728 -2.561946392 -5.453009605 3.374242783 3.217816114 -0.457103252 1.845254660 -1.261056900 -1.233829021 -2.235130072 0.657955885 -1.161032915 -8.100764275 -2.741644621 -1.321987391 -3.087921381 1.205747008 1.763678432 -2.196332693 -7.030120850 -5.892000675 3.411152840 -3.288556814 -3.775731564 -4.212027550 3.551769257 6.723176003 0.415669680 -1.366120696 3.241800547 6.377595901 0.128667355 -0.047998518 4.130097866 -0.538468659 -1.940396547 -2.510900497 -0.685157061 -2.396380424 -5.001479149 8.948835373 3.203996658 -0.263533384 -1.733035564 -4.333723545 -4.452727318 6.566018581 2.185817480 -0.501355529 2.845707655 -4.951465130 -3.068387032 -2.894579172 2.180536270 -1.796699762 11.110430717 5.224744797 7.216965199 1.221986890 -0.184312299 3.439696312 0.233191460 -0.215271458 -9.947794914 3.858410835 -2.265836239 -0.968935132 -3.999712944 -1.540861368 0.037132084 -0.100252643 1.321812510 0.874010205 3.106352806 -1.142590761 4.113571644 2.444576025 -1.471021175 2.660578012 2.583896875 -3.934707403 -3.788699865 -0.396044314 -0.510442138 -2.005151987 -1.753416181 2.697352409 0.919758439 -2.250103474 2.694040060 -5.768786430 2.363064766 0.115049079 -2.203930855 -4.363064766 -0.759344995 0.296182096 -1.660300851 -0.442636728 6.423361301 0.564265728 -2.561946392 -5.453009605 3.374242783 3.217816114 -0.457103252 1.845254660 -1.261056900 -1.233829021 -2.235130072 0.657955885 -1.161032915 -8.100764275 -2.741644621 -1.321987391 -3.087921381 1.205747008 1.763678432 -2.196332693 -7.030120850 -5.892000675 3.411152840 -3.288556814 -3.775731564 -4.212027550 3.551769257 6.723176003 0.415669680 -1.366120696 3.241800547 6.377595901 0.128667355 -0.047998518 4.130097866 -0.538468659 -1.940396547 -2.510900497 -0.685157061 -2.396380424 -5.001479149 8.948835373 3.203996658 -0.263533384 -1.733035564 -4.333723545 -4.452727318 6.566018581 2.185817480 -0.501355529 2.845707655 -4.951465130 -3.068387032 -2.894579172 2.180536270 -1.796699762 11.110430717 5.224744797
aqc 7.689777851 0.229200542 0.431774676 4.808625698 1.369967461 0.208333388 -9.249432564 5.225506306 -1.054718375 -0.277120531 -3.971029997 -1.911981940 -0.965683937 -1.255786180 1.419660091 1.444771409 1.517321944 -0.431610763 4.570951939 2.098015308 -0.371031970 2.445768356 2.179763317 -4.181012630 -4.108964443 0.449478626 -1.310327649 -1.933817387 -0.777848721 2.841569185 0.012993127 -1.022662878 4.148152828 -6.284265041 2.932179451 1.492009640 -1.519816518 -4.786352634 2.769186974 1.939825058 -1.201309443 -0.364099443 8.801748276 -1.547454596 -0.881397426 -4.963288307 3.923638344 3.686266899 -0.981468320 0.755366325 0.173176855 0.076205909 -0.888116896 1.118129492 -2.542918205 -7.172254086 -4.104342461 -0.589022160 -2.429230213 1.185514092 3.481597662 -1.480413437 -6.173865318 -5.163619518 3.447523594 -1.604804993 -4.224473000 -4.609004498 4.744102955 4.702799797 0.015714645 0.018255100 3.363350153 6.268300056 -0.557907999 -0.150807768 4.792060852 0.368927360 -1.136100531 -2.733020067 -0.782301068 -1.923919320 -3.276770115 9.232969284 1.964844465 1.262729168 -0.666805208 -5.834470272 -4.827894688 6.432994366 2.336418390 -1.606591940 1.166143894 -3.997779608 -2.359060287 -2.704143047 1.344255328 -2.385770559 10.522288322 5.694785595 7.689777851 0.229200542 0.431774676 4.808625698 1.369967461 0.208333388 -9.249432564 5.225506306 -1.054718375 -0.277120531 -3.971029997 -1.911981940 -0.965683937 -1.255786180 1.419660091 1.444771409 1.517321944 -0.431610763 4.570951939 2.098015308 -0.371031970 2.445768356 2.179763317 -4.181012630 -4.108964443 0.449478626 -1.310327649 -1.933817387 -0.777848721 2.841569185 0.012993127 -1.022662878 4.148152828 -6.284265041 2.932179451 1.492009640 -1.519816518 -4.786352634 2.769186974 1.939825058 -1.201309443 -0.364099443 8.801748276 -1.547454596 -0.881397426 -4.963288307 3.923638344 3.686266899 -0.981468320 0.755366325 0.173176855 0.076205909 -0.888116896 1.118129492 -2.542918205 -7.172254086 -4.104342461 -0.589022160 -2.429230213 1.185514092 3.481597662 -1.480413437 -6.173865318 -5.163619518 3.447523594 -1.604804993 -4.224473000 -4.609004498 4.744102955 4.702799797 0.015714645 0.018255100 3.363350153 6.268300056 -0.557907999 -0.150807768 4.792060852 0.368927360 -1.136100531 -2.733020067 -0.782301068 -1.923919320 -3.276770115 9.232969284 1.964844465 1.262729168 -0.666805208 -5.834470272 -4.827894688 6.432994366 2.336418390 -1.606591940 1.166143894 -3.997779608 -2.359060287 -2.704143047 1.344255328 -2.385770559 10.522288322 5.694785595
ara 1958.809814453 -316.098510742 711.884887695 145.996185303 282.045745850 245.870498657 -730.795410156 1426.094726562 1015.711853027 -1105.015258789 1053.730346680 -1719.675659180 -706.197509766 2055.471923828 1065.349243164 -1593.585571289 684.565490723 -2101.200927734 1428.112915039 -665.673828125 -126.746711731 854.492248535 -734.391418457 -3444.535644531 229.139205933 -621.783996582 -1218.704223633 -515.389282227 -591.983032227 -440.687866211 341.507354736 1013.680236816 -387.091308594 890.561523438 1868.952636719 -624.498291016 -1210.524414062 -500.919219971 -2942.682617188 1173.144897461 605.033813477 1020.807617188 -1595.613769531 -1356.174072266 -2344.442871094 501.851715088 -2104.337646484 149.418655396 2090.075927734 231.238555908 1695.397705078 163.660461426 1454.533813477 -505.604797363 -77.942993164 1978.108642578 -1227.135742188 -543.103637695 271.258728027 -55.684150696 -1077.316650391 314.370513916 210.459091187 1060.805664062 89.664703369 -1583.850708008 2570.356689453 483.487518311 1137.496337891 1953.685791016 -936.001037598 1475.135253906 -70.021598816 1700.285156250 436.639923096 -917.310058594 1042.627319336 -1852.728149414 -2703.854736328 -731.796447754 1694.326538086 -1180.875488281 2755.273681641 -1214.251708984 -59.484699249 1236.958862305 -1404.226318359 -1673.924438477 460.599243164 731.916992188 909.195129395 -1883.676391602 2576.761230469 381.244506836 1544.269287109 -948.274719238 -3049.523925781 -1724.087524414 -125.981727600 988.549072266 1958.809814453 -316.098510742 711.884887695 145.996185303 282.045745850 245.870498657 -730.795410156 1426.094726562 1015.711853027 -1105.015258789 1053.730346680 -1719.675659180 -706.197509766 2055.471923828 1065.349243164 -1593.585571289 684.565490723 -2101.200927734 1428.112915039 -665.673828125 -126.746711731 854.492248535 -734.391418457 -3444.535644531 229.139205933 -621.783996582 -1218.704223633 -515.389282227 -591.983032227 -440.687866211 341.507354736 1013.680236816 -387.091308594 890.561523438 1868.952636719 -624.498291016 -1210.524414062 -500.919219971 -2942.682617188 1173.144897461 605.033813477 1020.807617188 -1595.613769531 -1356.174072266 -2344.442871094 501.851715088 -2104.337646484 149.418655396 2090.075927734 231.238555908 1695.397705078 163.660461426 1454.533813477 -505.604797363 -77.942993164 1978.108642578 -1227.135742188 -543.103637695 271.258728027 -55.684150696 -1077.316650391 314.370513916 210.459091187 1060.805664062 89.664703369 -1583.850708008 2570.356689453 483.487518311 1137.496337891 1953.685791016 -936.001037598 1475.135253906 -70.021598816 1700.285156250 436.639923096 -917.310058594 1042.627319336 -1852.728149414 -2703.854736328 -731.796447754 1694.326538086 -1180.875488281 2755.273681641 -1214.251708984 -59.484699249 1236.958862305 -1404.226318359 -1673.924438477 460.599243164 731.916992188 909.195129395 -1883.676391602 2576.761230469 381.244506836 1544.269287109 -948.274719238 -3049.523925781 -1724.087524414 -125.981727600 988.549072266
arc 9.243939400 3.695139647 2.100396633 7.713746548 -1.772639394 2.800908089 -8.763719559 2.746582985 0.214285731 0.908488750 -4.052415848 -1.923145056 -4.223240376 1.091570020 3.620368481 1.850798488 1.245628715 -0.811311603 3.720411777 5.375950336 -0.140596822 2.018885374 5.921503067 -6.205838680 -6.445586205 3.126766443 -1.749759912 -1.631426334 -3.592073679 1.418698549 2.626250267 4.234495163 6.606778145 -3.719387054 4.599763393 2.777496576 -1.557167292 -3.217347145 2.040281296 3.965718269 -2.073331356 -2.187583685 7.230384827 -0.882256627 -0.805832744 -4.251236439 4.688251019 2.518342257 -1.218320847 0.238043010 2.534000397 3.926447153 -1.810144544 1.623589993 1.336062193 -6.120114326 -3.173179388 -1.548473954 -4.208748817 2.260023117 6.768814564 -3.685345650 -7.031738281 -3.203076839 1.373676419 -1.705100060 -4.088112354 -4.201345921 3.126313925 5.274133682 1.293514371 2.016602516 2.878912449 5.654159546 -1.606626868 1.650774002 7.508352757 1.735247850 2.432247639 -4.839650154 -1.938001513 -5.515465260 -3.417237520 10.337213516 -0.077805087 -3.055558443 -1.564527273 -3.219438076 -5.444713116 6.504926682 0.617688417 1.073042631 3.343031645 -3.282372236 -1.127515554 -2.258291721 -0.203866750 -5.007350445 12.843755722 4.037502766 9.243939400 3.695139647 2.100396633 7.713746548 -1.772639394 2.800908089 -8.763719559 2.746582985 0.214285731 0.908488750 -4.052415848 -1.923145056 -4.223240376 1.091570020 3.620368481 1.850798488 1.245628715 -0.811311603 3.720411777 5.375950336 -0.140596822 2.018885374 5.921503067 -6.205838680 -6.445586205 3.126766443 -1.749759912 -1.631426334 -3.592073679 1.418698549 2.626250267 4.234495163 6.606778145 -3.719387054 4.599763393 2.777496576 -1.557167292 -3.217347145 2.040281296 3.965718269 -2.073331356 -2.187583685 7.230384827 -0.882256627 -0.805832744 -4.251236439 4.688251019 2.518342257 -1.218320847 0.238043010 2.534000397 3.926447153 -1.810144544 1.623589993 1.336062193 -6.120114326 -3.173179388 -1.548473954 -4.208748817 2.260023117 6.768814564 -3.685345650 -7.031738281 -3.203076839 1.373676419 -1.705100060 -4.088112354 -4.201345921 3.126313925 5.274133682 1.293514371 2.016602516 2.878912449 5.654159546 -1.606626868 1.650774002 7.508352757 1.735247850 2.432247639 -4.839650154 -1.938001513 -5.515465260 -3.417237520 10.337213516 -0.077805087 -3.055558443 -1.564527273 -3.219438076 -5.444713116 6.504926682 0.617688417 1.073042631 3.343031645 -3.282372236 -1.127515554 -2.258291721 -0.203866750 -5.007350445 12.843755722 4.037502766
arg 2.833103895 4.374877930 2.784415483 4.422814369 6.634629726 -1.570031643 -12.661680222 13.311228752 -2.802945137 -9.688508987 -6.019751549 -7.291210651 -2.266221523 6.545526505 -1.998602509 3.409922361 -7.178040028 -1.971279979 2.346013069 9.547264099 -0.500848055 4.355285645 11.654087067 -3.197278500 -6.029052734 -0.427763313 -6.511492729 -0.160345927 -2.080472469 5.347105026 1.580220819 4.719423771 6.512834072 1.602369308 7.417924404 -2.992920399 -6.893168926 -6.194513798 2.227777481 3.800881147 0.149187505 -3.304524899 6.908392906 0.968488634 2.094434977 -4.599315643 -3.200276852 2.808290720 -0.699607015 5.593832493 0.544590831 -3.061643124 -0.462847322 4.423844337 -1.704435110 -5.875869751 -6.357807636 3.863243818 -12.795085907 2.468767405 5.146835804 -8.825018883 -7.847485542 11.594692230 8.321137428 -2.086131811 0.304671258 -6.576559067 5.099403858 5.133829117 -1.690686584 -5.426417351 4.060914040 9.328066826 -0.287909389 -0.282587826 12.774685860 0.691033363 -2.246601105 -10.624360085 -3.101920128 -1.124970555 -4.563595295 10.139645576 -0.126147538 5.111044884 0.357073367 -10.097326279 -6.264774323 14.812561989 1.236078739 11.524981499 7.996450424 -7.785071850 -5.712593555 -2.053965092 0.494787425 -1.154139280 21.748432159 5.587878704 2.833103895 4.374877930 2.784415483 4.422814369 6.634629726 -1.570031643 -12.661680222 13.311228752 -2.802945137 -9.688508987 -6.019751549 -7.291210651 -2.266221523 6.545526505 -1.998602509 3.409922361 -7.178040028 -1.971279979 2.346013069 9.547264099 -0.500848055 4.355285645 11.654087067 -3.197278500 -6.029052734 -0.427763313 -6.511492729 -0.160345927 -2.080472469 5.347105026 1.580220819 4.719423771 6.512834072 1.602369308 7.417924404 -2.992920399 -6.893168926 -6.194513798 2.227777481 3.800881147 0.149187505 -3.304524899 6.908392906 0.968488634 2.094434977 -4.599315643 -3.200276852 2.808290720 -0.699607015 5.593832493 0.544590831 -3.061643124 -0.462847322 4.423844337 -1.704435110 -5.875869751 -6.357807636 3.863243818 -12.795085907 2.468767405 5.146835804 -8.825018883 -7.847485542 11.594692230 8.321137428 -2.086131811 0.304671258 -6.576559067 5.099403858 5.133829117 -1.690686584 -5.426417351 4.060914040 9.328066826 -0.287909389 -0.282587826 12.774685860 0.691033363 -2.246601105 -10.624360085 -3.101920128 -1.124970555 -4.563595295 10.139645576 -0.126147538 5.111044884 0.357073367 -10.097326279 -6.264774323 14.812561989 1.236078739 11.524981499 7.996450424 -7.785071850 -5.712593555 -2.053965092 0.494787425 -1.154139280 21.748432159 5.587878704
arn 7.912270546 -0.198828012 0.050552279 5.131932735 1.064239621 0.321330428 -9.540845871 5.436937332 -1.055313349 -0.066417709 -3.766167164 -1.568078756 -0.863462448 -0.874103129 1.297541261 1.597352028 1.936465263 -0.136990696 4.335085392 1.666184187 -0.365358442 2.570679426 2.598991156 -4.532081604 -4.299228191 0.629956484 -1.616530061 -1.930063248 -1.253798008 2.573938608 -0.356682122 -1.126220942 3.821945906 -6.703267097 2.431653023 1.210564137 -1.862621188 -5.053438187 3.098294497 1.568840265 -0.718108296 -0.352604538 8.847809792 -1.141238093 -1.317195415 -4.883583546 3.504449129 3.768002033 -1.361623287 1.140970588 0.194009364 -0.253712296 -0.886194706 0.838853002 -2.887883902 -7.108928680 -4.001050949 -0.306865573 -2.518356562 1.526457191 3.365755081 -1.344836473 -6.134269714 -5.596122265 3.130522728 -1.356099725 -4.451844692 -4.611915588 4.368486404 5.149697304 0.410127997 0.275923669 2.952295542 6.525127411 -0.104819030 -0.014223516 4.811943054 0.338316441 -1.034994245 -2.528085947 -1.000150681 -2.079153299 -3.009603024 9.093310356 2.138323307 1.597328663 -0.884800613 -6.276335716 -4.949500561 6.444085121 1.996573567 -1.851811290 0.712402999 -3.672397852 -2.630047083 -3.166150331 0.991981030 -1.943012714 10.621817589 5.269296646 7.912270546 -0.198828012 0.050552279 5.131932735 1.064239621 0.321330428 -9.540845871 5.436937332 -1.055313349 -0.066417709 -3.766167164 -1.568078756 -0.863462448 -0.874103129 1.297541261 1.597352028 1.936465263 -0.136990696 4.335085392 1.666184187 -0.365358442 2.570679426 2.598991156 -4.532081604 -4.299228191 0.629956484 -1.616530061 -1.930063248 -1.253798008 2.573938608 -0.356682122 -1.126220942 3.821945906 -6.703267097 2.431653023 1.210564137 -1.862621188 -5.053438187 3.098294497 1.568840265 -0.718108296 -0.352604538 8.847809792 -1.141238093 -1.317195415 -4.883583546 3.504449129 3.768002033 -1.361623287 1.140970588 0.194009364 -0.253712296 -0.886194706 0.838853002 -2.887883902 -7.108928680 -4.001050949 -0.306865573 -2.518356562 1.526457191 3.365755081 -1.344836473 -6.134269714 -5.596122265 3.130522728 -1.356099725 -4.451844692 -4.611915588 4.368486404 5.149697304 0.410127997 0.275923669 2.952295542 6.525127411 -0.104819030 -0.014223516 4.811943054 0.338316441 -1.034994245 -2.528085947 -1.000150681 -2.079153299 -3.009603024 9.093310356 2.138323307 1.597328663 -0.884800613 -6.276335716 -4.949500561 6.444085121 1.996573567 -1.851811290 0.712402999 -3.672397852 -2.630047083 -3.166150331 0.991981030 -1.943012714 10.621817589 5.269296646
ary 7.671155930 0.067278355 -1.133755922 5.228283882 0.116898179 0.465075612 -9.744647026 4.510288239 -1.000105500 -0.593198776 -4.166870594 -3.155986309 -0.952243447 -1.385930896 1.484132290 0.916585326 0.451217890 -0.467333585 4.530211926 2.611119270 -0.615613818 0.687347293 1.271373391 -2.685598373 -3.842423677 1.443768501 -1.754562616 -1.774926066 -1.748314619 2.245407104 0.630198717 1.095149994 4.674676895 -7.104475021 2.532782316 0.992890596 -1.596096039 -4.656078339 2.239669800 2.164291620 -1.299534917 0.098349988 9.833061218 -2.764045000 -1.806275129 -3.893622637 3.072851896 4.482774734 -0.436904550 1.102260828 1.213083506 -0.004216492 0.079088598 1.388060927 -2.549608231 -7.136240959 -4.786568642 0.091448754 -2.658833504 0.807389021 3.830847025 -0.661208451 -6.737084389 -4.968785763 4.054502010 -2.166713953 -4.464150429 -7.135272026 4.270547867 3.674668312 -0.253933787 0.502127528 3.338927507 8.326703072 -0.971326470 0.272365361 4.578096390 1.816595197 -2.756090164 -2.459750175 0.901613712 -1.741821170 -3.556627512 8.608578682 2.922436953 1.410065889 -1.366564631 -5.549374580 -5.432628632 6.739129066 3.542894602 0.565592349 1.787763834 -4.199215889 -2.312176943 -1.734876871 0.564914227 -2.946178913 11.911108017 5.067877769 7.671155930 0.067278355 -1.133755922 5.228283882 0.116898179 0.465075612 -9.744647026 4.510288239 -1.000105500 -0.593198776 -4.166870594 -3.155986309 -0.952243447 -1.385930896 1.484132290 0.916585326 0.451217890 -0.467333585 4.530211926 2.611119270 -0.615613818 0.687347293 1.271373391 -2.685598373 -3.842423677 1.443768501 -1.754562616 -1.774926066 -1.748314619 2.245407104 0.630198717 1.095149994 4.674676895 -7.104475021 2.532782316 0.992890596 -1.596096039 -4.656078339 2.239669800 2.164291620 -1.299534917 0.098349988 9.833061218 -2.764045000 -1.806275129 -3.893622637 3.072851896 4.482774734 -0.436904550 1.102260828 1.213083506 -0.004216492 0.079088598 1.388060927 -2.549608231 -7.136240959 -4.786568642 0.091448754 -2.658833504 0.807389021 3.830847025 -0.661208451 -6.737084389 -4.968785763 4.054502010 -2.166713953 -4.464150429 -7.135272026 4.270547867 3.674668312 -0.253933787 0.502127528 3.338927507 8.326703072 -0.971326470 0.272365361 4.578096390 1.816595197 -2.756090164 -2.459750175 0.901613712 -1.741821170 -3.556627512 8.608578682 2.922436953 1.410065889 -1.366564631 -5.549374580 -5.432628632 6.739129066 3.542894602 0.565592349 1.787763834 -4.199215889 -2.312176943 -1.734876871 0.564914227 -2.946178913 11.911108017 5.067877769
arz 7.548523903 2.674091578 0.521819770 5.008837223 2.609765530 1.277373075 -12.382809639 3.397788286 5.190987110 0.069952570 -5.384450436 -3.870634317 -3.853940487 -0.697509944 8.546242714 5.637427330 5.092748165 2.455660105 6.044695854 7.042773247 -2.006303549 0.343712330 5.439655304 -2.158864260 -0.239977598 0.596223056 -3.859990358 -6.614212036 1.109954834 1.423608780 -1.561355233 -5.706812859 2.901381969 -2.345041037 3.322127581 4.506883621 -2.897353172 -5.154367924 -1.439342260 -5.453794003 2.967311621 -1.446079969 10.744015694 -0.143675745 4.932764053 -2.214746475 2.828477859 -5.744141102 0.221348614 4.101898670 7.656816959 1.334939718 -1.376701117 4.822442055 -4.614362240 -8.042817116 -13.206589699 -2.988328934 -1.202942252 5.874921799 5.664388657 -3.936495304 -9.187480927 2.072907448 -1.388521552 -0.314057142 -2.471580029 -6.429251194 2.956836462 5.917228699 7.874326229 3.151248693 4.631814957 5.886510372 -0.208277106 6.867658615 4.604026794 3.818242550 -1.110881209 -1.200514674 -5.156929970 0.436653197 4.729226589 9.179223061 7.779532433 1.202266455 -2.689848661 -7.408820152 -7.645489216 4.012108326 -0.702995360 -2.759078026 10.057456970 -0.675965309 -2.932484627 0.154501274 3.358011484 0.223808214 9.044327736 1.994783401 7.548523903 2.674091578 0.521819770 5.008837223 2.609765530 1.277373075 -12.382809639 3.397788286 5.190987110 0.069952570 -5.384450436 -3.870634317 -3.853940487 -0.697509944 8.546242714 5.637427330 5.092748165 2.455660105 6.044695854 7.042773247 -2.006303549 0.343712330 5.439655304 -2.158864260 -0.239977598 0.596223056 -3.859990358 -6.614212036 1.109954834 1.423608780 -1.561355233 -5.706812859 2.901381969 -2.345041037 3.322127581 4.506883621 -2.897353172 -5.154367924 -1.439342260 -5.453794003 2.967311621 -1.446079969 10.744015694 -0.143675745 4.932764053 -2.214746475 2.828477859 -5.744141102 0.221348614 4.101898670 7.656816959 1.334939718 -1.376701117 4.822442055 -4.614362240 -8.042817116 -13.206589699 -2.988328934 -1.202942252 5.874921799 5.664388657 -3.936495304 -9.187480927 2.072907448 -1.388521552 -0.314057142 -2.471580029 -6.429251194 2.956836462 5.917228699 7.874326229 3.151248693 4.631814957 5.886510372 -0.208277106 6.867658615 4.604026794 3.818242550 -1.110881209 -1.200514674 -5.156929970 0.436653197 4.729226589 9.179223061 7.779532433 1.202266455 -2.689848661 -7.408820152 -7.645489216 4.012108326 -0.702995360 -2.759078026 10.057456970 -0.675965309 -2.932484627 0.154501274 3.358011484 0.223808214 9.044327736 1.994783401
asm 10.059858322 6.465233803 -5.125365734 7.159482002 4.598087788 5.667017460 -12.612217903 7.207635880 1.082464933 0.082764193 -4.502632618 -7.767707825 -5.714366913 -0.588854194 4.210212708 2.846383333 -0.558513284 -2.935986519 2.085233688 5.032951355 -2.285319090 2.020073652 5.599970818 -5.555428982 -5.890703201 -2.694799662 -6.688828945 -2.881167412 -2.622269154 -0.669724822 1.548142433 0.185642362 2.768291950 -1.558474064 3.155209064 -2.664511204 -0.786989808 -5.950479031 5.112501144 1.123892784 -3.892578602 0.317936093 6.602330685 -4.919864178 -1.889946222 -4.257599831 3.752199411 -0.213612109 -1.050637722 1.695677042 1.428147197 -2.509807587 -0.862438798 8.375251770 -1.046655536 -3.715740919 -4.269932270 -1.325817943 -1.262854338 -0.250158370 0.505636334 0.918699682 -4.899528980 -8.006058693 3.902924299 -1.206353903 -9.390438080 -3.305992603 8.019060135 4.047900200 2.118335485 -5.194536209 5.312224388 3.770548820 -4.695521832 1.470158100 5.220160484 4.349402428 -1.884454489 -4.458349228 -3.649747133 2.203080416 -4.366306305 9.557315826 2.937560081 2.890411139 0.615180254 -3.278069496 -2.337611914 5.928982735 3.990969419 -3.132463217 7.114670277 -5.710475445 -4.599563122 -7.363698959 4.833061218 -4.393535137 13.113664627 6.788857937 10.059858322 6.465233803 -5.125365734 7.159482002 4.598087788 5.667017460 -12.612217903 7.207635880 1.082464933 0.082764193 -4.502632618 -7.767707825 -5.714366913 -0.588854194 4.210212708 2.846383333 -0.558513284 -2.935986519 2.085233688 5.032951355 -2.285319090 2.020073652 5.599970818 -5.555428982 -5.890703201 -2.694799662 -6.688828945 -2.881167412 -2.622269154 -0.669724822 1.548142433 0.185642362 2.768291950 -1.558474064 3.155209064 -2.664511204 -0.786989808 -5.950479031 5.112501144 1.123892784 -3.892578602 0.317936093 6.602330685 -4.919864178 -1.889946222 -4.257599831 3.752199411 -0.213612109 -1.050637722 1.695677042 1.428147197 -2.509807587 -0.862438798 8.375251770 -1.046655536 -3.715740919 -4.269932270 -1.325817943 -1.262854338 -0.250158370 0.505636334 0.918699682 -4.899528980 -8.006058693 3.902924299 -1.206353903 -9.390438080 -3.305992603 8.019060135 4.047900200 2.118335485 -5.194536209 5.312224388 3.770548820 -4.695521832 1.470158100 5.220160484 4.349402428 -1.884454489 -4.458349228 -3.649747133 2.203080416 -4.366306305 9.557315826 2.937560081 2.890411139 0.615180254 -3.278069496 -2.337611914 5.928982735 3.990969419 -3.132463217 7.114670277 -5.710475445 -4.599563122 -7.363698959 4.833061218 -4.393535137 13.113664627 6.788857937
ast 13.878515244 22.495485306 -2.998200893 8.820086479 19.374803543 -13.544263840 -7.355196953 7.230628490 -0.036917448 -10.180751801 -10.041119576 3.836306334 -10.937267303 11.315177917 -5.146255493 9.433856010 -11.407082558 7.159973621 17.922981262 10.940878868 -13.744080544 7.304017067 28.821674347 -6.207799435 -10.989855766 -12.760012627 -12.020732880 -12.603054047 -7.785875320 9.593572617 -11.917327881 -6.018799782 -2.874927759 -19.265943527 6.606965065 -20.888938904 -8.089187622 -12.816424370 17.468591690 2.475625515 -7.268428326 0.377842903 13.630287170 -14.598874092 -0.845881581 5.093039036 -12.183148384 6.677399635 1.758171082 4.812415123 -8.964488029 12.983660698 3.550247908 9.365103722 1.616671562 -12.962020874 7.830515862 2.348898649 -17.260530472 7.809741020 -13.595316887 -12.061738968 -7.257227898 1.040032983 3.268221378 -7.873517990 5.514525890 -7.558747292 -13.140229225 0.689502299 -2.834321260 -2.184418440 -5.456502438 4.639720917 -2.052720547 -8.360415459 21.122749329 1.781651855 -1.707453370 -9.968494415 -11.357109070 -1.301590323 9.059699059 14.667603493 7.043629646 18.250089645 -9.287632942 -4.551405907 -1.187828660 3.250176430 -8.615411758 17.748979568 17.527627945 -2.957490921 22.504922867 -9.746747971 2.283122540 -7.560104847 30.267192841 -0.814707994 13.878515244 22.495485306 -2.998200893 8.820086479 19.374803543 -13.544263840 -7.355196953 7.230628490 -0.036917448 -10.180751801 -10.041119576 3.836306334 -10.937267303 11.315177917 -5.146255493 9.433856010 -11.407082558 7.159973621 17.922981262 10.940878868 -13.744080544 7.304017067 28.821674347 -6.207799435 -10.989855766 -12.760012627 -12.020732880 -12.603054047 -7.785875320 9.593572617 -11.917327881 -6.018799782 -2.874927759 -19.265943527 6.606965065 -20.888938904 -8.089187622 -12.816424370 17.468591690 2.475625515 -7.268428326 0.377842903 13.630287170 -14.598874092 -0.845881581 5.093039036 -12.183148384 6.677399635 1.758171082 4.812415123 -8.964488029 12.983660698 3.550247908 9.365103722 1.616671562 -12.962020874 7.830515862 2.348898649 -17.260530472 7.809741020 -13.595316887 -12.061738968 -7.257227898 1.040032983 3.268221378 -7.873517990 5.514525890 -7.558747292 -13.140229225 0.689502299 -2.834321260 -2.184418440 -5.456502438 4.639720917 -2.052720547 -8.360415459 21.122749329 1.781651855 -1.707453370 -9.968494415 -11.357109070 -1.301590323 9.059699059 14.667603493 7.043629646 18.250089645 -9.287632942 -4.551405907 -1.187828660 3.250176430 -8.615411758 17.748979568 17.527627945 -2.957490921 22.504922867 -9.746747971 2.283122540 -7.560104847 30.267192841 -0.814707994
atj 7.689777851 0.229200542 0.431774676 4.808625698 1.369967461 0.208333388 -9.249432564 5.225506306 -1.054718375 -0.277120531 -3.971029997 -1.911981940 -0.965683937 -1.255786180 1.419660091 1.444771409 1.517321944 -0.431610763 4.570951939 2.098015308 -0.371031970 2.445768356 2.179763317 -4.181012630 -4.108964443 0.449478626 -1.310327649 -1.933817387 -0.777848721 2.841569185 0.012993127 -1.022662878 4.148152828 -6.284265041 2.932179451 1.492009640 -1.519816518 -4.786352634 2.769186974 1.939825058 -1.201309443 -0.364099443 8.801748276 -1.547454596 -0.881397426 -4.963288307 3.923638344 3.686266899 -0.981468320 0.755366325 0.173176855 0.076205909 -0.888116896 1.118129492 -2.542918205 -7.172254086 -4.104342461 -0.589022160 -2.429230213 1.185514092 3.481597662 -1.480413437 -6.173865318 -5.163619518 3.447523594 -1.604804993 -4.224473000 -4.609004498 4.744102955 4.702799797 0.015714645 0.018255100 3.363350153 6.268300056 -0.557907999 -0.150807768 4.792060852 0.368927360 -1.136100531 -2.733020067 -0.782301068 -1.923919320 -3.276770115 9.232969284 1.964844465 1.262729168 -0.666805208 -5.834470272 -4.827894688 6.432994366 2.336418390 -1.606591940 1.166143894 -3.997779608 -2.359060287 -2.704143047 1.344255328 -2.385770559 10.522288322 5.694785595 7.689777851 0.229200542 0.431774676 4.808625698 1.369967461 0.208333388 -9.249432564 5.225506306 -1.054718375 -0.277120531 -3.971029997 -1.911981940 -0.965683937 -1.255786180 1.419660091 1.444771409 1.517321944 -0.431610763 4.570951939 2.098015308 -0.371031970 2.445768356 2.179763317 -4.181012630 -4.108964443 0.449478626 -1.310327649 -1.933817387 -0.777848721 2.841569185 0.012993127 -1.022662878 4.148152828 -6.284265041 2.932179451 1.492009640 -1.519816518 -4.786352634 2.769186974 1.939825058 -1.201309443 -0.364099443 8.801748276 -1.547454596 -0.881397426 -4.963288307 3.923638344 3.686266899 -0.981468320 0.755366325 0.173176855 0.076205909 -0.888116896 1.118129492 -2.542918205 -7.172254086 -4.104342461 -0.589022160 -2.429230213 1.185514092 3.481597662 -1.480413437 -6.173865318 -5.163619518 3.447523594 -1.604804993 -4.224473000 -4.609004498 4.744102955 4.702799797 0.015714645 0.018255100 3.363350153 6.268300056 -0.557907999 -0.150807768 4.792060852 0.368927360 -1.136100531 -2.733020067 -0.782301068 -1.923919320 -3.276770115 9.232969284 1.964844465 1.262729168 -0.666805208 -5.834470272 -4.827894688 6.432994366 2.336418390 -1.606591940 1.166143894 -3.997779608 -2.359060287 -2.704143047 1.344255328 -2.385770559 10.522288322 5.694785595
ava 9.026899338 1.846752763 -0.381325901 5.117954731 0.175553933 1.464224935 -8.321497917 5.734367371 -2.424975634 1.232858539 -4.956498623 -2.268018723 -1.039760709 -1.638641357 2.016961575 1.943328619 2.473123312 0.389118254 4.216632366 1.655213833 0.668201923 0.402377129 1.132820010 -3.038233757 -3.119870663 0.209707737 -1.865929842 -1.519770741 -0.970171809 4.023735523 0.743937433 -1.374690056 3.405438423 -7.070353031 1.385780334 2.745420694 -4.236128330 -4.753641129 3.925245523 1.507908106 0.029302459 -0.743369520 12.557849884 -2.217316151 -0.852341175 -5.289696693 3.183290005 3.527236462 -3.348655701 0.158976376 0.384343654 -1.394778490 -1.756447911 2.056529999 -2.515839577 -5.998201847 -2.223651648 -1.249714971 -1.984135747 2.123719454 3.206453085 -0.346074402 -6.457196236 -4.804051399 2.139139891 -0.234644949 -3.727012634 -3.624275208 5.320371151 3.997994184 -1.067447782 -1.329803705 5.510208607 6.307972908 -1.548007607 -1.579719663 3.986659765 0.492775172 -2.386594296 -5.051953316 2.071674347 -1.418594122 -5.172059536 9.243359566 4.167895317 3.360973358 -0.308316082 -7.053065777 -4.336018562 9.607801437 -0.126865253 -1.114801526 2.303596020 -5.275187492 -2.837091923 -0.136733770 2.043799162 -3.920065641 12.889262199 5.659528255 9.026899338 1.846752763 -0.381325901 5.117954731 0.175553933 1.464224935 -8.321497917 5.734367371 -2.424975634 1.232858539 -4.956498623 -2.268018723 -1.039760709 -1.638641357 2.016961575 1.943328619 2.473123312 0.389118254 4.216632366 1.655213833 0.668201923 0.402377129 1.132820010 -3.038233757 -3.119870663 0.209707737 -1.865929842 -1.519770741 -0.970171809 4.023735523 0.743937433 -1.374690056 3.405438423 -7.070353031 1.385780334 2.745420694 -4.236128330 -4.753641129 3.925245523 1.507908106 0.029302459 -0.743369520 12.557849884 -2.217316151 -0.852341175 -5.289696693 3.183290005 3.527236462 -3.348655701 0.158976376 0.384343654 -1.394778490 -1.756447911 2.056529999 -2.515839577 -5.998201847 -2.223651648 -1.249714971 -1.984135747 2.123719454 3.206453085 -0.346074402 -6.457196236 -4.804051399 2.139139891 -0.234644949 -3.727012634 -3.624275208 5.320371151 3.997994184 -1.067447782 -1.329803705 5.510208607 6.307972908 -1.548007607 -1.579719663 3.986659765 0.492775172 -2.386594296 -5.051953316 2.071674347 -1.418594122 -5.172059536 9.243359566 4.167895317 3.360973358 -0.308316082 -7.053065777 -4.336018562 9.607801437 -0.126865253 -1.114801526 2.303596020 -5.275187492 -2.837091923 -0.136733770 2.043799162 -3.920065641 12.889262199 5.659528255
ave 7.689777851 0.229200542 0.431774676 4.808625698 1.369967461 0.208333388 -9.249432564 5.225506306 -1.054718375 -0.277120531 -3.971029997 -1.911981940 -0.965683937 -1.255786180 1.419660091 1.444771409 1.517321944 -0.431610763 4.570951939 2.098015308 -0.371031970 2.445768356 2.179763317 -4.181012630 -4.108964443 0.449478626 -1.310327649 -1.933817387 -0.777848721 2.841569185 0.012993127 -1.022662878 4.148152828 -6.284265041 2.932179451 1.492009640 -1.519816518 -4.786352634 2.769186974 1.939825058 -1.201309443 -0.364099443 8.801748276 -1.547454596 -0.881397426 -4.963288307 3.923638344 3.686266899 -0.981468320 0.755366325 0.173176855 0.076205909 -0.888116896 1.118129492 -2.542918205 -7.172254086 -4.104342461 -0.589022160 -2.429230213 1.185514092 3.481597662 -1.480413437 -6.173865318 -5.163619518 3.447523594 -1.604804993 -4.224473000 -4.609004498 4.744102955 4.702799797 0.015714645 0.018255100 3.363350153 6.268300056 -0.557907999 -0.150807768 4.792060852 0.368927360 -1.136100531 -2.733020067 -0.782301068 -1.923919320 -3.276770115 9.232969284 1.964844465 1.262729168 -0.666805208 -5.834470272 -4.827894688 6.432994366 2.336418390 -1.606591940 1.166143894 -3.997779608 -2.359060287 -2.704143047 1.344255328 -2.385770559 10.522288322 5.694785595 7.689777851 0.229200542 0.431774676 4.808625698 1.369967461 0.208333388 -9.249432564 5.225506306 -1.054718375 -0.277120531 -3.971029997 -1.911981940 -0.965683937 -1.255786180 1.419660091 1.444771409 1.517321944 -0.431610763 4.570951939 2.098015308 -0.371031970 2.445768356 2.179763317 -4.181012630 -4.108964443 0.449478626 -1.310327649 -1.933817387 -0.777848721 2.841569185 0.012993127 -1.022662878 4.148152828 -6.284265041 2.932179451 1.492009640 -1.519816518 -4.786352634 2.769186974 1.939825058 -1.201309443 -0.364099443 8.801748276 -1.547454596 -0.881397426 -4.963288307 3.923638344 3.686266899 -0.981468320 0.755366325 0.173176855 0.076205909 -0.888116896 1.118129492 -2.542918205 -7.172254086 -4.104342461 -0.589022160 -2.429230213 1.185514092 3.481597662 -1.480413437 -6.173865318 -5.163619518 3.447523594 -1.604804993 -4.224473000 -4.609004498 4.744102955 4.702799797 0.015714645 0.018255100 3.363350153 6.268300056 -0.557907999 -0.150807768 4.792060852 0.368927360 -1.136100531 -2.733020067 -0.782301068 -1.923919320 -3.276770115 9.232969284 1.964844465 1.262729168 -0.666805208 -5.834470272 -4.827894688 6.432994366 2.336418390 -1.606591940 1.166143894 -3.997779608 -2.359060287 -2.704143047 1.344255328 -2.385770559 10.522288322 5.694785595
axm 8.076866150 0.070986763 0.271864593 4.657087803 1.197676659 0.013028905 -9.324243546 5.001118660 -1.353428602 0.074970037 -3.807249784 -2.351128101 -1.050570369 -1.487708688 1.186007619 1.778670549 1.651240706 -0.463916957 4.790596008 2.178059340 -0.455834031 2.359807253 1.898913860 -4.407394886 -4.330665588 0.436205268 -1.262730122 -2.101807356 -0.613988101 3.183116674 0.277501702 -1.392549515 4.557068825 -6.082460880 3.220080137 1.878075838 -1.634188533 -4.633162975 3.088020325 1.667430878 -1.652292013 -0.854124665 9.019628525 -1.726758838 -1.036557794 -5.345652103 4.419012547 3.475009680 -1.456938505 1.139147997 -0.154688686 -0.093402758 -0.424127996 1.466463447 -2.405151844 -7.645951748 -4.161246300 -0.969041228 -2.467205048 1.319093466 3.103058577 -1.085103750 -5.806368351 -5.286525249 3.830546379 -1.913663149 -4.325613499 -4.169219017 4.304340363 4.681508064 -0.094612844 -0.256712437 3.249024391 5.741372585 -0.379208028 -0.082940802 4.969172478 -0.036982208 -1.435508728 -3.091700554 -0.797926962 -1.577746034 -2.907829285 9.152624130 1.775416613 0.952152193 -1.028325319 -5.905086040 -5.034526348 6.298460960 2.547980070 -1.217692256 1.079178572 -4.089033127 -2.597886324 -2.928499937 1.522760391 -2.403859138 10.749196053 5.941434860 8.076866150 0.070986763 0.271864593 4.657087803 1.197676659 0.013028905 -9.324243546 5.001118660 -1.353428602 0.074970037 -3.807249784 -2.351128101 -1.050570369 -1.487708688 1.186007619 1.778670549 1.651240706 -0.463916957 4.790596008 2.178059340 -0.455834031 2.359807253 1.898913860 -4.407394886 -4.330665588 0.436205268 -1.262730122 -2.101807356 -0.613988101 3.183116674 0.277501702 -1.392549515 4.557068825 -6.082460880 3.220080137 1.878075838 -1.634188533 -4.633162975 3.088020325 1.667430878 -1.652292013 -0.854124665 9.019628525 -1.726758838 -1.036557794 -5.345652103 4.419012547 3.475009680 -1.456938505 1.139147997 -0.154688686 -0.093402758 -0.424127996 1.466463447 -2.405151844 -7.645951748 -4.161246300 -0.969041228 -2.467205048 1.319093466 3.103058577 -1.085103750 -5.806368351 -5.286525249 3.830546379 -1.913663149 -4.325613499 -4.169219017 4.304340363 4.681508064 -0.094612844 -0.256712437 3.249024391 5.741372585 -0.379208028 -0.082940802 4.969172478 -0.036982208 -1.435508728 -3.091700554 -0.797926962 -1.577746034 -2.907829285 9.152624130 1.775416613 0.952152193 -1.028325319 -5.905086040 -5.034526348 6.298460960 2.547980070 -1.217692256 1.079178572 -4.089033127 -2.597886324 -2.928499937 1.522760391 -2.403859138 10.749196053 5.941434860
