tree
version=v4
num_class=1
num_tree_per_iteration=1
label_index=0
max_feature_idx=205
objective=lambdarank
feature_names=colex0 colex1 colex2 colex3 colex4 colex5 colex6 colex7 colex8 colex9 colex10 colex11 colex12 colex13 colex14 colex15 colex16 colex17 colex18 colex19 colex20 colex21 colex22 colex23 colex24 colex25 colex26 colex27 colex28 colex29 colex30 colex31 colex32 colex33 colex34 colex35 colex36 colex37 colex38 colex39 colex40 colex41 colex42 colex43 colex44 colex45 colex46 colex47 colex48 colex49 colex50 colex51 colex52 colex53 colex54 colex55 colex56 colex57 colex58 colex59 colex60 colex61 colex62 colex63 colex64 colex65 colex66 colex67 colex68 colex69 colex70 colex71 colex72 colex73 colex74 colex75 colex76 colex77 colex78 colex79 colex80 colex81 colex82 colex83 colex84 colex85 colex86 colex87 colex88 colex89 colex90 colex91 colex92 colex93 colex94 colex95 colex96 colex97 colex98 colex99 colex100 colex101 colex102 colex103 colex104 colex105 colex106 colex107 colex108 colex109 colex110 colex111 colex112 colex113 colex114 colex115 colex116 colex117 colex118 colex119 colex120 colex121 colex122 colex123 colex124 colex125 colex126 colex127 colex128 colex129 colex130 colex131 colex132 colex133 colex134 colex135 colex136 colex137 colex138 colex139 colex140 colex141 colex142 colex143 colex144 colex145 colex146 colex147 colex148 colex149 colex150 colex151 colex152 colex153 colex154 colex155 colex156 colex157 colex158 colex159 colex160 colex161 colex162 colex163 colex164 colex165 colex166 colex167 colex168 colex169 colex170 colex171 colex172 colex173 colex174 colex175 colex176 colex177 colex178 colex179 colex180 colex181 colex182 colex183 colex184 colex185 colex186 colex187 colex188 colex189 colex190 colex191 colex192 colex193 colex194 colex195 colex196 colex197 colex198 colex199 pdi idv mas uai lto ivr
feature_infos=[-798.05123901399998:798.05123901399998] [-511.371495724:511.371495724] [-1208.5110168460001:1208.5110168460001] [-686.25236511200001:686.25236511200001] [-805.63415527400002:805.63415527400002] [-1385.744964599:1385.744964599] [-589.53715515099998:589.53715515099998] [-706.69543838499999:706.69543838499999] [-700.64064788799999:700.64064788799999] [-299.31433868400001:299.31433868400001] [-367.68412399299996:367.68412399299996] [-1262.847305298:1262.847305298] [-1161.4993515020001:1161.4993515020001] [-276.13555908199999:276.13555908199999] [-898.27096557600009:898.27096557600009] [-1213.043640136:1213.043640136] [-208.464845658:208.464845658] [-500.13005065900001:500.13005065900001] [-900.26281738199998:900.26281738199998] [-889.01651442100001:889.01651442100001] [-809.52716064399999:809.52716064399999] [-1597.962890625:1597.962890625] [-1504.512634278:1504.512634278] [-1258.764038086:1258.764038086] [-299.57310485799997:299.57310485799997] [-1428.4898071290002:1428.4898071290002] [-609.63902950300007:609.63902950300007] [-395.33410644499997:395.33410644499997] [-1826.324523925:1826.324523925] [-948.97567748999995:948.97567748999995] [-1379.2127990720001:1379.2127990720001] [-398.28269195499996:398.28269195499996] [-531.566970825:531.566970825] [-1322.969116211:1322.969116211] [-476.98135375999999:476.98135375999999] [-284.75038719200001:284.75038719200001] [-852.049446106:852.049446106] [-509.25582122799995:509.25582122799995] [-1068.8461914059999:1068.8461914059999] [-1530.772827149:1530.772827149] [-417.58058738700004:417.58058738700004] [-248.24415207000001:248.24415207000001] [-1380.2987976070001:1380.2987976070001] [-1099.9351196289999:1099.9351196289999] [-1371.246032715:1371.246032715] [-240.29183387800003:240.29183387800003] [-644.40528869599996:644.40528869599996] [-545.958791733:545.958791733] [-942.17309570299994:942.17309570299994] [-903.67535400300005:903.67535400300005] [-683.39542388899997:683.39542388899997] [-192.05308151300002:192.05308151300002] [-567.07242774999997:567.07242774999997] [-539.91217803999996:539.91217803999996] [-576.32862853999995:576.32862853999995] [-752.00714111399998:752.00714111399998] [-601.76853370699996:601.76853370699996] [-949.53561401399998:949.53561401399998] [-457.555587769:457.555587769] [-279.20066833499999:279.20066833499999] [-1071.6137084960001:1071.6137084960001] [-283.84024810799997:283.84024810799997] [-484.24455261200001:484.24455261200001] [-920.91283416700003:920.91283416700003] [-637.43270873999995:637.43270873999995] [-1466.061218262:1466.061218262] [-520.86096191399997:520.86096191399997] [-701.33702087400002:701.33702087400002] [-719.53679275499996:719.53679275499996] [-319.882568359:319.882568359] [-1620.633987427:1620.633987427] [-453.83698272700002:453.83698272700002] [-584.43629837100002:584.43629837100002] [-1170.5712184910001:1170.5712184910001] [-382.61897850000003:382.61897850000003] [-1209.1578674319999:1209.1578674319999] [-486.70542144800004:486.70542144800004] [-1300.0413818359998:1300.0413818359998] [-715.58527183499996:715.58527183499996] [-912.30564880400004:912.30564880400004] [-1275.7713928220001:1275.7713928220001] [-446.85032653799999:446.85032653799999] [-1680.8237915039999:1680.8237915039999] [-746.96519470199996:746.96519470199996] [-714.55910491999998:714.55910491999998] [-913.82574462899993:913.82574462899993] [-326.40513610799997:326.40513610799997] [-879.26843261699992:879.26843261699992] [-1052.1887207029999:1052.1887207029999] [-223.21212768599997:223.21212768599997] [-1065.5267028809999:1065.5267028809999] [-1132.187587738:1132.187587738] [-458.82688617699995:458.82688617699995] [-378.068244935:378.068244935] [-467.18342590299994:467.18342590299994] [-533.9532547:533.9532547] [-379.65020751899999:379.65020751899999] [-858.25566101100003:858.25566101100003] [-614.64491271899999:614.64491271899999] [-566.72752380399993:566.72752380399993] [-798.05123901399998:798.05123901399998] [-511.371495724:511.371495724] [-1208.5110168460001:1208.5110168460001] [-686.25236511200001:686.25236511200001] [-805.63415527400002:805.63415527400002] [-1385.744964599:1385.744964599] [-589.53715515099998:589.53715515099998] [-706.69543838499999:706.69543838499999] [-700.64064788799999:700.64064788799999] [-299.31433868400001:299.31433868400001] [-367.68412399299996:367.68412399299996] [-1262.847305298:1262.847305298] [-1161.4993515020001:1161.4993515020001] [-276.13555908199999:276.13555908199999] [-898.27096557600009:898.27096557600009] [-1213.043640136:1213.043640136] [-208.464845658:208.464845658] [-500.13005065900001:500.13005065900001] [-900.26281738199998:900.26281738199998] [-889.01651442100001:889.01651442100001] [-809.52716064399999:809.52716064399999] [-1597.962890625:1597.962890625] [-1504.512634278:1504.512634278] [-1258.764038086:1258.764038086] [-299.57310485799997:299.57310485799997] [-1428.4898071290002:1428.4898071290002] [-609.63902950300007:609.63902950300007] [-395.33410644499997:395.33410644499997] [-1826.324523925:1826.324523925] [-948.97567748999995:948.97567748999995] [-1379.2127990720001:1379.2127990720001] [-398.28269195499996:398.28269195499996] [-531.566970825:531.566970825] [-1322.969116211:1322.969116211] [-476.98135375999999:476.98135375999999] [-284.75038719200001:284.75038719200001] [-852.049446106:852.049446106] [-509.25582122799995:509.25582122799995] [-1068.8461914059999:1068.8461914059999] [-1530.772827149:1530.772827149] [-417.58058738700004:417.58058738700004] [-248.24415207000001:248.24415207000001] [-1380.2987976070001:1380.2987976070001] [-1099.9351196289999:1099.9351196289999] [-1371.246032715:1371.246032715] [-240.29183387800003:240.29183387800003] [-644.40528869599996:644.40528869599996] [-545.958791733:545.958791733] [-942.17309570299994:942.17309570299994] [-903.67535400300005:903.67535400300005] [-683.39542388899997:683.39542388899997] [-192.05308151300002:192.05308151300002] [-567.07242774999997:567.07242774999997] [-539.91217803999996:539.91217803999996] [-576.32862853999995:576.32862853999995] [-752.00714111399998:752.00714111399998] [-601.76853370699996:601.76853370699996] [-949.53561401399998:949.53561401399998] [-457.555587769:457.555587769] [-279.20066833499999:279.20066833499999] [-1071.6137084960001:1071.6137084960001] [-283.84024810799997:283.84024810799997] [-484.24455261200001:484.24455261200001] [-920.91283416700003:920.91283416700003] [-637.43270873999995:637.43270873999995] [-1466.061218262:1466.061218262] [-520.86096191399997:520.86096191399997] [-701.33702087400002:701.33702087400002] [-719.53679275499996:719.53679275499996] [-319.882568359:319.882568359] [-1620.633987427:1620.633987427] [-453.83698272700002:453.83698272700002] [-584.43629837100002:584.43629837100002] [-1170.5712184910001:1170.5712184910001] [-382.61897850000003:382.61897850000003] [-1209.1578674319999:1209.1578674319999] [-486.70542144800004:486.70542144800004] [-1300.0413818359998:1300.0413818359998] [-715.58527183499996:715.58527183499996] [-912.30564880400004:912.30564880400004] [-1275.7713928220001:1275.7713928220001] [-446.85032653799999:446.85032653799999] [-1680.8237915039999:1680.8237915039999] [-746.96519470199996:746.96519470199996] [-714.55910491999998:714.55910491999998] [-913.82574462899993:913.82574462899993] [-326.40513610799997:326.40513610799997] [-879.26843261699992:879.26843261699992] [-1052.1887207029999:1052.1887207029999] [-223.21212768599997:223.21212768599997] [-1065.5267028809999:1065.5267028809999] [-1132.187587738:1132.187587738] [-458.82688617699995:458.82688617699995] [-378.068244935:378.068244935] [-467.18342590299994:467.18342590299994] [-533.9532547:533.9532547] [-379.65020751899999:379.65020751899999] [-858.25566101100003:858.25566101100003] [-614.64491271899999:614.64491271899999] [-566.72752380399993:566.72752380399993] [0.4375:2.2857142857142856] [0.19780219780219779:5.0555555555555554] [0.59090909090909094:1.6923076923076923] [0.32258064516129031:3.1000000000000001] [0.26000000000000001:3.8461538461538463] [0.34782608695652173:2.875]
tree_sizes=1172 1253 1055 1168 1165 954 1062 1062 1072 1072 1073 1071 1183 1072 1191 1196 1192 1202 1204 1201 1085 1313 1198 1203 1204 1091 1196 1314 1088 1207 1093 1102 1095 1223 1316 1316 995 1206 993 1219 1099 1105 1217 1225 1109 1110 1321 1106 996 1230 1334 1117 1111 1211 1114 1009 1341 1110 1115 1117 1114 1104 1232 1115 1124 1122 1119 1233 1224 1233 1125 1226 1121 1233 1224 1460 1103 1125 1018 1120 1459 1130 1241 1237 1132 1244 1342 1245 1246 1234 1125 1127 1241 1124 1240 1123 1359 1022 1364 1136

Tree=0
num_leaves=10
num_cat=0
split_feature=83 4 25 24 5 61 92 202 34
split_gain=5.49186 1.98282 0.906733 1.47622 0.211931 0.146627 0.0484139 0.00751741 0.000119948
threshold=-192.38018035849993 620.47695160000001 -1.0000000180025095e-35 -1.0000000180025095e-35 331.09509277300009 -209.00758361799998 279.19604682950006 0.98484848484848497 1.0000000180025095e-35
decision_type=2 2 2 2 2 2 2 2 2
left_child=4 2 5 -4 -1 -2 -6 -7 -9
right_child=1 -3 3 -5 6 7 -8 8 -10
leaf_value=0.090413419576587731 -0.11901315230171128 0.059293965228431139 -0.13985058628905209 0.12636152394756339 0.19999999999999973 -0.17912063062371084 0.1587012986648432 -0.19939593091679075 -0.19684003776901193
leaf_weight=0.3655714951455592 0.36046115309000049 0.80328077077865589 0.58830250054597855 0.3224870860576633 0.53054678440093972 0.28022983111441113 0.61047391220927238 0.43260474875569344 0.31902022659778595
leaf_count=6 7 4 7 4 3 7 8 5 5
internal_value=0 -0.075987 -0.12317 -0.0455917 0.156675 -0.173919 0.177904 -0.193099 -0.198311
internal_weight=0 3.10639 2.30311 0.91079 1.50659 1.39232 1.14102 1.03185 0.751625
internal_count=56 39 35 11 17 24 11 17 10
is_linear=0
shrinkage=0.1


Tree=1
num_leaves=11
num_cat=0
split_feature=31 48 202 205 200 53 4 5 53 10
split_gain=11.0118 8.61199 6.31116 4.31724 1.41256 1.16544 0.307237 0.167694 0.0940387 0.0691499
threshold=-93.788814544999994 215.73604011500001 1.4290598290598293 0.72279411764705892 0.55681818181818199 -290.08952331599988 -155.90599822999997 692.87248229950012 -1.58370971650001 155.78018760650005
decision_type=2 2 2 2 2 2 2 2 2 2
left_child=5 3 4 -2 -3 -1 -6 -5 -7 -10
right_child=1 2 -4 7 6 8 -8 -9 9 -11
leaf_value=-0.045399220643066729 -0.026908392233486074 -0.036578553235388174 0.069753622344984181 0.1483458628092108 -0.11770804271980942 -0.19030133226988588 -0.18943901243746369 0.18398569604695159 -0.12740620547614973 -0.17222626404051589
leaf_weight=0.90831649675965298 1.5195887759327869 1.332234710454941 3.1624846458435059 2.9923290759325027 0.93803576380014542 1.6650753300637009 1.6429729834198941 2.3625918626785278 0.54652424901724106 0.92997167259454727
leaf_count=6 5 4 5 7 5 5 5 3 5 6
internal_value=0 0.0421426 -0.0353029 0.121855 -0.120204 -0.145164 -0.163369 0.16407 -0.174009 -0.155636
internal_weight=0 13.9502 7.07573 6.87451 3.91324 4.04989 2.58101 5.35492 3.14157 1.4765
internal_count=56 34 19 15 14 22 10 10 16 11
is_linear=0
shrinkage=0.1


Tree=2
num_leaves=9
num_cat=0
split_feature=204 7 86 86 56 6 87 25
split_gain=7.45742 8.7963 3.08453 3.38278 1.58998 0.300293 0.26177 0.163539
threshold=0.50990196078431382 353.34771919250005 -57.563541888999985 1.0000000180025095e-35 182.34432911900004 403.29129505150007 -71.250782966999992 1.0000000180025095e-35
decision_type=2 2 2 2 2 2 2 2
left_child=-1 2 6 -4 5 -5 -2 -8
right_child=1 -3 3 4 -6 -7 7 -9
leaf_value=0.12085779128478324 -0.18837724419434707 0.11838898801430459 0.12874218146291691 -0.16005943442446835 0.01079937235199859 -0.084138588538629877 -0.15884344734997521 -0.078122875989873136
leaf_weight=3.7385077662765989 2.2827802151441579 2.5106378272175789 0.91924800723791023 1.5364628657698638 1.1182019859552381 0.7882658690214156 0.66563671454787143 0.40291348099708557
leaf_count=9 5 7 3 9 6 6 6 5
internal_value=0 -0.0441922 -0.0971101 -0.0416826 -0.0871853 -0.134316 -0.169256 -0.128406
internal_weight=0 10.2241 7.71351 4.36218 3.44293 2.32473 3.35133 1.06855
internal_count=56 47 40 24 21 15 16 11
is_linear=0
shrinkage=0.1


Tree=3
num_leaves=10
num_cat=0
split_feature=63 97 24 204 15 84 15 20 51
split_gain=5.75768 1.93614 4.12368 1.4788 1.80579 0.19555 0.0833569 0.0446376 0.0208388
threshold=-204.53141403199996 -1.0000000180025095e-35 -1.0000000180025095e-35 0.9279918864097364 1162.0029964445005 -590.58290290899993 37.45599746700001 -73.300483703499992 1.0000000180025095e-35
decision_type=2 2 2 2 2 2 2 2 2
left_child=3 5 6 4 -1 -2 -3 -7 -9
right_child=1 2 -4 -5 -6 7 -8 8 -10
leaf_value=-0.054953100925765601 -0.092098829808066385 -0.16028470790549662 0.11350893480454023 0.12690322869265686 0.11155964919913691 -0.12013966409501844 -0.10938271541166632 -0.17063236963517425 -0.14656703421887504
leaf_weight=1.426612988114357 0.90110751986503634 0.71286180615425132 1.3229235112667082 2.6557241529226303 1.1983783394098282 0.42418305575847659 0.58632469922304153 0.6340061649680131 0.83203359693288803
leaf_count=8 7 5 5 7 3 4 5 4 8
internal_value=0 -0.0724703 -0.0107665 0.0742918 0.0210644 -0.130433 -0.137313 -0.148708 -0.156974
internal_weight=0 5.41344 2.62211 5.28072 2.62499 2.79133 1.29919 1.89022 1.46604
internal_count=56 38 15 18 11 23 10 16 12
is_linear=0
shrinkage=0.1


Tree=4
num_leaves=10
num_cat=0
split_feature=68 19 1 91 46 202 204 40 68
split_gain=3.28584 1.90131 1.25532 0.707513 0.677189 0.622268 0.136498 0.0639031 0.00470773
threshold=58.51140773249999 1.0000000180025095e-35 1.0000000180025095e-35 -977.06061553999996 -180.09710645599998 1.4290598290598293 0.50990196078431382 46.048892975000008 293.51510059850006
decision_type=2 2 2 2 2 2 2 2 2
left_child=1 2 4 -2 -1 -3 -4 8 -5
right_child=3 5 6 7 -6 -7 -8 -9 -10
leaf_value=0.051977517839369138 0.0029138938353401116 -0.13569201885344409 0.029941170390107432 -0.13591907672714132 0.14239824245106877 0.0014536063344201544 -0.022167324030586456 -0.10209241170069719 -0.14805104059338087
leaf_weight=1.5552979186177252 0.50935438275337253 0.70542409271001794 0.89160598814487491 0.59262754768133141 1.7718992531299593 0.6230323538184166 1.152493007481098 0.56362842768430699 0.69490745663642883
leaf_count=6 4 7 3 7 5 4 7 6 7
internal_value=0 0.035746 0.062239 -0.101456 0.100131 -0.0713721 0.000561637 -0.130174 -0.142467
internal_weight=0 6.69975 5.3713 2.36052 3.3272 1.32846 2.0441 1.85116 1.28754
internal_count=56 32 21 24 11 11 10 20 14
is_linear=0
shrinkage=0.1


Tree=5
num_leaves=8
num_cat=0
split_feature=54 61 11 66 19 202 66
split_gain=2.26878 1.63534 1.2161 1.46797 0.53423 0.0549499 0.00884924
threshold=-66.581774711499989 -30.622394561999972 -84.435035705499985 -260.43048095699993 807.30446529350013 0.95407196969696983 174.48300552400002
decision_type=2 2 2 2 2 2 2
left_child=4 -2 3 -3 5 -1 -7
right_child=1 2 -4 -5 -6 6 -8
leaf_value=-0.093438314868603975 -0.10916882186528037 0.077723154055211047 0.12361015475221782 -0.049057406130241517 0.0025080896816671717 -0.12215060832755978 -0.1415973255473407
leaf_weight=0.45800457894802082 0.73503892123699177 1.9569075107574458 1.5747229978442194 1.7125424221158028 0.44440225511789311 0.35441594943404175 0.6887127161026001
leaf_count=6 8 9 6 9 4 5 9
internal_value=0 0.0305212 0.0501005 0.0185543 -0.0938007 -0.122312 -0.13499
internal_weight=0 5.97921 5.24417 3.66945 1.94554 1.50113 1.04313
internal_count=56 32 24 18 24 20 14
is_linear=0
shrinkage=0.1


Tree=6
num_leaves=9
num_cat=0
split_feature=35 44 204 204 78 93 74 1
split_gain=2.30456 1.26657 0.843699 1.66148 0.528037 0.100541 0.00802543 0.00185249
threshold=-1.0000000180025095e-35 -111.93841457399999 1.0240963855421688 0.50990196078431382 -156.11955165799998 239.16024780300003 214.62698459600003 -62.579028845000003
decision_type=2 2 2 2 2 2 2 2
left_child=4 -2 3 -3 -1 6 7 -6
right_child=1 2 -4 -5 5 -7 -8 -9
leaf_value=0.012331416148853854 -0.094335224879886825 0.08961806927932911 0.1112461938554774 -0.080254761135854127 -0.12847935712329803 -0.076545429751948044 -0.1160546309656748 -0.13828078959482046
leaf_weight=0.427739538252354 0.62279254943132389 1.4016516804695132 1.7545294463634489 0.97716110572218884 0.32254244387149811 0.54080030322074879 0.3425886332988739 0.47949348762631394
leaf_count=3 8 6 7 8 5 8 4 7
internal_value=0 0.038608 0.0586393 0.0198383 -0.0868957 -0.112078 -0.128867 -0.134339
internal_weight=0 4.75613 4.13334 2.37881 2.11316 1.68542 1.14462 0.802036
internal_count=56 29 21 14 27 24 16 12
is_linear=0
shrinkage=0.1


Tree=7
num_leaves=9
num_cat=0
split_feature=46 63 46 202 4 92 4 1
split_gain=1.80369 1.07981 0.574841 0.807756 0.398259 0.0831417 0.0162102 0.0087307
threshold=1.0000000180025095e-35 1.0000000180025095e-35 -180.09710645599998 1.0858294930875578 620.47695160000001 -374.39038658149997 224.55056762700005 -62.579028845000003
decision_type=2 2 2 2 2 2 2 2
left_child=1 2 3 -1 5 -2 7 -7
right_child=4 -3 -4 -5 -6 6 -8 -9
leaf_value=-0.046275159286185211 -0.063903431330235974 -0.09027001523883843 0.11721176042079873 0.076886158590087711 0.01075282317090046 -0.11126928839273763 -0.097642493753612225 -0.13292203749226558
leaf_weight=0.85853053629398424 0.37305425107479084 0.56242236495017994 1.1399079263210299 1.4023262783885 0.37414930760860432 0.28295782953500725 0.278882946819067 0.54467984288930893
leaf_count=8 6 9 6 6 3 5 4 9
internal_value=0 0.0380834 0.0593106 0.0301173 -0.0814207 -0.104729 -0.118493 -0.125519
internal_weight=0 3.96319 3.40076 2.26086 1.85372 1.47957 1.10652 0.827638
internal_count=56 29 20 14 27 24 18 14
is_linear=0
shrinkage=0.1


Tree=8
num_leaves=9
num_cat=0
split_feature=35 58 1 204 204 87 74 3
split_gain=1.35035 0.497595 0.621785 0.674866 0.423076 0.401021 0.0292058 0.0153318
threshold=-1.0000000180025095e-35 -134.35291528699995 1.0000000180025095e-35 0.50990196078431382 1.0240963855421688 389.35483837100008 43.888051033000004 -76.560389995499989
decision_type=2 2 2 2 2 2 2 2
left_child=5 -2 4 -4 -3 6 7 -1
right_child=1 2 3 -5 -6 -7 -8 -9
leaf_value=-0.10313169927447169 -0.062763815018954172 0.031006081596745699 0.079738285936532816 -0.068383671446290969 0.12944234348184394 -0.0075106846218348615 -0.088562163132559074 -0.13420101530820802
leaf_weight=0.24797411262989033 0.45108801499009166 0.7587365768849853 0.54260734468698479 0.71018654108047485 1.0284695178270338 0.57984269410371769 0.38190127909183502 0.44181006029248227
leaf_count=5 6 6 3 9 5 7 7 8
internal_value=0 0.0352447 0.0497876 -0.00422941 0.0876524 -0.0745021 -0.110748 -0.123032
internal_weight=0 3.49109 3.04 1.25279 1.78721 1.65153 1.07169 0.689784
internal_count=56 29 23 12 11 27 20 13
is_linear=0
shrinkage=0.1


Tree=9
num_leaves=9
num_cat=0
split_feature=63 204 204 93 81 41 93 39
split_gain=1.09696 0.51073 0.977186 0.404388 0.581195 0.268348 0.0864298 0.00478657
threshold=-204.53141403199996 1.0240963855421688 0.50990196078431382 1.0000000180025095e-35 -53.886268615499993 68.167160987500026 287.60212707500006 -664.52545166049993
decision_type=2 2 2 2 2 2 2 2
left_child=1 2 -1 4 -2 -6 7 -5
right_child=3 -3 -4 6 5 -7 -8 -9
leaf_value=0.092511842716184137 -0.10932558583017321 0.10474627864486041 -0.078115740063821243 -0.11040025336754465 0.07933427060937398 -0.028728091721817325 -0.051150306807604101 -0.1281129062085089
leaf_weight=0.68562020361423515 0.44543891400098812 0.9513549506664275 0.65754240751266479 0.24811788275837898 0.50033229961991321 0.42499895021319389 0.24153804779052734 0.39616353064775456
leaf_count=4 8 6 8 5 5 6 5 9
internal_value=0 0.0486876 0.00898147 -0.0495059 -0.0154758 0.0297019 -0.102166 -0.121292
internal_weight=0 2.29452 1.34316 2.25659 1.37077 0.925331 0.885819 0.644281
internal_count=56 18 12 38 19 11 19 14
is_linear=0
shrinkage=0.1


Tree=10
num_leaves=9
num_cat=0
split_feature=63 204 204 9 90 20 3 9
split_gain=0.885525 0.344236 0.592508 0.305634 0.529244 0.0616985 0.0544669 0.0030367
threshold=-204.53141403199996 1.0240963855421688 0.50990196078431382 1.0000000180025095e-35 1.0000000180025095e-35 109.43036651600002 -111.0865573885 -174.72539138749997
decision_type=2 2 2 2 2 2 2 2
left_child=1 2 -1 4 -2 7 -5 -6
right_child=3 -3 -4 6 5 -7 -8 -9
leaf_value=0.081901743379019259 0.047444894704466133 0.09629011038647374 -0.06241297721165228 -0.068686053779826131 -0.10223276296045575 -0.046748695493123868 -0.12460272346097001 -0.12083109310692863
leaf_weight=0.58387330919504188 0.61858804896473862 0.82906437665224064 0.55484236776828766 0.30856198444962502 0.18883495777845372 0.26094314455986023 0.40005444735288609 0.16407012008130561
leaf_count=4 7 6 8 7 5 5 9 5
internal_value=0 0.0472723 0.011584 -0.0479233 -0.0178344 -0.0836178 -0.100254 -0.110879
internal_weight=0 1.96778 1.13872 1.94105 1.23244 0.613848 0.708616 0.352905
internal_count=56 18 12 38 22 15 16 10
is_linear=0
shrinkage=0.1


Tree=11
num_leaves=9
num_cat=0
split_feature=46 59 71 93 87 2 58 13
split_gain=0.72408 0.669359 0.357094 0.282089 0.19333 0.0383602 0.028148 0.00453466
threshold=1.0000000180025095e-35 -47.093986511499992 -1.0000000180025095e-35 -178.01081848149997 389.35483837100008 -969.31505107899977 134.352915287 177.77680587750004
decision_type=2 2 2 2 2 2 2 2
left_child=1 -1 3 -3 6 -5 7 -2
right_child=4 2 -4 5 -6 -7 -8 -9
leaf_value=-0.088230137842871453 -0.12358626248888629 0.060279520108791076 0.1130438988205512 -0.0078412412981554817 -0.017379837220819677 -0.063021392492843109 -0.070872252805389002 -0.10257850633560267
leaf_weight=0.39421043358743268 0.28767532110214211 0.81666069477796621 0.68267719447612707 0.25740152597427435 0.46044126525521278 0.24675853177905016 0.19892413914203644 0.15984280593693256
leaf_count=7 9 6 6 4 8 6 5 5
internal_value=0 0.0308836 0.0543205 0.0239688 -0.0668993 -0.0348489 -0.102171 -0.116083
internal_weight=0 2.39771 2.0035 1.32082 1.10688 0.50416 0.646442 0.447518
internal_count=56 29 22 16 27 10 19 14
is_linear=0
shrinkage=0.1


Tree=12
num_leaves=10
num_cat=0
split_feature=68 19 46 200 42 19 20 64 65
split_gain=0.628143 0.294987 0.205473 0.234855 0.178675 0.167304 0.0359101 0.00989973 0.00660349
threshold=58.51140773249999 1.0000000180025095e-35 -180.09710645599998 0.55681818181818199 -570.82427596999992 807.30446529350013 -47.368789672999974 -155.36561584499998 -167.25408935549999
decision_type=2 2 2 2 2 2 2 2 2
left_child=1 2 3 -1 -3 6 -2 -8 -9
right_child=5 4 -4 -5 -6 -7 7 8 -10
leaf_value=0.070580439300882925 -0.056087509326357469 0.013468875931470631 0.097908173709393559 -0.015579423845461769 -0.1103576268265164 0.0024068291399534716 -0.133927066452278 -0.11687548945328233 -0.088797627899468434
leaf_weight=0.58428487181663535 0.14659579284489155 0.2543940432369709 0.53224901482462916 0.68994005396962166 0.21502734534442414 0.21649826318025589 0.14991789124906063 0.16963771358132362 0.16546121053397644
leaf_count=6 4 4 7 8 7 4 4 7 5
internal_value=0 0.0273731 0.0457254 0.0239284 -0.0432522 -0.0734553 -0.0994586 -0.112567 -0.103012
internal_weight=0 2.2759 1.80647 1.27422 0.469421 0.848111 0.631613 0.485017 0.335099
internal_count=56 32 21 14 11 24 20 16 12
is_linear=0
shrinkage=0.1


Tree=13
num_leaves=9
num_cat=0
split_feature=46 59 204 204 55 87 43 13
split_gain=0.5108 0.2713 0.290258 0.535048 0.184503 0.173959 0.0231372 0.00785053
threshold=1.0000000180025095e-35 -47.093986511499992 1.0240963855421688 0.50990196078431382 321.12885046050002 389.35483837100008 -573.96084690099985 49.227956771500004
decision_type=2 2 2 2 2 2 2 2
left_child=1 -1 3 -3 -5 6 -2 -8
right_child=5 2 -4 4 -6 -7 7 -9
leaf_value=-0.059090429948196792 -0.065887125362410454 0.084697350740254945 0.10150368879884729 -0.0071103768569210626 -0.12752078466392266 -0.01206140288803203 -0.12678015363433812 -0.09743674678996217
leaf_weight=0.2956187725067142 0.13792743906378746 0.52533128485083558 0.58406072482466687 0.2990280631929636 0.22153065353631973 0.39022072963416576 0.20729249902069558 0.16276660561561584
leaf_count=7 4 5 7 7 3 8 8 7
internal_value=0 0.0290482 0.0450336 0.0134987 -0.0583526 -0.0622732 -0.100845 -0.113874
internal_weight=0 1.92557 1.62995 1.04589 0.520559 0.898207 0.507987 0.370059
internal_count=56 29 22 15 10 27 19 15
is_linear=0
shrinkage=0.1


Tree=14
num_leaves=10
num_cat=0
split_feature=63 204 204 9 90 51 16 61 47
split_gain=0.434847 0.183119 0.281057 0.157841 0.278146 0.0405805 0.0237401 0.00628256 0.00249013
threshold=-204.53141403199996 1.0240963855421688 0.50990196078431382 1.0000000180025095e-35 1.0000000180025095e-35 -73.512353896999983 81.218674660000019 -112.52624893199997 20.791532516500002
decision_type=2 2 2 2 2 2 2 2 2
left_child=1 2 -1 4 -2 -6 8 -7 -5
right_child=3 -3 -4 6 5 7 -8 -9 -10
leaf_value=0.070123244051814193 0.040629643570609143 0.088195277252488519 -0.051315009058739418 -0.1181036305223242 -0.035537196965234295 -0.08698377495152719 -0.059119431832472792 -0.11917604814746129 -0.098794984383200293
leaf_weight=0.38655084744095825 0.40852294303476788 0.49844138324260712 0.37592833489179611 0.16088435053825378 0.14308798126876354 0.12431181967258453 0.13684995472431183 0.11832547932863235 0.11420224048197269
leaf_count=4 7 6 8 7 4 5 5 6 4
internal_value=0 0.0410618 0.01025 -0.0429251 -0.0168732 -0.0777746 -0.0931554 -0.102683 -0.110088
internal_weight=0 1.26092 0.762479 1.20618 0.794248 0.385725 0.411937 0.242637 0.275087
internal_count=56 18 12 38 22 15 16 11 11
is_linear=0
shrinkage=0.1


Tree=15
num_leaves=10
num_cat=0
split_feature=63 55 51 91 4 202 205 204 14
split_gain=0.370803 0.159942 0.127797 0.201355 0.103515 0.102013 0.0187936 0.00459962 0.00343526
threshold=-204.53141403199996 -360.51505279599991 1.0000000180025095e-35 -1.0000000180025095e-35 182.51544570950003 1.0858294930875578 1.6781609195402301 1.0240963855421688 -114.68003845199998
decision_type=2 2 2 2 2 2 2 2 2
left_child=1 -1 3 4 7 -3 8 -2 -4
right_child=2 5 6 -5 -6 -7 -8 -9 -10
leaf_value=0.11713922841952491 -0.11075846072781803 -0.019058251129370939 -0.094475870034991263 0.091469367056641215 -0.011086926616999088 0.049053639087546987 -0.057815455011157306 -0.081649197902377388 -0.11857243674570471
leaf_weight=0.21699640899896622 0.12185970786958933 0.36800102330744289 0.10904888436198235 0.13618908450007416 0.36876667663455009 0.54635652154684067 0.11153176054358482 0.097885532304644585 0.12932799756526947
leaf_count=3 6 9 4 3 9 6 4 5 7
internal_value=0 0.0399575 -0.0420675 -0.0181049 -0.0434618 0.0216407 -0.0916967 -0.0977917 -0.107549
internal_weight=0 1.13135 1.07461 0.724701 0.588512 0.914358 0.349909 0.219745 0.238377
internal_count=56 18 38 23 20 15 15 11 11
is_linear=0
shrinkage=0.1


Tree=16
num_leaves=10
num_cat=0
split_feature=66 87 46 200 19 86 61 3 15
split_gain=0.301356 0.173116 0.129955 0.0908355 0.0877112 0.0512842 0.0199176 0.00669026 0.000301105
threshold=72.204715729 1.0000000180025095e-35 -180.09710645599998 0.55681818181818199 807.30446529350013 -1.0000000180025095e-35 -209.00758361799998 -76.560389995499989 -82.968425750499989
decision_type=2 2 2 2 2 2 2 2 2
left_child=1 2 3 -1 6 -3 -2 -8 -9
right_child=4 5 -4 -5 -6 -7 7 8 -10
leaf_value=0.056501853852514584 -0.05868146636503474 -0.01136406144004139 0.09542937221877662 -0.0089494513241587768 -5.503112396057986e-05 -0.096438596319308595 -0.08333419740926927 -0.12286796803699039 -0.11432430860366916
leaf_weight=0.38451912626624107 0.13266297616064548 0.17990714684128761 0.31603283621370815 0.47271802462637424 0.15157291106879711 0.11689801700413216 0.082309896126389503 0.075240518897771835 0.09131269622594107
leaf_count=6 5 4 7 8 4 7 5 5 5
internal_value=0 0.0233569 0.0406166 0.0204091 -0.0644089 -0.044871 -0.0899755 -0.106658 -0.118184
internal_weight=0 1.47008 1.17327 0.857237 0.533099 0.296805 0.381526 0.248863 0.166553
internal_count=56 32 21 14 24 11 20 15 10
is_linear=0
shrinkage=0.1


Tree=17
num_leaves=10
num_cat=0
split_feature=63 204 204 93 81 40 205 204 93
split_gain=0.256089 0.125512 0.223731 0.107638 0.119688 0.0607826 0.0310632 0.00491662 0.000526671
threshold=-204.53141403199996 1.0240963855421688 0.50990196078431382 1.0000000180025095e-35 -1.0000000180025095e-35 64.787768364000016 0.42338022165387895 1.7375565610859731 131.33942413299999
decision_type=2 2 2 2 2 2 2 2 2
left_child=1 2 -1 4 -2 -6 -5 8 -8
right_child=3 -3 -4 6 5 -7 7 -9 -10
leaf_value=0.068853839683681514 -0.081325747932393541 0.082127300771168157 -0.052541375202075913 -0.034242330015023414 0.063332589134191125 -0.017237165392903032 -0.12148721900336912 -0.084220335403027022 -0.10976134448294655
leaf_weight=0.30109820514917374 0.17420357093214989 0.36056414246559143 0.30621601641178131 0.085395829752087593 0.16952042654156685 0.20916801132261753 0.070342999882996082 0.077386320568621159 0.084100250154733658
leaf_count=4 9 6 8 4 3 7 5 4 6
internal_value=0 0.0353918 0.00764474 -0.0393682 -0.0127268 0.01883 -0.0858014 -0.104794 -0.115102
internal_weight=0 0.967878 0.607314 0.870117 0.552892 0.378688 0.317225 0.23183 0.154443
internal_count=56 18 12 38 19 10 19 15 11
is_linear=0
shrinkage=0.1


Tree=18
num_leaves=10
num_cat=0
split_feature=63 1 202 9 90 61 17 81 25
split_gain=0.227684 0.0954653 0.12782 0.0827771 0.120465 0.0246115 0.0228429 0.00365063 0.000766119
threshold=-204.53141403199996 -182.16445326749997 1.4290598290598293 1.0000000180025095e-35 1.0000000180025095e-35 -244.67590713499996 -213.59367752099999 1.0000000180025095e-35 187.63053894050003
decision_type=2 2 2 2 2 2 2 2 2
left_child=1 -1 -3 4 -2 -6 -5 -7 -8
right_child=3 2 -4 6 5 7 8 -9 -10
leaf_value=0.077218636766743676 0.028325881592088528 -0.038449368431595951 0.058981134513703952 -0.048559991826487639 -0.036007322949567669 -0.084183329352137903 -0.11539967814997064 -0.11905612740104898 -0.10123032986878129
leaf_weight=0.33353372290730476 0.28168445266783237 0.27563248202204704 0.26325403898954391 0.10181579366326332 0.12386128678917885 0.069520232267677784 0.09040179755538702 0.052831549197435379 0.066030779853463173
leaf_count=6 7 9 3 5 5 5 7 5 4
internal_value=0 0.0351713 0.00914687 -0.0390311 -0.0163352 -0.0674305 -0.0854249 -0.0992414 -0.109419
internal_weight=0 0.87242 0.538887 0.786146 0.527898 0.246213 0.258248 0.122352 0.156433
internal_count=56 18 12 38 22 15 16 10 11
is_linear=0
shrinkage=0.1


Tree=19
num_leaves=10
num_cat=0
split_feature=83 72 14 204 204 4 5 92 13
split_gain=0.188395 0.074421 0.0992983 0.0441667 0.14196 0.0192666 0.0139708 0.00791284 0.000258285
threshold=-192.38018035849993 -1.0000000180025095e-35 -1.0000000180025095e-35 1.0240963855421688 0.50990196078431382 182.51544570950003 106.09091186500002 -374.39038658149997 49.227956771500004
decision_type=2 2 2 2 2 2 2 2 2
left_child=3 5 -3 4 -1 6 7 -2 -9
right_child=1 2 -4 -5 -6 -7 -8 8 -10
leaf_value=0.066246017950610817 -0.071199657553093168 -0.075777836380940808 0.034510052284915986 0.062139093820424644 -0.042368452829070757 -0.034704729277837507 -0.048673515414749596 -0.12034134364019292 -0.11076563693930452
leaf_weight=0.25113122165203094 0.061021557077765465 0.1268236069008708 0.22912656143307686 0.31957384385168552 0.23104362562298775 0.11174477823078632 0.075289028696715832 0.060387114994227886 0.05279458686709404
leaf_count=4 4 9 6 7 6 5 4 6 5
internal_value=0 -0.0372365 -0.00478508 0.0333091 0.0142012 -0.0692129 -0.0846687 -0.100225 -0.115875
internal_weight=0 0.717187 0.35595 0.801749 0.482175 0.361237 0.249492 0.174203 0.113182
internal_count=56 39 15 17 10 24 19 15 11
is_linear=0
shrinkage=0.1


Tree=20
num_leaves=9
num_cat=0
split_feature=66 87 46 204 47 4 86 33
split_gain=0.167405 0.098197 0.112043 0.0733949 0.120323 0.0607537 0.00934054 0.00112333
threshold=1.0000000180025095e-35 1.0000000180025095e-35 -180.09710645599998 0.50990196078431382 386.19801712099996 182.51544570950003 89.781063556500015 -82.00348663399997
decision_type=2 2 2 2 2 2 2 2
left_child=1 2 3 -1 -5 6 7 -2
right_child=5 -3 -4 4 -6 -7 -8 -9
leaf_value=0.060535402626992307 -0.11528399984459581 -0.05609477148865414 0.10171291405725918 -0.067704529461422497 0.043098370719416627 -0.015889088578378792 -0.064045969035709124 -0.096124595032702043
leaf_weight=0.22953809052705765 0.071795745752751827 0.13292577862739563 0.19971058890223503 0.19034678675234318 0.20201860927045345 0.23738963715732098 0.084247329272329807 0.05333402194082737
leaf_count=4 8 9 6 5 5 8 6 5
internal_value=0 0.0236462 0.0365472 0.0156206 -0.010655 -0.0505213 -0.0897869 -0.107118
internal_weight=0 0.95454 0.821614 0.621903 0.392365 0.446767 0.209377 0.12513
internal_count=56 29 20 14 10 27 19 13
is_linear=0
shrinkage=0.1


Tree=21
num_leaves=11
num_cat=0
split_feature=63 204 204 93 60 205 200 41 204 6
split_gain=0.137002 0.0744055 0.105973 0.0667995 0.0672467 0.0258469 0.0216409 0.0168159 0.00387183 0.000432874
threshold=-204.53141403199996 1.0240963855421688 0.50990196078431382 1.0000000180025095e-35 1.0000000180025095e-35 0.42338022165387895 1.247727272727273 105.20288085950001 1.7375565610859731 504.28850746150005
decision_type=2 2 2 2 2 2 2 2 2 2
left_child=1 2 -1 4 -2 -5 7 -6 9 -7
right_child=3 -3 -4 5 6 8 -8 -9 -10 -11
leaf_value=0.056424498777552068 0.039310295202690748 0.074397156345951093 -0.043398923355070257 -0.02505448519533985 -0.10605064968449091 -0.11851904243723033 -0.0070997022529615469 -0.03570167319313941 -0.080119617944815216 -0.10495022507442549
leaf_weight=0.20884307846426964 0.16285115201026201 0.24921012297272682 0.21669413149356842 0.0631484086625278 0.066608642227947712 0.058374701533466578 0.090717820450663567 0.069361329078674316 0.056232155300676823 0.039367124903947115
leaf_count=4 7 6 8 4 6 7 2 4 4 4
internal_value=0 0.0310043 0.00559193 -0.034484 -0.00971032 -0.0789304 -0.0449264 -0.0701641 -0.101026 -0.113054
internal_weight=0 0.674747 0.425537 0.606661 0.389539 0.217122 0.226688 0.13597 0.153974 0.0977418
internal_count=56 18 12 38 19 19 12 10 15 11
is_linear=0
shrinkage=0.1


Tree=22
num_leaves=10
num_cat=0
split_feature=62 61 46 202 41 62 23 202 41
split_gain=0.120368 0.105829 0.0901225 0.0395202 0.0409499 0.02964 0.0177397 0.0171825 0.00574941
threshold=1.0000000180025095e-35 -15.805999755999975 -180.09710645599998 1.4290598290598293 135.23390483850002 374.71000170700006 250.73739624050003 0.95407196969696983 55.954915047500009
decision_type=2 2 2 2 2 2 2 2 2
left_child=1 6 3 4 -3 7 -1 -2 -9
right_child=5 2 -4 -5 -6 -7 -8 8 -10
leaf_value=-0.11351125610001343 -0.038784776856038802 -0.036060752751315338 0.10309692288508346 0.053395608275950537 0.036703119104024733 -0.0070305234608553178 -0.029193923301283998 -0.10813177921413925 -0.065619415942247239
leaf_weight=0.051155433058738708 0.14215766545385122 0.17829210683703423 0.1611950364895165 0.18851611390709877 0.13660001941025257 0.14736800827085972 0.048714110627770424 0.071473984979093075 0.057328063528984785
leaf_count=7 8 6 6 3 4 5 3 9 5
internal_value=0 0.0235981 0.0380211 0.0171833 -0.00449583 -0.0431243 -0.0723832 -0.0627547 -0.0892101
internal_weight=0 0.764473 0.664603 0.503408 0.314892 0.418328 0.0998695 0.27096 0.128802
internal_count=56 29 19 13 10 27 10 22 14
is_linear=0
shrinkage=0.1


Tree=23
num_leaves=10
num_cat=0
split_feature=27 74 77 204 200 39 27 67 205
split_gain=0.0930137 0.0472167 0.0877498 0.0528695 0.143281 0.0536287 0.0343827 0.0271578 0.0186919
threshold=1.0000000180025095e-35 -195.95114231099998 1.0000000180025095e-35 0.50990196078431382 0.55681818181818199 944.47207260200014 62.145156860000007 -293.69449996949999 0.42338022165387895
decision_type=2 2 2 2 2 2 2 2 2
left_child=1 -1 -3 -4 -5 -6 -2 8 -8
right_child=6 2 3 4 5 -7 7 -9 -10
leaf_value=-0.047513334135865642 -0.100008722751599 0.10109762914941774 0.054972010943862518 0.059771662248719874 -0.023260615501898882 -0.13640870870323574 -0.011779878129797921 0.0034307694215862904 -0.085557140343914428
leaf_weight=0.087415019981563091 0.076190612744539976 0.13874080870300531 0.17460474744439125 0.14311159960925579 0.089267621282488108 0.078925289213657379 0.056730037089437246 0.16020926088094711 0.087012097705155611
leaf_count=5 9 6 4 4 8 2 4 5 9
internal_value=0 0.0213223 0.0309553 0.0109277 -0.0137759 -0.0763559 -0.03994 -0.0248827 -0.0564398
internal_weight=0 0.712065 0.62465 0.485909 0.311305 0.168193 0.380142 0.303951 0.143742
internal_count=56 29 24 18 14 10 27 18 13
is_linear=0
shrinkage=0.1


Tree=24
num_leaves=10
num_cat=0
split_feature=5 203 204 4 87 89 202 41 2
split_gain=0.0940377 0.0984691 0.0621095 0.0804482 0.0860292 0.0212134 0.0136881 0.00796961 0.00290635
threshold=404.08985900800013 1.323809523809524 0.34662650602409645 1.0000000180025095e-35 189.26500225050003 29.738790512000001 0.92130987292277633 55.954915047500009 1.0000000180025095e-35
decision_type=2 2 2 2 2 2 2 2 2
left_child=1 2 -1 -4 -5 -2 -3 -6 -8
right_child=5 6 3 4 7 -7 8 -9 -10
leaf_value=0.074092039235344506 0.023697972919064832 -0.059969911215957128 0.050325803383551429 -0.12757528639534607 0.0063034230147427754 0.076431025409489609 -0.13941252457182807 -0.03125170737353182 -0.10134889881540927
leaf_weight=0.092726297676563263 0.18680413346737623 0.074732506647706032 0.12996767414733768 0.087311527691781521 0.12387551739811897 0.12894293293356895 0.038171856198459864 0.10390197858214378 0.042276965919882059
leaf_count=2 7 5 8 8 6 4 3 6 7
internal_value=0 -0.0206102 -0.000360851 -0.0158729 -0.0431785 0.0452328 -0.0907845 -0.0108276 -0.11941
internal_weight=0 0.692964 0.537783 0.445057 0.315089 0.315747 0.155181 0.227777 0.0804488
internal_count=56 45 30 28 20 11 15 12 10
is_linear=0
shrinkage=0.1


Tree=25
num_leaves=9
num_cat=0
split_feature=202 203 203 202 22 29 42 61
split_gain=0.0820815 0.130085 0.0765208 0.0248512 0.0546593 0.0246856 0.0131603 0.00537864
threshold=0.60014204545454553 1.323809523809524 1.1184873949579834 1.4290598290598293 1.0000000180025095e-35 218.07234573350004 160.96924209600004 -50.245803832999989
decision_type=2 2 2 2 2 2 2 2
left_child=-1 2 3 4 -2 -6 -3 -8
right_child=1 6 -4 -5 5 -7 7 -9
leaf_value=0.10640018663389531 0.025870765958491956 -0.037626205990609195 0.090573153093046421 0.021084208278989647 -0.097501920414042445 -0.025854478701283035 -0.082170672702758935 -0.12321461650340915
leaf_weight=0.067306524142622948 0.14850333426147699 0.0406846241094172 0.10244373604655266 0.25091437296941876 0.079381162766367197 0.12198841664940119 0.063115618657320738 0.064614739269018173
leaf_count=3 7 4 5 9 9 6 7 6
internal_value=0 -0.00821598 0.0106894 -0.00293205 -0.0201555 -0.0540984 -0.087157 -0.102934
internal_weight=0 0.871646 0.703231 0.600787 0.349873 0.20137 0.168415 0.12773
internal_count=56 53 36 31 22 15 17 13
is_linear=0
shrinkage=0.1


Tree=26
num_leaves=10
num_cat=0
split_feature=203 203 204 204 7 202 51 20 2
split_gain=0.0697555 0.0813744 0.047939 0.0725339 0.0498627 0.0442592 0.0159972 0.0177722 0.00352408
threshold=1.323809523809524 1.1184873949579834 0.34662650602409645 0.60033236393851275 353.34771919250005 0.92130987292277633 7.5278663635000038 40.215057373 1.0000000180025095e-35
decision_type=2 2 2 2 2 2 2 2 2
left_child=1 2 -1 -4 6 -2 7 -5 -7
right_child=5 -3 3 4 -6 8 -8 -9 -10
leaf_value=0.070466849989146194 -0.017192398410761433 0.089307822404122508 -0.085400897517526261 0.032713795083540873 0.067849838582227803 -0.14627109866173946 -0.0449913197472466 -0.029939681978854212 -0.099760596505558158
leaf_weight=0.079763187095522881 0.10528414091095328 0.11909119226038456 0.10834136325865984 0.098522232845425606 0.10031905397772789 0.031205588951706886 0.10559286456555128 0.083769091870635748 0.034084683284163475
leaf_count=2 9 6 5 6 3 3 9 6 7
internal_value=0 0.0140565 -0.00149383 -0.0130533 0.00713772 -0.0573056 -0.0140186 0.00392238 -0.12199
internal_weight=0 0.695399 0.576308 0.496545 0.388203 0.170574 0.287884 0.182291 0.0652903
internal_count=56 37 31 29 24 19 21 12 10
is_linear=0
shrinkage=0.1


Tree=27
num_leaves=11
num_cat=0
split_feature=203 203 202 204 204 75 44 70 41 3
split_gain=0.0701641 0.072615 0.0418311 0.0346379 0.0616485 0.048533 0.0230519 0.0207592 0.00668249 0.00522907
threshold=1.323809523809524 1.1184873949579834 0.92130987292277633 0.34662650602409645 0.60033236393851275 -763.42208099399988 1.0000000180025095e-35 134.87571716350004 105.20288085950001 544.25087308850004
decision_type=2 2 2 2 2 2 2 2 2 2
left_child=1 3 -2 -1 -5 -6 7 -7 -8 -4
right_child=2 -3 9 4 5 6 8 -9 -10 -11
leaf_value=0.064554619564540935 -0.018876321433166903 0.087070187222038492 -0.097788803423495912 -0.080768265172263487 0.098263436969207543 0.044768988904363594 -0.059028306476321991 -0.024941165399459536 -0.014592258727016619 -0.15637272032243443
leaf_weight=0.07043006643652916 0.09924544719979167 0.11413778038695455 0.034452881431207061 0.098850577604025602 0.051459536887705326 0.10764607321470976 0.070172211620956659 0.070825556293129921 0.0653695915825665 0.027315433602780104
leaf_count=2 9 6 8 5 2 6 7 5 4 2
internal_value=0 0.0146617 -0.0590874 -0.000793104 -0.0107053 0.0082449 -0.00650706 0.0171049 -0.0375975 -0.123696
internal_weight=0 0.648891 0.161014 0.534754 0.464324 0.365473 0.314013 0.178472 0.135542 0.0617683
internal_count=56 37 19 31 29 24 22 11 11 10
is_linear=0
shrinkage=0.1


Tree=28
num_leaves=9
num_cat=0
split_feature=203 203 202 204 204 7 51 0
split_gain=0.0812975 0.0805384 0.0458994 0.0157151 0.0471236 0.0315217 0.0169157 0.00937227
threshold=1.323809523809524 1.1184873949579834 0.92130987292277633 0.82804347826086966 0.50990196078431382 353.34771919250005 7.5278663635000038 716.48213195850008
decision_type=2 2 2 2 2 2 2 2
left_child=1 3 -2 4 -1 6 -5 -4
right_child=2 -3 7 5 -6 -7 -8 -9
leaf_value=0.034607417588693963 -0.0190751144794034 0.091588203318469896 -0.092456504069578394 0.014718171091364363 -0.06629667334885668 0.066329212648404232 -0.042111892118641997 -0.16867589609493092
leaf_weight=0.080179630778729916 0.093373140320181847 0.11585550336167216 0.033956695580855012 0.1415003458969295 0.1094783847220242 0.081358524039387703 0.083156373351812363 0.030735481530427933
leaf_count=4 9 6 9 9 7 3 8 1
internal_value=0 0.0165241 -0.063929 -0.00102092 -0.0236386 0.0129967 -0.0063174 -0.128669
internal_weight=0 0.611529 0.158065 0.495673 0.189658 0.306015 0.224657 0.0646922
internal_count=56 37 19 31 11 20 17 10
is_linear=0
shrinkage=0.1


Tree=29
num_leaves=10
num_cat=0
split_feature=205 57 204 204 62 65 83 2 86
split_gain=0.297462 0.247331 0.0812786 0.0935432 0.0607599 0.0308476 0.0186224 0.0119545 0.00764848
threshold=2.8541666666666674 -654.19568634049995 0.50990196078431382 0.60033236393851275 -69.409708499999994 -1.0000000180025095e-35 1.0000000180025095e-35 196.12454128300004 89.781063556500015
decision_type=2 2 2 2 2 2 2 2 2
left_child=1 -1 -3 -4 -5 8 -7 -8 -6
right_child=-2 2 3 4 5 6 7 -9 -10
leaf_value=-0.18327875627774412 0.18551397008322559 0.068742204220255135 -0.10047292704832422 0.062339650582923616 -0.089065828572683206 0.053130287875166639 -0.0478666272399427 0.012042367929242674 -0.038858470844264782
leaf_weight=0.08167607500217855 0.078572757542133331 0.14004187495447695 0.10713806375861168 0.12631596578285098 0.045782447094097733 0.059151299297809601 0.059144567931070924 0.076247887685894966 0.089964619372040033
leaf_count=2 1 8 6 9 9 3 8 3 7
internal_value=0 -0.0185576 0.000558615 -0.0163791 0.00335263 -0.0192063 0.00632187 -0.0141282 -0.0557915
internal_weight=0 0.785463 0.703787 0.563745 0.456607 0.330291 0.194544 0.135392 0.135747
internal_count=56 55 53 45 39 30 14 11 16
is_linear=0
shrinkage=0.1


Tree=30
num_leaves=9
num_cat=0
split_feature=203 203 39 204 202 65 205 200
split_gain=0.0689697 0.0620386 0.0363994 0.0267878 0.039182 0.0518885 0.0197902 0.00421261
threshold=1.323809523809524 1.1184873949579834 92.803693772000017 1.7375565610859731 1.4290598290598293 167.25408935550004 1.1618589743589747 1.5750000000000002
decision_type=2 2 2 2 2 2 2 2
left_child=1 3 6 4 5 -1 7 -2
right_child=2 -3 -4 -5 -6 -7 -8 -9
leaf_value=-0.13131566213654058 -0.083901791557865479 0.082361885111464139 -0.13288258854021959 0.038116160186987658 0.020744958793599246 -0.012689623400875347 0.035940361847019299 -0.033869949043899984
leaf_weight=0.052290537161752582 0.032556314254179597 0.11222834652289748 0.047582644736394286 0.12982042087242007 0.15858784783631563 0.12506235903128982 0.033567551057785749 0.034836890641599894
leaf_count=6 5 6 5 9 7 9 3 6
internal_value=0 0.0156195 -0.0607764 -0.000462483 -0.0153708 -0.0476652 -0.0267929 -0.0580393
internal_weight=0 0.57799 0.148543 0.465761 0.335941 0.177353 0.100961 0.0673932
internal_count=56 37 19 31 22 15 14 11
is_linear=0
shrinkage=0.1


Tree=31
num_leaves=9
num_cat=0
split_feature=3 89 204 69 1 202 203 17
split_gain=0.0850372 0.0456963 0.0920723 0.0639545 0.0560441 0.0565327 0.0399815 0.00753435
threshold=-544.25087308849982 -1.0000000180025095e-35 0.82804347826086966 -80.866775512999979 1.0000000180025095e-35 0.95407196969696983 0.48260594560404813 -423.24276351949999
decision_type=2 2 2 2 2 2 2 2
left_child=-1 2 -2 7 -3 -6 -7 -4
right_child=1 4 3 -5 5 6 -8 -9
leaf_value=0.0886032665414304 -0.13139526081347716 0.069169658103440626 -0.023298236258497085 0.064307634462218544 -0.084886995781396898 -0.041988800835543759 0.054902896157042781 -0.07935738224646384
leaf_weight=0.094217999838292599 0.084129223832860589 0.11006659525446594 0.039861009456217289 0.076823251321911812 0.081605041865259409 0.071487001609057188 0.10534823196940124 0.060155740007758141
leaf_count=4 8 8 3 3 9 4 8 9
internal_value=0 -0.0132619 -0.0452787 -0.00430995 0.00941185 -0.0160383 0.0157337 -0.0570154
internal_weight=0 0.629476 0.260969 0.17684 0.368507 0.25844 0.176835 0.100017
internal_count=56 52 23 15 29 21 12 12
is_linear=0
shrinkage=0.1


Tree=32
num_leaves=9
num_cat=0
split_feature=27 44 27 67 205 42 0 9
split_gain=0.0502019 0.0473017 0.0380742 0.0247832 0.0243664 0.0307553 0.0143031 0.00460805
threshold=1.0000000180025095e-35 1.0000000180025095e-35 62.145156860000007 -293.69449996949999 1.3979591836734697 530.7667770380001 399.02561950700004 -174.72539138749997
decision_type=2 2 2 2 2 2 2 2
left_child=1 -1 -2 7 5 -3 -6 -4
right_child=2 4 3 -5 6 -7 -8 -9
leaf_value=0.079865328115141784 -0.11356360381410838 -0.10594100165441019 -0.035655603857652207 0.017896133566272249 0.050373257531627497 0.016039527701270082 -0.0028504466906942028 -0.08334490235880504
leaf_weight=0.10342359449714422 0.050527814542874694 0.041240569902583957 0.047486176714301109 0.10037458036094904 0.086738705635070801 0.041439726483076811 0.12082582805305719 0.035341282025910914
leaf_count=8 9 7 5 5 5 3 6 8
internal_value=0 0.0217962 -0.036711 -0.0155148 0.00110427 -0.0448038 0.0193911 -0.0560039
internal_weight=0 0.393668 0.23373 0.183202 0.290245 0.0826803 0.207565 0.0828275
internal_count=56 29 27 18 21 10 11 13
is_linear=0
shrinkage=0.1


Tree=33
num_leaves=10
num_cat=0
split_feature=62 89 53 200 62 62 66 202 3
split_gain=0.0387341 0.0339834 0.0227563 0.025367 0.0115089 0.00628745 0.00450578 0.00319642 0.000981173
threshold=1.0000000180025095e-35 63.739492416500006 -1.0000000180025095e-35 0.59714795008912669 374.71000170700006 90.551348924500033 108.59318923950001 1.0156250000000002 1.0000000180025095e-35
decision_type=2 2 2 2 2 2 2 2 2
left_child=1 2 3 -1 5 8 -7 -3 -2
right_child=4 7 -4 -5 -6 6 -8 -9 -10
leaf_value=0.073455036939831381 -0.045482141918940615 -0.032544320722639707 0.092593373248262417 -0.012579687481129545 -0.0046797305241650976 -0.042766892692389993 -0.10707092370906664 -0.0027057507387615864 -0.023730603563574249
leaf_weight=0.058166703209280968 0.047656936105340719 0.070077033014968038 0.069618204608559608 0.083419605391100049 0.083673445042222738 0.017846394795924425 0.027981866267509758 0.073614612221717834 0.036714115180075169
leaf_count=3 6 9 6 8 5 4 8 3 4
internal_value=0 0.0202584 0.0457823 0.0227652 -0.0336164 -0.0522128 -0.0820297 -0.0172577 -0.0360169
internal_weight=0 0.354896 0.211205 0.141586 0.213873 0.130199 0.0458283 0.143692 0.0843711
internal_count=56 29 17 11 27 22 12 12 10
is_linear=0
shrinkage=0.1


Tree=34
num_leaves=11
num_cat=0
split_feature=68 98 204 24 56 31 200 204 4 89
split_gain=0.0308166 0.0360834 0.0203353 0.0664145 0.0350688 0.0119951 0.0072501 0.00669045 0.00423713 0.00409229
threshold=58.51140773249999 -83.461063384999974 0.50990196078431382 -111.42279815699997 165.91007161200002 -245.38888931249997 0.59714795008912669 1.7375565610859731 182.51544570950003 -70.172956466999992
decision_type=2 2 2 2 2 2 2 2 2 2
left_child=1 2 -1 6 -5 -2 -4 8 9 -7
right_child=5 -3 3 4 -6 7 -8 -9 -10 -11
leaf_value=0.042291531593223242 0.006014133633332361 0.072861431558512241 0.046005103138003212 -0.14890778202883193 -0.026173933821136322 -0.051881645079955421 0.0018722361059954622 -0.018919675745564819 -0.042597549836221119 -0.11513450960325976
leaf_weight=0.08106288593262434 0.039802973158657551 0.08274590689688921 0.081307686865329742 0.042316923383623362 0.051751387072727084 0.015470678685232997 0.068654820322990417 0.029587131924927235 0.025168545544147491 0.030185108073055744
leaf_count=4 3 7 5 6 5 5 5 5 3 8
internal_value=0 0.0139038 -0.00110269 -0.0155175 -0.0813861 -0.0404417 0.0258005 -0.0588567 -0.0755406 -0.093701
internal_weight=0 0.40784 0.325094 0.244031 0.0940683 0.140214 0.149963 0.100411 0.0708243 0.0456558
internal_count=56 32 25 21 11 24 10 21 16 13
is_linear=0
shrinkage=0.1


Tree=35
num_leaves=11
num_cat=0
split_feature=20 86 203 203 202 204 7 68 19 0
split_gain=0.486678 0.226015 0.026493 0.0281601 0.0122866 0.0117089 0.0183441 0.00829703 0.0048083 0.00693125
threshold=786.97636413500015 -236.62407255149995 1.323809523809524 1.1184873949579834 0.92130987292277633 0.82804347826086966 353.34771919250005 -1.0000000180025095e-35 149.76485884200005 248.75120544450002
decision_type=2 2 2 2 2 2 2 2 2 2
left_child=1 -1 3 5 -4 -3 7 8 9 -7
right_child=-2 2 4 -5 -6 6 -8 -9 -10 -11
leaf_value=-0.13764891343619048 0.17814600132272757 -0.041343044329425586 -0.020402555076110034 0.069879271365318782 -0.097410372761013983 -0.077790429242331163 0.062101481045258526 0.028076578642131356 0.0028912370212438466 -0.0098559472841406558
leaf_weight=0.16506476793438196 0.12601552903652191 0.057048773393034935 0.060892430134117603 0.070792906684800982 0.031403903034515679 0.028243064880371094 0.050436021760106087 0.044480970129370689 0.040469682775437832 0.032075028866529465
leaf_count=6 1 7 9 6 8 8 3 4 2 2
internal_value=0 -0.038645 0.000653666 0.0141348 -0.0466045 -0.00147854 0.0101421 -0.0078977 -0.0237743 -0.0416653
internal_weight=0 0.580908 0.415843 0.323546 0.0922963 0.252754 0.195705 0.145269 0.100788 0.0603181
internal_count=56 55 49 32 17 26 19 16 12 10
is_linear=0
shrinkage=0.1


Tree=36
num_leaves=8
num_cat=0
split_feature=62 1 202 9 44 8 204
split_gain=0.0318344 0.0243258 0.0315779 0.0178575 0.00959233 0.00517822 0.00372073
threshold=1.0000000180025095e-35 1.0000000180025095e-35 0.98484848484848497 184.71232986400003 -146.76212310849996 -189.05426692949996 1.7375565610859731
decision_type=2 2 2 2 2 2 2
left_child=1 3 -3 -1 5 6 -2
right_child=4 2 -4 -5 -6 -7 -8
leaf_value=0.082430052065184792 -0.081995587801923633 -0.068525260131886173 0.022628860179078322 0.008265837471943668 -0.07646879339777099 -0.0079890385958673055 -0.024471737178433484
leaf_weight=0.078206310980021954 0.019398270174860954 0.054161037784069777 0.1273973552742973 0.055510918842628598 0.039926267694681883 0.097451420966535807 0.026750159217044711
leaf_count=7 5 9 8 5 9 8 5
internal_value=0 0.0192747 -0.0045635 0.0516418 -0.0331116 -0.0210567 -0.0486516
internal_weight=0 0.315276 0.181558 0.133717 0.183526 0.1436 0.0461484
internal_count=56 29 17 12 27 18 10
is_linear=0
shrinkage=0.1


Tree=37
num_leaves=10
num_cat=0
split_feature=67 204 41 57 59 204 76 200 1
split_gain=0.0270471 0.0279784 0.0388635 0.0259638 0.0159839 0.024247 0.00495466 0.00476055 0.0036554
threshold=-293.69449996949999 0.50990196078431382 68.167160987500026 -487.40631484999989 -47.093986511499992 1.0240963855421688 73.009701729000014 1.5750000000000002 199.57917284950003
decision_type=2 2 2 2 2 2 2 2 2
left_child=7 -2 4 -4 -3 -6 -5 8 -1
right_child=1 2 3 6 5 -7 -8 -9 -10
leaf_value=-0.11549611670502152 0.061726176978548909 -0.011505828391985244 -0.13873416316624329 -0.049846476530202272 0.0049907061394596774 0.09765310106347079 -0.0064144232578198556 -0.02923441780522007 -0.053115669851232832
leaf_weight=0.016549910535104573 0.083591364324092865 0.067947211093269289 0.023898433893918991 0.04363185865804553 0.058315318892709911 0.054753262316808105 0.06599308829754591 0.035463162465021014 0.021724664838984609
leaf_count=6 6 7 1 9 6 6 4 7 4
internal_value=0 0.0103034 -0.00336257 -0.0442899 0.0268268 0.0498623 -0.0237008 -0.0556312 -0.0800889
internal_weight=0 0.398131 0.314539 0.133523 0.181016 0.113069 0.109625 0.0737377 0.0382746
internal_count=56 39 33 14 19 12 13 17 10
is_linear=0
shrinkage=0.1


Tree=38
num_leaves=8
num_cat=0
split_feature=46 204 86 90 4 93 13
split_gain=0.0246244 0.0172339 0.0417361 0.0165073 0.0128129 0.00635098 0.00135837
threshold=1.0000000180025095e-35 0.50990196078431382 -119.74158811549998 -69.468536376999992 224.55056762700005 239.16024780300003 49.227956771500004
decision_type=2 2 2 2 2 2 2
left_child=1 -1 -3 -4 5 6 -2
right_child=4 2 3 -5 -6 -7 -8
leaf_value=0.059470362672904578 -0.11927929429360298 -0.078576196283206459 0.0022937421957577434 0.069528226514094182 -0.0061308581717240329 -0.039388954044555419 -0.073467375607295993
leaf_weight=0.073804174084216356 0.016346852877177298 0.047845103894360363 0.09416982252150774 0.059645924251526594 0.08967579691670835 0.043310038512572646 0.010714740958064795
leaf_count=5 7 7 9 8 7 8 5
internal_value=0 0.0181248 0.0029931 0.0283656 -0.0311955 -0.0631357 -0.101141
internal_weight=0 0.275465 0.201661 0.153816 0.160047 0.0703716 0.0270616
internal_count=56 29 24 17 27 20 12
is_linear=0
shrinkage=0.1


Tree=39
num_leaves=10
num_cat=0
split_feature=67 204 83 95 204 92 200 30 7
split_gain=0.0215227 0.0150393 0.0244076 0.033567 0.0109509 0.00587312 0.00294854 0.00378536 0.000909848
threshold=-293.69449996949999 0.50990196078431382 -369.93432617249999 1.0000000180025095e-35 1.0240963855421688 44.974731922000011 1.5750000000000002 366.80475664200003 -106.44786071799997
decision_type=2 2 2 2 2 2 2 2 2
left_child=6 -2 4 5 -3 -4 7 -1 -7
right_child=1 2 3 -5 -6 8 -8 -9 -10
leaf_value=-0.10649837248336556 0.050985405509799957 -0.00049131186312724028 0.021393845146507738 -0.11495266935956433 0.060501415722048868 -0.009191276333198193 -0.031181017918840554 -0.038720620974863493 -0.032989682949898742
leaf_weight=0.017008301452733576 0.070974731119349599 0.052992121782153845 0.056320471689105034 0.033775863354094326 0.066224378068000078 0.028382701799273491 0.032369566848501563 0.015983941964805126 0.037015841691754758
leaf_count=7 6 5 5 7 6 1 7 3 9
internal_value=0 0.00995001 -0.00065194 -0.0267515 0.03339 -0.00227658 -0.0526237 -0.0736617 -0.0226613
internal_weight=0 0.345686 0.274711 0.155495 0.119216 0.121719 0.0653618 0.0329922 0.0653985
internal_count=56 39 33 22 11 15 17 10 10
is_linear=0
shrinkage=0.1


Tree=40
num_leaves=9
num_cat=0
split_feature=27 31 204 204 4 202 44 95
split_gain=0.0218626 0.0101963 0.0256988 0.011046 0.00770725 0.00571999 0.00294563 0.00260836
threshold=1.0000000180025095e-35 111.178508759 0.50990196078431382 1.0240963855421688 182.51544570950003 0.98484848484848497 -146.76212310849996 -309.13534927399991
decision_type=2 2 2 2 2 2 2 2
left_child=1 2 -1 5 6 -3 -2 -6
right_child=4 3 -4 -5 7 -7 -8 -9
leaf_value=0.098528199071622219 -0.04529049613772141 -0.055694014511743953 0.0029017950860376267 0.033097366863681803 0.0028007215050823518 0.0011121250559589485 -0.097010066716759449 -0.030186812473431135
leaf_weight=0.04528674972243607 0.031857123714871705 0.035753447329625487 0.074065805412828922 0.052153729484416544 0.046171491965651512 0.03515459387563169 0.016829512664116919 0.049849463859573007
leaf_count=4 9 6 9 6 3 4 8 7
internal_value=0 0.0183609 0.039186 -0.00183652 -0.0307582 -0.0275308 -0.0631684 -0.0143248
internal_weight=0 0.242414 0.119353 0.123062 0.144708 0.070908 0.0486866 0.096021
internal_count=56 29 13 16 27 10 17 10
is_linear=0
shrinkage=0.1


Tree=41
num_leaves=9
num_cat=0
split_feature=203 204 1 90 203 84 202 2
split_gain=0.0195997 0.0163856 0.0196782 0.0131624 0.0150532 0.0109702 0.00961089 0.000285031
threshold=1.323809523809524 0.50990196078431382 111.94055175800003 -69.468536376999992 0.42093611638203671 -458.37114810999992 0.92130987292277633 1.0000000180025095e-35
decision_type=2 2 2 2 2 2 2 2
left_child=1 -1 3 4 -3 -4 -2 -8
right_child=6 2 5 -5 -6 -7 7 -9
leaf_value=0.059574870145851701 -0.019343102210492166 0.064280601001722684 -0.0062876676426399563 0.072261816705624607 -0.018957998983091869 -0.074738530797450381 -0.10557559362104825 -0.084407629071892948
leaf_weight=0.056645787786692381 0.04420807771384716 0.03033961309120059 0.055038115475326777 0.039450462674722075 0.076525566168129444 0.040746421902440488 0.014329323545098305 0.011439332622103393
leaf_count=6 9 3 4 6 9 9 3 7
internal_value=0 0.0111584 -0.000169971 0.0228973 0.0046739 -0.0354064 -0.0476375 -0.0961786
internal_weight=0 0.298746 0.2421 0.146316 0.106865 0.0957845 0.0699767 0.0257687
internal_count=56 37 31 18 12 13 19 10
is_linear=0
shrinkage=0.1


Tree=42
num_leaves=10
num_cat=0
split_feature=63 93 204 204 51 45 205 6 73
split_gain=0.0171065 0.0129134 0.0121775 0.0155183 0.010188 0.00616714 0.00534548 0.00155446 0.000653223
threshold=-204.53141403199996 1.0000000180025095e-35 1.0240963855421688 0.50990196078431382 7.5278663635000038 63.833694458499998 0.42338022165387895 504.28850746150005 -20.696866988999997
decision_type=2 2 2 2 2 2 2 2 2
left_child=2 4 3 -1 5 -2 -3 8 -8
right_child=1 6 -4 -5 -6 -7 7 -9 -10
leaf_value=0.046310116836361014 0.043527721969872285 -0.018413615256660819 0.059795093746723219 -0.029171385948194208 -0.050082013903037161 -0.0093062074924590687 -0.1144493712413758 -0.057219987082947545 -0.080478670342897018
leaf_weight=0.04787086509168148 0.039917721878737211 0.01915537437889725 0.058318626135587692 0.063191547873429954 0.033919661305844784 0.049477183260023594 0.012868003046605736 0.013985287863761187 0.010105942958034575
leaf_count=4 5 4 6 8 9 5 7 5 3
internal_value=0 -0.0215165 0.0227929 0.00336316 -0.00341957 0.0142859 -0.0612854 -0.0835051 -0.0995061
internal_weight=0 0.179429 0.169381 0.111062 0.123315 0.0893949 0.0561146 0.0369592 0.0229739
internal_count=56 38 18 12 19 10 19 15 10
is_linear=0
shrinkage=0.1


Tree=43
num_leaves=10
num_cat=0
split_feature=63 93 204 204 51 45 205 204 73
split_gain=0.0157047 0.0108789 0.0106669 0.0102061 0.00867618 0.0049371 0.00456458 0.00152098 0.000538787
threshold=-204.53141403199996 1.0000000180025095e-35 1.0240963855421688 0.50990196078431382 7.5278663635000038 63.833694458499998 0.42338022165387895 1.7375565610859731 1.0000000180025095e-35
decision_type=2 2 2 2 2 2 2 2 2
left_child=2 4 3 -1 5 -2 -3 8 -8
right_child=1 6 -4 -5 -6 -7 7 -9 -10
leaf_value=0.039336428534054189 0.039208710793720195 -0.018669091592742108 0.057600187188418743 -0.023406124857139575 -0.048552134110807513 -0.0092102045420590205 -0.11203290056473166 -0.055696704080396758 -0.078396396514070141
leaf_weight=0.045531148090958595 0.037832216359674931 0.017931258538737893 0.055958840530365705 0.06021135940682143 0.032362545491196215 0.047499784734100103 0.012081445485819131 0.013915682560764253 0.0078603053698316216
leaf_count=4 5 4 6 8 9 5 7 4 4
internal_value=0 -0.0212703 0.0222939 0.00360988 -0.00446411 0.0122565 -0.0594639 -0.0810692 -0.0987746
internal_weight=0 0.169483 0.161701 0.105743 0.117695 0.085332 0.0517887 0.0338574 0.0199418
internal_count=56 38 18 12 19 10 19 15 11
is_linear=0
shrinkage=0.1


Tree=44
num_leaves=9
num_cat=0
split_feature=203 19 90 202 200 201 62 2
split_gain=0.0155102 0.0163897 0.0115858 0.00861176 0.00626039 0.00317104 0.00241376 0.000401624
threshold=1.323809523809524 1.0000000180025095e-35 -69.468536376999992 0.92130987292277633 1.1547619047619049 1.8750000000000002 374.71000170700006 1.0000000180025095e-35
decision_type=2 2 2 2 2 2 2 2
left_child=1 2 5 -2 -3 -1 -6 -5
right_child=3 4 -4 7 6 -7 -8 -9
leaf_value=-0.0016676464043699818 -0.016707869662589785 -0.064039539118201788 0.080432066812426428 -0.10637838866951593 -0.025390627697496788 0.032236391428714338 0.0087756614560368356 -0.079198899373686155
leaf_weight=0.052681243047118187 0.038165791658684611 0.023884275346063077 0.03746073687216267 0.01290444890037179 0.036497828899882734 0.057912950869649649 0.04770339373499155 0.0093948282883502543
leaf_count=6 9 8 7 3 7 5 4 7
internal_value=0 0.0107538 0.032367 -0.045555 -0.0188519 0.0160863 -0.00603404 -0.0949275
internal_weight=0 0.25614 0.148055 0.0604651 0.108085 0.110594 0.0842012 0.0222993
internal_count=56 37 18 19 19 11 11 10
is_linear=0
shrinkage=0.1


Tree=45
num_leaves=9
num_cat=0
split_feature=67 5 200 200 35 61 203 6
split_gain=0.0125088 0.00751198 0.0117018 0.0177675 0.00419897 0.00240139 0.00138254 0.00108896
threshold=-293.69449996949999 404.08985900800013 0.59714795008912669 0.87867647058823539 58.977073668999999 -209.00758361799998 2.1458333333333335 -1.0000000180025095e-35
decision_type=2 2 2 2 2 2 2 2
left_child=5 2 -2 -4 7 -1 -7 -5
right_child=1 -3 3 4 -6 6 -8 -9
leaf_value=-0.027628729623495513 -0.04417249662184683 0.035723837636371887 0.080106898721095277 -0.0059775131202222664 -0.039712809829290881 -0.097199171268858145 -0.044945165049726177 0.018484574162776098
leaf_weight=0.028194353217259049 0.048408395610749722 0.073944981675595045 0.030584636610001326 0.037878969218581915 0.028121561743319035 0.010805891593918204 0.0095278602093458176 0.035024793818593025
leaf_count=6 8 9 3 6 8 6 5 5
internal_value=0 0.00888919 -0.0021335 0.0133292 -0.00688728 -0.04652 -0.0727143 0.00577469
internal_weight=0 0.253963 0.180018 0.13161 0.101025 0.0485281 0.0203338 0.0729038
internal_count=56 39 30 22 19 17 11 11
is_linear=0
shrinkage=0.1


Tree=46
num_leaves=11
num_cat=0
split_feature=203 200 87 203 87 31 86 2 52 66
split_gain=0.0125727 0.0122878 0.00959724 0.00855533 0.0171607 0.0216453 0.00582379 0.00529112 0.00218174 0.000376873
threshold=1.323809523809524 0.55681818181818199 -409.42124175999993 0.48260594560404813 1.0000000180025095e-35 111.178508759 119.74158811550001 969.315051079 -148.22348403899997 108.59318923950001
decision_type=2 2 2 2 2 2 2 2 2 2
left_child=1 -1 -3 -4 5 -5 8 -6 -2 -10
right_child=6 2 3 4 7 -7 -8 -9 9 -11
leaf_value=0.053701023706346086 -0.030991841472149242 -0.10722587829136482 -0.026088668211122767 0.10629070205938276 -0.071353103836773499 -0.0054060845593417745 0.011023626004629812 -0.00013730407246783285 -0.072256676773333001 -0.098971240489906243
leaf_weight=0.050633072969503701 0.014140121871605515 0.0082651050761342049 0.064191409619525075 0.034672027220949531 0.018015498295426369 0.03472523158416152 0.014615959022194147 0.024786205496639013 0.018879241310060024 0.0073315174086019388
leaf_count=7 3 1 8 5 7 5 4 4 5 7
internal_value=0 0.0100594 -0.00190723 0.00302768 0.0196858 0.0503995 -0.0430599 -0.0301125 -0.0626502 -0.0797291
internal_weight=0 0.235289 0.184655 0.17639 0.112199 0.0693973 0.0549668 0.0428017 0.0403509 0.0262108
internal_count=56 37 30 29 21 10 19 11 15 12
is_linear=0
shrinkage=0.1


Tree=47
num_leaves=9
num_cat=0
split_feature=83 200 93 87 204 19 205 56
split_gain=0.0111493 0.0197724 0.0168634 0.0145155 0.00717105 0.00355242 0.00292491 0.00188544
threshold=-369.93432617249999 0.59714795008912669 1.0000000180025095e-35 45.226222038500005 1.0240963855421688 241.15077972400002 0.42338022165387895 -165.91007161199997
decision_type=2 2 2 2 2 2 2 2
left_child=4 -2 3 -3 -1 -5 -4 -8
right_child=1 2 6 5 -6 -7 7 -9
leaf_value=0.0021013134376632 -0.11259745891630957 0.085461315623428458 -0.016961721835248088 -0.027111264159940803 0.055447490194685561 0.016020096348915297 -0.046672566694816287 -0.09549617059911758
leaf_weight=0.055968360509723425 0.018753455486148596 0.024847712367773056 0.014760658261366189 0.033169048838317394 0.045834708958864212 0.04500660952180624 0.015960069838911295 0.015680682583479211
leaf_count=8 6 5 4 7 6 4 7 9
internal_value=0 -0.0158108 -0.00366362 0.0188819 0.0261193 -0.00228005 -0.0537205 -0.0708688
internal_weight=0 0.168178 0.149425 0.103023 0.101803 0.0781757 0.0464014 0.0316408
internal_count=56 42 36 16 14 11 20 16
is_linear=0
shrinkage=0.1


Tree=48
num_leaves=8
num_cat=0
split_feature=92 5 200 24 2 4 93
split_gain=0.0105215 0.00482186 0.00948722 0.00875761 0.00496862 0.00394556 0.00250254
threshold=-134.65610742549998 404.08985900800013 0.59714795008912669 -16.646659851000006 -159.09619998949998 182.51544570950003 239.16024780300003
decision_type=2 2 2 2 2 2 2
left_child=5 2 -2 4 -4 6 -1
right_child=1 -3 3 -5 -6 -7 -8
leaf_value=-0.10413858619092982 -0.039288072761005495 0.033180366330123688 0.012259018685449902 0.042127043251442606 -0.062765632357948506 -0.01201077205384278 -0.041920937393619122
leaf_weight=0.010429106157971546 0.042343866021838039 0.064441281836479902 0.019929722882807255 0.057111713394988328 0.015845680492930114 0.027579167392104864 0.017007239279337227
leaf_count=9 9 9 3 9 7 4 6
internal_value=0 0.0106689 -5.84672e-05 0.0178249 -0.020971 -0.0387214 -0.0655711
internal_weight=0 0.199672 0.135231 0.0928871 0.0357754 0.0550155 0.0274363
internal_count=56 37 28 19 10 19 15
is_linear=0
shrinkage=0.1


Tree=49
num_leaves=10
num_cat=0
split_feature=203 200 48 204 39 21 22 202 27
split_gain=0.00982517 0.00970872 0.00615717 0.0194163 0.0104472 0.00758606 0.00429245 0.0017262 0.000203672
threshold=1.323809523809524 0.55681818181818199 1.0000000180025095e-35 0.34662650602409645 863.7992229460001 -509.87885665949995 -1061.1780357364999 0.92130987292277633 1.0000000180025095e-35
decision_type=2 2 2 2 2 2 2 2 2
left_child=1 -1 5 -4 -5 -3 -2 -8 -9
right_child=6 2 3 4 -6 -7 7 8 -10
leaf_value=0.050717502464134312 0.018217540262346728 -0.0083574001799721093 0.065334659161004893 -0.020143380644167468 -0.11315879995388806 0.052835358700722625 -0.038133501238007433 -0.073024363537871756 -0.096538606732226431
leaf_weight=0.04473464039620012 0.009639745345339179 0.05123632587492466 0.017864025663584471 0.031515469891019166 0.019575353479012847 0.033508023479953408 0.021339672384783626 0.0099207670427858829 0.0058590234548319122
leaf_count=7 3 9 2 9 4 6 6 3 7
internal_value=0 0.00971721 -0.00221605 -0.0244045 -0.0557821 0.0158383 -0.0412373 -0.0566774 -0.0817552
internal_weight=0 0.198434 0.153699 0.0689548 0.0510908 0.0847443 0.0467592 0.0371195 0.0157798
internal_count=56 37 30 15 13 15 19 16 10
is_linear=0
shrinkage=0.1


Tree=50
num_leaves=11
num_cat=0
split_feature=83 204 95 204 9 9 24 15 17 0
split_gain=0.00900091 0.0180484 0.0131762 0.00588149 0.00492941 0.00407907 0.00405868 0.00300467 0.000999512 0.000834903
threshold=-369.93432617249999 0.34662650602409645 1.0000000180025095e-35 1.0240963855421688 1.0000000180025095e-35 -142.91902828199997 -185.50017547549996 37.45599746700001 -33.043376922499988 161.44462585450003
decision_type=2 2 2 2 2 2 2 2 2 2
left_child=3 -2 4 -1 5 9 -6 -4 -8 -3
right_child=1 2 7 -5 6 -7 8 -9 -10 -11
leaf_value=0.0015524528373344149 0.1073245659989987 -0.033309891334148682 -0.062637880083306244 0.052931514232502669 0.013639196252894113 0.025813870557818603 -0.049135673790680401 -0.13242317194571926 -0.093440618908099099 -0.0031318013170604665
leaf_weight=0.049354048445820808 0.011004066094756126 0.021520513371797279 0.015827388211619109 0.040614785393700004 0.0082715647295117378 0.03874695673584938 0.011171249207109213 0.010111346491612494 0.0093568853917531669 0.015971057582646608
leaf_count=8 1 9 9 6 1 6 4 3 7 2
internal_value=0 -0.0156811 -0.0260155 0.0247466 -0.010254 0.00306072 -0.0455006 -0.0898413 -0.0693302 -0.0204543
internal_weight=0 0.141981 0.130977 0.0899688 0.105038 0.0762385 0.0287997 0.0259387 0.0205281 0.0374916
internal_count=56 42 41 14 29 17 12 12 11 11
is_linear=0
shrinkage=0.1


Tree=51
num_leaves=9
num_cat=0
split_feature=83 200 13 93 204 64 205 56
split_gain=0.0080981 0.0138105 0.0112165 0.00650838 0.00528793 0.00277134 0.00235156 0.00165146
threshold=-369.93432617249999 0.59714795008912669 -208.56999206549997 1.0000000180025095e-35 1.0240963855421688 -1.0000000180025095e-35 0.42338022165387895 -165.91007161199997
decision_type=2 2 2 2 2 2 2 2
left_child=4 -2 -3 5 -1 -4 -5 -8
right_child=1 2 3 6 -6 -7 7 -9
leaf_value=0.0013786433545076673 -0.11201046298945801 0.074472447410237314 -0.014347770611254083 -0.013199473093228182 0.050952658210172558 0.027353246293068324 -0.041534998972834747 -0.091783393142745293
leaf_weight=0.04764879122376442 0.013334980758372694 0.015559458639472723 0.039468074217438698 0.012323007744271308 0.039233495015650988 0.026729718549177051 0.013336630479898304 0.012835728150093928
leaf_count=8 6 2 9 4 6 5 7 9
internal_value=0 -0.0154561 -0.00474904 -0.0165229 0.0237648 0.0024905 -0.0492189 -0.0661784
internal_weight=0 0.133588 0.120253 0.104693 0.0868823 0.0661978 0.0384954 0.0261724
internal_count=56 42 36 34 14 14 20 16
is_linear=0
shrinkage=0.1


Tree=52
num_leaves=9
num_cat=0
split_feature=98 204 1 62 204 12 24 202
split_gain=0.00787656 0.00784692 0.0146419 0.0057379 0.0105963 0.00488426 0.00328999 0.00216524
threshold=199.31908798200004 0.50990196078431382 280.02554130500005 -69.409708499999994 1.0240963855421688 1.0000000180025095e-35 -185.50017547549996 0.95407196969696983
decision_type=2 2 2 2 2 2 2 2
left_child=1 -1 3 4 -3 -5 -7 -2
right_child=7 2 -4 5 -6 6 -8 -9
leaf_value=0.049398327925354597 -0.029741633547566544 -0.011316375398809309 -0.073657411840055254 0.027637105439068034 0.081864997055747624 -0.0048252055893961135 -0.060378518303523455 -0.088326433085829117
leaf_weight=0.0369668984785676 0.025798467802815139 0.022914653061889112 0.02394809084944427 0.026934987166896462 0.02610859158448875 0.027713938150554895 0.017324401065707207 0.0083506931259762496
leaf_count=6 8 6 6 4 5 3 9 9
internal_value=0 0.00827257 -0.00221621 0.0119237 0.0383098 -0.00604866 -0.0261943 -0.0440677
internal_weight=0 0.181912 0.144945 0.120997 0.0490232 0.0719733 0.0450383 0.0341492
internal_count=56 39 33 27 11 16 12 17
is_linear=0
shrinkage=0.1


Tree=53
num_leaves=10
num_cat=0
split_feature=86 17 203 203 203 97 44 202 6
split_gain=0.0572051 0.051778 0.00741315 0.00623786 0.00455532 0.00439239 0.00314437 0.00274238 0.00111891
threshold=-236.62407255149995 423.2427635195001 1.323809523809524 1.1184873949579834 0.42093611638203671 746.98834824550011 1.0000000180025095e-35 0.92130987292277633 -292.74755096449991
decision_type=2 2 2 2 2 2 2 2 2
left_child=-1 2 3 4 -2 6 -6 -4 -8
right_child=1 -3 7 -5 5 -7 8 -9 -10
leaf_value=-0.11208058128024388 0.03242944722125967 0.15283080355938675 -0.019671116098583238 0.057763863868530878 0.034132711326474573 -0.049616190347774133 0.001706787576943834 -0.078285738263256743 -0.033730622662235178
leaf_weight=0.038283445115666837 0.035132290096953511 0.026046106591820717 0.025998175726272166 0.024909477098844945 0.021173030952923 0.021332707721740007 0.019539461238309741 0.011518568178871647 0.016378230415284634
leaf_count=6 5 1 9 6 6 4 4 8 7
internal_value=0 0.0212388 0.00176258 0.012446 0.00250509 -0.0109005 0.00356616 -0.0376673 -0.0144524
internal_weight=0 0.202028 0.175982 0.138465 0.113556 0.0784234 0.0570907 0.0375167 0.0359177
internal_count=56 50 49 32 26 21 17 17 11
is_linear=0
shrinkage=0.1


Tree=54
num_leaves=9
num_cat=0
split_feature=14 93 200 95 9 205 56 9
split_gain=0.00680372 0.00557213 0.00828641 0.010212 0.00297256 0.00212551 0.00225209 0.00171908
threshold=-514.42595672649998 41.053375244500003 0.59714795008912669 -1.0000000180025095e-35 184.71232986400003 0.42338022165387895 -165.91007161199997 -38.087086677499997
decision_type=2 2 2 2 2 2 2 2
left_child=4 2 -2 7 -1 -3 -7 -4
right_child=1 5 3 -5 -6 6 -8 -9
leaf_value=0.050136388461870997 -0.052679395432914548 -0.013174699679923119 0.0040559855070284789 0.069448034226250163 0.0047802941407382726 -0.041084341870444033 -0.10876044906898204 -0.031137070010029362
leaf_weight=0.030764220282435417 0.024354714259970933 0.010848088597413152 0.040885899914428592 0.02357562561519444 0.027247845195233822 0.012416436686180532 0.0081412825384177268 0.021013229037635028
leaf_count=7 7 4 6 5 4 8 8 7
internal_value=0 -0.0118431 -0.00122161 0.0134405 0.028833 -0.0489875 -0.0678855 -0.00789119
internal_weight=0 0.141235 0.109829 0.0854748 0.0580121 0.0314058 0.0205577 0.0618991
internal_count=56 45 25 18 11 20 16 13
is_linear=0
shrinkage=0.1


Tree=55
num_leaves=8
num_cat=0
split_feature=98 5 200 200 19 39 202
split_gain=0.00615415 0.00427162 0.00508987 0.00709513 0.00214606 0.00154555 0.00153327
threshold=199.31908798200004 404.08985900800013 0.59714795008912669 1.0151515151515154 149.76485884200005 -1.0000000180025095e-35 0.95407196969696983
decision_type=2 2 2 2 2 2 2
left_child=1 2 -1 -4 5 -5 -2
right_child=6 -3 3 4 -6 -7 -8
leaf_value=-0.037574616072057782 -0.028927322238034986 0.032408643803363647 0.065299021785817465 -0.064487110241716009 0.0063401739766751966 -0.0069825264301760816 -0.0819699165021016
leaf_weight=0.030863044434227049 0.022784643690101802 0.048906579148024321 0.018108788237441331 0.0088398683583363891 0.043805223423987627 0.0099176117219030857 0.0071628901205258435
leaf_count=9 8 9 5 6 6 4 9
internal_value=0 0.00776759 -0.00303723 0.010176 -0.0057794 -0.0340828 -0.0416141
internal_weight=0 0.160441 0.111535 0.0806715 0.0625627 0.0187575 0.0299475
internal_count=56 39 30 21 16 10 17
is_linear=0
shrinkage=0.1


Tree=56
num_leaves=11
num_cat=0
split_feature=92 204 62 204 51 93 4 16 204 52
split_gain=0.00573775 0.00379184 0.0080449 0.00675595 0.0059836 0.00420501 0.00320625 0.0014669 0.00139971 0.00123943
threshold=-134.65610742549998 0.50990196078431382 -69.409708499999994 1.0240963855421688 7.5278663635000038 -325.62541198699995 182.51544570950003 31.760582924000005 1.7375565610859731 -1.0000000180025095e-35
decision_type=2 2 2 2 2 2 2 2 2 2
left_child=6 -2 3 -3 -4 -6 8 -7 9 -1
right_child=1 2 4 -5 5 7 -8 -9 -10 -11
leaf_value=-0.12307220538139829 0.043494333764057924 -0.0081752174664231469 0.0053057208428665499 0.073966499625027091 -0.11502955925703061 -0.0095692318243124977 -0.0064013221571878505 -0.061958107596974267 -0.027835521536343784 -0.057617050030607936
leaf_weight=0.0047560742386849588 0.026610646513290703 0.017961572390049696 0.045776872895658016 0.022625985438935459 0.0078405090607702732 0.013720911927521229 0.021481942385435104 0.0087549915770068765 0.0072945946594700209 0.0073846742161549636
leaf_count=4 6 4 9 6 2 4 4 6 4 7
internal_value=0 0.00943102 0.00166242 0.0376156 -0.0175147 -0.0519729 -0.0330272 -0.0299762 -0.062457 -0.0832588
internal_weight=0 0.143291 0.116681 0.0405876 0.0760933 0.0303164 0.0409173 0.0224759 0.0194353 0.0121407
internal_count=56 37 31 10 21 12 19 10 15 11
is_linear=0
shrinkage=0.1


Tree=57
num_leaves=9
num_cat=0
split_feature=68 1 92 202 203 205 202 81
split_gain=0.00640892 0.00338091 0.00759256 0.00360475 0.00587316 0.00251311 0.00206376 0.00136419
threshold=58.51140773249999 1.0000000180025095e-35 223.40782785450003 0.98484848484848497 0.42093611638203671 0.42338022165387895 0.68912337662337675 -53.886268615499993
decision_type=2 2 2 2 2 2 2 2
left_child=1 2 -1 -3 -5 -2 -7 -8
right_child=5 3 -4 4 -6 6 7 -9
leaf_value=0.090636195010427176 -0.0035687541381775947 -0.0433444274830646 0.0085982332250090152 -0.02826698293752369 0.040674384327677893 -0.10231484540795768 -0.074277396594443296 -0.019626114588663847
leaf_weight=0.014851811225526035 0.018548674997873604 0.017351444694213569 0.046925197704695165 0.022515735239721835 0.027387808077037334 0.0061360026011243454 0.0066117823589593163 0.014772227470530197
leaf_count=6 6 7 9 4 6 4 7 7
internal_value=0 0.0114315 0.028321 -0.00408235 0.00956907 -0.032018 -0.051193 -0.0365239
internal_weight=0 0.129032 0.061777 0.067255 0.0499035 0.0460687 0.02752 0.021384
internal_count=56 32 15 17 10 24 18 14
is_linear=0
shrinkage=0.1


Tree=58
num_leaves=9
num_cat=0
split_feature=92 204 74 62 12 24 9 51
split_gain=0.00628448 0.00307093 0.00591588 0.00540617 0.00241907 0.00267921 0.00175369 0.00109703
threshold=-134.65610742549998 0.50990196078431382 214.62698459600003 -69.409708499999994 1.0000000180025095e-35 -185.50017547549996 -174.72539138749997 -73.512353896999983
decision_type=2 2 2 2 2 2 2 2
left_child=6 -2 3 -3 -5 -6 -1 -8
right_child=1 2 -4 4 5 -7 7 -9
leaf_value=-0.019998885537188184 0.042677029508979586 0.047983746225364735 -0.056659030433305106 0.018493235832693106 -0.00014031501571208353 -0.056173994522498098 -0.04239191479024329 -0.10100865707403602
leaf_weight=0.023500070790760219 0.023880703607574105 0.029110125033184886 0.014381868531927466 0.027400492574088275 0.023165124002844095 0.013509517477359623 0.0081609933404251933 0.0052447178604779774
leaf_count=6 6 7 6 6 3 9 6 7
internal_value=0 0.0102375 0.00303569 0.0122487 -0.0039861 -0.020781 -0.036463 -0.0653245
internal_weight=0 0.131448 0.107567 0.0931853 0.0640751 0.0366746 0.0369058 0.0134057
internal_count=56 37 31 25 18 12 19 13
is_linear=0
shrinkage=0.1


Tree=59
num_leaves=9
num_cat=0
split_feature=203 200 48 204 39 21 202 27
split_gain=0.00567885 0.00508774 0.00490347 0.0116426 0.00483312 0.00365935 0.00218762 0.00011646
threshold=1.323809523809524 0.55681818181818199 1.0000000180025095e-35 0.34662650602409645 863.7992229460001 -509.87885665949995 0.92130987292277633 1.0000000180025095e-35
decision_type=2 2 2 2 2 2 2 2
left_child=1 -1 5 -4 -5 -3 -2 -8
right_child=6 2 3 4 -6 -7 7 -9
leaf_value=0.045499711165428058 -0.020043564070308301 -0.0018973818415165241 0.063199622713259518 -0.027689740894830263 -0.1067726816810672 0.050058496189533445 -0.069180420696517336 -0.09161929580550153
leaf_weight=0.029530806466937065 0.019976960844360292 0.035915622254833579 0.010989338625222445 0.022243522922508419 0.011842135572806001 0.021774864522740245 0.0065154681797139347 0.0035860383068211377
leaf_count=7 9 9 2 9 4 6 3 7
internal_value=0 0.00891713 -0.00159529 -0.0263075 -0.055165 0.017713 -0.0392208 -0.0771462
internal_weight=0 0.132296 0.102765 0.045075 0.0340857 0.0576905 0.0300785 0.0101015
internal_count=56 37 30 15 13 15 19 10
is_linear=0
shrinkage=0.1


Tree=60
num_leaves=9
num_cat=0
split_feature=63 204 93 31 51 38 74 205
split_gain=0.00551845 0.00419605 0.00406653 0.00371593 0.00328465 0.00170715 0.00168135 0.000681123
threshold=-204.53141403199996 1.0240963855421688 1.0000000180025095e-35 148.53762435900003 7.5278663635000038 -40.179900645999993 -62.0519714355 0.42338022165387895
decision_type=2 2 2 2 2 2 2 2
left_child=1 3 4 -1 5 -2 7 -4
right_child=2 -3 6 -5 -6 -7 -8 -9
leaf_value=0.030206962398246981 -0.0069604160678142478 0.051493212282797407 -0.018280478240335889 -0.025822599148279821 -0.040713814038716177 0.034763342623672838 -0.10387016329975277 -0.05581389105080109
leaf_weight=0.023397566052153707 0.021094756259117275 0.026604907820001245 0.0088248223764821887 0.023956101096700877 0.016492349095642567 0.018325069802813232 0.004993668175302445 0.010693818840081804
leaf_count=5 5 6 4 7 9 5 6 9
internal_value=0 0.0197155 -0.0181305 0.00186175 -0.00324176 0.0124357 -0.0520913 -0.0388442
internal_weight=0 0.0739586 0.0804245 0.0473537 0.0559122 0.0394198 0.0245123 0.0195186
internal_count=56 18 38 12 19 10 19 13
is_linear=0
shrinkage=0.1


Tree=61
num_leaves=9
num_cat=0
split_feature=68 204 62 204 51 31 9 52
split_gain=0.00512179 0.00314858 0.00534733 0.0054086 0.00499578 0.00223091 0.00151434 0.00104905
threshold=58.51140773249999 0.50990196078431382 -69.409708499999994 1.0240963855421688 32.489730835500019 -245.38888931249997 -174.72539138749997 34.588600158500022
decision_type=2 2 2 2 2 2 2 2
left_child=1 -1 3 -3 -4 -2 -7 -8
right_child=5 2 4 -5 -6 6 7 -9
leaf_value=0.046858658212414958 0.0063105647625805771 -0.0054106048705901003 0.0037433444579800463 0.07277827421348175 -0.061502645609997145 -0.02270607646161495 -0.10852142031437102 -0.050289707945063045
leaf_weight=0.0200885736849159 0.011427040444687009 0.017823879141360521 0.037921345443464816 0.017565916874445975 0.016994566190987825 0.013912763446569443 0.0045817612117389226 0.0095254516054410487
leaf_count=5 3 6 8 6 7 5 7 9
internal_value=0 0.0110517 0.00308642 0.0333989 -0.016448 -0.0309287 -0.0461155 -0.0692023
internal_weight=0 0.110394 0.0903057 0.0353898 0.0549159 0.039447 0.02802 0.0141072
internal_count=56 32 27 12 15 24 21 16
is_linear=0
shrinkage=0.1


Tree=62
num_leaves=10
num_cat=0
split_feature=68 85 205 1 34 202 81 54 38
split_gain=0.00603309 0.00317455 0.00410287 0.00423174 0.00313619 0.00250791 0.00185448 0.00087122 0.000107825
threshold=58.51140773249999 -1.0000000180025095e-35 1.3979591836734697 1.0000000180025095e-35 324.98709011050005 0.68912337662337675 129.76555871950004 -161.27025890349998 163.04775619500003
decision_type=2 2 2 2 2 2 2 2 2
left_child=1 2 4 -4 -1 -2 7 8 -7
right_child=5 -3 3 -5 -6 6 -8 -9 -10
leaf_value=-0.055190864903912888 -0.084100505356739061 0.043605563697757067 0.065712201916122301 0.0013372310613886315 0.0050780150346722286 -0.068541691409830213 -0.0011807130501754819 -0.028336356153417643 -0.09748489092184566
leaf_weight=0.016320606519002467 0.0078886855626478791 0.024845467298291624 0.015073475427925587 0.031657431914936751 0.018332510138861835 0.0026578032993711531 0.01871796976774931 0.0069722729967907071 0.0024958466674434021
leaf_count=7 5 9 3 9 4 4 6 3 6
internal_value=0 0.0123185 0.00276699 0.022102 -0.0233069 -0.0337852 -0.0209165 -0.0513814 -0.0825585
internal_weight=0 0.106229 0.081384 0.0467309 0.0346531 0.0387326 0.0308439 0.0121259 0.00515365
internal_count=56 32 23 12 11 24 19 13 10
is_linear=0
shrinkage=0.1


Tree=63
num_leaves=9
num_cat=0
split_feature=203 19 90 91 201 40 61 95
split_gain=0.0044847 0.00408273 0.00309401 0.00268342 0.0017115 0.00171032 0.000556601 0.000293921
threshold=1.323809523809524 1.0000000180025095e-35 -69.468536376999992 -155.14238738999998 1.8750000000000002 64.787768364000016 -30.622394561999972 -309.13534927399991
decision_type=2 2 2 2 2 2 2 2
left_child=1 2 4 7 -1 6 -2 -3
right_child=5 3 -4 -5 -6 -7 -8 -9
leaf_value=-0.0051910751243288179 -0.04327384912917269 0.010791174852085425 0.065157150287894816 -0.053394318274847398 0.032690752368687695 -0.0081279095639923138 -0.082715933934086661 -0.0071222409671134364
leaf_weight=0.02466979157179594 0.0083745278534479439 0.015948935179039836 0.015021441853605211 0.012260150862857699 0.023088792804628611 0.011150062899105251 0.006246624674531632 0.021516654232982546
leaf_count=6 8 3 7 9 5 5 6 7
internal_value=0 0.00861929 0.0255731 -0.0127854 0.0131228 -0.037628 -0.0601248 0.000503421
internal_weight=0 0.112506 0.06278 0.0497257 0.0477586 0.0257712 0.0146212 0.0374656
internal_count=56 37 18 19 11 19 14 10
is_linear=0
shrinkage=0.1


Tree=64
num_leaves=9
num_cat=0
split_feature=63 93 204 204 18 74 200 205
split_gain=0.00370433 0.0040846 0.00368645 0.00481025 0.00165954 0.00164233 0.00102591 0.000563743
threshold=-204.53141403199996 1.0000000180025095e-35 1.0240963855421688 0.50990196078431382 -1.0000000180025095e-35 -62.0519714355 1.1547619047619049 0.42338022165387895
decision_type=2 2 2 2 2 2 2 2
left_child=2 4 3 -1 6 7 -2 -3
right_child=1 5 -4 -5 -6 -7 -8 -9
leaf_value=0.042677809375478423 -0.032912374563749638 -0.017352733003118924 0.050197455597960253 -0.026984383854948085 0.032151671727051051 -0.10436015690801843 0.0019226358929270435 -0.054093605379055755
leaf_weight=0.016135132871568203 0.013090575375827029 0.0076132658286951474 0.022336007561534643 0.025701307284180075 0.012176356744021177 0.0046983973588794461 0.023870533565059304 0.0092505425272975117
leaf_count=4 8 4 6 8 6 6 5 9
internal_value=0 -0.0157892 0.0173951 -0.000117644 0.00013315 -0.0520741 -0.0104149 -0.0375067
internal_weight=0 0.0706997 0.0641724 0.0418364 0.0491375 0.0215622 0.0369611 0.0168638
internal_count=56 38 18 12 19 19 13 13
is_linear=0
shrinkage=0.1


Tree=65
num_leaves=9
num_cat=0
split_feature=203 204 41 35 56 202 31 38
split_gain=0.00377822 0.00386042 0.00386113 0.00306129 0.00193058 0.00145803 0.00118675 0.000120728
threshold=1.323809523809524 0.50990196078431382 68.167160987500026 109.44207286850001 182.34432911900004 0.92130987292277633 1.0000000180025095e-35 -276.39656829799998
decision_type=2 2 2 2 2 2 2 2
left_child=1 -1 3 6 -4 -2 -3 -7
right_child=5 2 4 -5 -6 7 -8 -9
leaf_value=0.050317111531697059 -0.018280504300629101 0.021562073302407198 -0.054929805904535479 0.049327232411912503 -0.0058991120326152401 -0.060381395001351715 -0.015110038370508781 -0.085381591197512471
leaf_weight=0.018026836158242077 0.016212802613154054 0.014446318906266242 0.01454221666790545 0.018092864658683538 0.017934793024323881 0.0048704601358622313 0.022675921500194818 0.0032012048031901941
leaf_count=6 9 5 7 5 6 2 8 8
internal_value=0 0.0081706 -0.000493442 0.0155995 -0.0278536 -0.0355695 -0.000838889 -0.0702964
internal_weight=0 0.105719 0.0876921 0.0552151 0.032477 0.0242845 0.0371222 0.00807166
internal_count=56 37 31 18 13 19 13 10
is_linear=0
shrinkage=0.1


Tree=66
num_leaves=9
num_cat=0
split_feature=83 200 93 62 204 62 13 203
split_gain=0.0035967 0.00486958 0.00494342 0.00480395 0.00324964 0.0011004 0.00104189 0.000421068
threshold=-369.93432617249999 0.59714795008912669 1.0000000180025095e-35 33.405328750500011 1.0240963855421688 374.71000170700006 49.227956771500004 1.4820512820512823
decision_type=2 2 2 2 2 2 2 2
left_child=4 -2 3 -3 -1 -5 -4 -8
right_child=1 2 6 5 -6 -7 7 -9
leaf_value=-0.0014606153973132129 -0.092458833863546613 0.060098555813988833 -0.082185611738366471 -0.030627818384703371 0.051020181952902824 0.0060374874702423175 -0.012567693381600978 -0.045510305515155086
leaf_weight=0.026900584576651454 0.0070599443570245049 0.014679393265396357 0.0056161656684707842 0.01339289202587679 0.021016785642132163 0.021051558898761868 0.0065231508342549196 0.0095758415700402111
leaf_count=8 6 4 8 7 6 5 4 8
internal_value=0 -0.0132606 -0.00536759 0.012196 0.0215577 -0.00821893 -0.0450998 -0.0321623
internal_weight=0 0.0778989 0.070839 0.0491238 0.0479174 0.0344445 0.0217152 0.016099
internal_count=56 42 36 16 14 12 20 12
is_linear=0
shrinkage=0.1


Tree=67
num_leaves=10
num_cat=0
split_feature=92 62 1 9 19 9 204 93 7
split_gain=0.00414955 0.00174653 0.00287176 0.00386589 0.00235515 0.00118292 0.00102032 0.000679835 0.00055873
threshold=-134.65610742549998 1.0000000180025095e-35 1.0000000180025095e-35 184.71232986400003 149.76485884200005 -174.72539138749997 0.50990196078431382 287.60212707500006 1.0000000180025095e-35
decision_type=2 2 2 2 2 2 2 2 2
left_child=5 2 3 -2 8 -1 -4 -7 -3
right_child=1 4 6 -5 -6 7 -8 -9 -10
leaf_value=-0.019195794879206654 0.075085937929835311 -0.021105280415280106 0.01953475409652608 0.0065420679783498963 0.013753946012285391 -0.093247926051815311 -0.019821277535119523 -0.03924653062065725 -0.061467657282601278
leaf_weight=0.017380401026457548 0.016068078810349107 0.0072748397360555828 0.011079074116423726 0.016864536912180483 0.019746142555959523 0.0041836188174784184 0.016248324594926089 0.005265304702334106 0.0064886258041951805
leaf_count=6 7 4 3 4 5 9 8 4 6
internal_value=0 0.00992208 0.0200992 0.0399852 -0.00837941 -0.0346781 -0.00386556 -0.0631563 -0.0401337
internal_weight=0 0.0937696 0.06026 0.0329326 0.0335096 0.0268293 0.0273274 0.00944892 0.0137635
internal_count=56 37 22 11 15 19 11 13 10
is_linear=0
shrinkage=0.1


Tree=68
num_leaves=10
num_cat=0
split_feature=92 62 1 9 19 9 204 93 1
split_gain=0.00355535 0.00153991 0.0023444 0.00351726 0.00191323 0.00102759 0.000759592 0.000577621 0.000472746
threshold=-134.65610742549998 1.0000000180025095e-35 1.0000000180025095e-35 184.71232986400003 149.76485884200005 -174.72539138749997 0.50990196078431382 287.60212707500006 -111.940551758
decision_type=2 2 2 2 2 2 2 2 2
left_child=5 2 3 -2 8 -1 -4 -7 -3
right_child=1 4 6 -5 -6 7 -8 -9 -10
leaf_value=-0.018241946373689272 0.072672989191282497 -0.057861067875036698 0.017583348884329074 0.0059556664167698357 0.011951077561577329 -0.089479695847964891 -0.016710021980480192 -0.038076355803373353 -0.019780859634721506
leaf_weight=0.016946609015576541 0.014942649519070983 0.00615582664613612 0.0108722192235291 0.016769974608905613 0.019082292448729277 0.0038346700748661533 0.01591163466218859 0.0050847353995777667 0.0069303510244935751
leaf_count=6 7 6 3 4 5 9 8 4 4
internal_value=0 0.00932965 0.0189941 0.0373922 -0.00824463 -0.0327021 -0.00278951 -0.0601759 -0.037694
internal_weight=0 0.0906649 0.0584965 0.0317126 0.0321685 0.025866 0.0267839 0.00891941 0.0130862
internal_count=56 37 22 11 15 19 11 13 10
is_linear=0
shrinkage=0.1


Tree=69
num_leaves=10
num_cat=0
split_feature=203 200 22 41 22 45 202 10 2
split_gain=0.00320508 0.00387479 0.00253676 0.00273491 0.00268796 0.00250604 0.00153935 0.000756485 0.000107433
threshold=1.323809523809524 0.55681818181818199 1.0000000180025095e-35 -93.9013834 1021.9398422245001 45.650825500499998 0.92130987292277633 -96.953819274999987 1.0000000180025095e-35
decision_type=2 2 2 2 2 2 2 2 2
left_child=1 -1 3 -3 5 -4 -2 -7 -8
right_child=6 2 4 -5 -6 7 8 -9 -10
leaf_value=0.046997818457805068 -0.016063148529071522 -0.0076264901922880116 -0.083594674255809964 0.060196721143133819 0.015579505339525478 0.0043693272575607558 -0.083504845985062151 -0.032366594570479877 -0.058275284100128721
leaf_weight=0.020000288437586278 0.014055858016945422 0.012804531026631594 0.0075875046313740304 0.011099043418653309 0.017274382989853621 0.0094612137181684375 0.0042084682791028163 0.013755200896412134 0.0028179165892652236
leaf_count=7 9 4 5 6 4 3 3 8 7
internal_value=0 0.00806052 -0.00275828 0.0238656 -0.0159951 -0.0337017 -0.0351682 -0.0173959 -0.0733866
internal_weight=0 0.0919822 0.0719819 0.0239036 0.0480783 0.0308039 0.0210822 0.0232164 0.00702638
internal_count=56 37 30 10 20 16 19 11 10
is_linear=0
shrinkage=0.1


Tree=70
num_leaves=9
num_cat=0
split_feature=83 200 93 19 204 205 19 56
split_gain=0.00275882 0.00465594 0.00389847 0.00448504 0.00280342 0.00114719 0.00067376 0.000596876
threshold=-369.93432617249999 0.59714795008912669 1.0000000180025095e-35 1.0000000180025095e-35 1.0240963855421688 0.42338022165387895 241.15077972400002 -165.91007161199997
decision_type=2 2 2 2 2 2 2 2
left_child=4 -2 3 -3 -1 -4 -5 -7
right_child=1 2 5 6 -6 7 -8 -9
leaf_value=-0.0027132767861091978 -0.094749092090559414 0.069560927812085546 -0.0064547213376391598 -0.022306632663673543 0.049670222866478736 -0.03761528012993029 0.006926311138148027 -0.081067855466737504
leaf_weight=0.023260326124727726 0.0062423445924650869 0.010449792694998905 0.0060990186466369769 0.014037602406460792 0.018218294251710176 0.0063468899461440725 0.017986278748139739 0.006298121021245608
leaf_count=8 6 5 4 7 6 7 4 9
internal_value=0 -0.0124784 -0.00408932 0.0126748 0.0202947 -0.0420765 -0.00588789 -0.0592578
internal_weight=0 0.06746 0.0612177 0.0424737 0.0414786 0.018744 0.0320239 0.012645
internal_count=56 42 36 16 14 20 11 16
is_linear=0
shrinkage=0.1


Tree=71
num_leaves=10
num_cat=0
split_feature=92 204 62 204 51 4 4 12 204
split_gain=0.00275639 0.00161017 0.00366536 0.00333805 0.00290569 0.0019815 0.00103695 0.000865656 0.000646051
threshold=-134.65610742549998 0.50990196078431382 -69.409708499999994 1.0240963855421688 32.489730835500019 -100.85860443149998 182.51544570950003 1.0000000180025095e-35 1.2763157894736843
decision_type=2 2 2 2 2 2 2 2 2
left_child=6 -2 3 -3 7 -6 8 -4 -1
right_child=1 2 4 -5 5 -7 -8 -9 -10
leaf_value=-0.075484611612882044 0.039534006689355146 -0.0046800575194051782 0.02355225748617211 0.072806498431156774 -0.01735922954086724 -0.088345004673721084 -0.011077816974015721 -0.01129361057931625 -0.025842739736394511
leaf_weight=0.005873193615116179 0.014039347239304334 0.010740436380729079 0.013247311930172145 0.011525498703122139 0.0089894046832341701 0.006990081019466742 0.012842505471780896 0.015436717541888356 0.0047353449917864054
leaf_count=9 6 4 4 6 4 7 4 6 6
internal_value=0 0.00874382 0.00228517 0.0354292 -0.014238 -0.0484113 -0.0301896 0.00479946 -0.0533259
internal_weight=0 0.0809688 0.0669295 0.0222659 0.0446635 0.0159795 0.023451 0.028684 0.0106085
internal_count=56 37 31 10 21 11 19 10 15
is_linear=0
shrinkage=0.1


Tree=72
num_leaves=9
num_cat=0
split_feature=203 200 22 202 65 41 202 2
split_gain=0.00303248 0.00291301 0.00219751 0.00230767 0.00255167 0.00213395 0.00140605 4.57909e-05
threshold=1.323809523809524 0.55681818181818199 1.0000000180025095e-35 1.4290598290598293 167.25408935550004 -93.9013834 0.92130987292277633 1.0000000180025095e-35
decision_type=2 2 2 2 2 2 2 2
left_child=1 -1 5 4 -4 -3 -2 -8
right_child=6 2 3 -5 -6 -7 7 -9
leaf_value=0.044128497982653198 -0.016742681839654171 -0.0050432407996382472 -0.095033163744151536 0.0055516071943380024 -0.015466142786315902 0.058564079628053815 -0.081681017020251101 -0.064413255829490937
leaf_weight=0.017811187426559627 0.012606009375303984 0.01129164663143456 0.0059969390567857763 0.024103673757053912 0.012291495455428958 0.0098975171567872167 0.0037018281291238955 0.0026244591499562375
leaf_count=7 9 4 6 7 7 6 3 7
internal_value=0 0.00838502 -0.00162789 -0.0147715 -0.0415569 0.0246679 -0.0360483 -0.0745175
internal_weight=0 0.0813925 0.0635813 0.0423921 0.0182884 0.0211892 0.0189323 0.00632629
internal_count=56 37 30 20 13 10 19 10
is_linear=0
shrinkage=0.1


Tree=73
num_leaves=10
num_cat=0
split_feature=63 204 15 93 9 205 3 86 204
split_gain=0.00292701 0.00218389 0.00180183 0.00146177 0.00118297 0.00117495 0.00093689 0.000613434 0.00058413
threshold=-204.53141403199996 1.0240963855421688 1096.3368549345003 1.0000000180025095e-35 16.267662048500004 0.42338022165387895 34.526167393000001 119.74158811550001 1.2763157894736843
decision_type=2 2 2 2 2 2 2 2 2
left_child=1 2 -1 4 6 -5 -2 8 -7
right_child=3 -3 -4 5 -6 7 -8 -9 -10
leaf_value=-0.029264153377651942 0.022336604659313617 0.048534176704075609 0.02181825063142737 -0.0050522230859529086 -0.035579527175927265 -0.077087022947298606 -0.015133369963994931 -0.10579042056642085 -0.020348223710513341
leaf_weight=0.011124044278403744 0.014710373478010297 0.015829085139557719 0.01820677041541785 0.0054359755595214674 0.0095789427432464436 0.0035827815881930292 0.012213270703796297 0.0024996364081744105 0.0036762889576493762
leaf_count=5 6 6 7 4 8 6 5 4 5
internal_value=0 0.0185996 0.00244467 -0.0162476 -0.00539859 -0.0423104 0.00533924 -0.0630647 -0.0483522
internal_weight=0 0.0451599 0.0293308 0.0516973 0.0365026 0.0151947 0.0269236 0.00975871 0.00725907
internal_count=56 18 12 38 19 19 11 15 11
is_linear=0
shrinkage=0.1


Tree=74
num_leaves=10
num_cat=0
split_feature=66 4 204 41 90 27 14 200 47
split_gain=0.00252782 0.00162533 0.00161152 0.00363196 0.00273144 0.00117033 0.00264991 0.000624114 0.000477821
threshold=72.204715729 182.51544570950003 0.50990196078431382 68.167160987500026 -69.468536376999992 62.145156860000007 -211.04833221399994 1.5750000000000002 20.791532516500002
decision_type=2 2 2 2 2 2 2 2 2
left_child=2 7 -1 4 -4 6 -5 8 -2
right_child=1 -3 3 5 -6 -7 -8 -9 -10
leaf_value=0.042266866727141708 -0.099402894766500771 -0.0059836312258168649 0.0049475409607395611 -0.0066605093512307999 0.07061111372065787 0.0049552547902656473 -0.087422916281114343 -0.02599085756933725 -0.044935059275672984
leaf_weight=0.012904277245979756 0.0036267217437853105 0.016722700675018132 0.018060661153867841 0.0099339798325672746 0.0097574596875347197 0.0090242135338485241 0.0068738624686375252 0.0042564034229144454 0.002897212776588276
leaf_count=6 8 7 5 5 7 2 7 5 4
internal_value=0 -0.025502 0.0105385 0.00290698 0.0279796 -0.0240934 -0.0396897 -0.0557794 -0.0752143
internal_weight=0 0.027503 0.0665545 0.0536502 0.0278181 0.0258321 0.0168078 0.0107803 0.00652393
internal_count=56 24 32 26 12 14 12 17 12
is_linear=0
shrinkage=0.1


Tree=75
num_leaves=12
num_cat=0
split_feature=68 204 4 19 90 205 27 202 202 1 3
split_gain=0.00249511 0.00175663 0.00263071 0.00319562 0.00301553 0.00107807 0.00069715 0.00067156 0.000513745 0.000260434 0.000370891
threshold=58.51140773249999 0.50990196078431382 1.0000000180025095e-35 149.76485884200005 -69.468536376999992 0.42338022165387895 -62.145156859999993 0.68912337662337675 0.95407196969696983 280.02554130500005 -76.560389995499989
decision_type=2 2 2 2 2 2 2 2 2 2 2
left_child=1 -1 4 6 -3 -2 -4 -7 -9 10 -10
right_child=5 2 3 -5 -6 7 -8 8 9 -11 -12
leaf_value=0.045211369777268265 -0.0015558665617683238 0.001218291754089038 -0.1118206341435222 0.0045747884945088364 0.068786808056898893 -0.088267013013772058 -0.051332358071416277 -0.0034788255586512642 -0.036962744435375734 -0.02968235573725779 -0.097743709511831714
leaf_weight=0.011613851238507777 0.0093111681053414941 0.022296837181784213 0.0029190811910666525 0.015117031522095203 0.0093852157006040215 0.002899667975725607 0.0054868617735337466 0.0036548723001033068 0.0020589318010024735 0.0036435566144064069 0.0019593243559938847
leaf_count=5 6 8 2 3 6 4 8 2 3 2 7
internal_value=0 0.00986116 0.00242429 -0.0229099 0.0212342 -0.028006 -0.0723378 -0.0453298 -0.034328 -0.0490438 -0.0665999
internal_weight=0 0.0668189 0.055205 0.023523 0.0316821 0.0235275 0.00840594 0.0142164 0.0113167 0.00766181 0.00401826
internal_count=56 32 27 13 14 24 10 18 14 12 10
is_linear=0
shrinkage=0.1


Tree=76
num_leaves=9
num_cat=0
split_feature=66 202 45 89 26 4 93 9
split_gain=0.00254808 0.00123752 0.00275791 0.00162055 0.00200954 0.00119475 0.000402827 0.000296175
threshold=72.204715729 1.4290598290598293 1.0000000180025095e-35 101.408493519 405.31394529350001 182.51544570950003 178.01081848150002 102.040561676
decision_type=2 2 2 2 2 2 2 2
left_child=1 2 3 4 -1 6 7 -2
right_child=5 -3 -4 -5 -6 -7 -8 -9
leaf_value=0.064814738204228381 -0.10496020398963116 0.031714633169916601 -0.046307793354809751 -0.011598629191380622 0.0002596513261894722 -0.0097598332829795086 -0.037115014076673072 -0.050888796152166751
leaf_weight=0.009963048214558512 0.0020849555003223941 0.019522578222677112 0.0094562614394817501 0.013494258164428174 0.0093450896674767137 0.015411046973895282 0.0054803467646706849 0.0019703129655681551
leaf_count=6 7 5 8 9 4 7 6 4
internal_value=0 0.0108919 0.00127229 0.0149887 0.0335702 -0.0269742 -0.0547953 -0.0786888
internal_weight=0 0.0617812 0.0422587 0.0328024 0.0193081 0.0249467 0.00953562 0.00405527
internal_count=56 32 27 19 10 24 17 11
is_linear=0
shrinkage=0.1


Tree=77
num_leaves=9
num_cat=0
split_feature=63 204 15 93 51 205 38 204
split_gain=0.0023905 0.00184627 0.00171947 0.0014051 0.00108526 0.000769329 0.00047318 0.000267922
